{"learner":{"attributes":{"best_iteration":"62","best_score":"0.6086367012622456","scikit_learn":"{\"_estimator_type\": \"classifier\"}"},"feature_names":["no_sentence","num_words","character0","character1","character2_3","character4","character5","std_dev","sent_len_diff","count_short_sentences_in_paragraphs","count_long_sentences_in_paragraphs","check_word0","check_word1","check_word2_3","check_word3","check_word4","check_word5","check_num","check_capitals","check_et"],"feature_types":["float","float","float","float","float","float","float","float","float","float","float","float","float","float","float","float","float","float","float","float"],"gradient_booster":{"model":{"gbtree_model_param":{"num_parallel_tree":"1","num_trees":"68"},"iteration_indptr":[0,1,2,3,4,5,6,7,8,9,10,11,12,13,14,15,16,17,18,19,20,21,22,23,24,25,26,27,28,29,30,31,32,33,34,35,36,37,38,39,40,41,42,43,44,45,46,47,48,49,50,51,52,53,54,55,56,57,58,59,60,61,62,63,64,65,66,67,68],"tree_info":[0,0,0,0,0,0,0,0,0,0,0,0,0,0,0,0,0,0,0,0,0,0,0,0,0,0,0,0,0,0,0,0,0,0,0,0,0,0,0,0,0,0,0,0,0,0,0,0,0,0,0,0,0,0,0,0,0,0,0,0,0,0,0,0,0,0,0,0],"trees":[{"base_weights":[-0E0,6.121745E-1,-1.8793012E0,1.5070707E0,-5.408654E-2,-1.620438E0,-1.9460189E0,1.6050633E0,-6.788991E-1,-3.0129516E-1,1.7688442E0,-1.7506493E0,2.6666666E-3,-1.1304347E-2,-1.95352E-2,6.5806454E-1,1.6683191E0,-1.826087E-2,1.4925373E-1,-7.120536E-1,3.4205934E-1,7.5E-3,1.8378378E0,-1.8624999E-2,-1.1304348E0,1.980198E-2,1.724138E-2,-3.0303032E-3,1.6949772E0,-5.3333333E-3,6.3414633E-1,-1.4925373E-1,-1.1010387E0,1.3846154E0,9.257266E-2,1.5213675E0,1.9533074E-2,-2.6086955E-3,-1.4400001E-2,1.1627906E-2,-7.741935E-3,1.9412998E-2,1.5E-2,2.6086955E-3,9.090909E-3,-1.3164557E-2,1.6809604E-3,-1.1703991E-2,1E-2,1.5266271E-2,8.571428E-3,-1.1666666E-2,2.3655912E-3,7.3684207E-3,1.8072288E-2],"categories":[],"categories_nodes":[],"categories_segments":[],"categories_sizes":[],"default_left":[0,0,0,0,0,0,0,0,0,0,0,0,0,0,0,0,0,0,0,0,0,0,0,0,0,0,0,0,0,0,0,0,0,0,0,0,0,0,0,0,0,0,0,0,0,0,0,0,0,0,0,0,0,0,0],"id":0,"left_children":[1,3,5,7,9,11,13,15,17,19,21,23,-1,-1,-1,25,27,-1,29,31,33,-1,35,-1,37,39,-1,-1,41,-1,43,45,47,49,51,53,-1,-1,-1,-1,-1,-1,-1,-1,-1,-1,-1,-1,-1,-1,-1,-1,-1,-1,-1],"loss_changes":[2.2111848E3,8.6447235E2,5.0026855E0,1.3363147E2,3.7546893E2,2.5714813E1,5.834961E-2,3.4394775E1,2.616133E1,1.9408067E2,5.6158447E0,4.571594E0,0E0,0E0,0E0,2.63327E1,2.9667114E1,0E0,5.88215E0,9.7912186E1,7.439157E1,0E0,4.085083E-1,0E0,4.267826E0,2.3815306E1,0E0,0E0,2.3382935E1,0E0,8.148079E-1,6.8469574E1,3.9752167E1,2.8300858E0,4.2386036E1,5.228134E0,0E0,0E0,0E0,0E0,0E0,0E0,0E0,0E0,0E0,0E0,0E0,0E0,0E0,0E0,0E0,0E0,0E0,0E0,0E0],"parents":[2147483647,0,0,1,1,2,2,3,3,4,4,5,5,6,6,7,7,8,8,9,9,10,10,11,11,15,15,16,16,18,18,19,19,20,20,22,22,24,24,25,25,28,28,30,30,31,31,32,32,33,33,34,34,35,35],"right_children":[2,4,6,8,10,12,14,16,18,20,22,24,-1,-1,-1,26,28,-1,30,32,34,-1,36,-1,38,40,-1,-1,42,-1,44,46,48,50,52,54,-1,-1,-1,-1,-1,-1,-1,-1,-1,-1,-1,-1,-1,-1,-1,-1,-1,-1,-1],"split_conditions":[3E0,1.06213875E-2,2E0,2E0,2.1242775E-2,1E1,7.545009E-4,1E0,1.7730496E-3,1E0,2.1459538E-2,1E0,2.6666666E-3,-1.1304347E-2,-1.95352E-2,1E0,1.5895953E-3,-1.826087E-2,1E0,1.25E-2,1.1560693E-2,7.5E-3,2.2760116E-2,-1.8624999E-2,4E0,7.2254334E-3,1.724138E-2,-3.0303032E-3,1E0,-5.3333333E-3,2.8901733E-3,1E0,1.2181439E-2,1.0751003E-2,1E0,1E0,1.9533074E-2,-2.6086955E-3,-1.4400001E-2,1.1627906E-2,-7.741935E-3,1.9412998E-2,1.5E-2,2.6086955E-3,9.090909E-3,-1.3164557E-2,1.6809604E-3,-1.1703991E-2,1E-2,1.5266271E-2,8.571428E-3,-1.1666666E-2,2.3655912E-3,7.3684207E-3,1.8072288E-2],"split_indices":[18,1,17,18,1,18,7,18,0,4,1,6,0,0,0,4,1,0,2,1,1,0,1,0,18,1,0,0,3,0,1,2,8,7,2,4,0,0,0,0,0,0,0,0,0,0,0,0,0,0,0,0,0,0,0],"split_type":[0,0,0,0,0,0,0,0,0,0,0,0,0,0,0,0,0,0,0,0,0,0,0,0,0,0,0,0,0,0,0,0,0,0,0,0,0,0,0,0,0,0,0,0,0,0,0,0,0,0,0,0,0,0,0],"sum_hessian":[1.92E3,1.44875E3,4.7125E2,6.1775E2,8.31E2,1.0175E2,3.695E2,5.915E2,2.625E1,7.325E2,9.85E1,9.525E1,6.5E0,4.75E0,3.6475E2,3.775E1,5.5375E2,1.05E1,1.575E1,4.47E2,2.855E2,7E0,9.15E1,7.9E1,1.625E1,2.425E1,1.35E1,7.25E0,5.465E2,6.5E0,9.25E0,1.8325E2,2.6375E2,5.425E1,2.3125E2,2.825E1,6.325E1,4.75E0,1.15E1,9.75E0,1.45E1,2.375E2,3.09E2,4.75E0,4.5E0,3.85E1,1.4475E2,2.5575E2,8E0,4.125E1,1.3E1,2.3E1,2.0825E2,8.5E0,1.975E1],"tree_param":{"num_deleted":"0","num_feature":"20","num_nodes":"55","size_leaf_vector":"1"}},{"base_weights":[1.5924621E-5,6.061451E-1,-1.8608111E0,1.4921682E0,-5.3482417E-2,-1.6046716E0,-1.9268243E0,1.5892125E0,-6.72572E-1,-2.9828632E-1,1.751822E0,-1.733648E0,2.6435591E-3,-1.121126E-2,-1.934223E-2,6.520554E-1,1.6518114E0,-1.8095521E-2,1.4814259E-1,-7.049795E-1,3.3869392E-1,7.434467E-3,1.8200989E0,-1.8442664E-2,-1.1201558E0,1.9758373E-2,1.7082041E-2,-3.0036788E-3,1.6782125E0,-5.287143E-3,6.289525E-3,-1.4782491E-1,-1.0900719E0,1.3712665E0,9.1607295E-2,1.507113E0,1.9342605E-2,-2.5871492E-3,-1.4268203E-2,1.15228E-2,-7.669618E-3,1.922149E-2,1.4851321E-2,-1.3036797E-2,1.6642684E-3,-5.743943E-3,-1.3860434E-2,1.5118085E-2,8.491982E-3,-1.1555239E-2,2.3420516E-3,7.3025827E-3,1.790167E-2],"categories":[],"categories_nodes":[],"categories_segments":[],"categories_sizes":[],"default_left":[0,0,0,0,0,0,0,0,0,0,0,0,0,0,0,0,0,0,0,0,0,0,0,0,0,0,0,0,0,0,0,0,0,0,0,0,0,0,0,0,0,0,0,0,0,0,0,0,0,0,0,0,0],"id":1,"left_children":[1,3,5,7,9,11,13,15,17,19,21,23,-1,-1,-1,25,27,-1,29,31,33,-1,35,-1,37,39,-1,-1,41,-1,-1,43,45,47,49,51,-1,-1,-1,-1,-1,-1,-1,-1,-1,-1,-1,-1,-1,-1,-1,-1,-1],"loss_changes":[2.167706E3,8.473414E2,4.892456E0,1.3104443E2,3.682114E2,2.5225464E1,4.0039062E-2,3.3679565E1,2.5695076E1,1.9025226E2,5.4967957E0,4.465515E0,0E0,0E0,0E0,2.5842453E1,2.909375E1,0E0,5.7835994E0,9.595764E1,7.2969574E1,0E0,3.8970947E-1,0E0,4.1876907E0,2.3380453E1,0E0,0E0,2.2930298E1,0E0,0E0,6.714134E1,3.961017E1,2.7698212E0,4.157338E1,5.124176E0,0E0,0E0,0E0,0E0,0E0,0E0,0E0,0E0,0E0,0E0,0E0,0E0,0E0,0E0,0E0,0E0,0E0],"parents":[2147483647,0,0,1,1,2,2,3,3,4,4,5,5,6,6,7,7,8,8,9,9,10,10,11,11,15,15,16,16,18,18,19,19,20,20,22,22,24,24,25,25,28,28,31,31,32,32,33,33,34,34,35,35],"right_children":[2,4,6,8,10,12,14,16,18,20,22,24,-1,-1,-1,26,28,-1,30,32,34,-1,36,-1,38,40,-1,-1,42,-1,-1,44,46,48,50,52,-1,-1,-1,-1,-1,-1,-1,-1,-1,-1,-1,-1,-1,-1,-1,-1,-1],"split_conditions":[3E0,1.06213875E-2,2E0,2E0,2.1242775E-2,1E1,7.545009E-4,1E0,1.7730496E-3,1E0,2.1459538E-2,1E0,2.6435591E-3,-1.121126E-2,-1.934223E-2,1E0,1.5895953E-3,-1.8095521E-2,1E0,1.25E-2,1.1560693E-2,7.434467E-3,2.2760116E-2,-1.8442664E-2,4E0,7.2254334E-3,1.7082041E-2,-3.0036788E-3,1E0,-5.287143E-3,6.289525E-3,1E0,2E0,1.0751003E-2,1E0,1E0,1.9342605E-2,-2.5871492E-3,-1.4268203E-2,1.15228E-2,-7.669618E-3,1.922149E-2,1.4851321E-2,-1.3036797E-2,1.6642684E-3,-5.743943E-3,-1.3860434E-2,1.5118085E-2,8.491982E-3,-1.1555239E-2,2.3420516E-3,7.3025827E-3,1.790167E-2],"split_indices":[18,1,17,18,1,18,7,18,0,4,1,6,0,0,0,4,1,0,2,1,1,0,1,0,18,1,0,0,3,0,0,2,10,7,2,4,0,0,0,0,0,0,0,0,0,0,0,0,0,0,0,0,0],"split_type":[0,0,0,0,0,0,0,0,0,0,0,0,0,0,0,0,0,0,0,0,0,0,0,0,0,0,0,0,0,0,0,0,0,0,0,0,0,0,0,0,0,0,0,0,0,0,0,0,0,0,0,0,0],"sum_hessian":[1.919893E3,1.4486853E3,4.7120758E2,6.1770764E2,8.309777E2,1.0174253E2,3.6946503E2,5.914587E2,2.6248978E1,7.3248553E2,9.849214E1,9.524254E1,6.4999886E0,4.7498484E0,3.6471518E2,3.774845E1,5.537102E2,1.04991255E1,1.5749852E1,4.4698926E2,2.8549628E2,6.999902E0,9.149224E1,7.899314E1,1.6249395E1,2.4249454E1,1.3498997E1,7.249983E0,5.464602E2,6.4999537E0,9.249899E0,1.8324823E2,2.6374103E2,5.424736E1,2.3124893E2,2.8248272E1,6.324397E1,4.749992E0,1.1499404E1,9.74967E0,1.44997835E1,2.3747762E2,3.089826E2,3.8498333E1,1.447499E2,9.72467E1,1.6649434E2,4.1247597E1,1.2999762E1,2.2999218E1,2.0824971E2,8.499885E0,1.9748386E1],"tree_param":{"num_deleted":"0","num_feature":"20","num_nodes":"53","size_leaf_vector":"1"}},{"base_weights":[1.9448544E-5,6.002113E-1,-1.8428291E0,1.4776036E0,-5.2908953E-2,-1.1619972E0,-1.8645449E0,1.5737346E0,-6.665474E-1,-2.953426E-1,1.735234E0,-1.6518129E-2,1.0485105E-3,-1.6399825E0,-1.9154755E-2,6.461524E-1,1.635698E0,-1.7934363E-2,1.4672452E-1,-6.980457E-1,3.3537033E-1,7.3696864E-3,1.8028295E0,-1.7339875E0,-8.4461144E-4,1.9714765E-2,1.692649E-2,-2.9773011E-3,1.6618515E0,-5.2414183E-3,6.2329248E-3,-1.4641279E-1,-1.0793461E0,1.3581746E0,9.0652816E-2,1.4931662E0,1.915754E-2,-1.851013E-2,-1.1178551E0,1.1419332E-2,-7.5981864E-3,1.9035392E-2,1.4705737E-2,-1.29113505E-2,1.647742E-3,-1.148057E-2,1.0005041E-2,1.4973017E-2,8.413555E-3,-1.144561E-2,2.3187534E-3,7.237504E-3,1.7735384E-2,-3.8815178E-3,-1.4308602E-2],"categories":[],"categories_nodes":[],"categories_segments":[],"categories_sizes":[],"default_left":[0,0,0,0,0,0,0,0,0,0,0,0,0,0,0,0,0,0,0,0,0,0,0,0,0,0,0,0,0,0,0,0,0,0,0,0,0,0,0,0,0,0,0,0,0,0,0,0,0,0,0,0,0,0,0],"id":2,"left_children":[1,3,5,7,9,11,13,15,17,19,21,-1,-1,23,-1,25,27,-1,29,31,33,-1,35,37,-1,39,-1,-1,41,-1,-1,43,45,47,49,51,-1,-1,53,-1,-1,-1,-1,-1,-1,-1,-1,-1,-1,-1,-1,-1,-1,-1,-1],"loss_changes":[2.1253857E3,8.307013E2,4.8132324E0,1.2855066E2,3.61152E2,1.0874788E1,2.0720215E0,3.298828E1,2.5233196E1,1.8652173E2,5.3833313E0,0E0,0E0,1.3192917E1,0E0,2.536574E1,2.853833E1,0E0,5.6817203E0,9.406476E1,7.15836E1,0E0,3.7295532E-1,4.129822E0,0E0,2.2954638E1,0E0,0E0,2.2504028E1,0E0,0E0,6.5844284E1,3.897885E1,2.7121582E0,4.077835E1,5.0248184E0,0E0,0E0,3.1555977E0,0E0,0E0,0E0,0E0,0E0,0E0,0E0,0E0,0E0,0E0,0E0,0E0,0E0,0E0,0E0,0E0],"parents":[2147483647,0,0,1,1,2,2,3,3,4,4,5,5,6,6,7,7,8,8,9,9,10,10,13,13,15,15,16,16,18,18,19,19,20,20,22,22,23,23,25,25,28,28,31,31,32,32,33,33,34,34,35,35,38,38],"right_children":[2,4,6,8,10,12,14,16,18,20,22,-1,-1,24,-1,26,28,-1,30,32,34,-1,36,38,-1,40,-1,-1,42,-1,-1,44,46,48,50,52,-1,-1,54,-1,-1,-1,-1,-1,-1,-1,-1,-1,-1,-1,-1,-1,-1,-1,-1],"split_conditions":[3E0,1.06213875E-2,3.205642E-4,2E0,2.1242775E-2,4E0,2E0,1E0,1.7730496E-3,1E0,2.1459538E-2,-1.6518129E-2,1.0485105E-3,1E1,-1.9154755E-2,1E0,1.5895953E-3,-1.7934363E-2,1E0,1.25E-2,1.1560693E-2,7.3696864E-3,2.2760116E-2,1E0,-8.4461144E-4,7.2254334E-3,1.692649E-2,-2.9773011E-3,1E0,-5.2414183E-3,6.2329248E-3,1E0,1.2181439E-2,1.0751003E-2,1E0,1E0,1.915754E-2,-1.851013E-2,3E0,1.1419332E-2,-7.5981864E-3,1.9035392E-2,1.4705737E-2,-1.29113505E-2,1.647742E-3,-1.148057E-2,1.0005041E-2,1.4973017E-2,8.413555E-3,-1.144561E-2,2.3187534E-3,7.237504E-3,1.7735384E-2,-3.8815178E-3,-1.4308602E-2],"split_indices":[18,1,8,18,1,9,17,18,0,4,1,0,0,18,0,4,1,0,2,1,1,0,1,6,0,1,0,0,3,0,0,2,8,7,2,4,0,0,9,0,0,0,0,0,0,0,0,0,0,0,0,0,0,0,0],"split_type":[0,0,0,0,0,0,0,0,0,0,0,0,0,0,0,0,0,0,0,0,0,0,0,0,0,0,0,0,0,0,0,0,0,0,0,0,0,0,0,0,0,0,0,0,0,0,0,0,0,0,0,0,0,0,0],"sum_hessian":[1.9195779E3,1.4484958E3,4.7108203E2,6.1758234E2,8.309135E2,1.6246107E1,4.5483594E2,5.9133636E2,2.6245989E1,7.3244464E2,9.846887E1,1.1497012E1,4.7490945E0,9.022372E1,3.646122E2,3.774386E1,5.535925E2,1.04965315E1,1.5749456E1,4.4695938E2,2.854853E2,6.99961E0,9.146926E1,8.4973755E1,5.2499633E0,2.4247833E1,1.3496025E1,7.2499332E0,5.463426E2,6.499817E0,9.2496395E0,1.8324298E2,2.637164E2,5.4239532E1,2.3124574E2,2.8243155E1,6.322611E1,6.972604E1,1.5247712E1,9.748693E0,1.4499139E1,2.3741139E2,3.0893118E2,3.8493393E1,1.4474959E2,2.5571642E2,7.9999676E0,4.124048E1,1.2999054E1,2.2996899E1,2.0824884E2,8.499542E0,1.9743612E1,5.2495675E0,9.998145E0],"tree_param":{"num_deleted":"0","num_feature":"20","num_nodes":"55","size_leaf_vector":"1"}},{"base_weights":[2.7204616E-5,5.943989E-1,-1.825351E0,1.4633728E0,-5.2322764E-2,-1.1515216E0,-1.8468444E0,1.5586156E0,-6.606247E-1,-2.9241475E-1,1.7190633E0,-1.6371077E-2,1.0398399E-3,-1.6245747E0,-1.897255E-2,6.403522E-1,1.6199639E0,-1.7777247E-2,1.453222E-1,-6.9117206E-1,3.3208746E-1,7.3056403E-3,1.786011E0,-1.7177258E0,-8.375144E-4,1.967108E-2,1.6774582E-2,-2.9511657E-3,1.6458786E0,-5.19615E-3,6.1769406E-3,-1.4501683E-1,-1.0687277E0,1.3453306E0,8.97088E-2,1.4795163E0,1.8977655E-2,-1.8335428E-2,-1.1079717E0,1.1317462E-2,-7.527625E-3,1.8854478E-2,1.4563141E-2,-1.2788145E-2,1.6313836E-3,-5.5815093E-3,-1.3618714E-2,1.4830955E-2,8.336126E-3,-1.1337733E-2,2.295691E-3,7.173174E-3,1.7573258E-2,-3.8490163E-3,-1.4181628E-2],"categories":[],"categories_nodes":[],"categories_segments":[],"categories_sizes":[],"default_left":[0,0,0,0,0,0,0,0,0,0,0,0,0,0,0,0,0,0,0,0,0,0,0,0,0,0,0,0,0,0,0,0,0,0,0,0,0,0,0,0,0,0,0,0,0,0,0,0,0,0,0,0,0,0,0],"id":3,"left_children":[1,3,5,7,9,11,13,15,17,19,21,-1,-1,23,-1,25,27,-1,29,31,33,-1,35,37,-1,39,-1,-1,41,-1,-1,43,45,47,49,51,-1,-1,53,-1,-1,-1,-1,-1,-1,-1,-1,-1,-1,-1,-1,-1,-1,-1,-1],"loss_changes":[2.0842605E3,8.144948E2,4.7073975E0,1.2612427E2,3.5426645E2,1.0682184E1,2.0229492E0,3.232007E1,2.4784107E1,1.828584E2,5.275299E0,0E0,0E0,1.2944748E1,0E0,2.490203E1,2.7999634E1,0E0,5.58172E0,9.220563E1,7.0232376E1,0E0,3.581848E-1,4.037689E0,0E0,2.2537643E1,0E0,0E0,2.2102417E1,0E0,0E0,6.457747E1,3.885437E1,2.6569672E0,4.000048E1,4.9297867E0,0E0,0E0,3.0977707E0,0E0,0E0,0E0,0E0,0E0,0E0,0E0,0E0,0E0,0E0,0E0,0E0,0E0,0E0,0E0,0E0],"parents":[2147483647,0,0,1,1,2,2,3,3,4,4,5,5,6,6,7,7,8,8,9,9,10,10,13,13,15,15,16,16,18,18,19,19,20,20,22,22,23,23,25,25,28,28,31,31,32,32,33,33,34,34,35,35,38,38],"right_children":[2,4,6,8,10,12,14,16,18,20,22,-1,-1,24,-1,26,28,-1,30,32,34,-1,36,38,-1,40,-1,-1,42,-1,-1,44,46,48,50,52,-1,-1,54,-1,-1,-1,-1,-1,-1,-1,-1,-1,-1,-1,-1,-1,-1,-1,-1],"split_conditions":[3E0,1.06213875E-2,3.205642E-4,2E0,2.1242775E-2,4E0,2E0,1E0,1.7730496E-3,1E0,2.1459538E-2,-1.6371077E-2,1.0398399E-3,1E1,-1.897255E-2,1E0,1.5895953E-3,-1.7777247E-2,1E0,1.25E-2,1.1560693E-2,7.3056403E-3,2.2760116E-2,1E0,-8.375144E-4,7.2254334E-3,1.6774582E-2,-2.9511657E-3,1E0,-5.19615E-3,6.1769406E-3,1E0,2E0,1.0751003E-2,1E0,1E0,1.8977655E-2,-1.8335428E-2,3E0,1.1317462E-2,-7.527625E-3,1.8854478E-2,1.4563141E-2,-1.2788145E-2,1.6313836E-3,-5.5815093E-3,-1.3618714E-2,1.4830955E-2,8.336126E-3,-1.1337733E-2,2.295691E-3,7.173174E-3,1.7573258E-2,-3.8490163E-3,-1.4181628E-2],"split_indices":[18,1,8,18,1,9,17,18,0,4,1,0,0,18,0,4,1,0,2,1,1,0,1,6,0,1,0,0,3,0,0,2,10,7,2,4,0,0,9,0,0,0,0,0,0,0,0,0,0,0,0,0,0,0,0],"split_type":[0,0,0,0,0,0,0,0,0,0,0,0,0,0,0,0,0,0,0,0,0,0,0,0,0,0,0,0,0,0,0,0,0,0,0,0,0,0,0,0,0,0,0,0,0,0,0,0,0,0,0,0,0,0,0],"sum_hessian":[1.9190602E3,1.4481833E3,4.7087677E2,6.173765E2,8.308068E2,1.6242426E1,4.5463434E2,5.911355E2,2.624106E1,7.323762E2,9.843065E1,1.1493279E1,4.749147E0,9.0191284E1,3.6444305E2,3.773631E1,5.533992E2,1.0492267E1,1.5748794E1,4.46909E2,2.854672E2,6.99913E0,9.143152E1,8.4941315E1,5.249974E0,2.4245169E1,1.3491139E1,7.2498527E0,5.4614935E2,6.4995914E0,9.249203E0,1.8323438E2,2.6367462E2,5.422668E1,2.3124052E2,2.8234745E1,6.3196774E1,6.969616E1,1.5245152E1,9.7470875E0,1.4498081E1,2.3730264E2,3.0884668E2,3.8485283E1,1.447491E2,9.723016E1,1.6644446E2,4.122879E1,1.299789E1,2.2993092E1,2.0824744E2,8.4989805E0,1.9735764E1,5.2494035E0,9.995749E0],"tree_param":{"num_deleted":"0","num_feature":"20","num_nodes":"55","size_leaf_vector":"1"}},{"base_weights":[2.5521176E-5,5.886788E-1,-1.8083403E0,1.4494634E0,-5.17666E-2,-1.1412416E0,-1.8296217E0,1.5438416E0,-6.548005E-1,-2.8954998E-1,1.7032939E0,-1.6227312E-2,1.031242E-3,-1.6095338E0,-1.8795397E-2,6.346519E-1,1.6045948E0,-1.7624019E-2,1.4393556E-1,-6.844335E-1,3.2884496E-1,7.2423206E-3,1.7696258E0,-1.7018657E0,-8.304796E-4,1.9627655E-2,1.6626187E-2,-2.9252707E-3,1.630279E0,-5.1513333E-3,6.1215656E-3,-1.4363694E-1,-1.0583401E0,1.3327268E0,8.877557E-2,1.466153E0,1.8802742E-2,-1.816534E-2,-1.0982455E0,1.1217145E-2,-7.4579134E-3,1.8678539E-2,1.4423431E-2,-1.2667112E-2,1.6151881E-3,-1.1264329E-2,1.0008246E-2,1.4691795E-2,8.259671E-3,-1.1231554E-2,2.2728667E-3,7.109579E-3,1.7415142E-2,-3.8168083E-3,-1.4057053E-2],"categories":[],"categories_nodes":[],"categories_segments":[],"categories_sizes":[],"default_left":[0,0,0,0,0,0,0,0,0,0,0,0,0,0,0,0,0,0,0,0,0,0,0,0,0,0,0,0,0,0,0,0,0,0,0,0,0,0,0,0,0,0,0,0,0,0,0,0,0,0,0,0,0,0,0],"id":4,"left_children":[1,3,5,7,9,11,13,15,17,19,21,-1,-1,23,-1,25,27,-1,29,31,33,-1,35,37,-1,39,-1,-1,41,-1,-1,43,45,47,49,51,-1,-1,53,-1,-1,-1,-1,-1,-1,-1,-1,-1,-1,-1,-1,-1,-1,-1,-1],"loss_changes":[2.0442102E3,7.9875183E2,4.6070557E0,1.23762085E2,3.475654E2,1.0495022E1,1.9775391E0,3.1673462E1,2.4347301E1,1.7928835E2,5.1722717E0,0E0,0E0,1.2705139E1,0E0,2.4450817E1,2.7477661E1,0E0,5.483566E0,9.040468E1,6.891466E1,0E0,3.4521484E-1,3.9503937E0,0E0,2.2129232E1,0E0,0E0,2.1723633E1,0E0,0E0,6.3339962E1,3.823062E1,2.6041336E0,3.923933E1,4.8388443E0,0E0,0E0,3.041727E0,0E0,0E0,0E0,0E0,0E0,0E0,0E0,0E0,0E0,0E0,0E0,0E0,0E0,0E0,0E0,0E0],"parents":[2147483647,0,0,1,1,2,2,3,3,4,4,5,5,6,6,7,7,8,8,9,9,10,10,13,13,15,15,16,16,18,18,19,19,20,20,22,22,23,23,25,25,28,28,31,31,32,32,33,33,34,34,35,35,38,38],"right_children":[2,4,6,8,10,12,14,16,18,20,22,-1,-1,24,-1,26,28,-1,30,32,34,-1,36,38,-1,40,-1,-1,42,-1,-1,44,46,48,50,52,-1,-1,54,-1,-1,-1,-1,-1,-1,-1,-1,-1,-1,-1,-1,-1,-1,-1,-1],"split_conditions":[3E0,1.06213875E-2,3.205642E-4,2E0,2.1242775E-2,4E0,2E0,1E0,1.7730496E-3,1E0,2.1459538E-2,-1.6227312E-2,1.031242E-3,1E1,-1.8795397E-2,1E0,1.5895953E-3,-1.7624019E-2,1E0,1.25E-2,1.1560693E-2,7.2423206E-3,2.2760116E-2,1E0,-8.304796E-4,7.2254334E-3,1.6626187E-2,-2.9252707E-3,1E0,-5.1513333E-3,6.1215656E-3,1E0,1.2181439E-2,1.0751003E-2,1E0,1E0,1.8802742E-2,-1.816534E-2,3E0,1.1217145E-2,-7.4579134E-3,1.8678539E-2,1.4423431E-2,-1.2667112E-2,1.6151881E-3,-1.1264329E-2,1.0008246E-2,1.4691795E-2,8.259671E-3,-1.1231554E-2,2.2728667E-3,7.109579E-3,1.7415142E-2,-3.8168083E-3,-1.4057053E-2],"split_indices":[18,1,8,18,1,9,17,18,0,4,1,0,0,18,0,4,1,0,2,1,1,0,1,6,0,1,0,0,3,0,0,2,8,7,2,4,0,0,9,0,0,0,0,0,0,0,0,0,0,0,0,0,0,0,0],"split_type":[0,0,0,0,0,0,0,0,0,0,0,0,0,0,0,0,0,0,0,0,0,0,0,0,0,0,0,0,0,0,0,0,0,0,0,0,0,0,0,0,0,0,0,0,0,0,0,0,0,0,0,0,0,0,0],"sum_hessian":[1.9183469E3,1.4477535E3,4.7059344E2,6.1709265E2,8.306608E2,1.6237232E1,4.543562E2,5.908584E2,2.623425E1,7.322829E2,9.8377914E1,1.1488035E1,4.7491965E0,9.014638E1,3.6420984E2,3.7725883E1,5.5313257E2,1.0486377E1,1.5747871E1,4.4684064E2,2.8544226E2,6.998466E0,9.137945E1,8.48964E1,5.249983E0,2.4241488E1,1.3484395E1,7.2497406E0,5.458828E2,6.4992795E0,9.248592E0,1.832225E2,2.6361816E2,5.420895E1,2.3123332E2,2.8223135E1,6.315631E1,6.965483E1,1.524157E1,9.744869E0,1.4496619E1,2.3715263E2,3.0873016E2,3.8474087E1,1.4474841E2,2.5561829E2,7.999872E0,4.1212666E1,1.29962845E1,2.2987833E1,2.0824548E2,8.498203E0,1.9724934E1,5.249202E0,9.992369E0],"tree_param":{"num_deleted":"0","num_feature":"20","num_nodes":"55","size_leaf_vector":"1"}},{"base_weights":[3.3211647E-5,5.830732E-1,-1.7917784E0,1.4358635E0,-5.1197268E-2,-1.1311513E0,-1.8128579E0,1.5294003E0,-6.490722E-1,-2.866993E-1,1.6879106E0,-1.6086726E-2,1.0227145E-3,-1.5948464E0,-1.8623095E-2,6.2904847E-1,1.5895772E0,-1.7474536E-2,1.4256428E-1,-6.777504E-1,3.256417E-1,7.179714E-3,1.7536572E0,-1.6863923E0,-8.235012E-4,1.9584313E-2,1.6481178E-2,-2.8996158E-3,1.6150388E0,-5.1069576E-3,6.066786E-3,-1.4227256E-1,-1.0480506E0,1.3203555E0,8.785251E-2,1.4530662E0,1.8632604E-2,-1.799969E-2,-1.0886723E0,1.11183375E-2,-7.3890337E-3,1.8507374E-2,1.4286505E-2,-1.2548179E-2,1.5991577E-3,-5.423465E-3,-1.3385423E-2,1.4555438E-2,8.184172E-3,-1.1127026E-2,2.250273E-3,7.0467046E-3,1.726088E-2,-3.7848928E-3,-1.39347995E-2],"categories":[],"categories_nodes":[],"categories_segments":[],"categories_sizes":[],"default_left":[0,0,0,0,0,0,0,0,0,0,0,0,0,0,0,0,0,0,0,0,0,0,0,0,0,0,0,0,0,0,0,0,0,0,0,0,0,0,0,0,0,0,0,0,0,0,0,0,0,0,0,0,0,0,0],"id":5,"left_children":[1,3,5,7,9,11,13,15,17,19,21,-1,-1,23,-1,25,27,-1,29,31,33,-1,35,37,-1,39,-1,-1,41,-1,-1,43,45,47,49,51,-1,-1,53,-1,-1,-1,-1,-1,-1,-1,-1,-1,-1,-1,-1,-1,-1,-1,-1],"loss_changes":[2.0052369E3,7.834087E2,4.5117188E0,1.21461914E2,3.4102557E2,1.0313076E1,1.9353027E0,3.104834E1,2.3922302E1,1.7578159E2,5.074005E0,0E0,0E0,1.2473618E1,0E0,2.4011625E1,2.6970581E1,0E0,5.3872147E0,8.863475E1,6.762935E1,0E0,3.3392334E-1,3.8677979E0,0E0,2.1729181E1,0E0,0E0,2.1366455E1,0E0,0E0,6.213089E1,3.8136536E1,2.5534973E0,3.849444E1,4.7517853E0,0E0,0E0,2.9873924E0,0E0,0E0,0E0,0E0,0E0,0E0,0E0,0E0,0E0,0E0,0E0,0E0,0E0,0E0,0E0,0E0],"parents":[2147483647,0,0,1,1,2,2,3,3,4,4,5,5,6,6,7,7,8,8,9,9,10,10,13,13,15,15,16,16,18,18,19,19,20,20,22,22,23,23,25,25,28,28,31,31,32,32,33,33,34,34,35,35,38,38],"right_children":[2,4,6,8,10,12,14,16,18,20,22,-1,-1,24,-1,26,28,-1,30,32,34,-1,36,38,-1,40,-1,-1,42,-1,-1,44,46,48,50,52,-1,-1,54,-1,-1,-1,-1,-1,-1,-1,-1,-1,-1,-1,-1,-1,-1,-1,-1],"split_conditions":[3E0,1.06213875E-2,3.205642E-4,2E0,2.1242775E-2,4E0,2E0,1E0,1.7730496E-3,1E0,2.1459538E-2,-1.6086726E-2,1.0227145E-3,1E1,-1.8623095E-2,1E0,1.5895953E-3,-1.7474536E-2,1E0,1.25E-2,1.1560693E-2,7.179714E-3,2.2760116E-2,1E0,-8.235012E-4,7.2254334E-3,1.6481178E-2,-2.8996158E-3,1E0,-5.1069576E-3,6.066786E-3,1E0,2E0,1.0751003E-2,1E0,1E0,1.8632604E-2,-1.799969E-2,3E0,1.11183375E-2,-7.3890337E-3,1.8507374E-2,1.4286505E-2,-1.2548179E-2,1.5991577E-3,-5.423465E-3,-1.3385423E-2,1.4555438E-2,8.184172E-3,-1.1127026E-2,2.250273E-3,7.0467046E-3,1.726088E-2,-3.7848928E-3,-1.39347995E-2],"split_indices":[18,1,8,18,1,9,17,18,0,4,1,0,0,18,0,4,1,0,2,1,1,0,1,6,0,1,0,0,3,0,0,2,10,7,2,4,0,0,9,0,0,0,0,0,0,0,0,0,0,0,0,0,0,0,0],"split_type":[0,0,0,0,0,0,0,0,0,0,0,0,0,0,0,0,0,0,0,0,0,0,0,0,0,0,0,0,0,0,0,0,0,0,0,0,0,0,0,0,0,0,0,0,0,0,0,0,0,0,0,0,0,0,0],"sum_hessian":[1.9174421E3,1.4472078E3,4.7023428E2,6.167331E2,8.3047473E2,1.6230564E1,4.5400372E2,5.905075E2,2.6225609E1,7.3216364E2,9.8311104E1,1.1481321E1,4.7492433E0,9.008934E1,3.6391437E2,3.7712666E1,5.527948E2,1.0478911E1,1.5746696E1,4.4675296E2,2.8541064E2,6.997624E0,9.1313484E1,8.4839355E1,5.2499895E0,2.4236822E1,1.3475844E1,7.2495975E0,5.455452E2,6.4988832E0,9.247813E0,1.8320744E2,2.635455E2,5.4186478E1,2.3122417E2,2.8208424E1,6.310506E1,6.960236E1,1.5236993E1,9.742056E0,1.4494767E1,2.3696266E2,3.0858255E2,3.8459904E1,1.4474754E2,9.720049E1,1.6634502E2,4.119223E1,1.2994249E1,2.2981173E1,2.08243E2,8.497217E0,1.9711206E1,5.248964E0,9.988029E0],"tree_param":{"num_deleted":"0","num_feature":"20","num_nodes":"55","size_leaf_vector":"1"}},{"base_weights":[3.1417872E-5,5.7755333E-1,-1.7756478E0,1.3098603E0,-1.4738381E-1,-1.1212445E0,-1.7965348E0,1.3845713E0,-6.434371E-1,-4.6474272E-1,1.5195397E0,-1.5949199E-2,1.0142595E-3,-1.5804988E0,-1.8455451E-2,1.5579273E0,7.0922244E-1,-1.7328667E-2,1.4120793E-1,-8.1930536E-1,1.01859584E-1,6.6903305E-1,1.7380891E0,-1.6712904E0,-8.165831E-4,-6.183361E-3,1.580977E0,-4.2738837E-1,1.078972E0,-5.063024E-3,6.012594E-3,-3.5980266E-1,-1.173112E0,-1.032852E0,2.360791E-1,-1.8506208E-1,1.3035772E0,1.4402468E0,1.8467052E-2,-1.7838296E-2,-1.0792478E0,1.827289E-2,1.37136625E-2,-1.0102409E-2,9.460371E-3,-7.156675E-4,1.1865796E-2,-1.2706939E-2,-5.2253524E-4,-6.497392E-3,-1.3734304E-2,-1.3100753E-2,-5.1859785E-3,4.979468E-3,-2.4812005E-3,9.1701624E-4,-4.6554166E-3,7.6471358E-3,1.4830547E-2,6.9845347E-3,1.7110335E-2,-3.7532654E-3,-1.3814796E-2],"categories":[],"categories_nodes":[],"categories_segments":[],"categories_sizes":[],"default_left":[0,0,0,0,0,0,0,0,0,0,0,0,0,0,0,0,0,0,0,0,0,0,0,0,0,0,0,0,0,0,0,0,0,0,0,0,0,0,0,0,0,0,0,0,0,0,0,0,0,0,0,0,0,0,0,0,0,0,0,0,0,0,0],"id":6,"left_children":[1,3,5,7,9,11,13,15,17,19,21,-1,-1,23,-1,25,27,-1,29,31,33,35,37,39,-1,-1,41,43,45,-1,-1,47,49,51,53,55,57,59,-1,-1,61,-1,-1,-1,-1,-1,-1,-1,-1,-1,-1,-1,-1,-1,-1,-1,-1,-1,-1,-1,-1,-1,-1],"loss_changes":[1.9672593E3,7.6866437E2,4.4208984E0,1.059939E2,3.860049E2,1.0136143E1,1.8962402E0,8.0145996E1,2.350866E1,1.23155106E2,2.0533081E1,0E0,0E0,1.2249771E1,0E0,2.8637451E1,6.080728E1,0E0,5.2926373E0,6.0856567E1,3.629161E1,1.4054442E1,3.2406616E-1,3.7895355E0,0E0,0E0,2.5679443E1,2.9743631E1,1.3534004E1,0E0,0E0,4.6272945E1,2.1387665E1,2.9162502E0,2.7063557E1,9.540194E-1,2.921791E-1,4.6684E0,0E0,0E0,2.9346905E0,0E0,0E0,0E0,0E0,0E0,0E0,0E0,0E0,0E0,0E0,0E0,0E0,0E0,0E0,0E0,0E0,0E0,0E0,0E0,0E0,0E0,0E0],"parents":[2147483647,0,0,1,1,2,2,3,3,4,4,5,5,6,6,7,7,8,8,9,9,10,10,13,13,15,15,16,16,18,18,19,19,20,20,21,21,22,22,23,23,26,26,27,27,28,28,31,31,32,32,33,33,34,34,35,35,36,36,37,37,40,40],"right_children":[2,4,6,8,10,12,14,16,18,20,22,-1,-1,24,-1,26,28,-1,30,32,34,36,38,40,-1,-1,42,44,46,-1,-1,48,50,52,54,56,58,60,-1,-1,62,-1,-1,-1,-1,-1,-1,-1,-1,-1,-1,-1,-1,-1,-1,-1,-1,-1,-1,-1,-1,-1,-1],"split_conditions":[3E0,1.1271676E-2,3.205642E-4,2E0,2.052023E-2,4E0,2E0,1.033237E-2,1.7730496E-3,1E0,2.1459538E-2,-1.5949199E-2,1.0142595E-3,1E1,-1.8455451E-2,1.300578E-3,1E0,-1.7328667E-2,1E0,2E0,1E0,1E0,2.2760116E-2,1E0,-8.165831E-4,-6.183361E-3,1E0,1E0,1E0,-5.063024E-3,6.012594E-3,1E0,1.27890175E-2,9.560453E-3,3E0,2.1276595E-2,1.9503547E-2,1E0,1.8467052E-2,-1.7838296E-2,3E0,1.827289E-2,1.37136625E-2,-1.0102409E-2,9.460371E-3,-7.156675E-4,1.1865796E-2,-1.2706939E-2,-5.2253524E-4,-6.497392E-3,-1.3734304E-2,-1.3100753E-2,-5.1859785E-3,4.979468E-3,-2.4812005E-3,9.1701624E-4,-4.6554166E-3,7.6471358E-3,1.4830547E-2,6.9845347E-3,1.7110335E-2,-3.7532654E-3,-1.3814796E-2],"split_indices":[18,1,8,18,1,9,17,1,0,4,1,0,0,18,0,1,17,0,2,10,2,4,1,6,0,0,3,4,2,0,0,2,1,7,10,0,0,4,0,0,9,0,0,0,0,0,0,0,0,0,0,0,0,0,0,0,0,0,0,0,0,0,0],"split_type":[0,0,0,0,0,0,0,0,0,0,0,0,0,0,0,0,0,0,0,0,0,0,0,0,0,0,0,0,0,0,0,0,0,0,0,0,0,0,0,0,0,0,0,0,0,0,0,0,0,0,0,0,0,0,0,0,0,0,0,0,0,0,0],"sum_hessian":[1.9163534E3,1.4465516E3,4.6980176E2,7.1921655E2,7.273351E2,1.622247E1,4.5357928E2,6.930014E2,2.6215187E1,6.1161365E2,1.1572147E2,1.1473182E1,4.749287E0,9.002057E1,3.6355872E2,5.504094E2,1.4259196E2,1.0469911E1,1.5745276E1,3.7592505E2,2.3568858E2,2.4487436E1,9.123404E1,8.477058E1,5.249995E0,5.4978633E0,5.4491156E2,3.49622E1,1.0762977E2,6.4984064E0,9.24687E0,1.6441272E2,2.1151233E2,2.4221468E1,2.1146712E2,1.0739903E1,1.3747533E1,2.8190699E1,6.304334E1,6.953913E1,1.5231445E1,2.469752E2,2.9793634E2,2.4731228E1,1.023097E1,9.234077E0,9.839569E1,4.0709293E1,1.2370342E2,5.9721428E1,1.5179091E2,1.4732158E1,9.489311E0,1.3722423E2,7.424288E1,5.744531E0,4.9953723E0,4.7492266E0,8.998306E0,8.496029E0,1.969467E1,5.24869E0,9.982756E0],"tree_param":{"num_deleted":"0","num_feature":"20","num_nodes":"63","size_leaf_vector":"1"}},{"base_weights":[1.1140839E-5,5.720885E-1,-1.7599318E0,1.4095639E0,-5.0213702E-2,-1.1115158E0,-1.7806355E0,1.5014809E0,-6.378925E-1,-2.8126314E-1,1.6583351E0,-1.581463E-2,1.0058725E-3,-1.566479E0,-1.8292284E-2,6.122848E-1,1.5609728E0,-1.7186286E-2,1.3986664E-1,-6.65181E-1,3.1976268E-1,7.0680263E-3,1.7229065E0,-1.6565466E0,-8.097234E-4,9.759648E-3,1.6215025E-2,-2.90466E-3,1.5861015E0,-5.019518E-3,5.9589804E-3,-1.3945395E-1,-1.0289183E0,1.3006536E0,8.5452594E-2,1.4276854E0,1.8305905E-2,-1.7681E-2,-1.069968E0,1.0897289E-2,-7.3898993E-3,1.818022E-2,1.4028597E-2,-1.234284E-2,1.5768394E-3,-1.0964329E-2,1.0087334E-2,1.4349084E-2,8.031242E-3,-1.0934154E-2,2.2006636E-3,6.923061E-3,1.6963368E-2,-3.7219243E-3,-1.369697E-2],"categories":[],"categories_nodes":[],"categories_segments":[],"categories_sizes":[],"default_left":[0,0,0,0,0,0,0,0,0,0,0,0,0,0,0,0,0,0,0,0,0,0,0,0,0,0,0,0,0,0,0,0,0,0,0,0,0,0,0,0,0,0,0,0,0,0,0,0,0,0,0,0,0,0,0],"id":7,"left_children":[1,3,5,7,9,11,13,15,17,19,21,-1,-1,23,-1,25,27,-1,29,31,33,-1,35,37,-1,39,-1,-1,41,-1,-1,43,45,47,49,51,-1,-1,53,-1,-1,-1,-1,-1,-1,-1,-1,-1,-1,-1,-1,-1,-1,-1,-1],"loss_changes":[1.9302078E3,7.5410376E2,4.3343506E0,1.17040405E2,3.285161E2,9.964012E0,1.8601074E0,3.028772E1,2.3105955E1,1.6931958E2,4.8733826E0,0E0,0E0,1.2033356E1,0E0,2.3506184E1,2.6185303E1,0E0,5.1997914E0,8.543704E1,6.5699165E1,0E0,3.1573486E-1,3.715332E0,0E0,2.1205082E1,0E0,0E0,2.063977E1,0E0,0E0,6.010848E1,3.7474792E1,2.530754E0,3.70888E1,4.5884705E0,0E0,0E0,2.8835526E0,0E0,0E0,0E0,0E0,0E0,0E0,0E0,0E0,0E0,0E0,0E0,0E0,0E0,0E0,0E0,0E0],"parents":[2147483647,0,0,1,1,2,2,3,3,4,4,5,5,6,6,7,7,8,8,9,9,10,10,13,13,15,15,16,16,18,18,19,19,20,20,22,22,23,23,25,25,28,28,31,31,32,32,33,33,34,34,35,35,38,38],"right_children":[2,4,6,8,10,12,14,16,18,20,22,-1,-1,24,-1,26,28,-1,30,32,34,-1,36,38,-1,40,-1,-1,42,-1,-1,44,46,48,50,52,-1,-1,54,-1,-1,-1,-1,-1,-1,-1,-1,-1,-1,-1,-1,-1,-1,-1,-1],"split_conditions":[3E0,1.06213875E-2,3.205642E-4,2E0,2.1242775E-2,4E0,2E0,1E0,1.7730496E-3,1E0,2.1459538E-2,-1.581463E-2,1.0058725E-3,1E1,-1.8292284E-2,1E0,1.5895953E-3,-1.7186286E-2,1E0,1.25E-2,1.1560693E-2,7.0680263E-3,2.2760116E-2,1E0,-8.097234E-4,7.2254334E-3,1.6215025E-2,-2.90466E-3,1E0,-5.019518E-3,5.9589804E-3,1E0,1.2181439E-2,1.0751003E-2,1E0,1E0,1.8305905E-2,-1.7681E-2,3E0,1.0897289E-2,-7.3898993E-3,1.818022E-2,1.4028597E-2,-1.234284E-2,1.5768394E-3,-1.0964329E-2,1.0087334E-2,1.4349084E-2,8.031242E-3,-1.0934154E-2,2.2006636E-3,6.923061E-3,1.6963368E-2,-3.7219243E-3,-1.369697E-2],"split_indices":[18,1,8,18,1,9,17,18,0,4,1,0,0,18,0,4,1,0,2,1,1,0,1,6,0,1,0,0,3,0,0,2,8,7,2,4,0,0,9,0,0,0,0,0,0,0,0,0,0,0,0,0,0,0,0],"split_type":[0,0,0,0,0,0,0,0,0,0,0,0,0,0,0,0,0,0,0,0,0,0,0,0,0,0,0,0,0,0,0,0,0,0,0,0,0,0,0,0,0,0,0,0,0,0,0,0,0,0,0,0,0,0,0],"sum_hessian":[1.9151263E3,1.4458284E3,4.6929803E2,6.1581635E2,8.30012E2,1.6212984E1,4.5308505E2,5.896133E2,2.620304E1,7.3187494E2,9.813709E1,1.1463656E1,4.749328E0,8.994041E1,3.6314462E2,3.768249E1,5.519308E2,1.045942E1,1.5743618E1,4.4653476E2,2.8534018E2,6.9955683E0,9.1141525E1,8.469041E1,5.249998E0,2.4227694E1,1.3454798E1,7.2493863E0,5.446814E2,6.49785E0,9.245769E0,1.8317151E2,2.6336325E2,5.4140625E1,2.3119955E2,2.8170048E1,6.2971478E1,6.946545E1,1.5224957E1,9.733315E0,1.4494379E1,2.3647041E2,3.0821097E2,3.8427643E1,1.4474387E2,2.5536403E2,7.999202E0,4.1151978E1,1.29886465E1,2.2964796E1,2.0823477E2,8.494642E0,1.9675406E1,5.248381E0,9.976576E0],"tree_param":{"num_deleted":"0","num_feature":"20","num_nodes":"55","size_leaf_vector":"1"}},{"base_weights":[1.8717692E-5,5.667667E-1,-1.7446142E0,1.2861426E0,-1.4473611E-1,-1.1019592E0,-1.7651433E0,1.3595692E0,-6.3243586E-1,-4.5637786E-1,1.4943157E0,-1.5682917E-2,9.975573E-4,-1.5527747E0,-1.8133413E-2,1.5299803E0,6.964022E-1,-1.7047264E-2,1.3853979E-1,-8.0418956E-1,9.918358E-2,6.634806E-1,1.7080951E0,-1.6421474E0,-8.02922E-4,-6.135711E-3,1.55273E0,-4.2501935E-1,1.0612849E0,-4.9764407E-3,5.9059337E-3,-3.4972826E-1,-1.1543015E0,-1.0148329E0,2.3087092E-1,-1.7938328E-1,1.2893771E0,1.4153734E0,1.8149E-2,-1.7527645E-2,-1.0608288E0,1.7956866E-2,1.3461842E-2,-9.977656E-3,9.25921E-3,-7.458849E-4,1.167578E-2,-1.2483741E-2,-4.656214E-4,-1.2183572E-2,3.4246189E-3,-1.2898905E-2,-5.056358E-3,4.899857E-3,-2.4814734E-3,9.282067E-4,-4.557089E-3,7.556263E-3,1.4673379E-2,6.862267E-3,1.6819851E-2,-3.6908656E-3,-1.3581257E-2],"categories":[],"categories_nodes":[],"categories_segments":[],"categories_sizes":[],"default_left":[0,0,0,0,0,0,0,0,0,0,0,0,0,0,0,0,0,0,0,0,0,0,0,0,0,0,0,0,0,0,0,0,0,0,0,0,0,0,0,0,0,0,0,0,0,0,0,0,0,0,0,0,0,0,0,0,0,0,0,0,0,0,0],"id":8,"left_children":[1,3,5,7,9,11,13,15,17,19,21,-1,-1,23,-1,25,27,-1,29,31,33,35,37,39,-1,-1,41,43,45,-1,-1,47,49,51,53,55,57,59,-1,-1,61,-1,-1,-1,-1,-1,-1,-1,-1,-1,-1,-1,-1,-1,-1,-1,-1,-1,-1,-1,-1,-1,-1],"loss_changes":[1.8941729E3,7.402864E2,4.252075E0,1.021637E2,3.7247064E2,9.796511E0,1.826416E0,7.724182E1,2.271376E1,1.1840334E2,1.9561829E1,0E0,0E0,1.1823914E1,0E0,2.7794312E1,5.916564E1,0E0,5.1086454E0,5.9532745E1,3.4951477E1,1.36732235E1,3.086853E-1,3.6449585E0,0E0,0E0,2.4927979E1,2.8732698E1,1.319294E1,0E0,0E0,4.4990532E1,2.0775452E1,2.8776112E0,2.6490883E1,9.2504156E-1,2.9174232E-1,4.511841E0,0E0,0E0,2.8339214E0,0E0,0E0,0E0,0E0,0E0,0E0,0E0,0E0,0E0,0E0,0E0,0E0,0E0,0E0,0E0,0E0,0E0,0E0,0E0,0E0,0E0,0E0],"parents":[2147483647,0,0,1,1,2,2,3,3,4,4,5,5,6,6,7,7,8,8,9,9,10,10,13,13,15,15,16,16,18,18,19,19,20,20,21,21,22,22,23,23,26,26,27,27,28,28,31,31,32,32,33,33,34,34,35,35,36,36,37,37,40,40],"right_children":[2,4,6,8,10,12,14,16,18,20,22,-1,-1,24,-1,26,28,-1,30,32,34,36,38,40,-1,-1,42,44,46,-1,-1,48,50,52,54,56,58,60,-1,-1,62,-1,-1,-1,-1,-1,-1,-1,-1,-1,-1,-1,-1,-1,-1,-1,-1,-1,-1,-1,-1,-1,-1],"split_conditions":[3E0,1.1271676E-2,3.205642E-4,2E0,2.052023E-2,4E0,2E0,1.033237E-2,1.7730496E-3,1E0,2.1459538E-2,-1.5682917E-2,9.975573E-4,1E1,-1.8133413E-2,1.300578E-3,1E0,-1.7047264E-2,1E0,2E0,1E0,1E0,2.2760116E-2,1E0,-8.02922E-4,-6.135711E-3,1E0,1E0,1E0,-4.9764407E-3,5.9059337E-3,1E0,1.7734785E-2,9.560453E-3,3E0,2.1276595E-2,1.9503547E-2,1E0,1.8149E-2,-1.7527645E-2,3E0,1.7956866E-2,1.3461842E-2,-9.977656E-3,9.25921E-3,-7.458849E-4,1.167578E-2,-1.2483741E-2,-4.656214E-4,-1.2183572E-2,3.4246189E-3,-1.2898905E-2,-5.056358E-3,4.899857E-3,-2.4814734E-3,9.282067E-4,-4.557089E-3,7.556263E-3,1.4673379E-2,6.862267E-3,1.6819851E-2,-3.6908656E-3,-1.3581257E-2],"split_indices":[18,1,8,18,1,9,17,1,0,4,1,0,0,18,0,1,17,0,2,10,2,4,1,6,0,0,3,4,2,0,0,2,7,7,10,0,0,4,0,0,9,0,0,0,0,0,0,0,0,0,0,0,0,0,0,0,0,0,0,0,0,0,0],"split_type":[0,0,0,0,0,0,0,0,0,0,0,0,0,0,0,0,0,0,0,0,0,0,0,0,0,0,0,0,0,0,0,0,0,0,0,0,0,0,0,0,0,0,0,0,0,0,0,0,0,0,0,0,0,0,0,0,0,0,0,0,0,0,0],"sum_hessian":[1.9136914E3,1.4449661E3,4.6872537E2,7.181061E2,7.2686E2,1.6202152E1,4.5252322E2,6.919169E2,2.618921E1,6.113435E2,1.1551648E2,1.1452786E1,4.749366E0,8.9849205E1,3.62674E2,5.4942615E2,1.4249072E2,1.0447483E1,1.5741727E1,3.7569223E2,2.3565128E2,2.4480133E1,9.103635E1,8.4599205E1,5.2499995E0,5.4971333E0,5.43929E2,3.4940533E1,1.0755019E2,6.4972157E0,9.244511E0,1.6435321E2,2.11339E2,2.42025E1,2.1144878E2,1.0735953E1,1.3744179E1,2.814656E1,6.2889786E1,6.938165E1,1.5217554E1,2.4639932E2,2.975297E2,2.4721151E1,1.021938E1,9.228675E0,9.832152E1,4.0672848E1,1.2368036E2,2.0284409E2,8.494932E0,1.4718622E1,9.483876E0,1.3720677E2,7.4242E1,5.7428513E0,4.9931016E0,4.748431E0,8.9957485E0,8.493064E0,1.9653496E1,5.2480383E0,9.969516E0],"tree_param":{"num_deleted":"0","num_feature":"20","num_nodes":"63","size_leaf_vector":"1"}},{"base_weights":[4.686598E-6,5.6148857E-1,-1.7296802E0,1.2744641E0,-1.4330974E-1,-1.4918004E0,-1.791065E-2,1.3472626E0,-6.2706494E-1,-4.5198575E-1,1.4814464E0,-1.61388E0,2.6490875E-3,1.5163292E0,6.897722E-1,-1.6911494E-2,1.3722736E-1,-7.9648066E-1,9.813376E-2,6.57684E-1,1.6936411E0,-1.7170928E-2,-1.0432153E0,-6.0838866E-3,1.538903E0,-4.2090756E-1,1.0512029E0,-4.933783E-3,5.853447E-3,-3.4636053E-1,-1.1433692E0,-1.005811E0,2.2858302E-1,-1.7790756E-1,1.278303E0,1.4033027E0,1.799617E-2,-2.1505773E-3,-1.3412864E-2,1.7802838E-2,1.3338251E-2,-9.883602E-3,9.179269E-3,-7.391481E-4,1.1565379E-2,-1.2368828E-2,-4.610047E-4,-6.2968973E-3,-1.3402704E-2,-1.2785062E-2,-5.0114933E-3,4.851568E-3,-2.4569458E-3,9.2029315E-4,-4.519604E-3,7.494708E-3,1.45456E-2,6.8021435E-3,1.667966E-2],"categories":[],"categories_nodes":[],"categories_segments":[],"categories_sizes":[],"default_left":[0,0,0,0,0,0,0,0,0,0,0,0,0,0,0,0,0,0,0,0,0,0,0,0,0,0,0,0,0,0,0,0,0,0,0,0,0,0,0,0,0,0,0,0,0,0,0,0,0,0,0,0,0,0,0,0,0,0,0],"id":9,"left_children":[1,3,5,7,9,11,-1,13,15,17,19,21,-1,23,25,-1,27,29,31,33,35,-1,37,-1,39,41,43,-1,-1,45,47,49,51,53,55,57,-1,-1,-1,-1,-1,-1,-1,-1,-1,-1,-1,-1,-1,-1,-1,-1,-1,-1,-1,-1,-1,-1,-1],"loss_changes":[1.8589877E3,7.263248E2,4.1777344E0,1.00299805E2,3.655729E2,2.2345901E1,0E0,7.590808E1,2.2331705E1,1.1609732E2,1.9231735E1,3.8456573E0,0E0,2.7308716E1,5.802269E1,0E0,5.0191646E0,5.8401077E1,3.430703E1,1.3438851E1,3.0282593E-1,0E0,3.958912E0,0E0,2.4571777E1,2.8204477E1,1.2944984E1,0E0,0E0,4.4150047E1,2.0622223E1,2.8261967E0,2.5970432E1,9.0974104E-1,2.8382492E-1,4.438324E0,0E0,0E0,0E0,0E0,0E0,0E0,0E0,0E0,0E0,0E0,0E0,0E0,0E0,0E0,0E0,0E0,0E0,0E0,0E0,0E0,0E0,0E0,0E0],"parents":[2147483647,0,0,1,1,2,2,3,3,4,4,5,5,7,7,8,8,9,9,10,10,11,11,13,13,14,14,16,16,17,17,18,18,19,19,20,20,22,22,24,24,25,25,26,26,29,29,30,30,31,31,32,32,33,33,34,34,35,35],"right_children":[2,4,6,8,10,12,-1,14,16,18,20,22,-1,24,26,-1,28,30,32,34,36,-1,38,-1,40,42,44,-1,-1,46,48,50,52,54,56,58,-1,-1,-1,-1,-1,-1,-1,-1,-1,-1,-1,-1,-1,-1,-1,-1,-1,-1,-1,-1,-1,-1,-1],"split_conditions":[3E0,1.1271676E-2,2E0,2E0,2.052023E-2,1E1,-1.791065E-2,1.033237E-2,1.7730496E-3,1E0,2.1459538E-2,1E0,2.6490875E-3,1.300578E-3,1E0,-1.6911494E-2,1E0,2E0,1E0,1E0,2.2760116E-2,-1.7170928E-2,4E0,-6.0838866E-3,1E0,1E0,1E0,-4.933783E-3,5.853447E-3,1E0,1.27890175E-2,9.560453E-3,3E0,2.1276595E-2,1.9503547E-2,1E0,1.799617E-2,-2.1505773E-3,-1.3412864E-2,1.7802838E-2,1.3338251E-2,-9.883602E-3,9.179269E-3,-7.391481E-4,1.1565379E-2,-1.2368828E-2,-4.610047E-4,-6.2968973E-3,-1.3402704E-2,-1.2785062E-2,-5.0114933E-3,4.851568E-3,-2.4569458E-3,9.2029315E-4,-4.519604E-3,7.494708E-3,1.45456E-2,6.8021435E-3,1.667966E-2],"split_indices":[18,1,17,18,1,18,0,1,0,4,1,6,0,1,17,0,2,10,2,4,1,0,18,0,3,4,2,0,0,2,1,7,10,0,0,4,0,0,0,0,0,0,0,0,0,0,0,0,0,0,0,0,0,0,0,0,0,0,0],"split_type":[0,0,0,0,0,0,0,0,0,0,0,0,0,0,0,0,0,0,0,0,0,0,0,0,0,0,0,0,0,0,0,0,0,0,0,0,0,0,0,0,0,0,0,0,0,0,0,0,0,0,0,0,0,0,0,0,0,0,0],"sum_hessian":[1.9121335E3,1.4440476E3,4.6808597E2,7.174576E2,7.2659E2,1.0120333E2,3.6688263E2,6.912838E2,2.6173752E1,6.111952E2,1.1539486E2,9.470338E1,6.4999514E0,5.488474E2,1.4243642E2,1.0434141E1,1.5739611E1,3.7556296E2,2.3563222E2,2.447597E1,9.091889E1,7.8497116E1,1.6206259E1,5.49704E0,5.4335034E2,3.493041E1,1.07506004E2,6.4965067E0,9.243104E0,1.6432912E2,2.1123384E2,2.4192184E1,2.1144003E2,1.0735373E1,1.3740597E1,2.8120321E1,6.279857E1,4.7448163E0,1.1461442E1,2.4605618E2,2.9729416E2,2.4716375E1,1.0214033E1,9.228771E0,9.827724E1,4.064962E1,1.236795E2,5.9695953E1,1.5153789E2,1.4710132E1,9.482053E0,1.371967E2,7.424334E1,5.7429085E0,4.992464E0,4.747773E0,8.992825E0,8.4913E0,1.962902E1],"tree_param":{"num_deleted":"0","num_feature":"20","num_nodes":"59","size_leaf_vector":"1"}},{"base_weights":[-4.6195355E-6,5.5629396E-1,-1.7150677E0,1.3721462E0,-4.879595E-2,-1.0791649E0,-1.7354261E0,1.4617804E0,-6.217772E-1,-2.9556644E-1,1.4688555E0,-1.54189095E-2,1.0882152E-3,-1.5265718E0,-1.7828492E-2,5.8522725E-1,1.5205452E0,-1.6778857E-2,1.3592915E-1,-6.51159E-1,2.7228698E-1,6.51967E-1,1.6795317E0,-1.6144425E0,-8.184298E-4,-9.303473E-3,1.5843812E-2,-2.9386969E-3,1.5452621E0,-4.8915423E-3,5.801513E-3,-1.3389365E-1,-1.0194732E0,1.2743624E0,2.2429587E-2,-1.7644484E-1,1.2674161E0,1.3914652E0,1.7847268E-2,-1.7233908E-2,-1.0427763E0,1.0566145E-2,-7.4576926E-3,1.7721342E-2,1.3663333E-2,-1.2045845E-2,1.5623831E-3,-1.0895765E-2,1.0923584E-2,1.4080526E-2,7.8066513E-3,-1.0565947E-2,1.505841E-3,9.1244763E-4,-4.482465E-3,7.4338224E-3,1.4420286E-2,6.74268E-3,1.6542677E-2,-3.6065497E-3,-1.3365858E-2],"categories":[],"categories_nodes":[],"categories_segments":[],"categories_sizes":[],"default_left":[0,0,0,0,0,0,0,0,0,0,0,0,0,0,0,0,0,0,0,0,0,0,0,0,0,0,0,0,0,0,0,0,0,0,0,0,0,0,0,0,0,0,0,0,0,0,0,0,0,0,0,0,0,0,0,0,0,0,0,0,0],"id":10,"left_children":[1,3,5,7,9,11,13,15,17,19,21,-1,-1,23,-1,25,27,-1,29,31,33,35,37,39,-1,41,-1,-1,43,-1,-1,45,47,49,51,53,55,57,-1,-1,59,-1,-1,-1,-1,-1,-1,-1,-1,-1,-1,-1,-1,-1,-1,-1,-1,-1,-1,-1,-1],"loss_changes":[1.8246008E3,7.129283E2,4.190918E0,1.10815674E2,3.1130463E2,9.608793E0,1.7573242E0,2.9439331E1,2.1959415E1,1.445147E2,1.8913269E1,0E0,0E0,1.1374115E1,0E0,2.295548E1,2.5172485E1,0E0,4.9313207E0,8.366228E1,6.906455E1,1.320975E1,2.9812622E-1,3.5209503E0,0E0,2.0575136E1,0E0,0E0,1.9658813E1,0E0,0E0,5.737304E1,3.920346E1,2.5346832E0,3.0843927E1,8.947022E-1,2.7640343E-1,4.3677673E0,0E0,0E0,2.7647018E0,0E0,0E0,0E0,0E0,0E0,0E0,0E0,0E0,0E0,0E0,0E0,0E0,0E0,0E0,0E0,0E0,0E0,0E0,0E0,0E0],"parents":[2147483647,0,0,1,1,2,2,3,3,4,4,5,5,6,6,7,7,8,8,9,9,10,10,13,13,15,15,16,16,18,18,19,19,20,20,21,21,22,22,23,23,25,25,28,28,31,31,32,32,33,33,34,34,35,35,36,36,37,37,40,40],"right_children":[2,4,6,8,10,12,14,16,18,20,22,-1,-1,24,-1,26,28,-1,30,32,34,36,38,40,-1,42,-1,-1,44,-1,-1,46,48,50,52,54,56,58,-1,-1,60,-1,-1,-1,-1,-1,-1,-1,-1,-1,-1,-1,-1,-1,-1,-1,-1,-1,-1,-1,-1],"split_conditions":[3E0,1.06213875E-2,3.205642E-4,2E0,2.052023E-2,4E0,2E0,1E0,1.7730496E-3,1E0,2.1459538E-2,-1.54189095E-2,1.0882152E-3,1E1,-1.7828492E-2,1E0,1.5895953E-3,-1.6778857E-2,1E0,1.25E-2,1.1560693E-2,1E0,2.2760116E-2,1E0,-8.184298E-4,7.2254334E-3,1.5843812E-2,-2.9386969E-3,1E0,-4.8915423E-3,5.801513E-3,1E0,1.2181439E-2,1.0751003E-2,1E0,2.1276595E-2,1.9503547E-2,1E0,1.7847268E-2,-1.7233908E-2,3E0,1.0566145E-2,-7.4576926E-3,1.7721342E-2,1.3663333E-2,-1.2045845E-2,1.5623831E-3,-1.0895765E-2,1.0923584E-2,1.4080526E-2,7.8066513E-3,-1.0565947E-2,1.505841E-3,9.1244763E-4,-4.482465E-3,7.4338224E-3,1.4420286E-2,6.74268E-3,1.6542677E-2,-3.6065497E-3,-1.3365858E-2],"split_indices":[18,1,8,18,1,9,17,18,0,4,1,0,0,18,0,4,1,0,2,1,1,4,1,6,0,1,0,0,3,0,0,2,8,7,2,0,0,4,0,0,9,0,0,0,0,0,0,0,0,0,0,0,0,0,0,0,0,0,0,0,0],"split_type":[0,0,0,0,0,0,0,0,0,0,0,0,0,0,0,0,0,0,0,0,0,0,0,0,0,0,0,0,0,0,0,0,0,0,0,0,0,0,0,0,0,0,0,0,0,0,0,0,0,0,0,0,0,0,0,0,0,0,0,0,0],"sum_hessian":[1.9104048E3,1.4430214E3,4.673834E2,6.139523E2,8.2906915E2,1.6174442E1,4.5120895E2,5.8779553E2,2.6156708E1,7.138089E2,1.1526025E2,1.1426043E1,4.748399E0,8.9636444E1,3.615725E2,3.7618973E1,5.501766E2,1.0419434E1,1.5737274E1,4.3885135E2,2.7495755E2,2.4470703E1,9.078954E1,8.438645E1,5.249994E0,2.4206163E1,1.34128065E1,7.247678E0,5.429289E2,6.4957237E0,9.2415495E0,1.8308617E2,2.5576517E2,5.4056957E1,2.209006E2,1.0734743E1,1.3735959E1,2.8091413E1,6.2698128E1,6.918622E1,1.5200231E1,9.713171E0,1.4492993E1,2.3546606E2,3.0746283E2,3.83626E1,1.4472357E2,2.4801619E2,7.748971E0,4.1080536E1,1.2976419E1,2.2681784E1,1.9821883E2,5.7429624E0,4.991781E0,4.7469864E0,8.988973E0,8.489354E0,1.9602058E1,5.24672E0,9.953511E0],"tree_param":{"num_deleted":"0","num_feature":"20","num_nodes":"61","size_leaf_vector":"1"}},{"base_weights":[8.875979E-6,5.5123746E-1,-1.7008575E0,1.2521025E0,-1.4074719E-1,-1.0701298E0,-1.7210639E0,1.3237008E0,-6.1657023E-1,-4.7234428E-1,1.3223056E0,-1.5295389E-2,1.0792142E-3,-1.5137436E0,-1.7681552E-2,1.4901167E0,6.774642E-1,-1.6649244E-2,1.3464493E-1,-7.932069E-1,5.2395176E-2,5.756945E-1,1.6657541E0,-1.6010009E0,-8.1155397E-4,-6.0364567E-3,1.5124203E0,-4.1864157E-1,1.0342486E0,-4.8497072E-3,5.7501188E-3,-3.5754523E-1,-1.1336381E0,-1.0430464E0,1.8412535E-1,-2.0818922E-1,1.1651686E0,1.3798532E0,1.7702144E-2,-1.7091485E-2,-1.0340348E0,1.7510304E-2,1.3099807E-2,-9.763059E-3,8.985876E-3,-7.6842314E-4,1.1383512E-2,-1.2155244E-2,-6.3058763E-4,-6.2117004E-3,-1.3380184E-2,-1.3048611E-2,-5.5206344E-3,4.2206123E-3,-2.679945E-3,1.6817432E-3,-1.0013087E-2,1.4800235E-2,1.7957278E-3,6.6838604E-3,1.640879E-2,-3.5765239E-3,-1.3255933E-2],"categories":[],"categories_nodes":[],"categories_segments":[],"categories_sizes":[],"default_left":[0,0,0,0,0,0,0,0,0,0,0,0,0,0,0,0,0,0,0,0,0,0,0,0,0,0,0,0,0,0,0,0,0,0,0,0,0,0,0,0,0,0,0,0,0,0,0,0,0,0,0,0,0,0,0,0,0,0,0,0,0,0,0],"id":11,"left_children":[1,3,5,7,9,11,13,15,17,19,21,-1,-1,23,-1,25,27,-1,29,31,33,35,37,39,-1,-1,41,43,45,-1,-1,47,49,51,53,55,57,59,-1,-1,61,-1,-1,-1,-1,-1,-1,-1,-1,-1,-1,-1,-1,-1,-1,-1,-1,-1,-1,-1,-1,-1,-1],"loss_changes":[1.7912129E3,6.9995306E2,4.11792E0,9.673816E1,3.5329333E2,9.452051E0,1.730957E0,7.3282104E1,2.1596525E1,9.994464E1,3.3550125E1,0E0,0E0,1.1184662E1,0E0,2.65271E1,5.6472466E1,0E0,4.8450713E0,5.421393E1,3.2816956E1,2.0541887E1,2.9447937E-1,3.460785E0,0E0,0E0,2.3935669E1,2.7249166E1,1.2625305E1,0E0,0E0,4.1107872E1,2.0773102E1,2.4186382E0,2.1915165E1,6.0501375E0,7.5623856E0,4.3000145E0,0E0,0E0,2.7187042E0,0E0,0E0,0E0,0E0,0E0,0E0,0E0,0E0,0E0,0E0,0E0,0E0,0E0,0E0,0E0,0E0,0E0,0E0,0E0,0E0,0E0,0E0],"parents":[2147483647,0,0,1,1,2,2,3,3,4,4,5,5,6,6,7,7,8,8,9,9,10,10,13,13,15,15,16,16,18,18,19,19,20,20,21,21,22,22,23,23,26,26,27,27,28,28,31,31,32,32,33,33,34,34,35,35,36,36,37,37,40,40],"right_children":[2,4,6,8,10,12,14,16,18,20,22,-1,-1,24,-1,26,28,-1,30,32,34,36,38,40,-1,-1,42,44,46,-1,-1,48,50,52,54,56,58,60,-1,-1,62,-1,-1,-1,-1,-1,-1,-1,-1,-1,-1,-1,-1,-1,-1,-1,-1,-1,-1,-1,-1,-1,-1],"split_conditions":[3E0,1.1271676E-2,3.205642E-4,2E0,2.001445E-2,4E0,2E0,1.033237E-2,1.7730496E-3,1E0,2.1459538E-2,-1.5295389E-2,1.0792142E-3,1E1,-1.7681552E-2,1.300578E-3,1E0,-1.6649244E-2,1E0,2E0,1E0,1E0,2.2760116E-2,1E0,-8.1155397E-4,-6.0364567E-3,1E0,1E0,1E0,-4.8497072E-3,5.7501188E-3,1E0,1.27890175E-2,9.560453E-3,3E0,1E0,4E0,1E0,1.7702144E-2,-1.7091485E-2,3E0,1.7510304E-2,1.3099807E-2,-9.763059E-3,8.985876E-3,-7.6842314E-4,1.1383512E-2,-1.2155244E-2,-6.3058763E-4,-6.2117004E-3,-1.3380184E-2,-1.3048611E-2,-5.5206344E-3,4.2206123E-3,-2.679945E-3,1.6817432E-3,-1.0013087E-2,1.4800235E-2,1.7957278E-3,6.6838604E-3,1.640879E-2,-3.5765239E-3,-1.3255933E-2],"split_indices":[18,1,8,18,1,9,17,1,0,4,1,0,0,18,0,1,17,0,2,10,2,4,1,6,0,0,3,4,2,0,0,2,1,7,10,9,10,4,0,0,9,0,0,0,0,0,0,0,0,0,0,0,0,0,0,0,0,0,0,0,0,0,0],"split_type":[0,0,0,0,0,0,0,0,0,0,0,0,0,0,0,0,0,0,0,0,0,0,0,0,0,0,0,0,0,0,0,0,0,0,0,0,0,0,0,0,0,0,0,0,0,0,0,0,0,0,0,0,0,0,0,0,0,0,0,0,0,0,0],"sum_hessian":[1.9084921E3,1.4418751E3,4.6661697E2,7.1593896E2,7.259361E2,1.6159746E1,4.5045724E2,6.8980084E2,2.613813E1,5.9235706E2,1.3357904E2,1.1411282E1,4.748466E0,8.9514305E1,3.6094293E2,5.475042E2,1.4229659E2,1.0403406E1,1.5734724E1,3.6727048E2,2.2508661E2,4.2930367E1,9.0648674E1,8.426431E1,5.2499976E0,5.496032E0,5.420082E2,3.4901016E1,1.0739557E2,6.4948697E0,9.239854E0,1.6200163E2,2.0526884E2,2.34192E1,2.016674E2,1.8704248E1,2.4226116E1,2.8059917E1,6.2588753E1,6.907402E1,1.5190288E1,2.4526782E2,2.967404E2,2.4701967E1,1.0199047E1,9.222746E0,9.817282E1,4.0596653E1,1.2140498E2,5.967573E1,1.4559311E2,1.4193124E1,9.226078E0,1.3217468E2,6.949272E1,1.3219216E1,5.485032E0,1.7980484E1,6.2456326E0,8.487232E0,1.9572685E1,5.246258E0,9.94403E0],"tree_param":{"num_deleted":"0","num_feature":"20","num_nodes":"63","size_leaf_vector":"1"}},{"base_weights":[-1.7080161E-5,5.461997E-1,-1.6869904E0,1.348435E0,-4.785637E-2,-1.0612465E0,-1.707052E0,1.4366381E0,-6.1144215E-1,-2.900383E-1,1.4444914E0,-1.517436E-2,1.0702872E-3,-1.5011889E0,-1.7538304E-2,5.697237E-1,1.4948419E0,-1.6522562E-2,1.3337451E-1,-6.3927984E-1,2.6742476E-1,6.4085317E-1,1.6522965E0,-1.5878571E0,-8.0473843E-4,-1.8430287E-2,1.5604473E-2,-2.9420124E-3,1.5192817E0,-4.808275E-3,5.6992597E-3,-1.3120757E-1,-1.0013428E0,1.256184E0,2.1173904E-2,-1.7331637E-1,1.2461238E0,1.3684597E0,1.7560659E-2,-1.6952453E-2,-1.0254197E0,1.0362991E-2,-7.4558044E-3,1.7433854E-2,1.3428088E-2,-1.1855288E-2,1.5413032E-3,-1.0708986E-2,1.0905233E-2,1.3890841E-2,7.6641226E-3,-1.0386366E-2,1.4691242E-3,9.076909E-4,-4.416471E-3,7.3038903E-3,1.4181529E-2,6.6256747E-3,1.6277894E-2,-3.5467644E-3,-1.314788E-2],"categories":[],"categories_nodes":[],"categories_segments":[],"categories_sizes":[],"default_left":[0,0,0,0,0,0,0,0,0,0,0,0,0,0,0,0,0,0,0,0,0,0,0,0,0,0,0,0,0,0,0,0,0,0,0,0,0,0,0,0,0,0,0,0,0,0,0,0,0,0,0,0,0,0,0,0,0,0,0,0,0],"id":12,"left_children":[1,3,5,7,9,11,13,15,17,19,21,-1,-1,23,-1,25,27,-1,29,31,33,35,37,39,-1,41,-1,-1,43,-1,-1,45,47,49,51,53,55,57,-1,-1,59,-1,-1,-1,-1,-1,-1,-1,-1,-1,-1,-1,-1,-1,-1,-1,-1,-1,-1,-1,-1],"loss_changes":[1.7585531E3,6.871234E2,4.048218E0,1.06914185E2,3.001338E2,9.299311E0,1.7067871E0,2.8781006E1,2.1242716E1,1.3924095E2,1.8305344E1,0E0,0E0,1.1001099E1,0E0,2.250015E1,2.4482666E1,0E0,4.7603917E0,8.07117E1,6.713658E1,1.2760847E1,2.9180908E-1,3.4035797E0,0E0,2.0089682E1,0E0,0E0,1.9112427E1,0E0,0E0,5.554164E1,3.848291E1,2.5143204E0,2.9717411E1,8.7151515E-1,2.7050018E-1,4.234932E0,0E0,0E0,2.6739922E0,0E0,0E0,0E0,0E0,0E0,0E0,0E0,0E0,0E0,0E0,0E0,0E0,0E0,0E0,0E0,0E0,0E0,0E0,0E0,0E0],"parents":[2147483647,0,0,1,1,2,2,3,3,4,4,5,5,6,6,7,7,8,8,9,9,10,10,13,13,15,15,16,16,18,18,19,19,20,20,21,21,22,22,23,23,25,25,28,28,31,31,32,32,33,33,34,34,35,35,36,36,37,37,40,40],"right_children":[2,4,6,8,10,12,14,16,18,20,22,-1,-1,24,-1,26,28,-1,30,32,34,36,38,40,-1,42,-1,-1,44,-1,-1,46,48,50,52,54,56,58,-1,-1,60,-1,-1,-1,-1,-1,-1,-1,-1,-1,-1,-1,-1,-1,-1,-1,-1,-1,-1,-1,-1],"split_conditions":[3E0,1.06213875E-2,3.205642E-4,2E0,2.052023E-2,4E0,2E0,1E0,1.7730496E-3,1E0,2.1459538E-2,-1.517436E-2,1.0702872E-3,1E1,-1.7538304E-2,1E0,1.5895953E-3,-1.6522562E-2,1E0,1.25E-2,1.1560693E-2,1E0,2.2760116E-2,1E0,-8.0473843E-4,7.2254334E-3,1.5604473E-2,-2.9420124E-3,1E0,-4.808275E-3,5.6992597E-3,1E0,1.2181439E-2,1.0751003E-2,1E0,2.1276595E-2,1.9503547E-2,1E0,1.7560659E-2,-1.6952453E-2,3E0,1.0362991E-2,-7.4558044E-3,1.7433854E-2,1.3428088E-2,-1.1855288E-2,1.5413032E-3,-1.0708986E-2,1.0905233E-2,1.3890841E-2,7.6641226E-3,-1.0386366E-2,1.4691242E-3,9.076909E-4,-4.416471E-3,7.3038903E-3,1.4181529E-2,6.6256747E-3,1.6277894E-2,-3.5467644E-3,-1.314788E-2],"split_indices":[18,1,8,18,1,9,17,18,0,4,1,0,0,18,0,4,1,0,2,1,1,4,1,6,0,1,0,0,3,0,0,2,8,7,2,0,0,4,0,0,9,0,0,0,0,0,0,0,0,0,0,0,0,0,0,0,0,0,0,0,0],"split_type":[0,0,0,0,0,0,0,0,0,0,0,0,0,0,0,0,0,0,0,0,0,0,0,0,0,0,0,0,0,0,0,0,0,0,0,0,0,0,0,0,0,0,0,0,0,0,0,0,0,0,0,0,0,0,0,0,0,0,0,0,0],"sum_hessian":[1.9064562E3,1.4406661E3,4.6578998E2,6.1239514E2,8.2827106E2,1.6143858E1,4.4964612E2,5.862771E2,2.6118061E1,7.133177E2,1.1495332E2,1.13953285E1,4.7485294E0,8.938244E1,3.6026367E2,3.7564384E1,5.487127E2,1.0386093E1,1.5731967E1,4.3847406E2,2.7484363E2,2.445668E1,9.049664E1,8.413244E1,5.2499995E0,2.4186937E1,1.3377445E1,7.2460866E0,5.414666E2,6.493947E0,9.238021E0,1.8301581E2,2.5545827E2,5.3983807E1,2.2085983E2,1.0733009E1,1.372367E1,2.8025913E1,6.247073E1,6.895291E1,1.5179529E1,9.69672E0,1.4490217E1,2.3462999E2,3.0683664E2,3.8309113E1,1.447067E2,2.4770982E2,7.7484417E0,4.1017483E1,1.2966326E1,2.265422E1,1.9820561E2,5.7427964E0,4.9902134E0,4.7447805E0,8.978889E0,8.48494E0,1.9540974E1,5.245765E0,9.9337635E0],"tree_param":{"num_deleted":"0","num_feature":"20","num_nodes":"61","size_leaf_vector":"1"}},{"base_weights":[-3.7430168E-6,5.4130346E-1,-1.6734536E0,1.2305721E0,-1.382661E-1,-1.0525109E0,-1.6933774E0,1.3010216E0,-6.0639083E-1,-4.6395516E-1,1.3013201E0,-1.5055741E-2,1.0614342E-3,-1.4888984E0,-1.7398609E-2,1.4649625E0,6.6548085E-1,-1.639871E-2,1.3211744E-1,-1.3502287E0,-2.7827337E-1,5.6892985E-1,1.639148E0,-1.5750012E0,-7.979772E-4,-5.9891627E-3,1.4870138E0,-4.164213E-1,1.0177499E0,-4.7672424E-3,5.6489236E-3,-1.4714096E0,-7.5625676E-1,-5.977899E-1,1.8011324E-1,-2.0142955E-1,1.1482341E0,1.3572775E0,1.742269E-2,-1.6816694E-2,-1.0169277E0,1.7231992E-2,1.2869608E-2,-9.644972E-3,8.797645E-3,-7.9695246E-4,1.120666E-2,-7.078918E-3,-1.55584775E-2,4.977941E-4,-1.3517929E-2,-5.751729E-4,-9.866862E-3,4.155409E-3,-2.67133E-3,1.7151417E-3,-9.884802E-3,1.4597846E-2,1.7407805E-3,6.5681166E-3,1.6149882E-2,-3.5172706E-3,-1.3041647E-2],"categories":[],"categories_nodes":[],"categories_segments":[],"categories_sizes":[],"default_left":[0,0,0,0,0,0,0,0,0,0,0,0,0,0,0,0,0,0,0,0,0,0,0,0,0,0,0,0,0,0,0,0,0,0,0,0,0,0,0,0,0,0,0,0,0,0,0,0,0,0,0,0,0,0,0,0,0,0,0,0,0,0,0],"id":13,"left_children":[1,3,5,7,9,11,13,15,17,19,21,-1,-1,23,-1,25,27,-1,29,31,33,35,37,39,-1,-1,41,43,45,-1,-1,47,49,51,53,55,57,59,-1,-1,61,-1,-1,-1,-1,-1,-1,-1,-1,-1,-1,-1,-1,-1,-1,-1,-1,-1,-1,-1,-1,-1,-1],"loss_changes":[1.7267737E3,6.748349E2,3.9818115E0,9.3341064E1,3.4107526E2,9.150419E0,1.6845703E0,7.082019E1,2.0897648E1,9.720016E1,3.228134E1,0E0,0E0,1.0823059E1,0E0,2.5782715E1,5.49747E1,0E0,4.677248E0,6.261154E0,7.2091705E1,1.982539E1,2.9005432E-1,3.3492584E0,0E0,0E0,2.3365356E1,2.6328548E1,1.2317406E1,0E0,0E0,4.3160706E0,9.387837E0,6.0842415E1,2.144799E1,5.950877E0,7.397068E0,4.172367E0,0E0,0E0,2.6305103E0,0E0,0E0,0E0,0E0,0E0,0E0,0E0,0E0,0E0,0E0,0E0,0E0,0E0,0E0,0E0,0E0,0E0,0E0,0E0,0E0,0E0,0E0],"parents":[2147483647,0,0,1,1,2,2,3,3,4,4,5,5,6,6,7,7,8,8,9,9,10,10,13,13,15,15,16,16,18,18,19,19,20,20,21,21,22,22,23,23,26,26,27,27,28,28,31,31,32,32,33,33,34,34,35,35,36,36,37,37,40,40],"right_children":[2,4,6,8,10,12,14,16,18,20,22,-1,-1,24,-1,26,28,-1,30,32,34,36,38,40,-1,-1,42,44,46,-1,-1,48,50,52,54,56,58,60,-1,-1,62,-1,-1,-1,-1,-1,-1,-1,-1,-1,-1,-1,-1,-1,-1,-1,-1,-1,-1,-1,-1,-1,-1],"split_conditions":[3E0,1.1271676E-2,3.205642E-4,2E0,2.001445E-2,4E0,2E0,1.033237E-2,1.7730496E-3,1E0,2.1459538E-2,-1.5055741E-2,1.0614342E-3,1E1,-1.7398609E-2,1.300578E-3,1E0,-1.639871E-2,1E0,9.560453E-3,1E0,1E0,2.2760116E-2,1E0,-7.979772E-4,-5.9891627E-3,1E0,1E0,1E0,-4.7672424E-3,5.6489236E-3,4.442381E-3,1.36560695E-2,2E0,3E0,1E0,4E0,1E0,1.742269E-2,-1.6816694E-2,3E0,1.7231992E-2,1.2869608E-2,-9.644972E-3,8.797645E-3,-7.9695246E-4,1.120666E-2,-7.078918E-3,-1.55584775E-2,4.977941E-4,-1.3517929E-2,-5.751729E-4,-9.866862E-3,4.155409E-3,-2.67133E-3,1.7151417E-3,-9.884802E-3,1.4597846E-2,1.7407805E-3,6.5681166E-3,1.6149882E-2,-3.5172706E-3,-1.3041647E-2],"split_indices":[18,1,8,18,1,9,17,1,0,2,1,0,0,18,0,1,17,0,2,7,4,4,1,6,0,0,3,4,2,0,0,7,1,10,10,9,10,4,0,0,9,0,0,0,0,0,0,0,0,0,0,0,0,0,0,0,0,0,0,0,0,0,0],"split_type":[0,0,0,0,0,0,0,0,0,0,0,0,0,0,0,0,0,0,0,0,0,0,0,0,0,0,0,0,0,0,0,0,0,0,0,0,0,0,0,0,0,0,0,0,0,0,0,0,0,0,0,0,0,0,0,0,0,0,0,0,0,0,0],"sum_hessian":[1.9042461E3,1.4393418E3,4.6490427E2,7.14169E2,7.251727E2,1.6126812E1,4.4877747E2,6.880725E2,2.6096544E1,5.919328E2,1.3323996E2,1.13782215E1,4.7485895E0,8.924116E1,3.595363E2,5.4593964E2,1.4213287E2,1.0367535E1,1.5729011E1,1.0144694E2,4.9048587E2,4.2906136E1,9.033382E1,8.399116E1,5.25E0,5.494844E0,5.4044476E2,3.486673E1,1.0726614E2,6.492957E0,9.236053E0,8.303009E1,1.8416845E1,2.8884415E2,2.0164172E2,1.8696201E1,2.4209934E1,2.7989481E1,6.2344337E1,6.882318E1,1.5167979E1,2.443491E2,2.9609567E2,2.4684916E1,1.0181813E1,9.216087E0,9.805006E1,9.202423E0,7.382767E1,8.214813E0,1.0202033E1,1.2137388E2,1.6747026E2,1.3214978E2,6.949194E1,1.3215921E1,5.480281E0,1.7965706E1,6.244228E0,8.48248E0,1.9507E1,5.2452445E0,9.922735E0],"tree_param":{"num_deleted":"0","num_feature":"20","num_nodes":"63","size_leaf_vector":"1"}},{"base_weights":[-2.7181359E-5,5.3642166E-1,-1.6602352E0,1.3256404E0,-4.6935163E-2,-1.0439183E0,-1.6800281E0,1.4124784E0,-6.01414E-1,-2.8463262E-1,1.4211254E0,-1.4939454E-2,1.0526569E-3,-1.4768629E0,-1.7262343E-2,5.546637E-1,1.4701654E0,-1.627759E-2,1.3087387E-1,-6.2777084E-1,2.6283064E-1,6.3000935E-1,1.6262972E0,-1.562423E0,-7.912759E-4,-2.7315158E-2,1.5374742E-2,-2.944719E-3,1.4943479E0,-4.7265994E-3,5.5991053E-3,-1.2722988E-1,-9.8475426E-1,1.2384452E0,2.0169811E-2,-1.7027543E-1,1.2255026E0,1.3463E0,1.72881E-2,-1.6684093E-2,-1.0085557E0,1.0166085E-2,-7.4530523E-3,1.7160265E-2,1.3200964E-2,-1.16473315E-2,1.5309438E-3,-1.05374465E-2,1.0866527E-2,1.3706908E-2,7.5218193E-3,-1.0193076E-2,1.433237E-3,9.0255437E-4,-4.351819E-3,7.176936E-3,1.3951179E-2,6.511167E-3,1.6024662E-2,-3.4880375E-3,-1.2937176E-2],"categories":[],"categories_nodes":[],"categories_segments":[],"categories_sizes":[],"default_left":[0,0,0,0,0,0,0,0,0,0,0,0,0,0,0,0,0,0,0,0,0,0,0,0,0,0,0,0,0,0,0,0,0,0,0,0,0,0,0,0,0,0,0,0,0,0,0,0,0,0,0,0,0,0,0,0,0,0,0,0,0],"id":14,"left_children":[1,3,5,7,9,11,13,15,17,19,21,-1,-1,23,-1,25,27,-1,29,31,33,35,37,39,-1,41,-1,-1,43,-1,-1,45,47,49,51,53,55,57,-1,-1,59,-1,-1,-1,-1,-1,-1,-1,-1,-1,-1,-1,-1,-1,-1,-1,-1,-1,-1,-1,-1],"loss_changes":[1.6956729E3,6.6255817E2,3.9179688E0,1.0319702E2,2.894644E2,9.005238E0,1.6643066E0,2.8159668E1,2.0561031E1,1.3424905E2,1.7738815E1,0E0,0E0,1.0650375E1,0E0,2.2063744E1,2.3826416E1,0E0,4.59561E0,7.832677E1,6.524724E1,1.2331693E1,2.8912354E-1,3.2976532E0,0E0,1.9619036E1,0E0,0E0,1.8624268E1,0E0,0E0,5.367027E1,3.7747665E1,2.4994125E0,2.8541063E1,8.489084E-1,2.6551056E-1,4.1122246E0,0E0,0E0,2.588211E0,0E0,0E0,0E0,0E0,0E0,0E0,0E0,0E0,0E0,0E0,0E0,0E0,0E0,0E0,0E0,0E0,0E0,0E0,0E0,0E0],"parents":[2147483647,0,0,1,1,2,2,3,3,4,4,5,5,6,6,7,7,8,8,9,9,10,10,13,13,15,15,16,16,18,18,19,19,20,20,21,21,22,22,23,23,25,25,28,28,31,31,32,32,33,33,34,34,35,35,36,36,37,37,40,40],"right_children":[2,4,6,8,10,12,14,16,18,20,22,-1,-1,24,-1,26,28,-1,30,32,34,36,38,40,-1,42,-1,-1,44,-1,-1,46,48,50,52,54,56,58,-1,-1,60,-1,-1,-1,-1,-1,-1,-1,-1,-1,-1,-1,-1,-1,-1,-1,-1,-1,-1,-1,-1],"split_conditions":[3E0,1.06213875E-2,3.205642E-4,2E0,2.052023E-2,4E0,2E0,1E0,1.7730496E-3,1E0,2.1459538E-2,-1.4939454E-2,1.0526569E-3,1E1,-1.7262343E-2,1E0,1.5895953E-3,-1.627759E-2,1E0,1.25E-2,1.1560693E-2,1E0,2.2760116E-2,1E0,-7.912759E-4,7.2254334E-3,1.5374742E-2,-2.944719E-3,1E0,-4.7265994E-3,5.5991053E-3,1E0,1.2181439E-2,1.0751003E-2,1E0,2.1276595E-2,1.9503547E-2,1E0,1.72881E-2,-1.6684093E-2,3E0,1.0166085E-2,-7.4530523E-3,1.7160265E-2,1.3200964E-2,-1.16473315E-2,1.5309438E-3,-1.05374465E-2,1.0866527E-2,1.3706908E-2,7.5218193E-3,-1.0193076E-2,1.433237E-3,9.0255437E-4,-4.351819E-3,7.176936E-3,1.3951179E-2,6.511167E-3,1.6024662E-2,-3.4880375E-3,-1.2937176E-2],"split_indices":[18,1,8,18,1,9,17,18,0,4,1,0,0,18,0,4,1,0,2,1,1,4,1,6,0,1,0,0,3,0,0,2,8,7,2,0,0,4,0,0,9,0,0,0,0,0,0,0,0,0,0,0,0,0,0,0,0,0,0,0,0],"split_type":[0,0,0,0,0,0,0,0,0,0,0,0,0,0,0,0,0,0,0,0,0,0,0,0,0,0,0,0,0,0,0,0,0,0,0,0,0,0,0,0,0,0,0,0,0,0,0,0,0,0,0,0,0,0,0,0,0,0,0,0,0],"sum_hessian":[1.9019312E3,1.4379692E3,4.6396188E2,6.1060895E2,8.2736035E2,1.610864E1,4.4785324E2,5.8453534E2,2.6073627E1,7.127614E2,1.1459892E2,1.1359994E1,4.7486467E0,8.9090775E1,3.5876245E2,3.750124E1,5.4703406E2,1.0347771E1,1.5725857E1,4.380527E2,2.747087E2,2.4438381E1,9.0160545E1,8.3840775E1,5.249998E0,2.4164343E1,1.3336897E1,7.244076E0,5.3979E2,6.4919014E0,9.233955E0,1.8292395E2,2.5512874E2,5.390018E1,2.2080853E2,1.07310095E1,1.3707372E1,2.7950695E1,6.2209846E1,6.868511E1,1.5155664E1,9.677625E0,1.4486719E1,2.336711E2,3.061189E2,3.8239918E1,1.4468404E2,2.4738075E2,7.747989E0,4.094565E1,1.2954533E1,2.261876E1,1.9818977E2,5.7425776E0,4.988432E0,4.7419167E0,8.965455E0,8.47986E0,1.9470835E1,5.244695E0,9.910969E0],"tree_param":{"num_deleted":"0","num_feature":"20","num_nodes":"61","size_leaf_vector":"1"}},{"base_weights":[-1.4014913E-5,5.316765E-1,-1.6473241E0,1.209819E0,-1.3583802E-1,-1.0354648E0,-1.6669925E0,1.2791673E0,-5.965098E-1,-4.5574486E-1,1.2811468E0,-1.4825427E-2,1.0439511E-3,-1.465074E0,-1.712938E-2,1.440796E0,6.5380156E-1,-1.6159117E-2,1.2964346E-1,-1.3294234E0,-2.7294582E-1,5.623298E-1,1.6137344E0,-1.550113E0,-7.846297E-4,-5.942016E-3,1.4626118E0,-4.1425213E-1,1.0016805E0,-4.6863467E-3,5.549798E-3,-1.4494679E0,-7.418028E-1,-5.862368E-1,1.7618918E-1,-1.9482103E-1,1.1317831E0,1.3355206E0,1.7156778E-2,-1.6554538E-2,-1.0003004E0,1.6966898E-2,1.2647149E-2,-9.529362E-3,8.614307E-3,-8.2483207E-4,1.1034535E-2,-6.93233E-3,-1.5332593E-2,5.6849775E-4,-1.333091E-2,-5.212053E-4,-9.711085E-3,4.0914253E-3,-2.662409E-3,1.7474475E-3,-9.759364E-3,1.4402037E-2,1.6870638E-3,6.454826E-3,1.5902136E-2,-3.4590634E-3,-1.2834418E-2],"categories":[],"categories_nodes":[],"categories_segments":[],"categories_sizes":[],"default_left":[0,0,0,0,0,0,0,0,0,0,0,0,0,0,0,0,0,0,0,0,0,0,0,0,0,0,0,0,0,0,0,0,0,0,0,0,0,0,0,0,0,0,0,0,0,0,0,0,0,0,0,0,0,0,0,0,0,0,0,0,0,0,0],"id":15,"left_children":[1,3,5,7,9,11,13,15,17,19,21,-1,-1,23,-1,25,27,-1,29,31,33,35,37,39,-1,-1,41,43,45,-1,-1,47,49,51,53,55,57,59,-1,-1,61,-1,-1,-1,-1,-1,-1,-1,-1,-1,-1,-1,-1,-1,-1,-1,-1,-1,-1,-1,-1,-1,-1],"loss_changes":[1.6653962E3,6.508676E2,3.8572998E0,9.009802E1,3.2937134E2,8.8636265E0,1.6453857E0,6.85094E1,2.0232557E1,9.425775E1,3.1092865E1,0E0,0E0,1.0482773E1,0E0,2.50719E1,5.352725E1,0E0,4.515451E0,6.1377716E0,6.922114E1,1.913829E1,2.889862E-1,3.248581E0,0E0,0E0,2.285376E1,2.5441416E1,1.2020691E1,0E0,0E0,4.250946E0,9.234263E0,5.9480392E1,2.0991337E1,5.8537483E0,7.2389755E0,4.054352E0,0E0,0E0,2.5470486E0,0E0,0E0,0E0,0E0,0E0,0E0,0E0,0E0,0E0,0E0,0E0,0E0,0E0,0E0,0E0,0E0,0E0,0E0,0E0,0E0,0E0,0E0],"parents":[2147483647,0,0,1,1,2,2,3,3,4,4,5,5,6,6,7,7,8,8,9,9,10,10,13,13,15,15,16,16,18,18,19,19,20,20,21,21,22,22,23,23,26,26,27,27,28,28,31,31,32,32,33,33,34,34,35,35,36,36,37,37,40,40],"right_children":[2,4,6,8,10,12,14,16,18,20,22,-1,-1,24,-1,26,28,-1,30,32,34,36,38,40,-1,-1,42,44,46,-1,-1,48,50,52,54,56,58,60,-1,-1,62,-1,-1,-1,-1,-1,-1,-1,-1,-1,-1,-1,-1,-1,-1,-1,-1,-1,-1,-1,-1,-1,-1],"split_conditions":[3E0,1.1271676E-2,3.205642E-4,2E0,2.001445E-2,4E0,2E0,1.033237E-2,1.7730496E-3,1E0,2.1459538E-2,-1.4825427E-2,1.0439511E-3,1E1,-1.712938E-2,1.300578E-3,1E0,-1.6159117E-2,1E0,9.560453E-3,1E0,1E0,2.2760116E-2,1E0,-7.846297E-4,-5.942016E-3,1E0,1E0,1E0,-4.6863467E-3,5.549798E-3,4.442381E-3,1.36560695E-2,2E0,3E0,1E0,4E0,1E0,1.7156778E-2,-1.6554538E-2,3E0,1.6966898E-2,1.2647149E-2,-9.529362E-3,8.614307E-3,-8.2483207E-4,1.1034535E-2,-6.93233E-3,-1.5332593E-2,5.6849775E-4,-1.333091E-2,-5.212053E-4,-9.711085E-3,4.0914253E-3,-2.662409E-3,1.7474475E-3,-9.759364E-3,1.4402037E-2,1.6870638E-3,6.454826E-3,1.5902136E-2,-3.4590634E-3,-1.2834418E-2],"split_indices":[18,1,8,18,1,9,17,1,0,2,1,0,0,18,0,1,17,0,2,7,4,4,1,6,0,0,3,4,2,0,0,7,1,10,10,9,10,4,0,0,9,0,0,0,0,0,0,0,0,0,0,0,0,0,0,0,0,0,0,0,0,0,0],"split_type":[0,0,0,0,0,0,0,0,0,0,0,0,0,0,0,0,0,0,0,0,0,0,0,0,0,0,0,0,0,0,0,0,0,0,0,0,0,0,0,0,0,0,0,0,0,0,0,0,0,0,0,0,0,0,0,0,0,0,0,0,0,0,0],"sum_hessian":[1.899443E3,1.4364784E3,4.629646E2,7.121636E2,7.243149E2,1.6089382E1,4.468752E2,6.861142E2,2.6049349E1,5.914614E2,1.3285345E2,1.1340682E1,4.7487006E0,8.893157E1,3.5794366E2,5.441676E2,1.419466E2,1.0326836E1,1.5722514E1,1.01253395E2,4.9020804E2,4.28763E1,8.997715E1,8.368157E1,5.2499957E0,5.4934797E0,5.3867413E2,3.4827824E1,1.0711877E2,6.490782E0,9.231732E0,8.285945E1,1.8393946E1,2.885952E2,2.0161281E2,1.8687325E1,2.4188976E1,2.7909628E1,6.2067524E1,6.853897E1,1.5142606E1,2.4330836E2,2.9536575E2,2.4665356E1,1.016247E1,9.208835E0,9.7909935E1,9.190106E0,7.366934E1,8.209387E0,1.018456E1,1.2133907E2,1.6725615E2,1.3212178E2,6.949103E1,1.3212458E1,5.474866E0,1.7946333E1,6.242644E0,8.477083E0,1.9432545E1,5.244119E0,9.898487E0],"tree_param":{"num_deleted":"0","num_feature":"20","num_nodes":"63","size_leaf_vector":"1"}},{"base_weights":[-3.7195383E-5,5.2694297E-1,-1.6347096E0,1.3037024E0,-4.6036877E-2,-1.0271462E0,-1.6542596E0,1.3892367E0,-5.916765E-1,-2.7935427E-1,1.398691E0,-1.4713587E-2,1.0353174E-3,-1.4535229E0,-1.6999604E-2,5.400237E-1,1.4464477E0,-1.6043207E-2,1.2842597E-1,-6.1654675E-1,2.5833786E-1,6.1942345E-1,1.6014493E0,-1.5380619E0,-7.7803887E-4,-3.5968453E-2,1.5154022E-2,-2.9468574E-3,1.4703912E0,-4.646476E-3,5.500992E-3,-1.23354144E-1,-9.686E-1,1.2212017E0,1.9195454E-2,-1.6731976E-1,1.2055156E0,1.3249333E0,1.7028606E-2,-1.6427921E-2,-9.9215883E-1,9.975063E-3,-7.4494756E-3,1.68996E-2,1.2981467E-2,-1.1445542E-2,1.5205246E-3,-1.0370447E-2,1.0827312E-2,1.352846E-2,7.382773E-3,-1.00053055E-2,1.3981578E-3,1.3150381E-3,-3.8894205E-3,7.052838E-3,1.3728747E-2,6.399076E-3,1.5782215E-2,-3.4303463E-3,-1.2733321E-2],"categories":[],"categories_nodes":[],"categories_segments":[],"categories_sizes":[],"default_left":[0,0,0,0,0,0,0,0,0,0,0,0,0,0,0,0,0,0,0,0,0,0,0,0,0,0,0,0,0,0,0,0,0,0,0,0,0,0,0,0,0,0,0,0,0,0,0,0,0,0,0,0,0,0,0,0,0,0,0,0,0],"id":16,"left_children":[1,3,5,7,9,11,13,15,17,19,21,-1,-1,23,-1,25,27,-1,29,31,33,35,37,39,-1,41,-1,-1,43,-1,-1,45,47,49,51,53,55,57,-1,-1,59,-1,-1,-1,-1,-1,-1,-1,-1,-1,-1,-1,-1,-1,-1,-1,-1,-1,-1,-1,-1],"loss_changes":[1.635751E3,6.3915125E2,3.7993164E0,9.965173E1,2.7926868E2,8.725468E0,1.628418E0,2.75719E1,1.9911963E1,1.294546E2,1.720996E1,0E0,0E0,1.0320023E1,0E0,2.1644913E1,2.320166E1,0E0,4.43674E0,7.603081E1,6.3426605E1,1.1921139E1,2.8956604E-1,3.20195E0,0E0,1.9162428E1,0E0,0E0,1.8187622E1,0E0,0E0,5.1871952E1,3.7032288E1,2.4855118E0,2.741503E1,8.278955E-1,2.6132774E-1,3.998661E0,0E0,0E0,2.506978E0,0E0,0E0,0E0,0E0,0E0,0E0,0E0,0E0,0E0,0E0,0E0,0E0,0E0,0E0,0E0,0E0,0E0,0E0,0E0,0E0],"parents":[2147483647,0,0,1,1,2,2,3,3,4,4,5,5,6,6,7,7,8,8,9,9,10,10,13,13,15,15,16,16,18,18,19,19,20,20,21,21,22,22,23,23,25,25,28,28,31,31,32,32,33,33,34,34,35,35,36,36,37,37,40,40],"right_children":[2,4,6,8,10,12,14,16,18,20,22,-1,-1,24,-1,26,28,-1,30,32,34,36,38,40,-1,42,-1,-1,44,-1,-1,46,48,50,52,54,56,58,-1,-1,60,-1,-1,-1,-1,-1,-1,-1,-1,-1,-1,-1,-1,-1,-1,-1,-1,-1,-1,-1,-1],"split_conditions":[3E0,1.06213875E-2,3.205642E-4,2E0,2.052023E-2,4E0,2E0,1E0,1.7730496E-3,1E0,2.1459538E-2,-1.4713587E-2,1.0353174E-3,1E1,-1.6999604E-2,1E0,1.5895953E-3,-1.6043207E-2,1E0,1.25E-2,1.1560693E-2,1E0,2.2760116E-2,1E0,-7.7803887E-4,7.2254334E-3,1.5154022E-2,-2.9468574E-3,1E0,-4.646476E-3,5.500992E-3,1E0,1.2181439E-2,1.0751003E-2,1E0,4.4878987E-3,1.9503547E-2,1E0,1.7028606E-2,-1.6427921E-2,3E0,9.975063E-3,-7.4494756E-3,1.68996E-2,1.2981467E-2,-1.1445542E-2,1.5205246E-3,-1.0370447E-2,1.0827312E-2,1.352846E-2,7.382773E-3,-1.00053055E-2,1.3981578E-3,1.3150381E-3,-3.8894205E-3,7.052838E-3,1.3728747E-2,6.399076E-3,1.5782215E-2,-3.4303463E-3,-1.2733321E-2],"split_indices":[18,1,8,18,1,9,17,18,0,4,1,0,0,18,0,4,1,0,2,1,1,4,1,6,0,1,0,0,3,0,0,2,8,7,2,8,0,4,0,0,9,0,0,0,0,0,0,0,0,0,0,0,0,0,0,0,0,0,0,0,0],"split_type":[0,0,0,0,0,0,0,0,0,0,0,0,0,0,0,0,0,0,0,0,0,0,0,0,0,0,0,0,0,0,0,0,0,0,0,0,0,0,0,0,0,0,0,0,0,0,0,0,0,0,0,0,0,0,0,0,0,0,0,0,0],"sum_hessian":[1.8968567E3,1.4349425E3,4.6191428E2,6.086083E2,8.263342E2,1.6069069E1,4.458452E2,5.825845E2,2.6023752E1,7.121342E2,1.142E2,1.1320318E1,4.7487516E0,8.876384E1,3.5708136E2,3.7430058E1,5.451544E2,1.0304767E1,1.57189865E1,4.3757782E2,2.745564E2,2.4416023E1,8.978397E1,8.351385E1,5.2499905E0,2.413858E1,1.3291477E1,7.2416644E0,5.379128E2,6.4896007E0,9.229386E0,1.8281792E2,2.547599E2,5.380672E1,2.2074966E2,1.0728754E1,1.3687269E1,2.7866356E1,6.191762E1,6.8385025E1,1.5128826E1,9.65605E0,1.448253E1,2.3259732E2,3.0531546E2,3.8161236E1,1.446567E2,2.4701253E2,7.747375E0,4.0865498E1,1.2941223E1,2.2578213E1,1.9817145E2,4.741799E0,5.986955E0,4.738428E0,8.94884E0,8.474154E0,1.93922E1,5.243516E0,9.88531E0],"tree_param":{"num_deleted":"0","num_feature":"20","num_nodes":"61","size_leaf_vector":"1"}},{"base_weights":[-2.3750521E-5,5.223408E-1,-1.6223813E0,1.1897942E0,-1.3346681E-1,-1.0189588E0,-1.6418189E0,1.2580858E0,-5.8691204E-1,-4.4772157E-1,1.2617354E0,-1.4603866E-2,1.0267567E-3,-1.4422022E0,-1.6872905E-2,1.4175525E0,6.4241207E-1,-1.5929773E-2,1.2722127E-1,-1.3092922E0,-2.6773143E-1,5.558996E-1,1.5894327E0,-1.5262612E0,-7.715032E-4,-5.8950246E-3,1.4391481E0,-4.1213137E-1,9.860195E-1,-4.6069818E-3,5.4526804E-3,-1.4282755E0,-7.277198E-1,-5.7494926E-1,1.723506E-1,-1.8831308E-1,1.1157917E0,1.3145319E0,1.6903477E-2,-1.6304143E-2,-9.841284E-1,1.6714113E-2,1.2431962E-2,-9.416137E-3,8.4356135E-3,-8.52086E-4,1.0866904E-2,-6.789217E-3,-1.5114773E-2,6.37267E-4,-1.3149732E-2,-4.6864324E-4,-9.559178E-3,4.0286244E-3,-2.6531958E-3,1.7801382E-3,-9.638509E-3,1.4212456E-2,1.6345427E-3,6.3439077E-3,1.5664814E-2,-3.401881E-3,-1.26338415E-2],"categories":[],"categories_nodes":[],"categories_segments":[],"categories_sizes":[],"default_left":[0,0,0,0,0,0,0,0,0,0,0,0,0,0,0,0,0,0,0,0,0,0,0,0,0,0,0,0,0,0,0,0,0,0,0,0,0,0,0,0,0,0,0,0,0,0,0,0,0,0,0,0,0,0,0,0,0,0,0,0,0,0,0],"id":17,"left_children":[1,3,5,7,9,11,13,15,17,19,21,-1,-1,23,-1,25,27,-1,29,31,33,35,37,39,-1,-1,41,43,45,-1,-1,47,49,51,53,55,57,59,-1,-1,61,-1,-1,-1,-1,-1,-1,-1,-1,-1,-1,-1,-1,-1,-1,-1,-1,-1,-1,-1,-1,-1,-1],"loss_changes":[1.6068801E3,6.2798016E2,3.7438965E0,8.699957E1,3.1815915E2,8.590635E0,1.612793E0,6.633655E1,1.9598969E1,9.144341E1,2.997725E1,0E0,0E0,1.0162003E1,0E0,2.4392578E1,5.2127686E1,0E0,4.3594494E0,6.0211334E0,6.646948E1,1.8478E1,2.9086304E-1,3.1575775E0,0E0,0E0,2.2394531E1,2.4586277E1,1.1734566E1,0E0,0E0,4.1901855E0,9.085839E0,5.8161797E1,2.0544895E1,5.7621503E0,7.087631E0,3.945034E0,0E0,0E0,2.4679594E0,0E0,0E0,0E0,0E0,0E0,0E0,0E0,0E0,0E0,0E0,0E0,0E0,0E0,0E0,0E0,0E0,0E0,0E0,0E0,0E0,0E0,0E0],"parents":[2147483647,0,0,1,1,2,2,3,3,4,4,5,5,6,6,7,7,8,8,9,9,10,10,13,13,15,15,16,16,18,18,19,19,20,20,21,21,22,22,23,23,26,26,27,27,28,28,31,31,32,32,33,33,34,34,35,35,36,36,37,37,40,40],"right_children":[2,4,6,8,10,12,14,16,18,20,22,-1,-1,24,-1,26,28,-1,30,32,34,36,38,40,-1,-1,42,44,46,-1,-1,48,50,52,54,56,58,60,-1,-1,62,-1,-1,-1,-1,-1,-1,-1,-1,-1,-1,-1,-1,-1,-1,-1,-1,-1,-1,-1,-1,-1,-1],"split_conditions":[3E0,1.1271676E-2,3.205642E-4,2E0,2.001445E-2,4E0,2E0,1.033237E-2,1.7730496E-3,1E0,2.1459538E-2,-1.4603866E-2,1.0267567E-3,1E1,-1.6872905E-2,1.300578E-3,1E0,-1.5929773E-2,1E0,9.560453E-3,1E0,1E0,2.2760116E-2,1E0,-7.715032E-4,-5.8950246E-3,1E0,1E0,1E0,-4.6069818E-3,5.4526804E-3,4.442381E-3,1.36560695E-2,2E0,3E0,1E0,4E0,1E0,1.6903477E-2,-1.6304143E-2,3E0,1.6714113E-2,1.2431962E-2,-9.416137E-3,8.4356135E-3,-8.52086E-4,1.0866904E-2,-6.789217E-3,-1.5114773E-2,6.37267E-4,-1.3149732E-2,-4.6864324E-4,-9.559178E-3,4.0286244E-3,-2.6531958E-3,1.7801382E-3,-9.638509E-3,1.4212456E-2,1.6345427E-3,6.3439077E-3,1.5664814E-2,-3.401881E-3,-1.26338415E-2],"split_indices":[18,1,8,18,1,9,17,1,0,2,1,0,0,18,0,1,17,0,2,7,4,4,1,6,0,0,3,4,2,0,0,7,1,10,10,9,10,4,0,0,9,0,0,0,0,0,0,0,0,0,0,0,0,0,0,0,0,0,0,0,0,0,0],"split_type":[0,0,0,0,0,0,0,0,0,0,0,0,0,0,0,0,0,0,0,0,0,0,0,0,0,0,0,0,0,0,0,0,0,0,0,0,0,0,0,0,0,0,0,0,0,0,0,0,0,0,0,0,0,0,0,0,0,0,0,0,0,0,0],"sum_hessian":[1.8941088E3,1.433296E3,4.6081274E2,7.0993744E2,7.2335864E2,1.6047735E1,4.4476498E2,6.8394055E2,2.5996881E1,5.9093567E2,1.3242299E2,1.1298935E1,4.7488E0,8.858787E1,3.5617712E2,5.4220154E2,1.4173898E2,1.02816E1,1.57152815E1,1.01034225E2,4.8990143E2,4.2841644E1,8.9581345E1,8.333788E1,5.2499847E0,5.491942E0,5.367096E2,3.4784542E1,1.06954445E2,6.48836E0,9.226921E0,8.266582E1,1.8368404E1,2.883206E2,2.0158083E2,1.8678158E1,2.4163486E1,2.7820948E1,6.17604E1,6.822354E1,1.51143465E1,2.4215347E2,2.9455615E2,2.4643396E1,1.0141148E1,9.20102E0,9.7753426E1,9.176649E0,7.3489174E1,8.203696E0,1.0164707E1,1.2130079E2,1.670198E2,1.3209085E2,6.948998E1,1.3209219E1,5.4689384E0,1.7922594E1,6.240892E0,8.471078E0,1.9349869E1,5.2428865E0,9.871459E0],"tree_param":{"num_deleted":"0","num_feature":"20","num_nodes":"63","size_leaf_vector":"1"}},{"base_weights":[-4.6694066E-5,5.177475E-1,-1.6103296E0,1.282566E0,-4.515947E-2,-1.3860707E0,-1.6684659E-2,1.366854E0,-5.822149E-1,-2.5361603E-1,1.5183439E0,-1.5028056E0,2.6565918E-3,5.2578115E-1,1.4236269E0,-1.5818743E-2,1.2602897E-1,-6.019774E-1,2.9044405E-1,8.463323E-1,1.6018193E-2,-1.6007414E-2,-9.6690303E-1,-4.4400238E-2,1.49417585E-2,-2.9484644E-3,1.4473481E0,-4.567862E-3,5.404854E-3,-2.8766055E-2,-8.8527E-1,1.2044295E0,7.35646E-2,1.5865403E-3,1.4144638E-2,-1.6956549E-3,-1.2582823E-2,9.78958E-3,-7.4451165E-3,1.6650978E-2,1.2769141E-2,-1.0907715E-2,2.4052944E-3,-4.5061386E-3,-1.158938E-2,1.33552225E-2,7.246847E-3,-1.124416E-3,8.045875E-3],"categories":[],"categories_nodes":[],"categories_segments":[],"categories_sizes":[],"default_left":[0,0,0,0,0,0,0,0,0,0,0,0,0,0,0,0,0,0,0,0,0,0,0,0,0,0,0,0,0,0,0,0,0,0,0,0,0,0,0,0,0,0,0,0,0,0,0,0,0],"id":18,"left_children":[1,3,5,7,9,11,-1,13,15,17,19,21,-1,23,25,-1,27,29,31,33,-1,-1,35,37,-1,-1,39,-1,-1,41,43,45,47,-1,-1,-1,-1,-1,-1,-1,-1,-1,-1,-1,-1,-1,-1,-1,-1],"loss_changes":[1.5785983E3,6.168263E2,3.6933594E0,9.626721E1,2.696623E2,1.9824127E1,0E0,2.7015259E1,1.9293324E1,1.385051E2,4.1046906E0,3.3985443E0,0E0,2.1242434E1,2.2605835E1,0E0,4.283551E0,7.228226E1,5.652034E1,4.805909E0,0E0,0E0,3.756504E0,1.8719156E1,0E0,0E0,1.7797363E1,0E0,0E0,4.2678738E1,3.4921616E1,2.472557E0,3.1619719E1,0E0,0E0,0E0,0E0,0E0,0E0,0E0,0E0,0E0,0E0,0E0,0E0,0E0,0E0,0E0,0E0],"parents":[2147483647,0,0,1,1,2,2,3,3,4,4,5,5,7,7,8,8,9,9,10,10,11,11,13,13,14,14,16,16,17,17,18,18,19,19,22,22,23,23,26,26,29,29,30,30,31,31,32,32],"right_children":[2,4,6,8,10,12,-1,14,16,18,20,22,-1,24,26,-1,28,30,32,34,-1,-1,36,38,-1,-1,40,-1,-1,42,44,46,48,-1,-1,-1,-1,-1,-1,-1,-1,-1,-1,-1,-1,-1,-1,-1,-1],"split_conditions":[3E0,1.06213875E-2,2E0,2E0,2.1242775E-2,1E1,-1.6684659E-2,1E0,1.7730496E-3,1E0,2.16763E-2,1E0,2.6565918E-3,1E0,1.5895953E-3,-1.5818743E-2,1E0,1.2066474E-2,1.1560693E-2,5.449591E-3,1.6018193E-2,-1.6007414E-2,4E0,7.2254334E-3,1.49417585E-2,-2.9484644E-3,1E0,-4.567862E-3,5.404854E-3,1E0,2E0,1.0751003E-2,1.8713873E-2,1.5865403E-3,1.4144638E-2,-1.6956549E-3,-1.2582823E-2,9.78958E-3,-7.4451165E-3,1.6650978E-2,1.2769141E-2,-1.0907715E-2,2.4052944E-3,-4.5061386E-3,-1.158938E-2,1.33552225E-2,7.246847E-3,-1.124416E-3,8.045875E-3],"split_indices":[18,1,17,18,1,18,0,18,0,4,1,6,0,4,1,0,2,1,1,8,0,0,18,1,0,0,3,0,0,2,10,7,1,0,0,0,0,0,0,0,0,0,0,0,0,0,0,0,0],"split_type":[0,0,0,0,0,0,0,0,0,0,0,0,0,0,0,0,0,0,0,0,0,0,0,0,0,0,0,0,0,0,0,0,0,0,0,0,0,0,0,0,0,0,0,0,0,0,0,0,0],"sum_hessian":[1.8912687E3,1.4316069E3,4.5966165E2,6.06407E2,8.252E2,9.9743996E1,3.5991763E2,5.804382E2,2.5968773E1,7.2886127E2,9.633878E1,9.3244194E1,6.499804E0,3.7351322E1,5.4308685E2,1.0257369E1,1.5711403E1,4.4428156E2,2.845797E2,1.1875422E1,8.446336E1,7.715684E1,1.6087355E1,2.4109835E1,1.3241486E1,7.2388678E0,5.35848E2,6.4870615E0,9.224341E0,1.4731248E2,2.9696906E2,5.3703976E1,2.3087572E2,5.9512086E0,5.9242125E0,4.728931E0,1.1358423E1,9.6321535E0,1.4477681E1,2.3141617E2,3.0443182E2,2.9181314E1,1.18131165E2,1.1575946E2,1.8120961E2,4.077749E1,1.2926487E1,1.8472044E2,4.615528E1],"tree_param":{"num_deleted":"0","num_feature":"20","num_nodes":"49","size_leaf_vector":"1"}},{"base_weights":[-3.6534188E-5,5.132481E-1,-1.5984932E0,1.2722825E0,-4.469564E-2,-9.9908763E-1,-1.6178652E0,1.3559693E0,-5.7758313E-1,-2.7170932E-1,1.3671525E0,-1.4383342E-2,1.1101179E-3,-1.4204912E0,-1.6628776E-2,5.215279E-1,1.4123486E0,-1.5710033E-2,1.2484934E-1,-6.0006285E-1,2.5139445E-1,6.068925E-1,1.5659915E0,-1.5034486E0,-7.873372E-4,-4.3882627E-2,1.483209E-2,-2.922601E-3,1.4359267E0,-4.529108E-3,5.35751E-3,-1.1792067E-1,-9.4476765E-1,1.1942149E0,1.7881993E-2,-1.6057168E-1,1.1793597E0,1.2924852E0,1.666732E-2,-1.6066005E-2,-9.682074E-1,9.71037E-3,-7.376415E-3,1.6530313E-2,1.2662011E-2,-1.1162485E-2,1.5048807E-3,-1.0127609E-2,1.0864424E-2,1.3243723E-2,7.1832286E-3,-9.819228E-3,1.359314E-3,1.3555932E-3,-3.8102928E-3,6.8603866E-3,1.3454584E-2,6.166468E-3,1.5442373E-2,-3.3254179E-3,-1.2447783E-2],"categories":[],"categories_nodes":[],"categories_segments":[],"categories_sizes":[],"default_left":[0,0,0,0,0,0,0,0,0,0,0,0,0,0,0,0,0,0,0,0,0,0,0,0,0,0,0,0,0,0,0,0,0,0,0,0,0,0,0,0,0,0,0,0,0,0,0,0,0,0,0,0,0,0,0,0,0,0,0,0,0],"id":19,"left_children":[1,3,5,7,9,11,13,15,17,19,21,-1,-1,23,-1,25,27,-1,29,31,33,35,37,39,-1,41,-1,-1,43,-1,-1,45,47,49,51,53,55,57,-1,-1,59,-1,-1,-1,-1,-1,-1,-1,-1,-1,-1,-1,-1,-1,-1,-1,-1,-1,-1,-1,-1],"loss_changes":[1.5509396E3,6.060222E2,3.718628E0,9.46322E1,2.6499423E2,8.448542E0,1.5777588E0,2.6562866E1,1.8994783E1,1.2246353E2,1.6363327E1,0E0,0E0,9.811996E0,0E0,2.089653E1,2.2242432E1,0E0,4.209017E0,7.264685E1,6.0592644E1,1.1338859E1,3.2980347E-1,3.0802765E0,0E0,1.8387697E1,0E0,0E0,1.7647583E1,0E0,0E0,4.9379E1,3.633641E1,2.4329758E0,2.6297533E1,8.1693363E-1,2.777977E-1,3.9345322E0,0E0,0E0,2.4136772E0,0E0,0E0,0E0,0E0,0E0,0E0,0E0,0E0,0E0,0E0,0E0,0E0,0E0,0E0,0E0,0E0,0E0,0E0,0E0,0E0],"parents":[2147483647,0,0,1,1,2,2,3,3,4,4,5,5,6,6,7,7,8,8,9,9,10,10,13,13,15,15,16,16,18,18,19,19,20,20,21,21,22,22,23,23,25,25,28,28,31,31,32,32,33,33,34,34,35,35,36,36,37,37,40,40],"right_children":[2,4,6,8,10,12,14,16,18,20,22,-1,-1,24,-1,26,28,-1,30,32,34,36,38,40,-1,42,-1,-1,44,-1,-1,46,48,50,52,54,56,58,-1,-1,60,-1,-1,-1,-1,-1,-1,-1,-1,-1,-1,-1,-1,-1,-1,-1,-1,-1,-1,-1,-1],"split_conditions":[3E0,1.06213875E-2,3.205642E-4,2E0,2.052023E-2,4E0,2E0,1E0,1.7730496E-3,1E0,2.1459538E-2,-1.4383342E-2,1.1101179E-3,1E1,-1.6628776E-2,1E0,1.5895953E-3,-1.5710033E-2,1E0,1.25E-2,1.1560693E-2,1E0,2.2760116E-2,1E0,-7.873372E-4,7.2254334E-3,1.483209E-2,-2.922601E-3,1E0,-4.529108E-3,5.35751E-3,1E0,1.2181439E-2,1.0751003E-2,1E0,4.4878987E-3,1.9503547E-2,1E0,1.666732E-2,-1.6066005E-2,3E0,9.71037E-3,-7.376415E-3,1.6530313E-2,1.2662011E-2,-1.1162485E-2,1.5048807E-3,-1.0127609E-2,1.0864424E-2,1.3243723E-2,7.1832286E-3,-9.819228E-3,1.359314E-3,1.3555932E-3,-3.8102928E-3,6.8603866E-3,1.3454584E-2,6.166468E-3,1.5442373E-2,-3.3254179E-3,-1.2447783E-2],"split_indices":[18,1,8,18,1,9,17,18,0,4,1,0,0,18,0,4,1,0,2,1,1,4,1,6,0,1,0,0,3,0,0,2,8,7,2,8,0,4,0,0,9,0,0,0,0,0,0,0,0,0,0,0,0,0,0,0,0,0,0,0,0],"split_type":[0,0,0,0,0,0,0,0,0,0,0,0,0,0,0,0,0,0,0,0,0,0,0,0,0,0,0,0,0,0,0,0,0,0,0,0,0,0,0,0,0,0,0,0,0,0,0,0,0,0,0,0,0,0,0,0,0,0,0,0,0],"sum_hessian":[1.8883217E3,1.4298558E3,4.5846585E2,6.052225E2,8.246333E2,1.5999065E1,4.424668E2,5.79283E2,2.5939465E1,7.111015E2,1.1353179E2,1.1251405E1,4.7476606E0,8.821459E1,3.542522E2,3.731108E1,5.41972E2,1.0232109E1,1.57073555E1,4.36784E2,2.7431754E2,2.4377346E1,8.915444E1,8.296459E1,5.2499967E0,2.4097546E1,1.3213534E1,7.238748E0,5.347332E2,6.4857054E0,9.22165E0,1.8265067E2,2.5413332E2,5.3637753E1,2.2067978E2,1.0722283E1,1.3655062E1,2.7721512E1,6.143293E1,6.78809E1,1.5083693E1,9.621826E0,1.4475719E1,2.3078487E2,3.0394836E2,3.8032528E1,1.4461813E2,2.463871E2,7.74623E0,4.0718304E1,1.291945E1,2.2531778E1,1.9814801E2,4.7401495E0,5.982134E0,4.7317777E0,8.923284E0,8.4599285E0,1.9261583E1,5.24077E0,9.842923E0],"tree_param":{"num_deleted":"0","num_feature":"20","num_nodes":"61","size_leaf_vector":"1"}},{"base_weights":[-2.3235782E-5,5.0884557E-1,-1.5869662E0,1.1611059E0,-1.3005304E-1,-9.913011E-1,-1.6062412E0,1.227894E0,-5.7301515E-1,-4.3616793E-1,1.2344077E0,-1.4279725E-2,1.1009338E-3,-1.4098134E0,-1.6510677E-2,1.3844068E0,6.2578577E-1,-1.5603579E-2,1.2368188E-1,-1.2841296E0,-2.5939927E-1,5.4825693E-1,1.5547243E0,-1.492348E0,-7.8072475E-4,-5.850806E-3,1.40573E0,-4.1218027E-1,9.642058E-1,-4.490718E-3,5.3106383E-3,-1.4019997E0,-7.0924646E-1,-5.5801344E-1,1.6775872E-1,-1.7593023E-1,1.093076E0,1.2826253E0,1.6550587E-2,-1.595016E-2,-9.604925E-1,1.6358053E-2,1.2123003E-2,-9.285633E-3,8.158435E-3,-9.1392535E-4,1.06356125E-2,-6.6077136E-3,-1.4845415E-2,7.473982E-4,-1.2928048E-2,-3.9472448E-4,-9.328827E-3,3.958846E-3,-2.6521035E-3,1.8639E-3,-9.452919E-3,1.39606055E-2,1.5147134E-3,6.113698E-3,1.5331946E-2,-3.2978742E-3,-1.2352754E-2],"categories":[],"categories_nodes":[],"categories_segments":[],"categories_sizes":[],"default_left":[0,0,0,0,0,0,0,0,0,0,0,0,0,0,0,0,0,0,0,0,0,0,0,0,0,0,0,0,0,0,0,0,0,0,0,0,0,0,0,0,0,0,0,0,0,0,0,0,0,0,0,0,0,0,0,0,0,0,0,0,0,0,0],"id":20,"left_children":[1,3,5,7,9,11,13,15,17,19,21,-1,-1,23,-1,25,27,-1,29,31,33,35,37,39,-1,-1,41,43,45,-1,-1,47,49,51,53,55,57,59,-1,-1,61,-1,-1,-1,-1,-1,-1,-1,-1,-1,-1,-1,-1,-1,-1,-1,-1,-1,-1,-1,-1,-1,-1],"loss_changes":[1.5240125E3,5.956532E2,3.6687012E0,8.26109E1,3.0243478E2,8.321215E0,1.5665283E0,6.333728E1,1.8703117E1,8.826658E1,2.8314178E1,0E0,0E0,9.667603E0,0E0,2.3496582E1,5.041256E1,0E0,4.1358223E0,5.897705E0,6.2643623E1,1.7465387E1,3.3221436E-1,3.041977E0,0E0,0E0,2.1800415E1,2.3401985E1,1.1390106E1,0E0,0E0,4.1204987E0,8.939955E0,5.6110283E1,2.010922E1,5.655664E0,6.9556828E0,3.884842E0,0E0,0E0,2.3771954E0,0E0,0E0,0E0,0E0,0E0,0E0,0E0,0E0,0E0,0E0,0E0,0E0,0E0,0E0,0E0,0E0,0E0,0E0,0E0,0E0,0E0,0E0],"parents":[2147483647,0,0,1,1,2,2,3,3,4,4,5,5,6,6,7,7,8,8,9,9,10,10,13,13,15,15,16,16,18,18,19,19,20,20,21,21,22,22,23,23,26,26,27,27,28,28,31,31,32,32,33,33,34,34,35,35,36,36,37,37,40,40],"right_children":[2,4,6,8,10,12,14,16,18,20,22,-1,-1,24,-1,26,28,-1,30,32,34,36,38,40,-1,-1,42,44,46,-1,-1,48,50,52,54,56,58,60,-1,-1,62,-1,-1,-1,-1,-1,-1,-1,-1,-1,-1,-1,-1,-1,-1,-1,-1,-1,-1,-1,-1,-1,-1],"split_conditions":[3E0,1.1271676E-2,3.205642E-4,2E0,2.001445E-2,4E0,2E0,1.033237E-2,1.7730496E-3,1E0,2.1459538E-2,-1.4279725E-2,1.1009338E-3,1E1,-1.6510677E-2,1.300578E-3,1E0,-1.5603579E-2,1E0,9.560453E-3,1E0,1E0,2.2760116E-2,1E0,-7.8072475E-4,-5.850806E-3,1E0,1E0,1E0,-4.490718E-3,5.3106383E-3,4.442381E-3,1.36560695E-2,2E0,3E0,1E0,4E0,1E0,1.6550587E-2,-1.595016E-2,3E0,1.6358053E-2,1.2123003E-2,-9.285633E-3,8.158435E-3,-9.1392535E-4,1.06356125E-2,-6.6077136E-3,-1.4845415E-2,7.473982E-4,-1.2928048E-2,-3.9472448E-4,-9.328827E-3,3.958846E-3,-2.6521035E-3,1.8639E-3,-9.452919E-3,1.39606055E-2,1.5147134E-3,6.113698E-3,1.5331946E-2,-3.2978742E-3,-1.2352754E-2],"split_indices":[18,1,8,18,1,9,17,1,0,2,1,0,0,18,0,1,17,0,2,7,4,4,1,6,0,0,3,4,2,0,0,7,1,10,10,9,10,4,0,0,9,0,0,0,0,0,0,0,0,0,0,0,0,0,0,0,0,0,0,0,0,0,0],"split_type":[0,0,0,0,0,0,0,0,0,0,0,0,0,0,0,0,0,0,0,0,0,0,0,0,0,0,0,0,0,0,0,0,0,0,0,0,0,0,0,0,0,0,0,0,0,0,0,0,0,0,0,0,0,0,0,0,0,0,0,0,0,0,0],"sum_hessian":[1.8852152E3,1.4279941E3,4.5722098E2,7.0620374E2,7.2179047E2,1.597483E1,4.4124615E2,6.8029474E2,2.5908998E1,5.900859E2,1.317046E2,1.1227094E1,4.7477355E0,8.801563E1,3.532305E2,5.389104E2,1.4138434E2,1.0205852E1,1.5703146E1,1.0071071E2,4.8937515E2,4.2779087E1,8.892552E1,8.276564E1,5.2499933E0,5.4890046E0,5.334214E2,3.4709393E1,1.0667494E2,6.484295E0,9.218851E0,8.2381096E1,1.8329613E1,2.8784467E2,2.0153047E2,1.8656923E1,2.4122164E1,2.7670023E1,6.12555E1,6.7698364E1,1.5067279E1,2.4022658E2,2.9319482E2,2.4606314E1,1.0103081E1,9.183669E0,9.749127E1,9.1569195E0,7.322418E1,8.193676E0,1.0135937E1,1.2124159E2,1.6660307E2,1.3204388E2,6.948659E1,1.3198844E1,5.458079E0,1.7884684E1,6.237479E0,8.456269E0,1.9213753E1,5.240051E0,9.827229E0],"tree_param":{"num_deleted":"0","num_feature":"20","num_nodes":"63","size_leaf_vector":"1"}},{"base_weights":[-4.5941128E-5,5.04447E-1,-1.5756886E0,1.2522562E0,-4.3849047E-2,-9.836313E-1,-1.5948719E0,1.3347756E0,-5.6850946E-1,-2.4659674E-1,1.4853033E0,-1.4177979E-2,1.0918268E-3,-1.3993375E0,-1.6395254E-2,5.07821E-1,1.3907704E0,-1.5499307E-2,1.2252645E-1,-5.8591914E-1,2.8284457E-1,8.2581747E-1,1.5676208E-2,-1.4814664E0,-7.741665E-4,-5.203138E-2,1.4631699E-2,-2.9235166E-3,1.4141498E0,-4.452686E-3,5.264232E-3,-2.5962465E-2,-8.630695E-1,1.1781352E0,7.101949E-2,1.4494295E-3,1.3910154E-2,-1.583679E-2,-9.5287776E-1,9.532311E-3,-7.371335E-3,1.6298268E-2,1.2459721E-2,-1.06321E-2,2.3618683E-3,1.5175701E-2,-9.089303E-3,1.3078262E-2,7.051607E-3,-1.1170747E-3,7.895776E-3,-3.2705711E-3,-1.22591695E-2],"categories":[],"categories_nodes":[],"categories_segments":[],"categories_sizes":[],"default_left":[0,0,0,0,0,0,0,0,0,0,0,0,0,0,0,0,0,0,0,0,0,0,0,0,0,0,0,0,0,0,0,0,0,0,0,0,0,0,0,0,0,0,0,0,0,0,0,0,0,0,0,0,0],"id":21,"left_children":[1,3,5,7,9,11,13,15,17,19,21,-1,-1,23,-1,25,27,-1,29,31,33,35,-1,37,-1,39,-1,-1,41,-1,-1,43,45,47,49,-1,-1,-1,51,-1,-1,-1,-1,-1,-1,-1,-1,-1,-1,-1,-1,-1,-1],"loss_changes":[1.4976162E3,5.851949E2,3.6208496E0,9.147046E1,2.5594241E2,8.196812E0,1.5561523E0,2.605188E1,1.8418095E1,1.3107892E2,3.9521332E0,0E0,0E0,9.527161E0,0E0,2.0519503E1,2.1687988E1,0E0,4.0639396E0,6.894714E1,5.4020805E1,4.7388477E0,0E0,3.0055542E0,0E0,1.7965248E1,0E0,0E0,1.7317139E1,0E0,0E0,4.0540028E1,3.3832092E1,2.4221344E0,3.051989E1,0E0,0E0,0E0,2.3416195E0,0E0,0E0,0E0,0E0,0E0,0E0,0E0,0E0,0E0,0E0,0E0,0E0,0E0,0E0],"parents":[2147483647,0,0,1,1,2,2,3,3,4,4,5,5,6,6,7,7,8,8,9,9,10,10,13,13,15,15,16,16,18,18,19,19,20,20,21,21,23,23,25,25,28,28,31,31,32,32,33,33,34,34,38,38],"right_children":[2,4,6,8,10,12,14,16,18,20,22,-1,-1,24,-1,26,28,-1,30,32,34,36,-1,38,-1,40,-1,-1,42,-1,-1,44,46,48,50,-1,-1,-1,52,-1,-1,-1,-1,-1,-1,-1,-1,-1,-1,-1,-1,-1,-1],"split_conditions":[3E0,1.06213875E-2,3.205642E-4,2E0,2.1242775E-2,4E0,2E0,1E0,1.7730496E-3,1E0,2.16763E-2,-1.4177979E-2,1.0918268E-3,1E1,-1.6395254E-2,1E0,1.5895953E-3,-1.5499307E-2,1E0,1.2066474E-2,1.1560693E-2,5.449591E-3,1.5676208E-2,1E0,-7.741665E-4,7.2254334E-3,1.4631699E-2,-2.9235166E-3,1E0,-4.452686E-3,5.264232E-3,1E0,5.319149E-3,1.0751003E-2,1.8713873E-2,1.4494295E-3,1.3910154E-2,-1.583679E-2,3E0,9.532311E-3,-7.371335E-3,1.6298268E-2,1.2459721E-2,-1.06321E-2,2.3618683E-3,1.5175701E-2,-9.089303E-3,1.3078262E-2,7.051607E-3,-1.1170747E-3,7.895776E-3,-3.2705711E-3,-1.22591695E-2],"split_indices":[18,1,8,18,1,9,17,18,0,4,1,0,0,18,0,4,1,0,2,1,1,8,0,6,0,1,0,0,3,0,0,2,0,7,1,0,0,0,9,0,0,0,0,0,0,0,0,0,0,0,0,0,0],"split_type":[0,0,0,0,0,0,0,0,0,0,0,0,0,0,0,0,0,0,0,0,0,0,0,0,0,0,0,0,0,0,0,0,0,0,0,0,0,0,0,0,0,0,0,0,0,0,0,0,0,0,0,0,0],"sum_hessian":[1.8820298E3,1.4260981E3,4.5593158E2,6.0274426E2,8.233539E2,1.59496975E1,4.3998187E2,5.768669E2,2.5877409E1,7.277072E2,9.564671E1,1.120189E1,4.747807E0,8.7809494E1,3.521724E2,3.7222317E1,5.3964453E2,1.0178631E1,1.5698777E1,4.4341373E2,2.8429346E2,1.1838089E1,8.3808624E1,8.255951E1,5.2499876E0,2.4065197E1,1.3157121E1,7.235599E0,5.3240894E2,6.482831E0,9.215946E0,1.47168E2,2.9624573E2,5.3521217E1,2.3077225E2,5.9394655E0,5.898624E0,6.7509254E1,1.5050249E1,9.594964E0,1.4470233E1,2.2945573E2,3.029532E2,2.9074203E1,1.18093796E2,4.992527E0,2.912532E2,4.061841E1,1.2902809E1,1.8465869E2,4.6113556E1,5.2393093E0,9.81094E0],"tree_param":{"num_deleted":"0","num_feature":"20","num_nodes":"53","size_leaf_vector":"1"}},{"base_weights":[-3.416575E-5,5.001485E-1,-1.5646524E0,1.2425064E0,-4.337446E-2,-9.7607505E-1,-1.5837489E0,1.3244625E0,-5.6406444E-1,-2.642826E-1,1.3373289E0,-1.4078043E-2,1.0827942E-3,-1.3890569E0,-1.6282426E-2,5.037827E-1,1.3800921E0,-1.5397151E-2,1.2138298E-1,-1.164593E0,-8.0882646E-2,5.946515E-1,1.5327063E0,-1.470797E0,-7.676645E-4,-5.145145E-2,1.4527888E-2,-2.8978824E-3,1.4033406E0,-4.415008E-3,5.2182865E-3,4.002564E-3,-1.2424126E0,6.5396607E-1,-2.992478E-1,-1.5427746E-1,1.1542205E0,1.2616559E0,1.6330123E-2,-1.5725818E-2,-9.453612E-1,9.456259E-3,-7.3035136E-3,1.6185522E-2,1.2357515E-2,-8.104271E-3,-1.4390813E-2,3.2479744E-3,1.2036883E-2,-6.1478023E-3,1.2523306E-3,1.3966028E-3,-3.7392369E-3,6.6739246E-3,1.3192122E-2,5.942243E-3,1.5122616E-2,-3.243506E-3,-1.216699E-2],"categories":[],"categories_nodes":[],"categories_segments":[],"categories_sizes":[],"default_left":[0,0,0,0,0,0,0,0,0,0,0,0,0,0,0,0,0,0,0,0,0,0,0,0,0,0,0,0,0,0,0,0,0,0,0,0,0,0,0,0,0,0,0,0,0,0,0,0,0,0,0,0,0,0,0,0,0,0,0],"id":22,"left_children":[1,3,5,7,9,11,13,15,17,19,21,-1,-1,23,-1,25,27,-1,29,31,33,35,37,39,-1,41,-1,-1,43,-1,-1,-1,45,47,49,51,53,55,-1,-1,57,-1,-1,-1,-1,-1,-1,-1,-1,-1,-1,-1,-1,-1,-1,-1,-1,-1,-1],"loss_changes":[1.4718704E3,5.7508856E2,3.5749512E0,8.994214E1,2.5159837E2,8.075222E0,1.5469971E0,2.562799E1,1.8139505E1,1.1729556E2,1.559848E1,0E0,0E0,9.390549E0,0E0,2.019115E1,2.1347656E1,0E0,3.9933457E0,1.5139847E1,9.514427E1,1.0794203E1,3.716278E-1,2.97081E0,0E0,1.7648308E1,0E0,0E0,1.7193604E1,0E0,0E0,0E0,8.585999E0,2.4193851E1,6.1265457E1,8.085823E-1,2.9364014E-1,3.8780937E0,0E0,0E0,2.3069172E0,0E0,0E0,0E0,0E0,0E0,0E0,0E0,0E0,0E0,0E0,0E0,0E0,0E0,0E0,0E0,0E0,0E0,0E0],"parents":[2147483647,0,0,1,1,2,2,3,3,4,4,5,5,6,6,7,7,8,8,9,9,10,10,13,13,15,15,16,16,18,18,19,19,20,20,21,21,22,22,23,23,25,25,28,28,32,32,33,33,34,34,35,35,36,36,37,37,40,40],"right_children":[2,4,6,8,10,12,14,16,18,20,22,-1,-1,24,-1,26,28,-1,30,32,34,36,38,40,-1,42,-1,-1,44,-1,-1,-1,46,48,50,52,54,56,-1,-1,58,-1,-1,-1,-1,-1,-1,-1,-1,-1,-1,-1,-1,-1,-1,-1,-1,-1,-1],"split_conditions":[3E0,1.06213875E-2,3.205642E-4,2E0,2.052023E-2,4E0,2E0,1E0,1.7730496E-3,1E0,2.1459538E-2,-1.4078043E-2,1.0827942E-3,1E1,-1.6282426E-2,1E0,1.5895953E-3,-1.5397151E-2,1E0,7.0921984E-3,1.1632948E-2,1E0,2.2760116E-2,1E0,-7.676645E-4,7.2254334E-3,1.4527888E-2,-2.8978824E-3,1E0,-4.415008E-3,5.2182865E-3,4.002564E-3,1.2066474E-2,1E0,1E0,4.4878987E-3,1.9503547E-2,1E0,1.6330123E-2,-1.5725818E-2,3E0,9.456259E-3,-7.3035136E-3,1.6185522E-2,1.2357515E-2,-8.104271E-3,-1.4390813E-2,3.2479744E-3,1.2036883E-2,-6.1478023E-3,1.2523306E-3,1.3966028E-3,-3.7392369E-3,6.6739246E-3,1.3192122E-2,5.942243E-3,1.5122616E-2,-3.243506E-3,-1.216699E-2],"split_indices":[18,1,8,18,1,9,17,18,0,2,1,0,0,18,0,4,1,0,2,0,1,4,1,6,0,1,0,0,3,0,0,0,1,4,4,8,0,4,0,0,9,0,0,0,0,0,0,0,0,0,0,0,0,0,0,0,0,0,0],"split_type":[0,0,0,0,0,0,0,0,0,0,0,0,0,0,0,0,0,0,0,0,0,0,0,0,0,0,0,0,0,0,0,0,0,0,0,0,0,0,0,0,0,0,0,0,0,0,0,0,0,0,0,0,0,0,0,0,0,0,0],"sum_hessian":[1.8787565E3,1.4241572E3,4.545992E2,6.0142676E2,8.227305E2,1.5923698E1,4.386755E2,5.75582E2,2.5844732E1,7.0994946E2,1.1278107E2,1.1175824E1,4.747875E0,8.759643E1,3.5107907E2,3.7177296E1,5.384047E2,1.0150476E1,1.5694256E1,1.1924175E2,5.907077E2,2.4332151E1,8.844892E1,8.234644E1,5.2499804E0,2.4051367E1,1.3125926E1,7.235449E0,5.3116925E2,6.481315E0,9.212941E0,5.452659E0,1.1378909E2,1.3486415E2,4.5584354E2,1.0715193E1,1.3616958E1,2.7558254E1,6.0890667E1,6.731383E1,1.5032622E1,9.58351E0,1.4467857E1,2.2875404E2,3.0241522E2,3.719986E1,7.658923E1,8.534887E1,4.9515274E1,2.612204E2,1.9462314E2,4.738344E0,5.9768486E0,4.7238054E0,8.893152E0,8.443103E0,1.911515E1,5.238546E0,9.794077E0],"tree_param":{"num_deleted":"0","num_feature":"20","num_nodes":"59","size_leaf_vector":"1"}},{"base_weights":[-2.7095293E-5,4.9590346E-1,-1.5538499E0,1.1337311E0,-1.2666145E-1,-9.686292E-1,-1.5728643E0,1.1990958E0,-5.596787E-1,-4.2480907E-1,1.2083035E0,-1.3979863E-2,1.0738383E-3,-1.378966E0,-1.6172102E-2,1.3530259E0,6.09344E-1,-1.5297045E-2,1.202511E-1,-1.2572631E0,-2.5177863E-1,5.4027104E-1,1.5221181E0,-1.460333E0,-7.612168E-4,-5.8065844E-3,1.3741052E0,-4.1236687E-1,9.427911E-1,-4.377681E-3,5.172792E-3,-1.3738897E0,-6.8993616E-1,-5.422252E-1,1.6317424E-1,-1.6534145E-1,1.0713391E0,1.2522895E0,1.6220992E-2,-1.5617168E-2,-9.379404E-1,1.6025258E-2,1.1828185E-2,-9.177165E-3,7.925115E-3,-9.2144613E-4,1.0403905E-2,-6.3880864E-3,-1.4560762E-2,8.6846185E-4,-1.27037335E-2,-2.972908E-4,-9.134131E-3,3.8887064E-3,-2.6499971E-3,1.9306865E-3,-9.2853615E-3,1.372048E-2,1.4002367E-3,5.8917273E-3,1.5018528E-2,-3.2166766E-3,-1.2076179E-2],"categories":[],"categories_nodes":[],"categories_segments":[],"categories_sizes":[],"default_left":[0,0,0,0,0,0,0,0,0,0,0,0,0,0,0,0,0,0,0,0,0,0,0,0,0,0,0,0,0,0,0,0,0,0,0,0,0,0,0,0,0,0,0,0,0,0,0,0,0,0,0,0,0,0,0,0,0,0,0,0,0,0,0],"id":23,"left_children":[1,3,5,7,9,11,13,15,17,19,21,-1,-1,23,-1,25,27,-1,29,31,33,35,37,39,-1,-1,41,43,45,-1,-1,47,49,51,53,55,57,59,-1,-1,61,-1,-1,-1,-1,-1,-1,-1,-1,-1,-1,-1,-1,-1,-1,-1,-1,-1,-1,-1,-1,-1,-1],"loss_changes":[1.4466868E3,5.652628E2,3.5310059E0,7.849237E1,2.875205E2,7.9563723E0,1.5390625E0,6.065674E1,1.7867134E1,8.4694E1,2.68302E1,0E0,0E0,9.257523E0,0E0,2.2655945E1,4.8765915E1,0E0,3.9240146E0,5.7555084E0,5.9128967E1,1.6556355E1,3.7496948E-1,2.9377747E0,0E0,0E0,2.1295715E1,2.2425312E1,1.0940544E1,0E0,0E0,4.0859222E0,8.805184E0,5.4836113E1,1.9669538E1,5.55058E0,6.829712E0,3.8318176E0,0E0,0E0,2.2730656E0,0E0,0E0,0E0,0E0,0E0,0E0,0E0,0E0,0E0,0E0,0E0,0E0,0E0,0E0,0E0,0E0,0E0,0E0,0E0,0E0,0E0,0E0],"parents":[2147483647,0,0,1,1,2,2,3,3,4,4,5,5,6,6,7,7,8,8,9,9,10,10,13,13,15,15,16,16,18,18,19,19,20,20,21,21,22,22,23,23,26,26,27,27,28,28,31,31,32,32,33,33,34,34,35,35,36,36,37,37,40,40],"right_children":[2,4,6,8,10,12,14,16,18,20,22,-1,-1,24,-1,26,28,-1,30,32,34,36,38,40,-1,-1,42,44,46,-1,-1,48,50,52,54,56,58,60,-1,-1,62,-1,-1,-1,-1,-1,-1,-1,-1,-1,-1,-1,-1,-1,-1,-1,-1,-1,-1,-1,-1,-1,-1],"split_conditions":[3E0,1.1271676E-2,3.205642E-4,2E0,2.001445E-2,4E0,2E0,1.033237E-2,1.7730496E-3,1E0,2.1459538E-2,-1.3979863E-2,1.0738383E-3,1E1,-1.6172102E-2,1.300578E-3,1E0,-1.5297045E-2,1E0,9.560453E-3,1E0,1E0,2.2760116E-2,1E0,-7.612168E-4,-5.8065844E-3,1E0,1E0,1E0,-4.377681E-3,5.172792E-3,4.442381E-3,1.36560695E-2,2E0,3E0,1E0,4E0,1E0,1.6220992E-2,-1.5617168E-2,3E0,1.6025258E-2,1.1828185E-2,-9.177165E-3,7.925115E-3,-9.2144613E-4,1.0403905E-2,-6.3880864E-3,-1.4560762E-2,8.6846185E-4,-1.27037335E-2,-2.972908E-4,-9.134131E-3,3.8887064E-3,-2.6499971E-3,1.9306865E-3,-9.2853615E-3,1.372048E-2,1.4002367E-3,5.8917273E-3,1.5018528E-2,-3.2166766E-3,-1.2076179E-2],"split_indices":[18,1,8,18,1,9,17,1,0,2,1,0,0,18,0,1,17,0,2,7,4,4,1,6,0,0,3,4,2,0,0,7,1,10,10,9,10,4,0,0,9,0,0,0,0,0,0,0,0,0,0,0,0,0,0,0,0,0,0,0,0,0,0],"split_type":[0,0,0,0,0,0,0,0,0,0,0,0,0,0,0,0,0,0,0,0,0,0,0,0,0,0,0,0,0,0,0,0,0,0,0,0,0,0,0,0,0,0,0,0,0,0,0,0,0,0,0,0,0,0,0,0,0,0,0,0,0,0,0],"sum_hessian":[1.8753799E3,1.4221544E3,4.5322537E2,7.0206085E2,7.200936E2,1.5896864E1,4.373285E2,6.762499E2,2.5811008E1,5.891877E2,1.309059E2,1.1148924E1,4.74794E0,8.737667E1,3.499518E2,5.3525085E2,1.40999E2,1.0121423E1,1.5689587E1,1.0031303E2,4.888747E2,4.270958E1,8.819631E1,8.21267E1,5.2499723E0,5.4856706E0,5.297652E2,3.463566E1,1.0636334E2,6.479749E0,9.209837E0,8.202855E1,1.8284477E1,2.8740128E2,2.0147342E2,1.863652E1,2.4073061E1,2.7501282E1,6.069503E1,6.711228E1,1.5014419E1,2.3808458E2,2.916806E2,2.456919E1,1.0066468E1,9.170981E0,9.719236E1,9.131217E0,7.289733E1,8.183334E0,1.0101143E1,1.2117544E2,1.6622583E2,1.3199095E2,6.948247E1,1.3189512E1,5.4470086E0,1.783965E1,6.2334104E0,8.438931E0,1.906235E1,5.237761E0,9.776657E0],"tree_param":{"num_deleted":"0","num_feature":"20","num_nodes":"63","size_leaf_vector":"1"}},{"base_weights":[-4.957323E-5,4.916847E-1,-1.5432733E0,1.2234896E0,-4.2568028E-2,-1.2046711E0,-1.5784866E0,1.3043493E0,-5.5535066E-1,-2.39777E-1,1.4541627E0,-1.4303912E-2,4.4191773E-3,-1.260601E0,-1.610957E-2,4.9057478E-1,1.3596424E0,-1.5198931E-2,1.19130805E-1,-5.706046E-1,2.759293E-1,8.0602384E-1,1.535508E-2,-1.5200638E-2,-2.6775182E-3,-5.9331052E-2,1.4338334E-2,-2.8981806E-3,1.3827133E0,-4.340698E-3,5.1277447E-3,-1.5305074E-1,-9.319071E-1,1.1546074E0,6.865843E-2,1.3161881E-3,1.3686761E-2,9.285034E-3,-7.297748E-3,1.5968459E-2,1.21644065E-2,-1.12275155E-2,1.4800004E-3,-4.4926535E-3,-1.1834494E-2,1.2843921E-2,6.8348376E-3,-1.1089958E-3,7.752479E-3],"categories":[],"categories_nodes":[],"categories_segments":[],"categories_sizes":[],"default_left":[0,0,0,0,0,0,0,0,0,0,0,0,0,0,0,0,0,0,0,0,0,0,0,0,0,0,0,0,0,0,0,0,0,0,0,0,0,0,0,0,0,0,0,0,0,0,0,0,0],"id":24,"left_children":[1,3,5,7,9,11,13,15,17,19,21,-1,-1,23,-1,25,27,-1,29,31,33,35,-1,-1,-1,37,-1,-1,39,-1,-1,41,43,45,47,-1,-1,-1,-1,-1,-1,-1,-1,-1,-1,-1,-1,-1,-1],"loss_changes":[1.4220077E3,5.556467E2,3.4973145E0,8.698309E1,2.4308725E2,1.8054886E1,2.1696167E0,2.5157166E1,1.76008E1,1.2427442E2,3.8175507E0,0E0,0E0,1.0492943E1,0E0,1.9837004E1,2.08302E1,0E0,3.8559215E0,6.676688E1,5.1822346E1,4.6756916E0,0E0,0E0,0E0,1.7245195E1,0E0,0E0,1.6914062E1,0E0,0E0,6.0576874E1,2.8311035E1,2.4440994E0,2.947621E1,0E0,0E0,0E0,0E0,0E0,0E0,0E0,0E0,0E0,0E0,0E0,0E0,0E0,0E0],"parents":[2147483647,0,0,1,1,2,2,3,3,4,4,5,5,6,6,7,7,8,8,9,9,10,10,13,13,15,15,16,16,18,18,19,19,20,20,21,21,25,25,28,28,31,31,32,32,33,33,34,34],"right_children":[2,4,6,8,10,12,14,16,18,20,22,-1,-1,24,-1,26,28,-1,30,32,34,36,-1,-1,-1,38,-1,-1,40,-1,-1,42,44,46,48,-1,-1,-1,-1,-1,-1,-1,-1,-1,-1,-1,-1,-1,-1],"split_conditions":[3E0,1.06213875E-2,3.5460992E-3,2E0,2.1242775E-2,8E0,4E0,1E0,1.7730496E-3,1E0,2.16763E-2,-1.4303912E-2,4.4191773E-3,1E0,-1.610957E-2,1E0,1.5895953E-3,-1.5198931E-2,1E0,2E0,1.1560693E-2,5.449591E-3,1.535508E-2,-1.5200638E-2,-2.6775182E-3,7.2254334E-3,1.4338334E-2,-2.8981806E-3,1E0,-4.340698E-3,5.1277447E-3,1E0,1.27890175E-2,1.0751003E-2,1.8713873E-2,1.3161881E-3,1.3686761E-2,9.285034E-3,-7.297748E-3,1.5968459E-2,1.21644065E-2,-1.12275155E-2,1.4800004E-3,-4.4926535E-3,-1.1834494E-2,1.2843921E-2,6.8348376E-3,-1.1089958E-3,7.752479E-3],"split_indices":[18,1,0,18,1,18,18,18,0,4,1,0,0,6,0,4,1,0,2,10,1,8,0,0,0,1,0,0,3,0,0,2,1,7,1,0,0,0,0,0,0,0,0,0,0,0,0,0,0],"split_type":[0,0,0,0,0,0,0,0,0,0,0,0,0,0,0,0,0,0,0,0,0,0,0,0,0,0,0,0,0,0,0,0,0,0,0,0,0,0,0,0,0,0,0,0,0,0,0,0,0],"sum_hessian":[1.8718833E3,1.4200717E3,4.5181158E2,5.986994E2,8.213723E2,4.5877213E1,4.059344E2,5.729231E2,2.5776272E1,7.264899E2,9.4882385E1,4.046186E1,5.415352E0,4.131225E1,3.6462213E2,3.707943E1,5.358437E2,1.0091497E1,1.5684773E1,4.4251096E2,2.8397894E2,1.1796848E1,8.308553E1,3.2331894E1,8.980356E0,2.401572E1,1.3063708E1,7.2319646E0,5.286117E2,6.4781356E0,9.206638E0,2.0593616E2,2.3657481E2,5.3329605E1,2.3064935E2,5.9268026E0,5.870045E0,9.553964E0,1.4461757E1,2.2729196E2,3.0131976E2,4.8141228E1,1.5779492E2,8.2008545E1,1.5456627E2,4.0458035E1,1.2871572E1,1.8458563E2,4.6063713E1],"tree_param":{"num_deleted":"0","num_feature":"20","num_nodes":"49","size_leaf_vector":"1"}},{"base_weights":[-4.2235733E-5,4.8754367E-1,-1.5328134E0,1.1163318E0,-1.2466369E-1,-1.3143972E0,-1.5897622E0,1.1807951E0,-5.510789E-1,-4.175911E-1,1.1911896E0,-1.4287248E0,2.7298543E-3,-9.1617815E-3,-1.59608E-2,1.3329269E0,5.99651E-1,-1.5102745E-2,1.18022025E-1,-1.240541E0,-2.4688365E-1,5.33813E-1,1.5013907E0,-1.5246818E-2,-9.102854E-1,-5.7602185E-3,1.3538373E0,-4.1015336E-1,9.2937243E-1,-4.3040556E-3,5.083138E-3,-1.3560889E0,-6.794519E-1,-5.3251356E-1,1.6077705E-1,-1.5896016E-1,1.055424E0,1.2323014E0,1.6014766E-2,-1.3798837E-3,-1.1964259E-2,1.581402E-2,1.1638143E-2,-9.068653E-3,7.762946E-3,-9.480228E-4,1.0260956E-2,-6.2557976E-3,-1.4379799E-2,8.9799246E-4,-1.2556099E-2,-3.090086E-4,-8.965809E-3,3.8431047E-3,-2.6318308E-3,1.954704E-3,-9.152016E-3,1.3543091E-2,1.3221673E-3,5.725827E-3,1.4821123E-2],"categories":[],"categories_nodes":[],"categories_segments":[],"categories_sizes":[],"default_left":[0,0,0,0,0,0,0,0,0,0,0,0,0,0,0,0,0,0,0,0,0,0,0,0,0,0,0,0,0,0,0,0,0,0,0,0,0,0,0,0,0,0,0,0,0,0,0,0,0,0,0,0,0,0,0,0,0,0,0,0,0],"id":25,"left_children":[1,3,5,7,9,11,13,15,17,19,21,23,-1,-1,-1,25,27,-1,29,31,33,35,37,-1,39,-1,41,43,45,-1,-1,47,49,51,53,55,57,59,-1,-1,-1,-1,-1,-1,-1,-1,-1,-1,-1,-1,-1,-1,-1,-1,-1,-1,-1,-1,-1,-1,-1],"loss_changes":[1.3978042E3,5.463621E2,3.5249023E0,7.590173E1,2.779647E2,1.8379166E1,4.107666E-2,5.8820923E1,1.7340296E1,8.251208E1,2.5979385E1,3.2199707E0,0E0,0E0,0E0,2.2080566E1,4.756929E1,0E0,3.789044E0,5.628662E0,5.7082237E1,1.5943133E1,4.146881E-1,0E0,3.58012E0,0E0,2.0998047E1,2.1671665E1,1.07113495E1,0E0,0E0,4.0520782E0,8.647575E0,5.257766E1,1.9285774E1,5.4378605E0,6.7290077E0,3.82827E0,0E0,0E0,0E0,0E0,0E0,0E0,0E0,0E0,0E0,0E0,0E0,0E0,0E0,0E0,0E0,0E0,0E0,0E0,0E0,0E0,0E0,0E0,0E0],"parents":[2147483647,0,0,1,1,2,2,3,3,4,4,5,5,6,6,7,7,8,8,9,9,10,10,11,11,15,15,16,16,18,18,19,19,20,20,21,21,22,22,24,24,26,26,27,27,28,28,31,31,32,32,33,33,34,34,35,35,36,36,37,37],"right_children":[2,4,6,8,10,12,14,16,18,20,22,24,-1,-1,-1,26,28,-1,30,32,34,36,38,-1,40,-1,42,44,46,-1,-1,48,50,52,54,56,58,60,-1,-1,-1,-1,-1,-1,-1,-1,-1,-1,-1,-1,-1,-1,-1,-1,-1,-1,-1,-1,-1,-1,-1],"split_conditions":[3E0,1.1271676E-2,2E0,2E0,2.001445E-2,1E1,7.545009E-4,1.033237E-2,1.7730496E-3,1E0,2.1459538E-2,1E0,2.7298543E-3,-9.1617815E-3,-1.59608E-2,1.300578E-3,1E0,-1.5102745E-2,1E0,9.560453E-3,1E0,1E0,2.2760116E-2,-1.5246818E-2,4E0,-5.7602185E-3,1E0,1E0,1E0,-4.3040556E-3,5.083138E-3,4.442381E-3,1.36560695E-2,2E0,3E0,1E0,4E0,1E0,1.6014766E-2,-1.3798837E-3,-1.1964259E-2,1.581402E-2,1.1638143E-2,-9.068653E-3,7.762946E-3,-9.480228E-4,1.0260956E-2,-6.2557976E-3,-1.4379799E-2,8.9799246E-4,-1.2556099E-2,-3.090086E-4,-8.965809E-3,3.8431047E-3,-2.6318308E-3,1.954704E-3,-9.152016E-3,1.3543091E-2,1.3221673E-3,5.725827E-3,1.4821123E-2],"split_indices":[18,1,17,18,1,18,7,1,0,2,1,6,0,0,0,1,17,0,2,7,4,4,1,0,18,0,3,4,2,0,0,7,1,10,10,9,10,4,0,0,0,0,0,0,0,0,0,0,0,0,0,0,0,0,0,0,0,0,0,0,0],"split_type":[0,0,0,0,0,0,0,0,0,0,0,0,0,0,0,0,0,0,0,0,0,0,0,0,0,0,0,0,0,0,0,0,0,0,0,0,0,0,0,0,0,0,0,0,0,0,0,0,0,0,0,0,0,0,0,0,0,0,0,0,0],"sum_hessian":[1.8683286E3,1.4179501E3,4.5037854E2,6.990963E2,7.1885376E2,9.8123726E1,3.5225482E2,6.733558E2,2.5740555E1,5.8852295E2,1.3033081E2,9.162462E1,6.4991016E0,4.630061E0,3.4762476E2,5.326302E2,1.4072556E2,1.0060733E1,1.5679822E1,1.0002988E2,4.8849307E2,4.265576E1,8.767505E1,7.5676834E1,1.594779E1,5.483489E0,5.271467E2,3.4579254E1,1.0614629E2,6.476475E0,9.203347E0,8.177305E1,1.8256826E1,2.8705792E2,2.0143513E2,1.8620438E1,2.4035324E1,2.7378378E1,6.029667E1,4.7120748E0,1.1235716E1,2.3654567E2,2.9060104E2,2.4540785E1,1.0038467E1,9.161168E0,9.698513E1,9.113675E0,7.265938E1,8.179799E0,1.0077027E1,1.2118031E2,1.6587761E2,1.3195515E2,6.947997E1,1.3183295E1,5.437142E0,1.7804287E1,6.2310367E0,8.423931E0,1.8954447E1],"tree_param":{"num_deleted":"0","num_feature":"20","num_nodes":"61","size_leaf_vector":"1"}},{"base_weights":[-5.9691843E-5,4.834387E-1,-1.5226352E0,1.2050949E0,-4.1799143E-2,-1.3049347E0,-1.5794501E0,1.2849017E0,-5.4686224E-1,-2.5484893E-1,1.2998401E0,-1.4187249E0,2.7061766E-3,-9.096235E-3,-1.5857473E-2,4.776918E-1,1.3398862E0,-1.5008434E-2,1.1692454E-1,-1.1309866E0,-7.70627E-2,5.779307E-1,1.4914191E0,-1.5143569E-2,-9.0306675E-1,-6.702174E-2,1.4155403E-2,-2.8980728E-3,1.3627923E0,-4.267751E-3,5.0389683E-3,4.0868935E-3,-1.2080202E0,4.9945378E-1,-3.4068707E-1,-1.4714804E-1,1.1213183E0,1.2233859E0,1.5912531E-2,-1.3686166E-3,-1.1873867E-2,9.118251E-3,-7.2913533E-3,1.5760602E-2,1.19769545E-2,-7.847601E-3,-1.4011841E-2,2.3321114E-3,9.597282E-3,-6.8006194E-3,9.7342685E-4,1.4266208E-3,-3.645873E-3,6.43355E-3,1.2846875E-2,5.6774407E-3,1.4722809E-2],"categories":[],"categories_nodes":[],"categories_segments":[],"categories_sizes":[],"default_left":[0,0,0,0,0,0,0,0,0,0,0,0,0,0,0,0,0,0,0,0,0,0,0,0,0,0,0,0,0,0,0,0,0,0,0,0,0,0,0,0,0,0,0,0,0,0,0,0,0,0,0,0,0,0,0,0,0],"id":26,"left_children":[1,3,5,7,9,11,13,15,17,19,21,23,-1,-1,-1,25,27,-1,29,31,33,35,37,-1,39,41,-1,-1,43,-1,-1,-1,45,47,49,51,53,55,-1,-1,-1,-1,-1,-1,-1,-1,-1,-1,-1,-1,-1,-1,-1,-1,-1,-1,-1],"loss_changes":[1.3741528E3,5.370569E2,3.50354E0,8.414899E1,2.3498227E2,1.810875E1,4.248047E-2,2.4708374E1,1.7085464E1,1.1039201E2,1.4719452E1,3.1873474E0,0E0,0E0,0E0,1.9495102E1,2.033435E1,0E0,3.7233598E0,1.4675888E1,8.9946106E1,1.011753E1,4.1879272E-1,0E0,3.5250692E0,1.6853096E1,0E0,0E0,1.6664856E1,0E0,0E0,0E0,8.2314E0,2.2539726E1,6.041133E1,7.89619E-1,3.1002998E-1,3.784977E0,0E0,0E0,0E0,0E0,0E0,0E0,0E0,0E0,0E0,0E0,0E0,0E0,0E0,0E0,0E0,0E0,0E0,0E0,0E0],"parents":[2147483647,0,0,1,1,2,2,3,3,4,4,5,5,6,6,7,7,8,8,9,9,10,10,11,11,15,15,16,16,18,18,19,19,20,20,21,21,22,22,24,24,25,25,28,28,32,32,33,33,34,34,35,35,36,36,37,37],"right_children":[2,4,6,8,10,12,14,16,18,20,22,24,-1,-1,-1,26,28,-1,30,32,34,36,38,-1,40,42,-1,-1,44,-1,-1,-1,46,48,50,52,54,56,-1,-1,-1,-1,-1,-1,-1,-1,-1,-1,-1,-1,-1,-1,-1,-1,-1,-1,-1],"split_conditions":[3E0,1.06213875E-2,2E0,2E0,2.052023E-2,1E1,7.545009E-4,1E0,1.7730496E-3,1E0,2.1459538E-2,1E0,2.7061766E-3,-9.096235E-3,-1.5857473E-2,1E0,1.5895953E-3,-1.5008434E-2,1E0,7.0921984E-3,1.2066474E-2,1E0,2.2760116E-2,-1.5143569E-2,4E0,7.2254334E-3,1.4155403E-2,-2.8980728E-3,1E0,-4.267751E-3,5.0389683E-3,4.0868935E-3,