{"learner":{"attributes":{"best_iteration":"431","best_score":"0.3785648081015097","scikit_learn":"{\"_estimator_type\": \"classifier\"}"},"feature_names":["no_sentence","num_words","character0","character1","character2_3","character4","character5","std_dev","sent_len_diff","count_short_sentences_in_paragraphs","count_long_sentences_in_paragraphs","check_word0","check_word1","check_word2_3","check_word3","check_word4","check_word5","check_num","check_capitals","check_et"],"feature_types":["float","float","float","float","float","float","float","float","float","float","float","float","float","float","float","float","float","float","float","float"],"gradient_booster":{"model":{"gbtree_model_param":{"num_parallel_tree":"1","num_trees":"437"},"iteration_indptr":[0,1,2,3,4,5,6,7,8,9,10,11,12,13,14,15,16,17,18,19,20,21,22,23,24,25,26,27,28,29,30,31,32,33,34,35,36,37,38,39,40,41,42,43,44,45,46,47,48,49,50,51,52,53,54,55,56,57,58,59,60,61,62,63,64,65,66,67,68,69,70,71,72,73,74,75,76,77,78,79,80,81,82,83,84,85,86,87,88,89,90,91,92,93,94,95,96,97,98,99,100,101,102,103,104,105,106,107,108,109,110,111,112,113,114,115,116,117,118,119,120,121,122,123,124,125,126,127,128,129,130,131,132,133,134,135,136,137,138,139,140,141,142,143,144,145,146,147,148,149,150,151,152,153,154,155,156,157,158,159,160,161,162,163,164,165,166,167,168,169,170,171,172,173,174,175,176,177,178,179,180,181,182,183,184,185,186,187,188,189,190,191,192,193,194,195,196,197,198,199,200,201,202,203,204,205,206,207,208,209,210,211,212,213,214,215,216,217,218,219,220,221,222,223,224,225,226,227,228,229,230,231,232,233,234,235,236,237,238,239,240,241,242,243,244,245,246,247,248,249,250,251,252,253,254,255,256,257,258,259,260,261,262,263,264,265,266,267,268,269,270,271,272,273,274,275,276,277,278,279,280,281,282,283,284,285,286,287,288,289,290,291,292,293,294,295,296,297,298,299,300,301,302,303,304,305,306,307,308,309,310,311,312,313,314,315,316,317,318,319,320,321,322,323,324,325,326,327,328,329,330,331,332,333,334,335,336,337,338,339,340,341,342,343,344,345,346,347,348,349,350,351,352,353,354,355,356,357,358,359,360,361,362,363,364,365,366,367,368,369,370,371,372,373,374,375,376,377,378,379,380,381,382,383,384,385,386,387,388,389,390,391,392,393,394,395,396,397,398,399,400,401,402,403,404,405,406,407,408,409,410,411,412,413,414,415,416,417,418,419,420,421,422,423,424,425,426,427,428,429,430,431,432,433,434,435,436,437],"tree_info":[0,0,0,0,0,0,0,0,0,0,0,0,0,0,0,0,0,0,0,0,0,0,0,0,0,0,0,0,0,0,0,0,0,0,0,0,0,0,0,0,0,0,0,0,0,0,0,0,0,0,0,0,0,0,0,0,0,0,0,0,0,0,0,0,0,0,0,0,0,0,0,0,0,0,0,0,0,0,0,0,0,0,0,0,0,0,0,0,0,0,0,0,0,0,0,0,0,0,0,0,0,0,0,0,0,0,0,0,0,0,0,0,0,0,0,0,0,0,0,0,0,0,0,0,0,0,0,0,0,0,0,0,0,0,0,0,0,0,0,0,0,0,0,0,0,0,0,0,0,0,0,0,0,0,0,0,0,0,0,0,0,0,0,0,0,0,0,0,0,0,0,0,0,0,0,0,0,0,0,0,0,0,0,0,0,0,0,0,0,0,0,0,0,0,0,0,0,0,0,0,0,0,0,0,0,0,0,0,0,0,0,0,0,0,0,0,0,0,0,0,0,0,0,0,0,0,0,0,0,0,0,0,0,0,0,0,0,0,0,0,0,0,0,0,0,0,0,0,0,0,0,0,0,0,0,0,0,0,0,0,0,0,0,0,0,0,0,0,0,0,0,0,0,0,0,0,0,0,0,0,0,0,0,0,0,0,0,0,0,0,0,0,0,0,0,0,0,0,0,0,0,0,0,0,0,0,0,0,0,0,0,0,0,0,0,0,0,0,0,0,0,0,0,0,0,0,0,0,0,0,0,0,0,0,0,0,0,0,0,0,0,0,0,0,0,0,0,0,0,0,0,0,0,0,0,0,0,0,0,0,0,0,0,0,0,0,0,0,0,0,0,0,0,0,0,0,0,0,0,0,0,0,0,0,0,0,0,0,0,0,0,0,0,0,0,0,0,0,0,0,0,0,0,0,0,0,0,0,0,0,0,0,0,0,0,0,0,0,0,0,0,0,0,0,0,0,0,0,0,0,0,0,0,0,0,0,0],"trees":[{"base_weights":[-0E0,-1.2511251E0,5.078553E-1,-1.5809019E0,-5.4847646E-1,8.9952564E-1,-1.6492891E0,-9.142857E-1,-1.6395348E0,7.3170733E-1,-9.116608E-1,1.4878241E0,1.8285714E-1,-7.3913044E-1,-1.8802395E-2,-1.9354838E-3,-1.3488373E0,-1.2075472E0,-1.7064847E0,1.1333333E0,-3.076923E-3,-6.0606062E-2,-1.3404255E0,1.6040956E0,1.3333334E-1,1.143662E0,-3.0615166E-1,-1.4814815E-1,-1.4285714E-2,-7.2727273E-3,-1.68E-2,-1.5499999E-2,-1.3333333E-3,-1.4811715E0,-1.8404558E-2,4.347826E-3,1.4146341E-2,-5.945946E-1,1.3103448E-2,-6.153846E-3,-1.4216868E0,1.6426713E0,-6.0869562E-3,8.965517E-1,-7.4509805E-1,1.2971246E0,-0E0,5.970149E-2,-1.4730539E-2,3.5294117E-3,-8.333333E-3,-1.7627118E-2,-1.16799995E-2,-2.3999999E-3,-1.1428571E-2,-8.181818E-3,-1.5873015E-2,9.844559E-3,1.7676348E-2,1.8181818E-3,1.2E-2,-4.827586E-3,-9.230769E-3,7.2868215E-3,1.6595745E-2,7.826087E-3,-6.666667E-3,1.8762475E-3,-1.5897436E-2],"categories":[],"categories_nodes":[],"categories_segments":[],"categories_sizes":[],"default_left":[0,0,0,0,0,0,0,0,0,0,0,0,0,0,0,0,0,0,0,0,0,0,0,0,0,0,0,0,0,0,0,0,0,0,0,0,0,0,0,0,0,0,0,0,0,0,0,0,0,0,0,0,0,0,0,0,0,0,0,0,0,0,0,0,0,0,0,0,0],"id":0,"left_children":[1,3,5,7,9,11,13,15,17,19,21,23,25,27,-1,-1,29,31,33,35,-1,37,39,41,43,45,47,49,-1,-1,-1,-1,-1,51,-1,-1,-1,53,-1,-1,55,57,-1,59,61,63,65,67,-1,-1,-1,-1,-1,-1,-1,-1,-1,-1,-1,-1,-1,-1,-1,-1,-1,-1,-1,-1,-1],"loss_changes":[6.112457E2,6.349237E1,5.7959924E2,5.8686523E0,4.262815E1,2.4415921E2,2.0786499E1,5.2198915E0,2.9138184E0,8.906442E0,2.57356E1,4.990692E1,1.23683655E2,9.159652E0,0E0,0E0,9.9095154E-1,9.541824E0,1.6961365E0,2.3324852E0,0E0,1.8897905E1,1.894249E0,2.6010376E1,1.8266937E1,1.5576454E1,7.4691315E1,4.929194E0,0E0,0E0,0E0,0E0,0E0,3.2093353E0,0E0,0E0,0E0,3.3223171E0,0E0,0E0,2.849205E0,2.1969238E1,0E0,2.9266453E0,1.4968538E-1,1.4912689E1,6.521739E0,2.8572596E1,0E0,0E0,0E0,0E0,0E0,0E0,0E0,0E0,0E0,0E0,0E0,0E0,0E0,0E0,0E0,0E0,0E0,0E0,0E0,0E0,0E0],"parents":[2147483647,0,0,1,1,2,2,3,3,4,4,5,5,6,6,7,7,8,8,9,9,10,10,11,11,12,12,13,13,16,16,17,17,18,18,19,19,21,21,22,22,23,23,24,24,25,25,26,26,27,27,33,33,37,37,40,40,41,41,43,43,44,44,45,45,46,46,47,47],"right_children":[2,4,6,8,10,12,14,16,18,20,22,24,26,28,-1,-1,30,32,34,36,-1,38,40,42,44,46,48,50,-1,-1,-1,-1,-1,52,-1,-1,-1,54,-1,-1,56,58,-1,60,62,64,66,68,-1,-1,-1,-1,-1,-1,-1,-1,-1,-1,-1,-1,-1,-1,-1,-1,-1,-1,-1,-1,-1],"split_conditions":[5.7009345E-1,5.29595E-1,4.7368422E-1,1E0,9.137164E-2,1E0,1E0,4.423676E-1,8.283564E-2,4.2105263E-1,1E0,1E0,1E0,5.263158E-1,-1.8802395E-2,-1.9354838E-3,1.1141896E-1,4.9844238E-1,2.631579E-1,5.420561E-1,-3.076923E-3,1.7861076E-1,1.1464968E-1,1E0,1E0,1E0,1E0,1E0,-1.4285714E-2,-7.2727273E-3,-1.68E-2,-1.5499999E-2,-1.3333333E-3,1.4980602E-1,-1.8404558E-2,4.347826E-3,1.4146341E-2,3.6842105E-1,1.3103448E-2,-6.153846E-3,1E0,1.4649682E-1,-6.0869562E-3,1.5590444E-1,3.6842105E-1,1.5256238E-1,2.0382166E-1,1E0,-1.4730539E-2,3.5294117E-3,-8.333333E-3,-1.7627118E-2,-1.16799995E-2,-2.3999999E-3,-1.1428571E-2,-8.181818E-3,-1.5873015E-2,9.844559E-3,1.7676348E-2,1.8181818E-3,1.2E-2,-4.827586E-3,-9.230769E-3,7.2868215E-3,1.6595745E-2,7.826087E-3,-6.666667E-3,1.8762475E-3,-1.5897436E-2],"split_indices":[1,1,0,3,7,17,17,1,7,0,2,4,2,0,0,0,7,1,0,1,0,7,8,9,2,4,4,18,0,0,0,0,0,7,0,0,0,0,0,0,17,8,0,7,0,7,8,9,0,0,0,0,0,0,0,0,0,0,0,0,0,0,0,0,0,0,0,0,0],"split_type":[0,0,0,0,0,0,0,0,0,0,0,0,0,0,0,0,0,0,0,0,0,0,0,0,0,0,0,0,0,0,0,0,0,0,0,0,0,0,0,0,0,0,0,0,0,0,0,0,0,0,0,0,0,0,0,0,0,0,0,0,0,0,0,0,0,0,0,0,0],"sum_hessian":[9.6E2,2.7675E2,6.8325E2,1.875E2,8.925E1,5.7875E2,1.045E2,1.65E1,1.71E2,1.95E1,6.975E1,3.1725E2,2.615E2,2.2E1,8.25E1,6.75E0,9.75E0,2.55E1,1.455E2,1.4E1,5.5E0,2.375E1,4.6E1,2.92E2,2.525E1,8.775E1,1.7375E2,1.25E1,9.5E0,4.5E0,5.25E0,1.9E1,6.5E0,5.875E1,8.675E1,4.75E0,9.25E0,1.75E1,6.25E0,5.5E0,4.05E1,2.8725E2,4.75E0,1.35E1,1.175E1,7.725E1,1.05E1,1.33E2,4.075E1,7.5E0,5E0,2.85E1,3.025E1,1.15E1,6E0,1E1,3.05E1,4.725E1,2.4E2,4.5E0,9E0,6.25E0,5.5E0,3.125E1,4.6E1,4.75E0,5.75E0,1.2425E2,8.75E0],"tree_param":{"num_deleted":"0","num_feature":"20","num_nodes":"69","size_leaf_vector":"1"}},{"base_weights":[-1.3161318E-4,-1.2390642E0,5.027727E-1,-1.5656748E0,-5.4318243E-1,8.906023E-1,-1.633278E0,-9.0665174E-1,-1.623626E0,7.2516006E-1,-9.0301496E-1,1.4731072E0,1.8101908E-1,-7.3258823E-1,-1.8618256E-2,-1.918628E-3,-1.3376418E0,-1.1961589E0,-1.6898681E0,1.1232694E0,-3.0508928E-3,-6.003048E-2,-1.3277246E0,1.5882362E0,1.3199335E-1,1.1325552E0,-3.032596E-1,-1.4702371E-1,-1.415712E-2,-7.7496013E-3,-1.6539432E-2,-1.535363E-2,-1.3217785E-3,-1.4669304E0,-1.822414E-2,1.5048501E-2,5.721322E-3,-5.8940303E-1,1.2990969E-2,-6.1018257E-3,-1.4081205E0,1.6264527E0,-6.0367202E-3,8.8855934E-1,-7.3875856E-1,1.2845176E0,1.0085744E-4,5.9000246E-2,-1.4587535E-2,3.4982802E-3,-8.264009E-3,-1.7458135E-2,-1.1567323E-2,-2.3779238E-3,-1.13309305E-2,-8.107562E-3,-1.5720284E-2,9.748385E-3,1.7501684E-2,2.5892549E-3,1.1687559E-2,-9.1713965E-3,-4.7693187E-3,7.216306E-3,1.643443E-2,7.761535E-3,-6.6099386E-3,1.8576378E-3,-1.575566E-2],"categories":[],"categories_nodes":[],"categories_segments":[],"categories_sizes":[],"default_left":[0,0,0,0,0,0,0,0,0,0,0,0,0,0,0,0,0,0,0,0,0,0,0,0,0,0,0,0,0,0,0,0,0,0,0,0,0,0,0,0,0,0,0,0,0,0,0,0,0,0,0,0,0,0,0,0,0,0,0,0,0,0,0,0,0,0,0,0,0],"id":1,"left_children":[1,3,5,7,9,11,13,15,17,19,21,23,25,27,-1,-1,29,31,33,35,-1,37,39,41,43,45,47,49,-1,-1,-1,-1,-1,51,-1,-1,-1,53,-1,-1,55,57,-1,59,61,63,65,67,-1,-1,-1,-1,-1,-1,-1,-1,-1,-1,-1,-1,-1,-1,-1,-1,-1,-1,-1,-1,-1],"loss_changes":[5.9935675E2,6.2273773E1,5.6827454E2,5.7265015E0,4.1842686E1,2.393536E2,2.0351654E1,5.1343937E0,2.8487244E0,8.750606E0,2.524953E1,4.8925354E1,1.2130269E2,8.991919E0,0E0,0E0,6.314354E-1,9.360668E0,1.6553345E0,2.293476E0,0E0,1.8572592E1,1.8519745E0,2.5523926E1,1.7949123E1,1.5272263E1,7.32333E1,4.8459826E0,0E0,0E0,0E0,0E0,0E0,3.1492004E0,0E0,0E0,0E0,3.2671127E0,0E0,0E0,2.788643E0,2.152948E1,0E0,2.2554283E0,1.580677E-1,1.4622513E1,6.412972E0,2.8057802E1,0E0,0E0,0E0,0E0,0E0,0E0,0E0,0E0,0E0,0E0,0E0,0E0,0E0,0E0,0E0,0E0,0E0,0E0,0E0,0E0,0E0],"parents":[2147483647,0,0,1,1,2,2,3,3,4,4,5,5,6,6,7,7,8,8,9,9,10,10,11,11,12,12,13,13,16,16,17,17,18,18,19,19,21,21,22,22,23,23,24,24,25,25,26,26,27,27,33,33,37,37,40,40,41,41,43,43,44,44,45,45,46,46,47,47],"right_children":[2,4,6,8,10,12,14,16,18,20,22,24,26,28,-1,-1,30,32,34,36,-1,38,40,42,44,46,48,50,-1,-1,-1,-1,-1,52,-1,-1,-1,54,-1,-1,56,58,-1,60,62,64,66,68,-1,-1,-1,-1,-1,-1,-1,-1,-1,-1,-1,-1,-1,-1,-1,-1,-1,-1,-1,-1,-1],"split_conditions":[5.7009345E-1,5.29595E-1,4.7368422E-1,1E0,9.137164E-2,1E0,1E0,4.423676E-1,8.283564E-2,4.2105263E-1,1E0,1E0,1E0,5.263158E-1,-1.8618256E-2,-1.918628E-3,1.4649682E-1,4.9844238E-1,2.631579E-1,1E0,-3.0508928E-3,1.7861076E-1,1.1464968E-1,1E0,1E0,1E0,1E0,1E0,-1.415712E-2,-7.7496013E-3,-1.6539432E-2,-1.535363E-2,-1.3217785E-3,1.4980602E-1,-1.822414E-2,1.5048501E-2,5.721322E-3,3.6842105E-1,1.2990969E-2,-6.1018257E-3,1E0,1.4649682E-1,-6.0367202E-3,1.6084397E-1,1.6800033E-1,1.5256238E-1,2.0382166E-1,1E0,-1.4587535E-2,3.4982802E-3,-8.264009E-3,-1.7458135E-2,-1.1567323E-2,-2.3779238E-3,-1.13309305E-2,-8.107562E-3,-1.5720284E-2,9.748385E-3,1.7501684E-2,2.5892549E-3,1.1687559E-2,-9.1713965E-3,-4.7693187E-3,7.216306E-3,1.643443E-2,7.761535E-3,-6.6099386E-3,1.8576378E-3,-1.575566E-2],"split_indices":[1,1,0,3,7,17,17,1,7,0,2,4,2,0,0,0,8,1,0,17,0,7,8,9,2,4,4,18,0,0,0,0,0,7,0,0,0,0,0,0,17,8,0,7,7,7,8,9,0,0,0,0,0,0,0,0,0,0,0,0,0,0,0,0,0,0,0,0,0],"split_type":[0,0,0,0,0,0,0,0,0,0,0,0,0,0,0,0,0,0,0,0,0,0,0,0,0,0,0,0,0,0,0,0,0,0,0,0,0,0,0,0,0,0,0,0,0,0,0,0,0,0,0,0,0,0,0,0,0,0,0,0,0,0,0,0,0,0,0,0,0],"sum_hessian":[9.599498E2,2.767347E2,6.832151E2,1.8748782E2,8.924688E1,5.78723E2,1.0449211E2,1.6499563E1,1.7098827E2,1.9499502E1,6.9747375E1,3.1722958E2,2.614934E2,2.1999405E1,8.249271E1,6.7499933E0,9.74957E0,2.5498856E1,1.4548941E2,1.3999516E1,5.4999866E0,2.374952E1,4.599786E1,2.9198007E2,2.5249517E1,8.7746284E1,1.7374713E2,1.249989E1,9.499516E0,4.74988E0,4.99969E0,1.899886E1,6.499997E0,5.8746758E1,8.674265E1,7.2497168E0,6.7497983E0,1.7499786E1,6.249732E0,5.4999475E0,4.0497913E1,2.872301E2,4.749956E0,1.3499672E1,1.1749846E1,7.7246414E1,1.0499863E1,1.3299933E2,4.074779E1,7.4999766E0,4.999913E0,2.8497787E1,3.0248968E1,1.1499984E1,5.9998035E0,9.999832E0,3.0498081E1,4.7248856E1,2.3998126E2,4.749987E0,8.749685E0,5.499925E0,6.249921E0,3.1249584E1,4.5996834E1,4.749927E0,5.749936E0,1.24249886E2,8.749447E0],"tree_param":{"num_deleted":"0","num_feature":"20","num_nodes":"69","size_leaf_vector":"1"}},{"base_weights":[-2.5809053E-4,-1.2272451E0,4.9779174E-1,-1.5507938E0,-5.379485E-1,8.818494E-1,-1.6176609E0,-8.991469E-1,-1.6080879E0,7.188199E-1,-8.945167E-1,1.4587221E0,1.7920823E-1,-7.261412E-1,-1.843909E-2,-1.9019225E-3,-1.3266761E0,-1.6742696E0,-1.1861284E0,1.1135181E0,-3.025096E-3,-5.9462454E-2,-1.3152624E0,1.5727445E0,1.3069312E-1,1.1216491E0,-3.00405E-1,-1.4591011E-1,-1.403096E-2,-7.6830825E-3,-1.640696E-2,-1.3645811E0,-1.7490656E0,-2.527836E-3,-1.3761975E0,4.2364383E-3,1.3919105E-2,-5.8427E-1,1.28804E-2,-6.0503385E-3,-1.3948224E0,1.6106132E0,-5.9869867E-3,8.807155E-1,-7.3248917E-1,1.272148E0,2.0005298E-4,5.8307167E-2,-1.4447429E-2,3.4674408E-3,-8.195496E-3,-1.5333689E-2,-7.215977E-3,-1.0531802E-2,-1.774575E-2,-9.112494E-3,-1.5538232E-2,-2.3560557E-3,-1.1234744E-2,-8.034221E-3,-1.5570897E-2,9.653605E-3,1.7331403E-2,2.5678754E-3,1.1583759E-2,-9.094205E-3,-4.728294E-3,7.146655E-3,1.6276844E-2,7.697708E-3,-6.5538157E-3,1.8392132E-3,-1.5616903E-2],"categories":[],"categories_nodes":[],"categories_segments":[],"categories_sizes":[],"default_left":[0,0,0,0,0,0,0,0,0,0,0,0,0,0,0,0,0,0,0,0,0,0,0,0,0,0,0,0,0,0,0,0,0,0,0,0,0,0,0,0,0,0,0,0,0,0,0,0,0,0,0,0,0,0,0,0,0,0,0,0,0,0,0,0,0,0,0,0,0,0,0,0,0],"id":2,"left_children":[1,3,5,7,9,11,13,15,17,19,21,23,25,27,-1,-1,29,31,33,35,-1,37,39,41,43,45,47,49,-1,-1,-1,51,53,-1,55,-1,-1,57,-1,-1,59,61,-1,63,65,67,69,71,-1,-1,-1,-1,-1,-1,-1,-1,-1,-1,-1,-1,-1,-1,-1,-1,-1,-1,-1,-1,-1,-1,-1,-1,-1],"loss_changes":[5.877573E2,6.1096375E1,5.572372E2,5.5900574E0,4.108068E1,2.3468796E2,1.99346E1,5.0513964E0,2.8160706E0,8.600009E0,2.4775833E1,4.7973328E1,1.1897701E2,8.828525E0,0E0,0E0,6.240406E-1,1E0,4.3963585E0,2.2908192E0,0E0,1.8253908E1,1.8113785E0,2.5051086E1,1.7638329E1,1.4976219E1,7.181233E1,4.7642922E0,0E0,0E0,0E0,2.474102E0,1.5859985E-1,0E0,4.0045547E-1,0E0,0E0,3.2131715E0,0E0,0E0,2.7307587E0,2.1109985E1,0E0,2.214305E0,1.5573263E-1,1.4343506E1,6.3061595E0,2.7554972E1,0E0,0E0,0E0,0E0,0E0,0E0,0E0,0E0,0E0,0E0,0E0,0E0,0E0,0E0,0E0,0E0,0E0,0E0,0E0,0E0,0E0,0E0,0E0,0E0,0E0],"parents":[2147483647,0,0,1,1,2,2,3,3,4,4,5,5,6,6,7,7,8,8,9,9,10,10,11,11,12,12,13,13,16,16,17,17,18,18,19,19,21,21,22,22,23,23,24,24,25,25,26,26,27,27,31,31,32,32,34,34,37,37,40,40,41,41,43,43,44,44,45,45,46,46,47,47],"right_children":[2,4,6,8,10,12,14,16,18,20,22,24,26,28,-1,-1,30,32,34,36,-1,38,40,42,44,46,48,50,-1,-1,-1,52,54,-1,56,-1,-1,58,-1,-1,60,62,-1,64,66,68,70,72,-1,-1,-1,-1,-1,-1,-1,-1,-1,-1,-1,-1,-1,-1,-1,-1,-1,-1,-1,-1,-1,-1,-1,-1,-1],"split_conditions":[5.7009345E-1,5.29595E-1,4.7368422E-1,1E0,9.137164E-2,1E0,1E0,4.423676E-1,5.140187E-1,4.2105263E-1,1E0,1E0,1E0,5.263158E-1,-1.843909E-2,-1.9019225E-3,1.172133E-1,3.894081E-1,8.905008E-2,5.420561E-1,-3.025096E-3,1.7861076E-1,1.1464968E-1,1E0,1E0,1E0,1E0,1E0,-1.403096E-2,-7.6830825E-3,-1.640696E-2,1.7834395E-1,6.482598E-2,-2.527836E-3,1E0,4.2364383E-3,1.3919105E-2,3.6842105E-1,1.28804E-2,-6.0503385E-3,1E0,1.4649682E-1,-5.9869867E-3,1.6084397E-1,1.6800033E-1,1.5256238E-1,2.0382166E-1,1E0,-1.4447429E-2,3.4674408E-3,-8.195496E-3,-1.5333689E-2,-7.215977E-3,-1.0531802E-2,-1.774575E-2,-9.112494E-3,-1.5538232E-2,-2.3560557E-3,-1.1234744E-2,-8.034221E-3,-1.5570897E-2,9.653605E-3,1.7331403E-2,2.5678754E-3,1.1583759E-2,-9.094205E-3,-4.728294E-3,7.146655E-3,1.6276844E-2,7.697708E-3,-6.5538157E-3,1.8392132E-3,-1.5616903E-2],"split_indices":[1,1,0,3,7,17,17,1,1,0,2,4,2,0,0,0,7,1,7,1,0,7,8,9,2,4,4,18,0,0,0,8,7,0,17,0,0,0,0,0,17,8,0,7,7,7,8,9,0,0,0,0,0,0,0,0,0,0,0,0,0,0,0,0,0,0,0,0,0,0,0,0,0],"split_type":[0,0,0,0,0,0,0,0,0,0,0,0,0,0,0,0,0,0,0,0,0,0,0,0,0,0,0,0,0,0,0,0,0,0,0,0,0,0,0,0,0,0,0,0,0,0,0,0,0,0,0,0,0,0,0,0,0,0,0,0,0,0,0,0,0,0,0,0,0,0,0,0,0],"sum_hessian":[9.598015E2,2.7668964E2,6.831119E2,1.8745184E2,8.923778E1,5.786431E2,1.04468765E2,1.6498325E1,1.7095352E2,1.9498167E1,6.973962E1,3.1716922E2,2.614739E2,2.1997643E1,8.247112E1,6.749975E0,9.748351E0,1.4521034E2,2.5743172E1,1.3998218E1,5.4999485E0,2.3748093E1,4.5991524E1,2.9192105E2,2.5248156E1,8.7735275E1,1.7373862E2,1.2499563E1,9.498078E0,4.749613E0,4.9987383E0,3.199229E1,1.13218056E2,4.749658E0,2.0993513E1,4.749759E0,9.248458E0,1.7499157E1,6.248936E0,5.4997935E0,4.049173E1,2.8717123E2,4.7498255E0,1.3498737E1,1.1749417E1,7.723582E1,1.0499458E1,1.3299738E2,4.0741245E1,7.4999075E0,4.9996557E0,2.4243437E1,7.748853E0,5.498809E0,1.07719246E2,7.4977627E0,1.349575E1,1.1499934E1,5.9992228E0,9.999336E0,3.0492392E1,4.7245464E1,2.3992577E2,4.749965E0,8.748773E0,5.4996324E0,6.249785E0,3.1248358E1,4.5987457E1,4.7497115E0,5.749747E0,1.2424957E2,8.747809E0],"tree_param":{"num_deleted":"0","num_feature":"20","num_nodes":"73","size_leaf_vector":"1"}},{"base_weights":[-4.0004883E-4,-1.2157207E0,4.9290815E-1,-1.5363072E0,-5.3282744E-1,8.7326044E-1,-1.6024226E0,-8.917461E-1,-1.592975E0,7.124506E-1,-8.8616174E-1,1.4446545E0,1.7742398E-1,-7.197868E-1,-1.8264702E-2,-1.8853649E-3,-1.315899E0,-1.1724914E0,-1.658173E0,1.1037593E0,-2.9995292E-3,-5.890199E-2,-1.3030314E0,1.5576067E0,1.2940998E-1,1.1109374E0,-2.9758683E-1,-1.448071E-1,-1.3907156E-2,-7.607989E-3,-1.6286142E-2,-1.5072981E-2,-1.2374726E-3,-1.4382249E0,-1.789059E-2,1.4819034E-2,5.5884887E-3,-5.7919466E-1,1.2771683E-2,-5.999378E-3,-1.3817834E0,1.5951385E0,-5.937752E-3,8.729772E-1,-7.2629005E-1,1.2600081E0,2.9752066E-4,5.762257E-2,-1.4310122E-2,3.4368928E-3,-8.127778E-3,-1.714147E-2,-1.13179E-2,-2.3343947E-3,-1.1139977E-2,-7.961775E-3,-1.5424734E-2,8.053977E-3,1.6923849E-2,2.5466785E-3,1.1481572E-2,-4.6711927E-3,-9.036272E-3,7.0778495E-3,1.6122848E-2,7.6345936E-3,-6.4982907E-3,1.8209761E-3,-1.5481055E-2],"categories":[],"categories_nodes":[],"categories_segments":[],"categories_sizes":[],"default_left":[0,0,0,0,0,0,0,0,0,0,0,0,0,0,0,0,0,0,0,0,0,0,0,0,0,0,0,0,0,0,0,0,0,0,0,0,0,0,0,0,0,0,0,0,0,0,0,0,0,0,0,0,0,0,0,0,0,0,0,0,0,0,0,0,0,0,0,0,0],"id":3,"left_children":[1,3,5,7,9,11,13,15,17,19,21,23,25,27,-1,-1,29,31,33,35,-1,37,39,41,43,45,47,49,-1,-1,-1,-1,-1,51,-1,-1,-1,53,-1,-1,55,57,-1,59,61,63,65,67,-1,-1,-1,-1,-1,-1,-1,-1,-1,-1,-1,-1,-1,-1,-1,-1,-1,-1,-1,-1,-1],"loss_changes":[5.7648114E2,5.9959167E1,5.4647656E2,5.4607544E0,4.0329292E1,2.3015573E2,1.9534454E1,4.9704924E0,2.768341E0,8.450765E0,2.4314072E1,4.7050842E1,1.167049E2,8.669304E0,0E0,0E0,6.2638855E-1,9.114727E0,1.6417542E0,2.2618294E0,0E0,1.7941675E1,1.7723618E0,2.459137E1,1.7333525E1,1.4687988E1,7.0427185E1,4.684092E0,0E0,0E0,0E0,0E0,0E0,3.1094208E0,0E0,0E0,0E0,3.1604538E0,0E0,0E0,2.675377E0,2.0760986E1,0E0,2.1742477E0,1.6383553E-1,1.4075096E1,6.2012644E0,2.7063726E1,0E0,0E0,0E0,0E0,0E0,0E0,0E0,0E0,0E0,0E0,0E0,0E0,0E0,0E0,0E0,0E0,0E0,0E0,0E0,0E0,0E0],"parents":[2147483647,0,0,1,1,2,2,3,3,4,4,5,5,6,6,7,7,8,8,9,9,10,10,11,11,12,12,13,13,16,16,17,17,18,18,19,19,21,21,22,22,23,23,24,24,25,25,26,26,27,27,33,33,37,37,40,40,41,41,43,43,44,44,45,45,46,46,47,47],"right_children":[2,4,6,8,10,12,14,16,18,20,22,24,26,28,-1,-1,30,32,34,36,-1,38,40,42,44,46,48,50,-1,-1,-1,-1,-1,52,-1,-1,-1,54,-1,-1,56,58,-1,60,62,64,66,68,-1,-1,-1,-1,-1,-1,-1,-1,-1,-1,-1,-1,-1,-1,-1,-1,-1,-1,-1,-1,-1],"split_conditions":[5.7009345E-1,5.29595E-1,4.7368422E-1,1E0,9.137164E-2,1E0,1E0,4.423676E-1,8.283564E-2,4.2105263E-1,1E0,1E0,1E0,5.263158E-1,-1.8264702E-2,-1.8853649E-3,1.4649682E-1,4.9844238E-1,2.631579E-1,1E0,-2.9995292E-3,1.7861076E-1,1.1464968E-1,1E0,1E0,1E0,1E0,1E0,-1.3907156E-2,-7.607989E-3,-1.6286142E-2,-1.5072981E-2,-1.2374726E-3,1.4980602E-1,-1.789059E-2,1.4819034E-2,5.5884887E-3,3.6842105E-1,1.2771683E-2,-5.999378E-3,1E0,1.1141896E-1,-5.937752E-3,1.6084397E-1,3.6842105E-1,1.5256238E-1,2.0382166E-1,1E0,-1.4310122E-2,3.4368928E-3,-8.127778E-3,-1.714147E-2,-1.13179E-2,-2.3343947E-3,-1.1139977E-2,-7.961775E-3,-1.5424734E-2,8.053977E-3,1.6923849E-2,2.5466785E-3,1.1481572E-2,-4.6711927E-3,-9.036272E-3,7.0778495E-3,1.6122848E-2,7.6345936E-3,-6.4982907E-3,1.8209761E-3,-1.5481055E-2],"split_indices":[1,1,0,3,7,17,17,1,7,0,2,4,2,0,0,0,8,1,0,17,0,7,8,9,2,4,4,18,0,0,0,0,0,7,0,0,0,0,0,0,17,7,0,7,0,7,8,9,0,0,0,0,0,0,0,0,0,0,0,0,0,0,0,0,0,0,0,0,0],"split_type":[0,0,0,0,0,0,0,0,0,0,0,0,0,0,0,0,0,0,0,0,0,0,0,0,0,0,0,0,0,0,0,0,0,0,0,0,0,0,0,0,0,0,0,0,0,0,0,0,0,0,0,0,0,0,0,0,0,0,0,0,0,0,0,0,0,0,0,0,0],"sum_hessian":[9.595595E2,2.7661725E2,6.829423E2,1.8739453E2,8.922272E1,5.785119E2,1.0443042E2,1.6496277E1,1.7089825E2,1.9495863E1,6.972685E1,3.1707007E2,2.6144183E2,2.1994741E1,8.243568E1,6.7499437E0,9.746333E0,2.5489742E1,1.4540851E2,1.3995977E1,5.499885E0,2.3745749E1,4.5981106E1,2.9182416E2,2.52459E1,8.771718E1,1.7372464E2,1.2499025E1,9.495717E0,4.749098E0,4.9972353E0,1.8990025E1,6.499719E0,5.8720184E1,8.6688324E1,7.2472005E0,6.7487764E0,1.7498121E1,6.247627E0,5.4995394E0,4.0481564E1,2.8707455E2,4.7496104E0,1.3497206E1,1.17486925E1,7.721839E1,1.0498791E1,1.3299416E2,4.073049E1,7.4997935E0,4.999232E0,2.8481152E1,3.023903E1,1.1499854E1,5.998267E0,9.998521E0,3.0483044E1,3.249151E1,2.5458304E2,4.749927E0,8.747279E0,6.2494535E0,5.499239E0,3.1246338E1,4.5972054E1,4.7493563E0,5.749435E0,1.2424904E2,8.745113E0],"tree_param":{"num_deleted":"0","num_feature":"20","num_nodes":"69","size_leaf_vector":"1"}},{"base_weights":[-5.2359275E-4,-1.2043705E0,4.8811534E-1,-1.5220697E0,-5.2776164E-1,8.6482555E-1,-1.5875489E0,-8.844455E-1,-1.5781293E0,7.062824E-1,-8.779456E-1,1.430883E0,1.7566565E-1,-7.135232E-1,-1.8094897E-2,-1.8689543E-3,-1.3053023E0,-1.6434915E0,-1.1617966E0,1.0943018E0,-2.9741891E-3,-5.8348943E-2,-1.2910237E0,1.5427983E0,1.2814356E-1,1.1004138E0,-2.948044E-1,-1.437146E-1,-1.37856435E-2,-7.5431447E-3,-1.6159005E-2,-1.337988E0,-1.7173542E0,-2.4680025E-3,-1.3482903E0,4.1276994E-3,1.3699638E-2,-5.74176E-1,1.266476E-2,-5.9489394E-3,-1.3689945E0,1.5800037E0,-5.889008E-3,8.653419E-1,-7.201582E-1,1.2480904E0,3.9340655E-4,5.6946002E-2,-1.4175513E-2,3.4066304E-3,-8.06084E-3,-1.5044206E-2,-7.0501E-3,-1.0330326E-2,-1.7424677E-2,-8.889673E-3,-1.5245374E-2,-8.160608E-3,1.040955E-3,-7.8902105E-3,-1.5281675E-2,9.450122E-3,1.7006699E-2,2.5256649E-3,1.138095E-2,-8.960763E-3,-4.631115E-3,7.0098736E-3,1.5972314E-2,7.572177E-3,-6.4433496E-3,1.8029214E-3,-1.5348022E-2],"categories":[],"categories_nodes":[],"categories_segments":[],"categories_sizes":[],"default_left":[0,0,0,0,0,0,0,0,0,0,0,0,0,0,0,0,0,0,0,0,0,0,0,0,0,0,0,0,0,0,0,0,0,0,0,0,0,0,0,0,0,0,0,0,0,0,0,0,0,0,0,0,0,0,0,0,0,0,0,0,0,0,0,0,0,0,0,0,0,0,0,0,0],"id":4,"left_children":[1,3,5,7,9,11,13,15,17,19,21,23,25,27,-1,-1,29,31,33,35,-1,37,39,41,43,45,47,49,-1,-1,-1,51,53,-1,55,-1,-1,57,-1,-1,59,61,-1,63,65,67,69,71,-1,-1,-1,-1,-1,-1,-1,-1,-1,-1,-1,-1,-1,-1,-1,-1,-1,-1,-1,-1,-1,-1,-1,-1,-1],"loss_changes":[5.6543695E2,5.8850952E1,5.359816E2,5.3355103E0,3.9600197E1,2.2574844E2,1.9150238E1,4.891576E0,2.7662659E0,8.306498E0,2.3863811E1,4.6155945E1,1.1448476E2,8.514131E0,0E0,0E0,6.197109E-1,9.988098E-1,4.227894E0,2.2512894E0,0E0,1.7635729E1,1.7348404E0,2.4144043E1,1.7034555E1,1.44073105E1,6.907653E1,4.6053505E0,0E0,0E0,0E0,2.4128418E0,1.612854E-1,0E0,4.2390442E-1,0E0,0E0,3.1195812E0,0E0,0E0,2.6223679E0,2.0455566E1,0E0,2.1352139E0,1.6145802E-1,1.3816742E1,6.0982413E0,2.6583715E1,0E0,0E0,0E0,0E0,0E0,0E0,0E0,0E0,0E0,0E0,0E0,0E0,0E0,0E0,0E0,0E0,0E0,0E0,0E0,0E0,0E0,0E0,0E0,0E0,0E0],"parents":[2147483647,0,0,1,1,2,2,3,3,4,4,5,5,6,6,7,7,8,8,9,9,10,10,11,11,12,12,13,13,16,16,17,17,18,18,19,19,21,21,22,22,23,23,24,24,25,25,26,26,27,27,31,31,32,32,34,34,37,37,40,40,41,41,43,43,44,44,45,45,46,46,47,47],"right_children":[2,4,6,8,10,12,14,16,18,20,22,24,26,28,-1,-1,30,32,34,36,-1,38,40,42,44,46,48,50,-1,-1,-1,52,54,-1,56,-1,-1,58,-1,-1,60,62,-1,64,66,68,70,72,-1,-1,-1,-1,-1,-1,-1,-1,-1,-1,-1,-1,-1,-1,-1,-1,-1,-1,-1,-1,-1,-1,-1,-1,-1],"split_conditions":[5.7009345E-1,5.29595E-1,4.7368422E-1,1E0,9.137164E-2,1E0,1E0,4.423676E-1,5.140187E-1,4.2105263E-1,1E0,1E0,1E0,5.263158E-1,-1.8094897E-2,-1.8689543E-3,1.172133E-1,3.894081E-1,8.905008E-2,5.420561E-1,-2.9741891E-3,1.7861076E-1,1.1464968E-1,1E0,1E0,1E0,1E0,1E0,-1.37856435E-2,-7.5431447E-3,-1.6159005E-2,1.7834395E-1,6.482598E-2,-2.4680025E-3,1E0,4.1276994E-3,1.3699638E-2,5.576324E-1,1.266476E-2,-5.9489394E-3,1E0,1.4649682E-1,-5.889008E-3,1.6084397E-1,1.6800033E-1,1.5256238E-1,2.0382166E-1,1E0,-1.4175513E-2,3.4066304E-3,-8.06084E-3,-1.5044206E-2,-7.0501E-3,-1.0330326E-2,-1.7424677E-2,-8.889673E-3,-1.5245374E-2,-8.160608E-3,1.040955E-3,-7.8902105E-3,-1.5281675E-2,9.450122E-3,1.7006699E-2,2.5256649E-3,1.138095E-2,-8.960763E-3,-4.631115E-3,7.0098736E-3,1.5972314E-2,7.572177E-3,-6.4433496E-3,1.8029214E-3,-1.5348022E-2],"split_indices":[1,1,0,3,7,17,17,1,1,0,2,4,2,0,0,0,7,1,7,1,0,7,8,9,2,4,4,18,0,0,0,8,7,0,17,0,0,1,0,0,17,8,0,7,7,7,8,9,0,0,0,0,0,0,0,0,0,0,0,0,0,0,0,0,0,0,0,0,0,0,0,0,0],"split_type":[0,0,0,0,0,0,0,0,0,0,0,0,0,0,0,0,0,0,0,0,0,0,0,0,0,0,0,0,0,0,0,0,0,0,0,0,0,0,0,0,0,0,0,0,0,0,0,0,0,0,0,0,0,0,0,0,0,0,0,0,0,0,0,0,0,0,0,0,0,0,0,0,0],"sum_hessian":[9.5922516E2,2.7651578E2,6.8270935E2,1.8731375E2,8.920203E1,5.7833185E2,1.0437752E2,1.649346E1,1.7082028E2,1.9492788E1,6.9709236E1,3.1693427E2,2.6139758E2,2.1990736E1,8.238678E1,6.7499013E0,9.743559E0,1.450937E2,2.5726578E1,1.3992991E1,5.499797E0,2.3742506E1,4.5966732E1,2.9169147E2,2.5242802E1,8.769222E1,1.7370535E2,1.24982815E1,9.492455E0,4.7485056E0,4.9950533E0,3.1971367E1,1.1312234E2,4.7491484E0,2.0977428E1,4.7490563E0,9.243935E0,1.7496687E1,6.245818E0,5.4991875E0,4.0467545E1,2.8694217E2,4.749314E0,1.3495094E1,1.1747707E1,7.719436E1,1.0497869E1,1.329897E2,4.0715656E1,7.499636E0,4.9986453E0,2.4225006E1,7.746361E0,5.4959917E0,1.0762635E2,7.4931536E0,1.3484276E1,1.2747524E1,4.7491636E0,9.997395E0,3.047015E1,4.723024E1,2.3971191E2,4.7498736E0,8.74522E0,5.498553E0,6.2491546E0,3.1243553E1,4.59508E1,4.748865E0,5.749004E0,1.2424831E2,8.741391E0],"tree_param":{"num_deleted":"0","num_feature":"20","num_nodes":"73","size_leaf_vector":"1"}},{"base_weights":[-6.5410027E-4,-1.1932724E0,4.8341653E-1,-1.5082E0,-5.227315E-1,8.5654813E-1,-1.573026E0,-8.7724394E-1,-1.5636796E0,7.000827E-1,-8.6976963E-1,1.417415E0,1.7393263E-1,-7.0734763E-1,-1.7929502E-2,-1.8526872E-3,-1.2948835E0,-1.6283714E0,-1.1516085E0,1.0848321E0,-2.9490741E-3,-5.7549376E-2,-1.2792323E0,1.5283276E0,1.2689357E-1,1.0900726E0,-2.920568E-1,-1.4263242E-1,-1.3666338E-2,-7.4698054E-3,-1.604316E-2,-1.3258559E0,-1.701512E0,-2.4476629E-3,-1.3365116E0,1.4597737E-2,5.458879E-3,-5.6885976E-1,1.2559593E-2,-1.0958757E0,-1.6975848E-2,1.5652168E0,-5.840747E-3,8.5780734E-1,-7.140942E-1,1.2363876E0,4.877164E-4,5.627754E-2,-1.4043511E0,3.3766506E-3,-7.994665E-3,-1.4907459E-2,-6.988683E-3,-1.0245524E-2,-1.726337E-2,-8.813483E-3,-1.5111591E-2,-2.261867E-3,-1.0997736E-2,-8.494349E-3,-1.6393542E-2,7.879776E-3,1.6610123E-2,2.5048307E-3,1.12818545E-2,-4.5751343E-3,-8.904221E-3,6.9427127E-3,1.5825111E-2,7.510445E-3,-6.3889828E-3,1.7850492E-3,-1.5217708E-2,-1.0615887E-2,-1.5183889E-2],"categories":[],"categories_nodes":[],"categories_segments":[],"categories_sizes":[],"default_left":[0,0,0,0,0,0,0,0,0,0,0,0,0,0,0,0,0,0,0,0,0,0,0,0,0,0,0,0,0,0,0,0,0,0,0,0,0,0,0,0,0,0,0,0,0,0,0,0,0,0,0,0,0,0,0,0,0,0,0,0,0,0,0,0,0,0,0,0,0,0,0,0,0,0,0],"id":5,"left_children":[1,3,5,7,9,11,13,15,17,19,21,23,25,27,-1,-1,29,31,33,35,-1,37,39,41,43,45,47,49,-1,-1,-1,51,53,-1,55,-1,-1,57,-1,59,-1,61,-1,63,65,67,69,71,73,-1,-1,-1,-1,-1,-1,-1,-1,-1,-1,-1,-1,-1,-1,-1,-1,-1,-1,-1,-1,-1,-1,-1,-1,-1,-1],"loss_changes":[5.54682E2,5.778839E1,5.257466E2,5.216736E0,3.8876366E1,2.2146674E2,1.8781189E1,4.8146067E0,2.7024841E0,8.163472E0,2.343517E1,4.528888E1,1.1231498E2,8.362839E0,0E0,0E0,6.224594E-1,9.746094E-1,4.152645E0,2.2320118E0,0E0,1.7329372E1,1.7409668E0,2.3708923E1,1.6741308E1,1.4133911E1,6.775921E1,4.5280347E0,0E0,0E0,0E0,2.3654022E0,1.479187E-1,0E0,4.1440964E-1,0E0,0E0,3.1161065E0,0E0,3.357273E0,0E0,2.0117554E1,0E0,2.097169E0,1.6929865E-1,1.35679245E1,5.997055E0,2.6114582E1,1.7936707E-2,0E0,0E0,0E0,0E0,0E0,0E0,0E0,0E0,0E0,0E0,0E0,0E0,0E0,0E0,0E0,0E0,0E0,0E0,0E0,0E0,0E0,0E0,0E0,0E0,0E0,0E0],"parents":[2147483647,0,0,1,1,2,2,3,3,4,4,5,5,6,6,7,7,8,8,9,9,10,10,11,11,12,12,13,13,16,16,17,17,18,18,19,19,21,21,22,22,23,23,24,24,25,25,26,26,27,27,31,31,32,32,34,34,37,37,39,39,41,41,43,43,44,44,45,45,46,46,47,47,48,48],"right_children":[2,4,6,8,10,12,14,16,18,20,22,24,26,28,-1,-1,30,32,34,36,-1,38,40,42,44,46,48,50,-1,-1,-1,52,54,-1,56,-1,-1,58,-1,60,-1,62,-1,64,66,68,70,72,74,-1,-1,-1,-1,-1,-1,-1,-1,-1,-1,-1,-1,-1,-1,-1,-1,-1,-1,-1,-1,-1,-1,-1,-1,-1,-1],"split_conditions":[5.7009345E-1,5.29595E-1,4.7368422E-1,1E0,9.137164E-2,1E0,1E0,4.423676E-1,5.140187E-1,4.2105263E-1,1E0,1E0,1E0,5.263158E-1,-1.7929502E-2,-1.8526872E-3,1.4649682E-1,3.894081E-1,8.905008E-2,1E0,-2.9490741E-3,1.7861076E-1,1E0,1E0,1E0,1E0,1E0,1E0,-1.3666338E-2,-7.4698054E-3,-1.604316E-2,1.7834395E-1,6.482598E-2,-2.4476629E-3,1E0,1.4597737E-2,5.458879E-3,3.6842105E-1,1.2559593E-2,1E0,-1.6975848E-2,1.1141896E-1,-5.840747E-3,1.6084397E-1,3.6842105E-1,1.5256238E-1,2.0382166E-1,1E0,3.1578946E-1,3.3766506E-3,-7.994665E-3,-1.4907459E-2,-6.988683E-3,-1.0245524E-2,-1.726337E-2,-8.813483E-3,-1.5111591E-2,-2.261867E-3,-1.0997736E-2,-8.494349E-3,-1.6393542E-2,7.879776E-3,1.6610123E-2,2.5048307E-3,1.12818545E-2,-4.5751343E-3,-8.904221E-3,6.9427127E-3,1.5825111E-2,7.510445E-3,-6.3889828E-3,1.7850492E-3,-1.5217708E-2,-1.0615887E-2,-1.5183889E-2],"split_indices":[1,1,0,3,7,17,17,1,1,0,2,4,2,0,0,0,8,1,7,17,0,7,4,9,2,4,4,18,0,0,0,8,7,0,17,0,0,0,0,9,0,7,0,7,0,7,8,9,0,0,0,0,0,0,0,0,0,0,0,0,0,0,0,0,0,0,0,0,0,0,0,0,0,0,0],"split_type":[0,0,0,0,0,0,0,0,0,0,0,0,0,0,0,0,0,0,0,0,0,0,0,0,0,0,0,0,0,0,0,0,0,0,0,0,0,0,0,0,0,0,0,0,0,0,0,0,0,0,0,0,0,0,0,0,0,0,0,0,0,0,0,0,0,0,0,0,0,0,0,0,0,0,0],"sum_hessian":[9.5880273E2,2.763894E2,6.824133E2,1.8721323E2,8.917619E1,5.7810284E2,1.043105E2,1.6489874E1,1.7072334E2,1.948877E1,6.9687416E1,3.1676132E2,2.6134152E2,2.1985655E1,8.2324844E1,6.749848E0,9.7400255E0,1.4500679E2,2.5716555E1,1.3989085E1,5.499685E0,2.3738901E1,4.5948517E1,2.9152246E2,2.5238857E1,8.766061E1,1.7368091E2,1.2497337E1,9.4883175E0,4.7476106E0,4.9924154E0,3.1957075E1,1.1304971E2,4.7490406E0,2.0967514E1,7.2421575E0,6.7469277E0,1.7495378E1,6.243522E0,3.446335E1,1.1485171E1,2.8677353E2,4.7489357E0,1.3492417E1,1.1746441E1,7.71639E1,1.0496697E1,1.3298404E2,4.0696865E1,7.4994364E0,4.9979014E0,2.4211987E1,7.7450886E0,5.4943514E0,1.0755537E2,7.4910083E0,1.3476505E1,1.1499302E1,5.9960775E0,2.5474754E1,8.988592E0,3.2479137E1,2.542944E2,4.749806E0,8.742611E0,6.2485843E0,5.497856E0,3.1240025E1,4.592388E1,4.748241E0,5.7484565E0,1.2424737E2,8.7366705E0,1.2733376E1,2.796349E1],"tree_param":{"num_deleted":"0","num_feature":"20","num_nodes":"75","size_leaf_vector":"1"}},{"base_weights":[-8.139797E-4,-1.1824443E0,4.7878483E-1,-1.4946245E0,-5.179587E-1,8.4839374E-1,-1.5588409E0,-8.7013835E-1,-1.5495459E0,6.940783E-1,-8.6198163E-1,1.4042219E0,1.7217903E-1,-7.012582E-1,-1.7768342E-2,-1.8365677E-3,-1.2846351E0,-1.1378196E0,-1.6134844E0,1.0756531E0,-2.9241825E-3,-5.701304E-2,-1.267881E0,1.5141622E0,1.256595E-1,1.0799081E0,-2.8941002E-1,-1.415604E-1,-1.35491835E-2,-7.406565E-3,-1.5921043E-2,-1.467467E-2,-1.0846847E-3,-1.396803E0,-1.7426893E-2,4.0215105E-3,1.3487503E-2,-5.639518E-1,1.2456123E-2,-1.0860063E0,-1.6830046E-2,1.5507445E0,-5.792959E-3,8.50371E-1,-7.080953E-1,1.2248931E0,5.80523E-4,5.561699E-2,-1.3916702E0,3.3469533E-3,-7.929241E-3,-1.6698148E-2,-1.094558E-2,-2.2410953E-3,-1.0906395E-2,-8.414808E-3,-1.625537E-2,9.252799E-3,1.6697278E-2,2.4841754E-3,1.1184241E-2,-4.535979E-3,-8.83033E-3,6.8763485E-3,1.568112E-2,7.4493866E-3,-6.335184E-3,1.7673568E-3,-1.5090025E-2,-1.0521495E-2,-1.5046135E-2],"categories":[],"categories_nodes":[],"categories_segments":[],"categories_sizes":[],"default_left":[0,0,0,0,0,0,0,0,0,0,0,0,0,0,0,0,0,0,0,0,0,0,0,0,0,0,0,0,0,0,0,0,0,0,0,0,0,0,0,0,0,0,0,0,0,0,0,0,0,0,0,0,0,0,0,0,0,0,0,0,0,0,0,0,0,0,0,0,0,0,0],"id":6,"left_children":[1,3,5,7,9,11,13,15,17,19,21,23,25,27,-1,-1,29,31,33,35,-1,37,39,41,43,45,47,49,-1,-1,-1,-1,-1,51,-1,-1,-1,53,-1,55,-1,57,-1,59,61,63,65,67,69,-1,-1,-1,-1,-1,-1,-1,-1,-1,-1,-1,-1,-1,-1,-1,-1,-1,-1,-1,-1,-1,-1],"loss_changes":[5.442076E2,5.673593E1,5.1575037E2,5.102783E0,3.8186485E1,2.173162E2,1.8426422E1,4.739484E0,2.6816711E0,8.025191E0,2.301566E1,4.444684E1,1.1020496E2,8.215305E0,0E0,0E0,6.164303E-1,8.819057E0,1.6573792E0,2.2137203E0,0E0,1.703563E1,1.7153625E0,2.3285278E1,1.6453627E1,1.3867485E1,6.64992E1,4.452121E0,0E0,0E0,0E0,0E0,0E0,3.0928574E0,0E0,0E0,0E0,3.0657067E0,0E0,3.309124E0,0E0,1.9856018E1,0E0,2.0600758E0,1.6687727E-1,1.33281555E1,5.8976684E0,2.565601E1,1.5007019E-2,0E0,0E0,0E0,0E0,0E0,0E0,0E0,0E0,0E0,0E0,0E0,0E0,0E0,0E0,0E0,0E0,0E0,0E0,0E0,0E0,0E0,0E0],"parents":[2147483647,0,0,1,1,2,2,3,3,4,4,5,5,6,6,7,7,8,8,9,9,10,10,11,11,12,12,13,13,16,16,17,17,18,18,19,19,21,21,22,22,23,23,24,24,25,25,26,26,27,27,33,33,37,37,39,39,41,41,43,43,44,44,45,45,46,46,47,47,48,48],"right_children":[2,4,6,8,10,12,14,16,18,20,22,24,26,28,-1,-1,30,32,34,36,-1,38,40,42,44,46,48,50,-1,-1,-1,-1,-1,52,-1,-1,-1,54,-1,56,-1,58,-1,60,62,64,66,68,70,-1,-1,-1,-1,-1,-1,-1,-1,-1,-1,-1,-1,-1,-1,-1,-1,-1,-1,-1,-1,-1,-1],"split_conditions":[5.7009345E-1,5.29595E-1,4.7368422E-1,1E0,9.137164E-2,1E0,1E0,4.423676E-1,8.283564E-2,4.2105263E-1,1E0,1E0,1E0,5.263158E-1,-1.7768342E-2,-1.8365677E-3,1.172133E-1,4.9844238E-1,2.631579E-1,5.420561E-1,-2.9241825E-3,1.7861076E-1,1E0,1E0,1E0,1E0,1E0,1E0,-1.35491835E-2,-7.406565E-3,-1.5921043E-2,-1.467467E-2,-1.0846847E-3,1.4980602E-1,-1.7426893E-2,4.0215105E-3,1.3487503E-2,3.6842105E-1,1.2456123E-2,1E0,-1.6830046E-2,1.4649682E-1,-5.792959E-3,1.6084397E-1,3.6842105E-1,1.5256238E-1,2.0382166E-1,1E0,3.1578946E-1,3.3469533E-3,-7.929241E-3,-1.6698148E-2,-1.094558E-2,-2.2410953E-3,-1.0906395E-2,-8.414808E-3,-1.625537E-2,9.252799E-3,1.6697278E-2,2.4841754E-3,1.1184241E-2,-4.535979E-3,-8.83033E-3,6.8763485E-3,1.568112E-2,7.4493866E-3,-6.335184E-3,1.7673568E-3,-1.5090025E-2,-1.0521495E-2,-1.5046135E-2],"split_indices":[1,1,0,3,7,17,17,1,7,0,2,4,2,0,0,0,7,1,0,1,0,7,4,9,2,4,4,18,0,0,0,0,0,7,0,0,0,0,0,9,0,8,0,7,0,7,8,9,0,0,0,0,0,0,0,0,0,0,0,0,0,0,0,0,0,0,0,0,0,0,0],"split_type":[0,0,0,0,0,0,0,0,0,0,0,0,0,0,0,0,0,0,0,0,0,0,0,0,0,0,0,0,0,0,0,0,0,0,0,0,0,0,0,0,0,0,0,0,0,0,0,0,0,0,0,0,0,0,0,0,0,0,0,0,0,0,0,0,0,0,0,0,0,0,0],"sum_hessian":[9.5829645E2,2.7623822E2,6.820582E2,1.8709183E2,8.9146385E1,5.778284E2,1.0422979E2,1.6485558E1,1.7060628E2,1.9484047E1,6.966234E1,3.16554E2,2.6127444E2,2.1979527E1,8.225026E1,6.7497826E0,9.735776E0,2.5459259E1,1.4514702E2,1.3984497E1,5.4995503E0,2.3734058E1,4.592828E1,2.9131985E2,2.5234118E1,8.762251E1,1.7365192E2,1.2496199E1,9.483328E0,4.7467117E0,4.9890637E0,1.8961317E1,6.497943E0,5.8631172E1,8.651585E1,4.7479186E0,9.236578E0,1.7493307E1,6.2407517E0,3.4450756E1,1.1477522E1,2.8657138E2,4.7484803E0,1.3489192E1,1.17449255E1,7.7127235E1,1.0495283E1,1.3297723E2,4.0674694E1,7.499195E0,4.997003E0,2.842801E1,3.020316E1,1.1499091E1,5.994216E0,2.5467884E1,8.982874E0,4.7204727E1,2.3936665E2,4.7497234E0,8.739468E0,6.2481318E0,5.496794E0,3.1235773E1,4.589146E1,4.747488E0,5.7477956E0,1.24246254E2,8.730978E0,1.2728137E1,2.7946556E1],"tree_param":{"num_deleted":"0","num_feature":"20","num_nodes":"71","size_leaf_vector":"1"}},{"base_weights":[-9.5680257E-4,-1.171786E0,4.7424164E-1,-1.4812658E0,-5.132865E-1,8.403876E-1,-1.5449808E0,-8.631273E-1,-1.5356438E0,6.880407E-1,-8.5431707E-1,1.3913116E0,1.7045037E-1,-6.952526E-1,-1.7611248E-2,-1.820591E-3,-1.2745551E0,-1.5996349E0,-1.1285353E0,1.0664575E0,-2.8995096E-3,-5.6483462E-2,-1.2567266E0,1.5003111E0,1.24441154E-1,1.0699152E0,-2.8679526E-1,-1.404985E-1,-1.3434104E-2,-7.3349094E-3,-1.5809875E-2,-1.3007343E0,-1.6719984E0,-2.390409E-3,-1.3101585E0,1.4384159E-2,5.33236E-3,-5.590976E-1,1.2354304E-2,-1.0762868E0,-1.6687607E-2,1.5365962E0,-5.745642E-3,8.430307E-1,-7.021618E-1,1.2136002E0,6.718208E-4,5.4964412E-2,-1.3792264E0,3.3175307E-3,-7.864553E-3,-1.4635491E-2,-6.8295053E-3,-1.0053005E-2,-1.6964914E-2,-8.600294E-3,-1.4836899E-2,-7.989139E-3,1.1150964E-3,-8.33628E-3,-1.6120225E-2,7.710411E-3,1.6310751E-2,2.4636933E-3,1.1088073E-2,-8.775123E-3,-4.4810898E-3,6.81077E-3,1.5540226E-2,7.388991E-3,-6.281942E-3,1.7498439E-3,-1.4964887E-2,-1.0428442E-2,-1.4911196E-2],"categories":[],"categories_nodes":[],"categories_segments":[],"categories_sizes":[],"default_left":[0,0,0,0,0,0,0,0,0,0,0,0,0,0,0,0,0,0,0,0,0,0,0,0,0,0,0,0,0,0,0,0,0,0,0,0,0,0,0,0,0,0,0,0,0,0,0,0,0,0,0,0,0,0,0,0,0,0,0,0,0,0,0,0,0,0,0,0,0,0,0,0,0,0,0],"id":7,"left_children":[1,3,5,7,9,11,13,15,17,19,21,23,25,27,-1,-1,29,31,33,35,-1,37,39,41,43,45,47,49,-1,-1,-1,51,53,-1,55,-1,-1,57,-1,59,-1,61,-1,63,65,67,69,71,73,-1,-1,-1,-1,-1,-1,-1,-1,-1,-1,-1,-1,-1,-1,-1,-1,-1,-1,-1,-1,-1,-1,-1,-1,-1,-1],"loss_changes":[5.339559E2,5.5702454E1,5.059975E2,4.992157E0,3.7505447E1,2.1328125E2,1.808522E1,4.666177E0,2.6617126E0,7.8880434E0,2.2606117E1,4.363031E1,1.0814198E2,8.07139E0,0E0,0E0,6.195221E-1,9.783325E-1,3.998127E0,2.2038631E0,0E0,1.6747711E1,1.6911621E0,2.2872925E1,1.6171408E1,1.3607826E1,6.52693E1,4.377574E0,0E0,0E0,0E0,2.3115044E0,1.5390015E-1,0E0,4.376335E-1,0E0,0E0,3.0628357E0,0E0,3.2629166E0,0E0,1.9524902E1,0E0,2.023903E0,1.744647E-1,1.3096985E1,5.8000464E0,2.5207666E1,1.2611389E-2,0E0,0E0,0E0,0E0,0E0,0E0,0E0,0E0,0E0,0E0,0E0,0E0,0E0,0E0,0E0,0E0,0E0,0E0,0E0,0E0,0E0,0E0,0E0,0E0,0E0,0E0],"parents":[2147483647,0,0,1,1,2,2,3,3,4,4,5,5,6,6,7,7,8,8,9,9,10,10,11,11,12,12,13,13,16,16,17,17,18,18,19,19,21,21,22,22,23,23,24,24,25,25,26,26,27,27,31,31,32,32,34,34,37,37,39,39,41,41,43,43,44,44,45,45,46,46,47,47,48,48],"right_children":[2,4,6,8,10,12,14,16,18,20,22,24,26,28,-1,-1,30,32,34,36,-1,38,40,42,44,46,48,50,-1,-1,-1,52,54,-1,56,-1,-1,58,-1,60,-1,62,-1,64,66,68,70,72,74,-1,-1,-1,-1,-1,-1,-1,-1,-1,-1,-1,-1,-1,-1,-1,-1,-1,-1,-1,-1,-1,-1,-1,-1,-1,-1],"split_conditions":[5.7009345E-1,5.29595E-1,4.7368422E-1,1E0,9.137164E-2,1E0,1E0,4.423676E-1,5.140187E-1,4.2105263E-1,1E0,1E0,1E0,5.263158E-1,-1.7611248E-2,-1.820591E-3,1.4649682E-1,3.894081E-1,8.905008E-2,1E0,-2.8995096E-3,1.7861076E-1,1E0,1E0,1E0,1E0,1E0,1E0,-1.3434104E-2,-7.3349094E-3,-1.5809875E-2,1.7834395E-1,6.482598E-2,-2.390409E-3,1E0,1.4384159E-2,5.33236E-3,5.576324E-1,1.2354304E-2,1E0,-1.6687607E-2,1.1141896E-1,-5.745642E-3,1.6084397E-1,1.6800033E-1,1.5256238E-1,2.0382166E-1,1E0,3.1578946E-1,3.3175307E-3,-7.864553E-3,-1.4635491E-2,-6.8295053E-3,-1.0053005E-2,-1.6964914E-2,-8.600294E-3,-1.4836899E-2,-7.989139E-3,1.1150964E-3,-8.33628E-3,-1.6120225E-2,7.710411E-3,1.6310751E-2,2.4636933E-3,1.1088073E-2,-8.775123E-3,-4.4810898E-3,6.81077E-3,1.5540226E-2,7.388991E-3,-6.281942E-3,1.7498439E-3,-1.4964887E-2,-1.0428442E-2,-1.4911196E-2],"split_indices":[1,1,0,3,7,17,17,1,1,0,2,4,2,0,0,0,8,1,7,17,0,7,4,9,2,4,4,18,0,0,0,8,7,0,17,0,0,1,0,9,0,7,0,7,7,7,8,9,0,0,0,0,0,0,0,0,0,0,0,0,0,0,0,0,0,0,0,0,0,0,0,0,0,0,0],"split_type":[0,0,0,0,0,0,0,0,0,0,0,0,0,0,0,0,0,0,0,0,0,0,0,0,0,0,0,0,0,0,0,0,0,0,0,0,0,0,0,0,0,0,0,0,0,0,0,0,0,0,0,0,0,0,0,0,0,0,0,0,0,0,0,0,0,0,0,0,0,0,0,0,0,0,0],"sum_hessian":[9.5770416E2,2.7606036E2,6.8164386E2,1.8694905E2,8.9111305E1,5.77508E2,1.0413582E2,1.6480509E1,1.7046854E2,1.9478405E1,6.96329E1,3.163117E2,2.6119632E2,2.1972382E1,8.216344E1,6.749706E0,9.7308035E0,1.4478183E2,2.5686716E1,1.39790125E1,5.499393E0,2.3728388E1,4.590451E1,2.9108313E2,2.5228577E1,8.757816E1,1.7361815E2,1.2494869E1,9.477512E0,4.7454557E0,4.9853477E0,3.1917997E1,1.1286383E2,4.748281E0,2.0938437E1,7.2347126E0,6.7443E0,1.7490866E1,6.237521E0,3.4436195E1,1.1468315E1,2.8633517E2,4.7479486E0,1.3485432E1,1.1743145E1,7.7084526E1,1.0493634E1,1.329693E2,4.0648853E1,7.4989147E0,4.9959545E0,2.4177155E1,7.7408423E0,5.489339E0,1.0737449E2,7.4832973E0,1.3455138E1,1.2742634E1,4.748232E0,2.5460176E1,8.976019E0,3.246171E1,2.5387347E2,4.749627E0,8.735805E0,5.4958096E0,6.2473354E0,3.1230822E1,4.5853706E1,4.7466087E0,5.747026E0,1.2424495E2,8.724342E0,1.2722241E1,2.7926613E1],"tree_param":{"num_deleted":"0","num_feature":"20","num_nodes":"75","size_leaf_vector":"1"}},{"base_weights":[-1.1048128E-3,-1.1613386E0,4.6977773E-1,-1.4682444E0,-5.085864E-1,8.3251655E-1,-1.5314343E0,-8.5620755E-1,-1.5221046E0,6.821928E-1,-8.466778E-1,1.4161259E0,2.1010323E-1,-6.89329E-1,-1.7458078E-2,-1.8047536E-3,-1.2646363E0,-1.1161672E0,-1.585212E0,1.057543E0,-2.8750536E-3,-5.5709746E-2,-1.2457628E0,1.4724134E0,-1.048252E-2,5.4593885E-1,-1.2324797E0,-1.3944635E-1,-1.3321044E-2,-7.2732028E-3,-1.5692485E-2,-1.4421152E-2,-1.0059802E-3,-1.3708714E0,-1.7131833E-2,3.917784E-3,1.3282299E-2,-5.5394495E-1,1.2254093E-2,-5.6690197E-3,-1.3222132E0,1.5457013E0,5.8871675E-1,1.2289374E0,5.431939E-2,-6.9629127E-1,-1.367012E0,3.288384E-3,-7.8005847E-3,-1.6416352E-2,-1.071709E-2,-2.170841E-3,-1.0769505E-2,-7.5141983E-3,-1.47982435E-2,8.953285E-3,1.6677901E-2,8.353214E-3,-9.6501556E-4,2.4709862E-3,1.422239E-2,1.732506E-3,-1.4842214E-2,-8.702794E-3,-4.442829E-3,-1.0336703E-2,-1.47789745E-2],"categories":[],"categories_nodes":[],"categories_segments":[],"categories_sizes":[],"default_left":[0,0,0,0,0,0,0,0,0,0,0,0,0,0,0,0,0,0,0,0,0,0,0,0,0,0,0,0,0,0,0,0,0,0,0,0,0,0,0,0,0,0,0,0,0,0,0,0,0,0,0,0,0,0,0,0,0,0,0,0,0,0,0,0,0,0,0],"id":8,"left_children":[1,3,5,7,9,11,13,15,17,19,21,23,25,27,-1,-1,29,31,33,35,-1,37,39,41,-1,43,45,47,-1,-1,-1,-1,-1,49,-1,-1,-1,51,-1,-1,53,55,57,59,61,63,65,-1,-1,-1,-1,-1,-1,-1,-1,-1,-1,-1,-1,-1,-1,-1,-1,-1,-1,-1,-1],"loss_changes":[5.239518E2,5.471765E1,4.964765E2,4.8870544E0,3.683985E1,2.0971127E2,1.7756943E1,4.594598E0,2.6193237E0,7.755419E0,2.2216385E1,4.2907715E1,1.3678275E2,7.9309807E0,0E0,0E0,6.140709E-1,8.603508E0,1.6529846E0,2.1779518E0,0E0,1.6459148E1,1.6833267E0,1.7998413E1,0E0,7.668644E1,2.8973007E0,4.30437E0,0E0,0E0,0E0,0E0,0E0,3.0637436E0,0E0,0E0,0E0,3.0235453E0,0E0,0E0,2.6108932E0,1.9864807E1,4.131652E0,1.7797272E1,2.4769258E1,1.7200375E-1,1.071167E-2,0E0,0E0,0E0,0E0,0E0,0E0,0E0,0E0,0E0,0E0,0E0,0E0,0E0,0E0,0E0,0E0,0E0,0E0,0E0,0E0],"parents":[2147483647,0,0,1,1,2,2,3,3,4,4,5,5,6,6,7,7,8,8,9,9,10,10,11,11,12,12,13,13,16,16,17,17,18,18,19,19,21,21,22,22,23,23,25,25,26,26,27,27,33,33,37,37,40,40,41,41,42,42,43,43,44,44,45,45,46,46],"right_children":[2,4,6,8,10,12,14,16,18,20,22,24,26,28,-1,-1,30,32,34,36,-1,38,40,42,-1,44,46,48,-1,-1,-1,-1,-1,50,-1,-1,-1,52,-1,-1,54,56,58,60,62,64,66,-1,-1,-1,-1,-1,-1,-1,-1,-1,-1,-1,-1,-1,-1,-1,-1,-1,-1,-1,-1],"split_conditions":[5.7009345E-1,5.29595E-1,4.7368422E-1,1E0,9.137164E-2,1E0,1E0,4.423676E-1,8.283564E-2,4.2105263E-1,1E0,1E0,1E0,5.263158E-1,-1.7458078E-2,-1.8047536E-3,1.172133E-1,4.9844238E-1,2.631579E-1,5.420561E-1,-2.8750536E-3,1.7861076E-1,1.1464968E-1,1E0,-1.048252E-2,1E0,1E0,1E0,-1.3321044E-2,-7.2732028E-3,-1.5692485E-2,-1.4421152E-2,-1.0059802E-3,1.4980602E-1,-1.7131833E-2,3.917784E-3,1.3282299E-2,3.6842105E-1,1.2254093E-2,-5.6690197E-3,1E0,1.2254491E-1,2.037231E-1,1E0,1E0,1.6800033E-1,3.1578946E-1,3.288384E-3,-7.8005847E-3,-1.6416352E-2,-1.071709E-2,-2.170841E-3,-1.0769505E-2,-7.5141983E-3,-1.47982435E-2,8.953285E-3,1.6677901E-2,8.353214E-3,-9.6501556E-4,2.4709862E-3,1.422239E-2,1.732506E-3,-1.4842214E-2,-8.702794E-3,-4.442829E-3,-1.0336703E-2,-1.47789745E-2],"split_indices":[1,1,0,3,7,2,17,1,7,0,2,9,4,0,0,0,7,1,0,1,0,7,8,4,0,17,17,18,0,0,0,0,0,7,0,0,0,0,0,0,17,7,7,18,9,7,0,0,0,0,0,0,0,0,0,0,0,0,0,0,0,0,0,0,0,0,0],"split_type":[0,0,0,0,0,0,0,0,0,0,0,0,0,0,0,0,0,0,0,0,0,0,0,0,0,0,0,0,0,0,0,0,0,0,0,0,0,0,0,0,0,0,0,0,0,0,0,0,0,0,0,0,0,0,0,0,0,0,0,0,0,0,0,0,0,0,0],"sum_hessian":[9.570337E2,2.7586017E2,6.811736E2,1.8678822E2,8.907194E1,5.771446E2,1.04028984E2,1.647477E1,1.7031346E2,1.947212E1,6.9599815E1,2.9719904E2,2.7994556E2,2.1964249E1,8.2064735E1,6.749619E0,9.725151E0,2.5428944E1,1.448845E2,1.3972905E1,5.4992146E0,2.3722504E1,4.587731E1,2.90956E2,6.243045E0,2.2758496E2,5.2360588E1,1.2493355E1,9.470894E0,4.7442684E0,4.980882E0,1.8932524E1,6.49642E0,5.854285E1,8.634166E1,4.746372E0,9.226533E0,1.7488663E1,6.233841E0,5.495338E0,4.0381973E1,2.6798218E2,2.2973791E1,9.46247E1,1.3296025E2,1.1741128E1,4.061946E1,7.4985943E0,4.99476E0,2.8374447E1,3.0168404E1,1.1498015E1,5.9906464E0,9.985776E0,3.0396198E1,4.3672165E1,2.2431003E2,1.673275E1,6.2410417E0,1.5939809E1,7.868489E1,1.2424347E2,8.716789E0,5.494389E0,6.2467384E0,1.2715708E1,2.7903753E1],"tree_param":{"num_deleted":"0","num_feature":"20","num_nodes":"67","size_leaf_vector":"1"}},{"base_weights":[-1.247595E-3,-1.1510326E0,4.6536192E-1,-1.4554245E0,-5.039187E-1,8.2473516E-1,-1.5181898E0,-8.4937817E-1,-1.5087801E0,6.763098E-1,-8.390808E-1,1.3668715E0,1.6616425E-1,-6.834851E-1,-1.7308677E-2,-1.7890566E-3,-1.2548769E0,-1.5721363E0,-1.1062598E0,1.0486081E0,-2.850815E-3,-5.5196013E-2,-1.2347397E0,1.4740131E0,1.2335844E-1,1.0478228E0,-2.8165972E-1,-1.3840388E-1,-1.3209934E-2,-7.203163E-3,-1.5585722E-2,-1.2765254E0,-1.6438107E0,-2.3347477E-3,-1.2847868E0,1.417787E-2,5.2088127E-3,-5.491963E-1,1.2155442E-2,-1.0559641E0,-1.6439395E-2,1.5098119E0,-5.6887083E-3,8.308762E-1,-6.904837E-1,1.1893346E0,-3.614886E-3,5.368198E-2,-1.3550197E0,3.2595086E-3,-7.7373246E-3,-1.4374301E-2,-6.6746483E-3,-9.866236E-3,-1.6680077E-2,-8.3934665E-3,-1.4573478E-2,-7.869537E-3,1.1463338E-3,-8.155154E-3,-1.5881605E-2,8.953477E-3,1.6269619E-2,2.3827613E-3,1.0956329E-2,-4.3889955E-3,-8.648873E-3,6.6371253E-3,1.5260093E-2,7.269799E-3,-6.251632E-3,1.7153425E-3,-1.4721923E-2,-1.0246244E-2,-1.4649378E-2],"categories":[],"categories_nodes":[],"categories_segments":[],"categories_sizes":[],"default_left":[0,0,0,0,0,0,0,0,0,0,0,0,0,0,0,0,0,0,0,0,0,0,0,0,0,0,0,0,0,0,0,0,0,0,0,0,0,0,0,0,0,0,0,0,0,0,0,0,0,0,0,0,0,0,0,0,0,0,0,0,0,0,0,0,0,0,0,0,0,0,0,0,0,0,0],"id":9,"left_children":[1,3,5,7,9,11,13,15,17,19,21,23,25,27,-1,-1,29,31,33,35,-1,37,39,41,43,45,47,49,-1,-1,-1,51,53,-1,55,-1,-1,57,-1,59,-1,61,-1,63,65,67,69,71,73,-1,-1,-1,-1,-1,-1,-1,-1,-1,-1,-1,-1,-1,-1,-1,-1,-1,-1,-1,-1,-1,-1,-1,-1,-1,-1],"loss_changes":[5.141246E2,5.3756714E1,4.871643E2,4.784912E0,3.6178864E1,2.0605054E2,1.7440903E1,4.5247126E0,2.625183E0,7.6238384E0,2.1816418E1,4.201941E1,1.03740585E2,7.7939444E0,0E0,0E0,6.1746407E-1,9.842529E-1,3.8522568E0,2.177246E0,0E0,1.6182539E1,1.6910553E0,2.2179504E1,1.5670079E1,1.3167038E1,6.289593E1,4.232479E0,0E0,0E0,0E0,2.2616043E0,1.6113281E-1,0E0,4.602127E-1,0E0,0E0,3.0078058E0,0E0,3.2345734E0,0E0,1.9187317E1,0E0,2.0105972E0,1.7934704E-1,1.278566E1,5.6725216E0,2.4340487E1,9.262085E-3,0E0,0E0,0E0,0E0,0E0,0E0,0E0,0E0,0E0,0E0,0E0,0E0,0E0,0E0,0E0,0E0,0E0,0E0,0E0,0E0,0E0,0E0,0E0,0E0,0E0,0E0],"parents":[2147483647,0,0,1,1,2,2,3,3,4,4,5,5,6,6,7,7,8,8,9,9,10,10,11,11,12,12,13,13,16,16,17,17,18,18,19,19,21,21,22,22,23,23,24,24,25,25,26,26,27,27,31,31,32,32,34,34,37,37,39,39,41,41,43,43,44,44,45,45,46,46,47,47,48,48],"right_children":[2,4,6,8,10,12,14,16,18,20,22,24,26,28,-1,-1,30,32,34,36,-1,38,40,42,44,46,48,50,-1,-1,-1,52,54,-1,56,-1,-1,58,-1,60,-1,62,-1,64,66,68,70,72,74,-1,-1,-1,-1,-1,-1,-1,-1,-1,-1,-1,-1,-1,-1,-1,-1,-1,-1,-1,-1,-1,-1,-1,-1,-1,-1],"split_conditions":[5.7009345E-1,5.29595E-1,4.7368422E-1,1E0,9.137164E-2,1E0,1E0,4.423676E-1,5.140187E-1,4.2105263E-1,1E0,1E0,1E0,5.263158E-1,-1.7308677E-2,-1.7890566E-3,1.4649682E-1,3.894081E-1,8.905008E-2,1E0,-2.850815E-3,1.7861076E-1,1E0,1E0,1E0,1E0,1E0,1E0,-1.3209934E-2,-7.203163E-3,-1.5585722E-2,1.7834395E-1,6.482598E-2,-2.3347477E-3,1E0,1.417787E-2,5.2088127E-3,5.576324E-1,1.2155442E-2,1E0,-1.6439395E-2,1.4649682E-1,-5.6887083E-3,1.6084397E-1,3.6842105E-1,1.5256238E-1,2.0382166E-1,1E0,3.1578946E-1,3.2595086E-3,-7.7373246E-3,-1.4374301E-2,-6.6746483E-3,-9.866236E-3,-1.6680077E-2,-8.3934665E-3,-1.4573478E-2,-7.869537E-3,1.1463338E-3,-8.155154E-3,-1.5881605E-2,8.953477E-3,1.6269619E-2,2.3827613E-3,1.0956329E-2,-4.3889955E-3,-8.648873E-3,6.6371253E-3,1.5260093E-2,7.269799E-3,-6.251632E-3,1.7153425E-3,-1.4721923E-2,-1.0246244E-2,-1.4649378E-2],"split_indices":[1,1,0,3,7,17,17,1,1,0,2,4,2,0,0,0,8,1,7,17,0,7,4,9,2,4,4,18,0,0,0,8,7,0,17,0,0,1,0,9,0,8,0,7,0,7,8,9,0,0,0,0,0,0,0,0,0,0,0,0,0,0,0,0,0,0,0,0,0,0,0,0,0,0,0],"split_type":[0,0,0,0,0,0,0,0,0,0,0,0,0,0,0,0,0,0,0,0,0,0,0,0,0,0,0,0,0,0,0,0,0,0,0,0,0,0,0,0,0,0,0,0,0,0,0,0,0,0,0,0,0,0,0,0,0,0,0,0,0,0,0,0,0,0,0,0,0,0,0,0,0,0,0],"sum_hessian":[9.562941E2,2.756329E2,6.806612E2,1.8660692E2,8.9025986E1,5.767515E2,1.0390968E2,1.6468336E1,1.7013858E2,1.946494E1,6.956104E1,3.1575012E2,2.610014E2,2.1955154E1,8.195452E1,6.7495227E0,9.718813E0,1.4449028E2,2.564831E1,1.3965925E1,5.499015E0,2.3715355E1,4.5845688E1,2.9053238E2,2.5217735E1,8.746462E1,1.7353679E2,1.2491659E1,9.463495E0,4.74267E0,4.976143E0,3.1867512E1,1.12622765E2,4.7473235E0,2.0900988E1,7.224986E0,6.7409387E0,1.748563E1,6.229725E0,3.4398064E1,1.1447623E1,2.857853E2,4.7470684E0,1.3478876E1,1.1738859E1,7.697367E1,1.0490951E1,1.3295016E2,4.058662E1,7.4982367E0,4.9934225E0,2.4132093E1,7.7354193E0,5.4828873E0,1.0713988E2,7.473453E0,1.3427534E1,1.2737933E1,4.747697E0,2.5437603E1,8.960463E0,4.7145412E1,2.386399E2,4.74908E0,8.729796E0,6.245728E0,5.4931307E0,3.1213701E1,4.575997E1,4.744469E0,5.746482E0,1.2424181E2,8.708345E0,1.2708552E1,2.7878069E1],"tree_param":{"num_deleted":"0","num_feature":"20","num_nodes":"75","size_leaf_vector":"1"}},{"base_weights":[-1.3890872E-3,-1.1409647E0,4.6105713E-1,-1.4429202E0,-4.9935699E-1,8.17132E-1,-1.505237E0,-8.426363E-1,-1.4957947E0,6.7061156E-1,-8.3167195E-1,1.3915243E0,2.0512313E-1,-6.777194E-1,-1.7162906E-2,-1.773501E-3,-1.2452699E0,-1.5585915E0,-1.0969352E0,1.0399449E0,-2.8267913E-3,-5.443983E-2,-1.2241383E0,1.4471993E0,-1.0408878E-2,5.3464615E-1,-1.2110574E0,-1.3737126E-1,-1.3100723E-2,-7.142932E-3,-1.5472785E-2,-1.2654717E0,-1.6296835E0,-2.3155408E-3,-1.2740898E0,3.8164312E-3,1.3083654E-2,-5.441514E-1,1.205831E-2,-1.0466851E0,-1.6305761E-2,1.5193175E0,5.7898843E-1,1.2048532E0,5.3052027E-2,-6.84737E-1,-1.3432426E0,3.2308996E-3,-7.674762E-3,-1.4250728E-2,-6.6173053E-3,-9.787498E-3,-1.6536487E-2,-8.323231E-3,-1.4452952E-2,-2.1021685E-3,-1.0635806E-2,-8.079864E-3,-1.5754458E-2,8.779207E-3,1.639912E-2,8.231946E-3,-9.895036E-4,2.3241106E-3,1.3966292E-2,1.6983511E-3,-1.4603941E-2,-4.3516043E-3,-8.578044E-3,-1.0157028E-2,-1.4522323E-2],"categories":[],"categories_nodes":[],"categories_segments":[],"categories_sizes":[],"default_left":[0,0,0,0,0,0,0,0,0,0,0,0,0,0,0,0,0,0,0,0,0,0,0,0,0,0,0,0,0,0,0,0,0,0,0,0,0,0,0,0,0,0,0,0,0,0,0,0,0,0,0,0,0,0,0,0,0,0,0,0,0,0,0,0,0,0,0,0,0,0,0],"id":10,"left_children":[1,3,5,7,9,11,13,15,17,19,21,23,25,27,-1,-1,29,31,33,35,-1,37,39,41,-1,43,45,47,-1,-1,-1,49,51,-1,53,-1,-1,55,-1,57,-1,59,61,63,65,67,69,-1,-1,-1,-1,-1,-1,-1,-1,-1,-1,-1,-1,-1,-1,-1,-1,-1,-1,-1,-1,-1,-1,-1,-1],"loss_changes":[5.0457846E2,5.2825684E1,4.780892E2,4.6878967E0,3.5540726E1,2.0265656E2,1.7136429E1,4.456435E0,2.5720825E0,7.4965725E0,2.144463E1,4.181299E1,1.3162767E2,7.6601706E0,0E0,0E0,6.1253166E-1,9.6591187E-1,3.7874184E0,2.1438446E0,0E0,1.5905173E1,1.6695709E0,1.7365417E1,0E0,7.365189E1,2.7874832E0,4.1618767E0,0E0,0E0,0E0,2.221363E0,1.5170288E-1,0E0,4.5205307E-1,0E0,0E0,2.9823608E0,0E0,3.192257E0,0E0,1.9322815E1,4.0488205E0,1.7475525E1,2.392107E1,1.768465E-1,8.255005E-3,0E0,0E0,0E0,0E0,0E0,0E0,0E0,0E0,0E0,0E0,0E0,0E0,0E0,0E0,0E0,0E0,0E0,0E0,0E0,0E0,0E0,0E0,0E0,0E0],"parents":[2147483647,0,0,1,1,2,2,3,3,4,4,5,5,6,6,7,7,8,8,9,9,10,10,11,11,12,12,13,13,16,16,17,17,18,18,19,19,21,21,22,22,23,23,25,25,26,26,27,27,31,31,32,32,34,34,37,37,39,39,41,41,42,42,43,43,44,44,45,45,46,46],"right_children":[2,4,6,8,10,12,14,16,18,20,22,24,26,28,-1,-1,30,32,34,36,-1,38,40,42,-1,44,46,48,-1,-1,-1,50,52,-1,54,-1,-1,56,-1,58,-1,60,62,64,66,68,70,-1,-1,-1,-1,-1,-1,-1,-1,-1,-1,-1,-1,-1,-1,-1,-1,-1,-1,-1,-1,-1,-1,-1,-1],"split_conditions":[5.7009345E-1,5.29595E-1,4.7368422E-1,1E0,9.137164E-2,1E0,1E0,4.423676E-1,5.140187E-1,4.2105263E-1,1E0,1E0,1E0,5.263158E-1,-1.7162906E-2,-1.773501E-3,1.172133E-1,3.894081E-1,8.905008E-2,5.420561E-1,-2.8267913E-3,1.7861076E-1,1E0,1E0,-1.0408878E-2,1E0,1E0,1E0,-1.3100723E-2,-7.142932E-3,-1.5472785E-2,1.7834395E-1,6.482598E-2,-2.3155408E-3,1E0,3.8164312E-3,1.3083654E-2,3.6842105E-1,1.205831E-2,1E0,-1.6305761E-2,1.2254491E-1,2.037231E-1,1E0,1E0,3.6842105E-1,3.1578946E-1,3.2308996E-3,-7.674762E-3,-1.4250728E-2,-6.6173053E-3,-9.787498E-3,-1.6536487E-2,-8.323231E-3,-1.4452952E-2,-2.1021685E-3,-1.0635806E-2,-8.079864E-3,-1.5754458E-2,8.779207E-3,1.639912E-2,8.231946E-3,-9.895036E-4,2.3241106E-3,1.3966292E-2,1.6983511E-3,-1.4603941E-2,-4.3516043E-3,-8.578044E-3,-1.0157028E-2,-1.4522323E-2],"split_indices":[1,1,0,3,7,2,17,1,1,0,2,9,4,0,0,0,7,1,7,1,0,7,4,4,0,17,17,18,0,0,0,8,7,0,17,0,0,0,0,9,0,7,7,18,9,0,0,0,0,0,0,0,0,0,0,0,0,0,0,0,0,0,0,0,0,0,0,0,0,0,0],"split_type":[0,0,0,0,0,0,0,0,0,0,0,0,0,0,0,0,0,0,0,0,0,0,0,0,0,0,0,0,0,0,0,0,0,0,0,0,0,0,0,0,0,0,0,0,0,0,0,0,0,0,0,0,0,0,0,0,0,0,0,0,0,0,0,0,0,0,0,0,0,0,0],"sum_hessian":[9.5546985E2,2.7538632E2,6.8008356E2,1.8640901E2,8.8977295E1,5.7630524E2,1.037783E2,1.6461245E1,1.6994777E2,1.9457172E1,6.952012E1,2.9663187E2,2.7967337E2,2.1945127E1,8.1833176E1,6.749415E0,9.711829E0,1.443185E2,2.5629269E1,1.395838E1,5.498793E0,2.3708E1,4.5812122E1,2.9039023E2,6.241661E0,2.2738655E2,5.228681E1,1.2489789E1,9.4553385E0,4.74121E0,4.970619E0,3.1839836E1,1.1247867E2,4.747133E0,2.0882135E1,4.744442E0,9.213938E0,1.7482817E1,6.2251844E0,3.4377834E1,1.1434288E1,2.6742645E2,2.2963764E1,9.4447525E1,1.3293903E2,1.1736365E1,4.0550446E1,7.4978423E0,4.9919467E0,2.4106731E1,7.7331038E0,5.4797854E0,1.06998886E2,7.46961E0,1.3412526E1,1.149654E1,5.9862757E0,2.5427263E1,8.950569E0,4.3633965E1,2.237925E2,1.6724888E1,6.238877E0,1.5922236E1,7.852528E1,1.2424E2,8.699034E0,6.244996E0,5.4913692E0,1.27008E1,2.7849646E1],"tree_param":{"num_deleted":"0","num_feature":"20","num_nodes":"71","size_leaf_vector":"1"}},{"base_weights":[-1.554904E-3,-1.131112E0,4.5679373E-1,-1.430663E0,-4.9495918E-1,8.096087E-1,-1.492565E0,-8.3598065E-1,-1.483074E0,6.648766E-1,-8.244665E-1,1.3433874E0,1.6199525E-1,-6.7202973E-1,-1.7020637E-2,-1.7580808E-3,-1.2358139E0,-1.0843233E0,-1.5452002E0,1.0312575E0,-2.802977E-3,-5.394099E-2,-1.2137114E0,1.4487796E0,1.2229596E-1,1.026464E0,-2.7664542E-1,-1.36348E-1,-1.2993351E-2,-7.0744394E-3,-1.5370175E-2,-1.4060236E-2,-8.618783E-4,-1.3333013E0,-1.6720276E-2,1.39784785E-2,5.088123E-3,-5.395049E-1,1.1962659E-2,-1.0375404E0,-1.617507E-2,1.4841207E0,-5.632133E-3,8.189823E-1,-6.7905134E-1,1.1659185E0,-7.7906284E-3,5.242932E-2,-1.3316737E0,3.8886555E-3,-6.799044E-3,-1.6020546E-2,-1.0374523E-2,-7.7525005E-3,1.1765851E-3,-8.005493E-3,-1.5629971E-2,8.764788E-3,1.600179E-2,2.3035093E-3,1.0827593E-2,-8.525366E-3,-4.2987973E-3,6.46822E-3,1.4991644E-2,7.153092E-3,-6.221191E-3,1.6815296E-3,-1.4488197E-2,-1.006903E-2,-1.439772E-2],"categories":[],"categories_nodes":[],"categories_segments":[],"categories_sizes":[],"default_left":[0,0,0,0,0,0,0,0,0,0,0,0,0,0,0,0,0,0,0,0,0,0,0,0,0,0,0,0,0,0,0,0,0,0,0,0,0,0,0,0,0,0,0,0,0,0,0,0,0,0,0,0,0,0,0,0,0,0,0,0,0,0,0,0,0,0,0,0,0,0,0],"id":11,"left_children":[1,3,5,7,9,11,13,15,17,19,21,23,25,27,-1,-1,29,31,33,35,-1,37,39,41,43,45,47,49,-1,-1,-1,-1,-1,51,-1,-1,-1,53,-1,55,-1,57,-1,59,61,63,65,67,69,-1,-1,-1,-1,-1,-1,-1,-1,-1,-1,-1,-1,-1,-1,-1,-1,-1,-1,-1,-1,-1,-1],"loss_changes":[4.9525183E2,5.190869E1,4.6920825E2,4.594574E0,3.491459E1,1.991828E2,1.6843048E1,4.389739E0,2.5541992E0,7.3702602E0,2.1071579E1,4.04989E1,9.954186E1,7.5295544E0,0E0,0E0,6.1618614E-1,8.345751E0,1.6774902E0,2.152032E0,0E0,1.5639325E1,1.649231E0,2.1518188E1,1.5185869E1,1.2748245E1,6.0631737E1,4.114917E0,0E0,0E0,0E0,0E0,0E0,3.0582275E0,0E0,0E0,0E0,2.9540734E0,0E0,3.151558E0,0E0,1.8775085E1,0E0,1.9974651E0,1.8395615E-1,1.2495003E1,5.5480547E0,2.3510742E1,7.6141357E-3,0E0,0E0,0E0,0E0,0E0,0E0,0E0,0E0,0E0,0E0,0E0,0E0,0E0,0E0,0E0,0E0,0E0,0E0,0E0,0E0,0E0,0E0],"parents":[2147483647,0,0,1,1,2,2,3,3,4,4,5,5,6,6,7,7,8,8,9,9,10,10,11,11,12,12,13,13,16,16,17,17,18,18,19,19,21,21,22,22,23,23,24,24,25,25,26,26,27,27,33,33,37,37,39,39,41,41,43,43,44,44,45,45,46,46,47,47,48,48],"right_children":[2,4,6,8,10,12,14,16,18,20,22,24,26,28,-1,-1,30,32,34,36,-1,38,40,42,44,46,48,50,-1,-1,-1,-1,-1,52,-1,-1,-1,54,-1,56,-1,58,-1,60,62,64,66,68,70,-1,-1,-1,-1,-1,-1,-1,-1,-1,-1,-1,-1,-1,-1,-1,-1,-1,-1,-1,-1,-1,-1],"split_conditions":[5.7009345E-1,5.29595E-1,4.7368422E-1,1E0,9.137164E-2,1E0,1E0,4.423676E-1,8.283564E-2,4.2105263E-1,1E0,1E0,1E0,5.263158E-1,-1.7020637E-2,-1.7580808E-3,1.4649682E-1,4.9844238E-1,2.631579E-1,1E0,-2.802977E-3,1.7861076E-1,1E0,1E0,1E0,1E0,1E0,1E0,-1.2993351E-2,-7.0744394E-3,-1.5370175E-2,-1.4060236E-2,-8.618783E-4,1.4980602E-1,-1.6720276E-2,1.39784785E-2,5.088123E-3,5.576324E-1,1.1962659E-2,1E0,-1.617507E-2,1.4649682E-1,-5.632133E-3,1.6084397E-1,1.6800033E-1,1.5256238E-1,2.0382166E-1,1E0,3.1578946E-1,3.8886555E-3,-6.799044E-3,-1.6020546E-2,-1.0374523E-2,-7.7525005E-3,1.1765851E-3,-8.005493E-3,-1.5629971E-2,8.764788E-3,1.600179E-2,2.3035093E-3,1.0827593E-2,-8.525366E-3,-4.2987973E-3,6.46822E-3,1.4991644E-2,7.153092E-3,-6.221191E-3,1.6815296E-3,-1.4488197E-2,-1.006903E-2,-1.439772E-2],"split_indices":[1,1,0,3,7,17,17,1,7,0,2,4,2,0,0,0,8,1,0,17,0,7,4,9,2,4,4,2,0,0,0,0,0,7,0,0,0,1,0,9,0,8,0,7,7,7,8,9,0,0,0,0,0,0,0,0,0,0,0,0,0,0,0,0,0,0,0,0,0,0,0],"split_type":[0,0,0,0,0,0,0,0,0,0,0,0,0,0,0,0,0,0,0,0,0,0,0,0,0,0,0,0,0,0,0,0,0,0,0,0,0,0,0,0,0,0,0,0,0,0,0,0,0,0,0,0,0,0,0,0,0,0,0,0,0,0,0,0,0,0,0,0,0,0,0],"sum_hessian":[9.5458344E2,2.751166E2,6.7946686E2,1.8619322E2,8.89234E1,5.758316E2,1.0363522E2,1.6453495E1,1.6973973E2,1.9448536E1,6.947486E1,3.150694E2,2.607622E2,2.1934193E1,8.1701035E1,6.749298E0,9.704197E0,2.5368484E1,1.4437125E2,1.3949984E1,5.498553E0,2.3699451E1,4.577541E1,2.8986475E2,2.5204659E1,8.732428E1,1.7343793E2,1.2487748E1,9.446445E0,4.739288E0,4.9649096E0,1.8876057E1,6.492429E0,5.8366756E1,8.6004486E1,7.213095E0,6.7368884E0,1.7479221E1,6.220231E0,3.435585E1,1.1419561E1,2.8511893E2,4.745817E0,1.3471025E1,1.1733632E1,7.683664E1,1.0487635E1,1.329269E2,4.0511032E1,6.4957724E0,5.991976E0,2.8270412E1,3.0096342E1,1.2732118E1,4.7471037E0,2.5416191E1,8.939658E0,4.7095436E1,2.380235E2,4.74828E0,8.722745E0,5.4898505E0,6.2437816E0,3.1191181E1,4.564546E1,4.741841E0,5.7457943E0,1.2423801E2,8.688884E0,1.2692462E1,2.781857E1],"tree_param":{"num_deleted":"0","num_feature":"20","num_nodes":"71","size_leaf_vector":"1"}},{"base_weights":[-1.6759972E-3,-1.121358E0,4.5263693E-1,-1.418582E0,-4.9052826E-1,8.0225384E-1,-1.4801345E0,-8.2940847E-1,-1.4705404E0,6.593213E-1,-8.1727624E-1,1.3678691E0,2.0028043E-1,-6.6631675E-1,-1.6881738E-2,-1.7427959E-3,-1.2265023E0,-1.5327986E0,-1.0757296E0,1.0228331E0,-2.7793725E-3,-5.320159E-2,-1.2034539E0,1.422969E0,-1.0335839E-2,5.236536E-1,-1.1903244E0,-1.352115E-1,-1.2887769E-2,-7.0156245E-3,-1.5261437E-2,-1.2425091E0,-1.6033279E0,-2.2622498E-3,-1.2500252E0,1.3868325E-2,5.0447825E-3,-5.345645E-1,1.1868445E-2,-5.4027704E-3,-1.2786021E0,9.569203E-1,1.5581355E0,1.1815958E0,5.1813703E-2,-6.734245E-1,-1.3203068E0,3.19659E-3,-7.5797117E-3,-1.4004254E-2,-6.468397E-3,-9.608514E-3,-1.6270483E-2,-8.124668E-3,-1.4204752E-2,-2.0350362E-3,-1.05051715E-2,-7.1580634E-3,-1.43501265E-2,2.971592E-3,1.0684714E-2,1.6442874E-2,5.959069E-3,2.1809146E-3,1.3719794E-2,1.664875E-3,-1.4374618E-2,-4.2622495E-3,-8.455982E-3,-9.982217E-3,-1.4275491E-2],"categories":[],"categories_nodes":[],"categories_segments":[],"categories_sizes":[],"default_left":[0,0,0,0,0,0,0,0,0,0,0,0,0,0,0,0,0,0,0,0,0,0,0,0,0,0,0,0,0,0,0,0,0,0,0,0,0,0,0,0,0,0,0,0,0,0,0,0,0,0,0,0,0,0,0,0,0,0,0,0,0,0,0,0,0,0,0,0,0,0,0],"id":12,"left_children":[1,3,5,7,9,11,13,15,17,19,21,23,25,27,-1,-1,29,31,33,35,-1,37,39,41,-1,43,45,47,-1,-1,-1,49,51,-1,53,-1,-1,55,-1,-1,57,59,61,63,65,67,69,-1,-1,-1,-1,-1,-1,-1,-1,-1,-1,-1,-1,-1,-1,-1,-1,-1,-1,-1,-1,-1,-1,-1,-1],"loss_changes":[4.861067E2,5.102063E1,4.6054175E2,4.5036316E0,3.430239E1,1.9595056E2,1.656459E1,4.3245544E0,2.542389E0,7.24807E0,2.0716583E1,4.0763794E1,1.2669353E2,7.4040623E0,0E0,0E0,6.1172104E-1,9.751892E-1,3.652708E0,2.1194706E0,0E0,1.5372629E1,1.6383438E0,1.6822327E1,0E0,7.076753E1,2.6852112E0,4.0627246E0,0E0,0E0,0E0,2.1770515E0,1.6119385E-1,0E0,4.7430038E-1,0E0,0E0,2.9421048E0,0E0,0E0,2.6036682E0,4.6834946E0,1.7569824E1,1.7171112E1,2.3109236E1,1.8141985E-1,7.3547363E-3,0E0,0E0,0E0,0E0,0E0,0E0,0E0,0E0,0E0,0E0,0E0,0E0,0E0,0E0,0E0,0E0,0E0,0E0,0E0,0E0,0E0,0E0,0E0,0E0],"parents":[2147483647,0,0,1,1,2,2,3,3,4,4,5,5,6,6,7,7,8,8,9,9,10,10,11,11,12,12,13,13,16,16,17,17,18,18,19,19,21,21,22,22,23,23,25,25,26,26,27,27,31,31,32,32,34,34,37,37,40,40,41,41,42,42,43,43,44,44,45,45,46,46],"right_children":[2,4,6,8,10,12,14,16,18,20,22,24,26,28,-1,-1,30,32,34,36,-1,38,40,42,-1,44,46,48,-1,-1,-1,50,52,-1,54,-1,-1,56,-1,-1,58,60,62,64,66,68,70,-1,-1,-1,-1,-1,-1,-1,-1,-1,-1,-1,-1,-1,-1,-1,-1,-1,-1,-1,-1,-1,-1,-1,-1],"split_conditions":[5.7009345E-1,5.29595E-1,4.7368422E-1,1E0,9.137164E-2,1E0,1E0,4.423676E-1,5.140187E-1,4.2105263E-1,1E0,1E0,1E0,5.263158E-1,-1.6881738E-2,-1.7427959E-3,1.172133E-1,3.894081E-1,8.905008E-2,1E0,-2.7793725E-3,1.7861076E-1,1.1464968E-1,1.362577E-1,-1.0335839E-2,1E0,1E0,1E0,-1.2887769E-2,-7.0156245E-3,-1.5261437E-2,1.7834395E-1,6.482598E-2,-2.2622498E-3,1E0,1.3868325E-2,5.0447825E-3,3.6842105E-1,1.1868445E-2,-5.4027704E-3,1E0,5.8878505E-1,1E0,1E0,1E0,3.6842105E-1,3.1578946E-1,3.19659E-3,-7.5797117E-3,-1.4004254E-2,-6.468397E-3,-9.608514E-3,-1.6270483E-2,-8.124668E-3,-1.4204752E-2,-2.0350362E-3,-1.05051715E-2,-7.1580634E-3,-1.43501265E-2,2.971592E-3,1.0684714E-2,1.6442874E-2,5.959069E-3,2.1809146E-3,1.3719794E-2,1.664875E-3,-1.4374618E-2,-4.2622495E-3,-8.455982E-3,-9.982217E-3,-1.4275491E-2],"split_indices":[1,1,0,3,7,2,17,1,1,0,2,9,4,0,0,0,7,1,7,17,0,7,8,7,0,17,17,18,0,0,0,8,7,0,17,0,0,0,0,0,17,1,4,18,9,0,0,0,0,0,0,0,0,0,0,0,0,0,0,0,0,0,0,0,0,0,0,0,0,0,0],"split_type":[0,0,0,0,0,0,0,0,0,0,0,0,0,0,0,0,0,0,0,0,0,0,0,0,0,0,0,0,0,0,0,0,0,0,0,0,0,0,0,0,0,0,0,0,0,0,0,0,0,0,0,0,0,0,0,0,0,0,0,0,0,0,0,0,0,0,0,0,0,0,0],"sum_hessian":[9.536146E2,2.7482452E2,6.787901E2,1.8595879E2,8.886573E1,5.7530817E2,1.0348194E2,1.6445126E1,1.6951366E2,1.943937E1,6.942636E1,2.959555E2,2.7935266E2,2.1923492E1,8.155845E1,6.749172E0,9.695953E0,1.4393411E2,2.557954E1,1.3941077E1,5.4982915E0,2.3690706E1,4.5735653E1,2.8971564E2,6.2398815E0,2.271535E2,5.219916E1,1.2486654E1,9.436838E0,4.7375712E0,4.9583817E0,3.177382E1,1.121603E2,4.7459655E0,2.0833576E1,7.2056623E0,6.735415E0,1.747583E1,6.2148767E0,5.4886103E0,4.0247044E1,6.695097E1,2.2276466E2,9.423971E1,1.3291379E2,1.1730688E1,4.0468475E1,7.497271E0,4.989383E0,2.404761E1,7.726211E0,5.471447E0,1.0668885E2,7.4571366E0,1.3376439E1,1.1494689E1,5.98114E0,9.965542E0,3.0281502E1,1.0212679E1,5.6738293E1,2.038081E2,1.895655E1,1.5902906E1,7.833681E1,1.2423587E2,8.6779175E0,6.242924E0,5.4877634E0,1.2683559E1,2.7784916E1],"tree_param":{"num_deleted":"0","num_feature":"20","num_nodes":"71","size_leaf_vector":"1"}},{"base_weights":[-1.8171392E-3,-1.1117988E0,4.4852176E-1,-1.4067918E0,-4.8609504E-1,7.949787E-1,-1.4679949E0,-8.229189E-1,-1.458319E0,6.5383655E-1,-8.1011325E-1,1.3207773E0,1.5796538E-1,-6.607728E-1,-1.674609E-2,-1.727647E-3,-1.2173338E0,-1.064391E0,-1.5197861E0,1.0145268E0,-2.7559765E-3,-5.2717324E-2,-1.1931124E0,1.4245516E0,1.2086069E-1,1.0058674E0,-2.7174768E-1,-1.3420759E-1,-1.2783917E-2,-6.9486224E-3,-1.5162742E-2,-1.3829647E-2,-7.882641E-4,-1.3097013E0,-1.645728E-2,3.6501172E-3,1.2808218E-2,-5.300172E-1,1.1775635E-2,-1.0183716E0,-1.594727E-2,1.4594612E0,-5.575928E-3,8.0665326E-1,-6.678566E-1,1.1435426E0,-1.2917068E-2,5.1205434E-2,-1.3091354E0,3.8456875E-3,-6.712831E-3,-1.5767926E-2,-1.0163812E-2,-7.637946E-3,1.2058732E-3,-7.833412E-3,-1.5410196E-2,7.172919E-3,1.5515938E-2,2.2276116E-3,1.0690661E-2,-8.404499E-3,-4.210441E-3,6.3138483E-3,1.4731546E-2,7.03761E-3,-6.2072664E-3,1.6483899E-3,-1.4263142E-2,-9.896559E-3,-1.415556E-2],"categories":[],"categories_nodes":[],"categories_segments":[],"categories_sizes":[],"default_left":[0,0,0,0,0,0,0,0,0,0,0,0,0,0,0,0,0,0,0,0,0,0,0,0,0,0,0,0,0,0,0,0,0,0,0,0,0,0,0,0,0,0,0,0,0,0,0,0,0,0,0,0,0,0,0,0,0,0,0,0,0,0,0,0,0,0,0,0,0,0,0],"id":13,"left_children":[1,3,5,7,9,11,13,15,17,19,21,23,25,27,-1,-1,29,31,33,35,-1,37,39,41,43,45,47,49,-1,-1,-1,-1,-1,51,-1,-1,-1,53,-1,55,-1,57,-1,59,61,63,65,67,69,-1,-1,-1,-1,-1,-1,-1,-1,-1,-1,-1,-1,-1,-1,-1,-1,-1,-1,-1,-1,-1,-1],"loss_changes":[4.7716702E2,5.0169617E1,4.5206763E2,4.417145E0,3.3698982E1,1.9263693E2,1.6291763E1,4.260845E0,2.5052795E0,7.128339E0,2.0351028E1,3.9086365E1,9.55456E1,7.279439E0,0E0,0E0,6.1559296E-1,8.154804E0,1.679779E0,2.1150723E0,0E0,1.511703E1,1.6527634E0,2.088684E1,1.4704244E1,1.2380173E1,5.8469925E1,4.0151978E0,0E0,0E0,0E0,0E0,0E0,3.037323E0,0E0,0E0,0E0,2.901587E0,0E0,3.1293945E0,0E0,1.8398376E1,0E0,1.9776478E0,1.88303E-1,1.2182541E1,5.439382E0,2.2716314E1,7.423401E-3,0E0,0E0,0E0,0E0,0E0,0E0,0E0,0E0,0E0,0E0,0E0,0E0,0E0,0E0,0E0,0E0,0E0,0E0,0E0,0E0,0E0,0E0],"parents":[2147483647,0,0,1,1,2,2,3,3,4,4,5,5,6,6,7,7,8,8,9,9,10,10,11,11,12,12,13,13,16,16,17,17,18,18,19,19,21,21,22,22,23,23,24,24,25,25,26,26,27,27,33,33,37,37,39,39,41,41,43,43,44,44,45,45,46,46,47,47,48,48],"right_children":[2,4,6,8,10,12,14,16,18,20,22,24,26,28,-1,-1,30,32,34,36,-1,38,40,42,44,46,48,50,-1,-1,-1,-1,-1,52,-1,-1,-1,54,-1,56,-1,58,-1,60,62,64,66,68,70,-1,-1,-1,-1,-1,-1,-1,-1,-1,-1,-1,-1,-1,-1,-1,-1,-1,-1,-1,-1,-1,-1],"split_conditions":[5.7009345E-1,5.29595E-1,4.7368422E-1,1E0,9.137164E-2,1E0,1E0,4.423676E-1,8.283564E-2,4.2105263E-1,1E0,1E0,1E0,5.263158E-1,-1.674609E-2,-1.727647E-3,1.4649682E-1,4.9844238E-1,2.631579E-1,5.420561E-1,-2.7559765E-3,1.7861076E-1,1E0,1E0,1E0,1E0,1E0,1E0,-1.2783917E-2,-6.9486224E-3,-1.5162742E-2,-1.3829647E-2,-7.882641E-4,1.4980602E-1,-1.645728E-2,3.6501172E-3,1.2808218E-2,5.576324E-1,1.1775635E-2,1E0,-1.594727E-2,1.1141896E-1,-5.575928E-3,1.6084397E-1,1.6800033E-1,1.5256238E-1,2.0382166E-1,1E0,3.1578946E-1,3.8456875E-3,-6.712831E-3,-1.5767926E-2,-1.0163812E-2,-7.637946E-3,1.2058732E-3,-7.833412E-3,-1.5410196E-2,7.172919E-3,1.5515938E-2,2.2276116E-3,1.0690661E-2,-8.404499E-3,-4.210441E-3,6.3138483E-3,1.4731546E-2,7.03761E-3,-6.2072664E-3,1.6483899E-3,-1.4263142E-2,-9.896559E-3,-1.415556E-2],"split_indices":[1,1,0,3,7,17,17,1,7,0,2,4,2,0,0,0,8,1,0,1,0,7,4,9,2,4,4,2,0,0,0,0,0,7,0,0,0,1,0,9,0,7,0,7,7,7,8,9,0,0,0,0,0,0,0,0,0,0,0,0,0,0,0,0,0,0,0,0,0,0,0],"split_type":[0,0,0,0,0,0,0,0,0,0,0,0,0,0,0,0,0,0,0,0,0,0,0,0,0,0,0,0,0,0,0,0,0,0,0,0,0,0,0,0,0,0,0,0,0,0,0,0,0,0,0,0,0,0,0,0,0,0,0,0,0,0,0,0,0,0,0,0,0,0,0],"sum_hessian":[9.525886E2,2.7451172E2,6.780769E2,1.8570926E2,8.880245E1,5.7476025E2,1.0331667E2,1.6436132E1,1.6927312E2,1.9429485E1,6.937297E1,3.1427798E2,2.6048227E2,2.1910908E1,8.140576E1,6.7490373E0,9.687095E0,2.531998E1,1.4395314E2,1.3931474E1,5.4980116E0,2.3680832E1,4.5692135E1,2.8908902E2,2.518896E1,8.7159645E1,1.7332262E2,1.2484369E1,9.426538E0,4.7353415E0,4.951753E0,1.8830116E1,6.489864E0,5.822565E1,8.572749E1,4.7402716E0,9.191202E0,1.74717E1,6.209132E0,3.4302822E1,1.1389312E1,2.8434482E2,4.7442055E0,1.3461443E1,1.1727515E1,7.66755E1,1.0484149E1,1.3289973E2,4.042288E1,6.494809E0,5.9895606E0,2.8185144E1,3.0040506E1,1.2725245E1,4.746455E0,2.5385824E1,8.916999E0,3.237062E1,2.5197418E2,4.74726E0,8.714183E0,5.4859986E0,6.241517E0,3.1165478E1,4.551002E1,4.738749E0,5.7454E0,1.2423358E2,8.66616E0,1.2674109E1,2.774877E1],"tree_param":{"num_deleted":"0","num_feature":"20","num_nodes":"71","size_leaf_vector":"1"}},{"base_weights":[-1.9385193E-3,-1.1023897E0,4.444995E-1,-1.3951656E0,-4.818154E-1,7.878534E-1,-1.4560788E0,-8.1650925E-1,-1.4462717E0,6.48309E-1,-8.0313E-1,1.3450978E0,1.9556959E-1,-6.552037E-1,-1.6613577E-2,-1.7126325E-3,-1.2083024E0,-1.508045E0,-1.0552051E0,1.0061836E0,-2.732784E-3,-5.1994044E-2,-1.1831774E0,1.3996562E0,-1.0263423E-2,5.129483E-1,-1.1702411E0,-1.330916E-1,-1.2681752E-2,-6.8911654E-3,-1.505797E-2,-1.2203226E0,-1.5780829E0,-2.210416E-3,-1.2267901E0,1.3678836E-2,4.927988E-3,-5.2517813E-1,1.1684185E-2,-1.0096226E0,-1.5824296E-2,9.393476E-1,1.5333989E0,1.1591123E0,5.0604146E-2,-6.6234565E-1,-1.2981536E0,3.162674E-3,-7.4863294E-3,-1.3766877E-2,-6.3233366E-3,-9.434543E-3,-1.6015872E-2,-7.931595E-3,-1.3966042E-2,-1.9694078E-3,-1.0377487E-2,-7.7619976E-3,-1.5292747E-2,2.8744217E-3,1.04976045E-2,1.6184142E-2,5.863788E-3,2.0393822E-3,1.3482632E-2,1.632069E-3,-1.4153702E-2,-4.1747154E-3,-8.33651E-3,-9.812029E-3,-1.4037851E-2],"categories":[],"categories_nodes":[],"categories_segments":[],"categories_sizes":[],"default_left":[0,0,0,0,0,0,0,0,0,0,0,0,0,0,0,0,0,0,0,0,0,0,0,0,0,0,0,0,0,0,0,0,0,0,0,0,0,0,0,0,0,0,0,0,0,0,0,0,0,0,0,0,0,0,0,0,0,0,0,0,0,0,0,0,0,0,0,0,0,0,0],"id":14,"left_children":[1,3,5,7,9,11,13,15,17,19,21,23,25,27,-1,-1,29,31,33,35,-1,37,39,41,-1,43,45,47,-1,-1,-1,49,51,-1,53,-1,-1,55,-1,57,-1,59,61,63,65,67,69,-1,-1,-1,-1,-1,-1,-1,-1,-1,-1,-1,-1,-1,-1,-1,-1,-1,-1,-1,-1,-1,-1,-1,-1],"loss_changes":[4.6843024E2,4.9324677E1,4.4379083E2,4.3327637E0,3.310623E1,1.8956842E2,1.6032715E1,4.1985455E0,2.5158386E0,7.009371E0,2.001183E1,3.9756714E1,1.2196875E2,7.1596756E0,0E0,0E0,6.1154747E-1,9.859619E-1,3.52499E0,2.0966358E0,0E0,1.4860498E1,1.6345901E0,1.6409119E1,0E0,6.8023026E1,2.5897827E0,3.966159E0,0E0,0E0,0E0,2.135769E0,1.7147827E-1,0E0,4.9591827E-1,0E0,0E0,2.9027286E0,0E0,3.0918922E0,0E0,4.582554E0,1.701178E1,1.6889526E1,2.2331728E1,1.8572998E-1,7.8125E-3,0E0,0E0,0E0,0E0,0E0,0E0,0E0,0E0,0E0,0E0,0E0,0E0,0E0,0E0,0E0,0E0,0E0,0E0,0E0,0E0,0E0,0E0,0E0,0E0],"parents":[2147483647,0,0,1,1,2,2,3,3,4,4,5,5,6,6,7,7,8,8,9,9,10,10,11,11,12,12,13,13,16,16,17,17,18,18,19,19,21,21,22,22,23,23,25,25,26,26,27,27,31,31,32,32,34,34,37,37,39,39,41,41,42,42,43,43,44,44,45,45,46,46],"right_children":[2,4,6,8,10,12,14,16,18,20,22,24,26,28,-1,-1,30,32,34,36,-1,38,40,42,-1,44,46,48,-1,-1,-1,50,52,-1,54,-1,-1,56,-1,58,-1,60,62,64,66,68,70,-1,-1,-1,-1,-1,-1,-1,-1,-1,-1,-1,-1,-1,-1,-1,-1,-1,-1,-1,-1,-1,-1,-1,-1],"split_conditions":[5.7009345E-1,5.29595E-1,4.7368422E-1,1E0,9.137164E-2,1E0,1E0,4.423676E-1,5.140187E-1,4.2105263E-1,1E0,1E0,1E0,5.263158E-1,-1.6613577E-2,-1.7126325E-3,1.172133E-1,3.894081E-1,8.905008E-2,1E0,-2.732784E-3,1.7861076E-1,1E0,1.362577E-1,-1.0263423E-2,1E0,1E0,1E0,-1.2681752E-2,-6.8911654E-3,-1.505797E-2,1.7834395E-1,6.482598E-2,-2.210416E-3,1E0,1.3678836E-2,4.927988E-3,3.6842105E-1,1.1684185E-2,1E0,-1.5824296E-2,5.8878505E-1,1E0,1E0,1E0,3.6842105E-1,3.1578946E-1,3.162674E-3,-7.4863294E-3,-1.3766877E-2,-6.3233366E-3,-9.434543E-3,-1.6015872E-2,-7.931595E-3,-1.3966042E-2,-1.9694078E-3,-1.0377487E-2,-7.7619976E-3,-1.5292747E-2,2.8744217E-3,1.04976045E-2,1.6184142E-2,5.863788E-3,2.0393822E-3,1.3482632E-2,1.632069E-3,-1.4153702E-2,-4.1747154E-3,-8.33651E-3,-9.812029E-3,-1.4037851E-2],"split_indices":[1,1,0,3,7,2,17,1,1,0,2,9,4,0,0,0,7,1,7,17,0,7,4,7,0,17,17,18,0,0,0,8,7,0,17,0,0,0,0,9,0,1,4,18,9,0,0,0,0,0,0,0,0,0,0,0,0,0,0,0,0,0,0,0,0,0,0,0,0,0,0],"split_type":[0,0,0,0,0,0,0,0,0,0,0,0,0,0,0,0,0,0,0,0,0,0,0,0,0,0,0,0,0,0,0,0,0,0,0,0,0,0,0,0,0,0,0,0,0,0,0,0,0,0,0,0,0,0,0,0,0,0,0,0,0,0,0,0,0,0,0,0,0,0,0],"sum_hessian":[9.514856E2,2.7417825E2,6.773073E2,1.854419E2,8.873637E1,5.741654E2,1.0314189E2,1.642655E1,1.6901534E2,1.9418863E1,6.9317505E1,2.951786E2,2.7898685E2,2.1898586E1,8.12433E1,6.748893E0,9.677658E0,1.4349284E2,2.552249E1,1.3921149E1,5.4977126E0,2.3670769E1,4.564674E1,2.8894086E2,6.2377133E0,2.2688835E2,5.2098484E1,1.2483022E1,9.4155655E0,4.7333846E0,4.944273E0,3.1698069E1,1.11794785E2,4.744628E0,2.077786E1,7.1906266E0,6.730523E0,1.7467758E1,6.203009E0,3.4275833E1,1.1370907E1,6.685758E1,2.220833E2,9.400358E1,1.3288478E2,1.1724144E1,4.037434E1,7.4965606E0,4.986461E0,2.397974E1,7.718329E0,5.46187E0,1.0633291E2,7.4428463E0,1.3335014E1,1.1492483E1,5.975276E0,2.5372458E1,8.903375E0,1.0205433E1,5.6652145E1,2.0313829E2,1.8945002E1,1.5881812E1,7.812177E1,1.2423115E2,8.653632E0,6.2405415E0,5.4836025E0,1.2664128E1,2.7710213E1],"tree_param":{"num_deleted":"0","num_feature":"20","num_nodes":"71","size_leaf_vector":"1"}},{"base_weights":[-2.088601E-3,-1.0931962E0,4.405187E-1,-1.3838123E0,-4.7763872E-1,7.80807E-1,-1.4444358E0,-8.101788E-1,-1.4345168E0,6.429583E-1,-7.963369E-1,1.2989886E0,1.540412E-1,-6.497991E-1,-1.6484093E-2,-1.6977501E-3,-1.1994069E0,-1.4958215E0,-1.046621E0,9.980992E-1,-2.7097946E-3,-5.1523514E-2,-1.1733978E0,1.4012345E0,1.1945596E-1,9.8591447E-1,-2.669617E-1,-1.3210651E-1,-1.2581223E-2,-6.8255984E-3,-1.4962974E-2,-1.2101874E0,-1.56539E0,-2.1922574E-3,-1.2170116E0,3.5545193E-3,1.2624316E-2,-5.2072674E-1,1.1594066E-2,-1.0009942E0,-1.5703907E-2,1.4357365E0,-5.5200947E-3,7.9459167E-1,-6.568916E-1,1.1219056E0,-1.7911213E-2,5.00099E-2,-1.2873554E0,3.8032357E-3,-6.6280845E-3,-1.3654429E-2,-6.2696585E-3,-9.361131E-3,-1.5887087E-2,-7.866582E-3,-1.3856693E-2,-1.9513747E-3,-1.029466E-2,-7.6914243E-3,-1.5177643E-2,8.387531E-3,1.5502483E-2,2.1534546E-3,1.055681E-2,-8.28618E-3,-4.123874E-3,6.1634444E-3,1.4481759E-2,6.9246027E-3,-6.192851E-3,2.4590432E-3,-7.931915E-3,-9.728599E-3,-1.3922289E-2],"categories":[],"categories_nodes":[],"categories_segments":[],"categories_sizes":[],"default_left":[0,0,0,0,0,0,0,0,0,0,0,0,0,0,0,0,0,0,0,0,0,0,0,0,0,0,0,0,0,0,0,0,0,0,0,0,0,0,0,0,0,0,0,0,0,0,0,0,0,0,0,0,0,0,0,0,0,0,0,0,0,0,0,0,0,0,0,0,0,0,0,0,0,0,0],"id":15,"left_children":[1,3,5,7,9,11,13,15,17,19,21,23,25,27,-1,-1,29,31,33,35,-1,37,39,41,43,45,47,49,-1,-1,-1,51,53,-1,55,-1,-1,57,-1,59,-1,61,-1,63,65,67,69,71,73,-1,-1,-1,-1,-1,-1,-1,-1,-1,-1,-1,-1,-1,-1,-1,-1,-1,-1,-1,-1,-1,-1,-1,-1,-1,-1],"loss_changes":[4.59909E2,4.8503082E1,4.3569687E2,4.252411E0,3.2534584E1,1.8640033E2,1.5778534E1,4.1376295E0,2.4709473E0,6.894326E0,1.9670856E1,3.7747986E1,9.172816E1,7.0406637E0,0E0,0E0,6.1560726E-1,9.7195435E-1,3.4685917E0,2.084114E0,0E0,1.4614659E1,1.6173859E0,2.0282776E1,1.4239308E1,1.2029213E1,5.6404278E1,3.9180734E0,0E0,0E0,0E0,2.1011314E0,1.6491699E-1,0E0,4.8871994E-1,0E0,0E0,2.857346E0,0E0,3.0557442E0,0E0,1.8146545E1,0E0,1.9581003E0,1.9239664E-1,1.1889618E1,5.3331356E0,2.2307312E1,8.483887E-3,0E0,0E0,0E0,0E0,0E0,0E0,0E0,0E0,0E0,0E0,0E0,0E0,0E0,0E0,0E0,0E0,0E0,0E0,0E0,0E0,0E0,0E0,0E0,0E0,0E0,0E0],"parents":[2147483647,0,0,1,1,2,2,3,3,4,4,5,5,6,6,7,7,8,8,9,9,10,10,11,11,12,12,13,13,16,16,17,17,18,18,19,19,21,21,22,22,23,23,24,24,25,25,26,26,27,27,31,31,32,32,34,34,37,37,39,39,41,41,43,43,44,44,45,45,46,46,47,47,48,48],"right_children":[2,4,6,8,10,12,14,16,18,20,22,24,26,28,-1,-1,30,32,34,36,-1,38,40,42,44,46,48,50,-1,-1,-1,52,54,-1,56,-1,-1,58,-1,60,-1,62,-1,64,66,68,70,72,74,-1,-1,-1,-1,-1,-1,-1,-1,-1,-1,-1,-1,-1,-1,-1,-1,-1,-1,-1,-1,-1,-1,-1,-1,-1,-1],"split_conditions":[5.7009345E-1,5.29595E-1,4.7368422E-1,1E0,9.137164E-2,1E0,1E0,4.423676E-1,5.140187E-1,4.2105263E-1,1E0,1E0,1E0,5.263158E-1,-1.6484093E-2,-1.6977501E-3,1.4649682E-1,3.894081E-1,8.905008E-2,5.420561E-1,-2.7097946E-3,1.7861076E-1,1E0,1E0,1E0,1E0,1E0,1E0,-1.2581223E-2,-6.8255984E-3,-1.4962974E-2,1.7834395E-1,6.482598E-2,-2.1922574E-3,1E0,3.5545193E-3,1.2624316E-2,3.6842105E-1,1.1594066E-2,1E0,-1.5703907E-2,1.4649682E-1,-5.5200947E-3,1.6084397E-1,1.6800033E-1,1.5256238E-1,2.0382166E-1,4E0,3.1578946E-1,3.8032357E-3,-6.6280845E-3,-1.3654429E-2,-6.2696585E-3,-9.361131E-3,-1.5887087E-2,-7.866582E-3,-1.3856693E-2,-1.9513747E-3,-1.029466E-2,-7.6914243E-3,-1.5177643E-2,8.387531E-3,1.5502483E-2,2.1534546E-3,1.055681E-2,-8.28618E-3,-4.123874E-3,6.1634444E-3,1.4481759E-2,6.9246027E-3,-6.192851E-3,2.4590432E-3,-7.931915E-3,-9.728599E-3,-1.3922289E-2],"split_indices":[1,1,0,3,7,17,17,1,1,0,2,4,2,0,0,0,8,1,7,1,0,7,4,9,2,4,4,2,0,0,0,8,7,0,17,0,0,0,0,9,0,8,0,7,7,7,8,10,0,0,0,0,0,0,0,0,0,0,0,0,0,0,0,0,0,0,0,0,0,0,0,0,0,0,0],"split_type":[0,0,0,0,0,0,0,0,0,0,0,0,0,0,0,0,0,0,0,0,0,0,0,0,0,0,0,0,0,0,0,0,0,0,0,0,0,0,0,0,0,0,0,0,0,0,0,0,0,0,0,0,0,0,0,0,0,0,0,0,0,0,0,0,0,0,0,0,0,0,0,0,0,0,0],"sum_hessian":[9.503291E2,2.7382666E2,6.7650244E2,1.8516075E2,8.866589E1,5.7354663E2,1.02955826E2,1.6416378E1,1.6874437E2,1.9407692E1,6.92582E1,3.1338312E2,2.6016348E2,2.1884445E1,8.107138E1,6.7487397E0,9.667639E0,1.4324857E2,2.5495811E1,1.3910296E1,5.4973955E0,2.3659641E1,4.559856E1,2.8821198E2,2.5171154E1,8.697162E1,1.7319188E2,1.2480504E1,9.40394E0,4.730864E0,4.9367743E0,3.1659006E1,1.1158956E2,4.744369E0,2.0751442E1,4.7374015E0,9.172895E0,1.7463123E1,6.196518E0,3.42473E1,1.1351261E1,2.8346973E2,4.742244E0,1.34506E1,1.1720555E1,7.649148E1,1.0480146E1,1.3286893E2,4.0322952E1,6.493719E0,5.9867854E0,2.3943861E1,7.715145E0,5.45752E0,1.0613204E2,7.437603E0,1.331384E1,1.14919405E1,5.971183E0,2.5358456E1,8.888844E0,4.6962894E1,2.3650682E2,4.7460127E0,8.704587E0,5.481603E0,6.238952E0,3.1135532E1,4.5355946E1,4.7352176E0,5.7449284E0,1.08394775E2,2.4474146E1,1.2653632E1,2.766932E1],"tree_param":{"num_deleted":"0","num_feature":"20","num_nodes":"75","size_leaf_vector":"1"}},{"base_weights":[-2.217084E-3,-1.0841669E0,4.3662903E-1,-1.3726685E0,-4.7354603E-1,7.738971E-1,-1.4330001E0,-8.039246E-1,-1.4229857E0,6.375635E-1,-7.8964055E-1,1.3231646E0,1.9099645E-1,-6.443678E-1,-1.6357528E-2,-1.682998E-3,-1.190641E0,-1.0349681E0,-1.483698E0,9.8997515E-1,-2.6870044E-3,-5.1058494E-2,-1.1637692E0,1.3772136E0,-1.0191626E-2,5.025112E-1,-1.1507705E0,-1.3101079E-1,-1.2482283E-2,-6.7694504E-3,-1.4861947E-2,-1.3500458E-2,-6.5203034E-4,-1.2753807E0,-1.6089378E-2,1.3495354E-2,4.8138024E-3,-5.1632196E-1,1.1505239E-2,-9.9248344E-1,-1.5586019E-2,9.2234004E-1,1.5096487E0,1.1373534E0,4.946955E-2,-6.514927E-1,-1.2767358E0,3.129146E-3,-7.3945713E-3,-1.5412061E-2,-9.846571E-3,-7.4826926E-3,1.2722533E-3,-7.621676E-3,-1.5064809E-2,2.7700227E-3,1.0318549E-2,1.5936226E-2,5.7705557E-3,1.9030821E-3,1.3253486E-2,1.6104139E-3,-1.404917E-2,-4.0889448E-3,-8.219535E-3,-9.646247E-3,-1.3808812E-2],"categories":[],"categories_nodes":[],"categories_segments":[],"categories_sizes":[],"default_left":[0,0,0,0,0,0,0,0,0,0,0,0,0,0,0,0,0,0,0,0,0,0,0,0,0,0,0,0,0,0,0,0,0,0,0,0,0,0,0,0,0,0,0,0,0,0,0,0,0,0,0,0,0,0,0,0,0,0,0,0,0,0,0,0,0,0,0],"id":16,"left_children":[1,3,5,7,9,11,13,15,17,19,21,23,25,27,-1,-1,29,31,33,35,-1,37,39,41,-1,43,45,47,-1,-1,-1,-1,-1,49,-1,-1,-1,51,-1,53,-1,55,57,59,61,63,65,-1,-1,-1,-1,-1,-1,-1,-1,-1,-1,-1,-1,-1,-1,-1,-1,-1,-1,-1,-1],"loss_changes":[4.5159726E2,4.7699524E1,4.277879E2,4.1750183E0,3.196933E1,1.8349158E2,1.5537048E1,4.078038E0,2.456421E0,6.779977E0,1.9337345E1,3.878943E1,1.1744294E2,6.926263E0,0E0,0E0,6.119337E-1,7.9277706E0,1.7107849E0,2.0749025E0,0E0,1.4373486E1,1.6010971E0,1.6021423E1,0E0,6.5406136E1,2.5005646E0,3.8721058E0,0E0,0E0,0E0,0E0,0E0,3.0401611E0,0E0,0E0,0E0,2.8504353E0,0E0,3.0208893E0,0E0,4.5026474E0,1.6490753E1,1.6615334E1,2.1948795E1,1.897912E-1,9.407043E-3,0E0,0E0,0E0,0E0,0E0,0E0,0E0,0E0,0E0,0E0,0E0,0E0,0E0,0E0,0E0,0E0,0E0,0E0,0E0,0E0],"parents":[2147483647,0,0,1,1,2,2,3,3,4,4,5,5,6,6,7,7,8,8,9,9,10,10,11,11,12,12,13,13,16,16,17,17,18,18,19,19,21,21,22,22,23,23,25,25,26,26,27,27,33,33,37,37,39,39,41,41,42,42,43,43,44,44,45,45,46,46],"right_children":[2,4,6,8,10,12,14,16,18,20,22,24,26,28,-1,-1,30,32,34,36,-1,38,40,42,-1,44,46,48,-1,-1,-1,-1,-1,50,-1,-1,-1,52,-1,54,-1,56,58,60,62,64,66,-1,-1,-1,-1,-1,-1,-1,-1,-1,-1,-1,-1,-1,-1,-1,-1,-1,-1,-1,-1],"split_conditions":[5.7009345E-1,5.29595E-1,4.7368422E-1,1E0,9.137164E-2,1E0,1E0,4.423676E-1,8.283564E-2,4.2105263E-1,1E0,1E0,1E0,5.263158E-1,-1.6357528E-2,-1.682998E-3,1.172133E-1,4.9844238E-1,2.631579E-1,1E0,-2.6870044E-3,1.7861076E-1,1E0,1.362577E-1,-1.0191626E-2,1E0,1E0,1E0,-1.2482283E-2,-6.7694504E-3,-1.4861947E-2,-1.3500458E-2,-6.5203034E-4,1.4980602E-1,-1.6089378E-2,1.3495354E-2,4.8138024E-3,5.576324E-1,1.1505239E-2,1E0,-1.5586019E-2,5.8878505E-1,1E0,1E0,1E0,3.6842105E-1,3.1578946E-1,3.129146E-3,-7.3945713E-3,-1.5412061E-2,-9.846571E-3,-7.4826926E-3,1.2722533E-3,-7.621676E-3,-1.5064809E-2,2.7700227E-3,1.0318549E-2,1.5936226E-2,5.7705557E-3,1.9030821E-3,1.3253486E-2,1.6104139E-3,-1.404917E-2,-4.0889448E-3,-8.219535E-3,-9.646247E-3,-1.3808812E-2],"split_indices":[1,1,0,3,7,2,17,1,7,0,2,9,4,0,0,0,7,1,0,17,0,7,4,7,0,17,17,18,0,0,0,0,0,7,0,0,0,1,0,9,0,1,4,18,9,0,0,0,0,0,0,0,0,0,0,0,0,0,0,0,0,0,0,0,0,0,0],"split_type":[0,0,0,0,0,0,0,0,0,0,0,0,0,0,0,0,0,0,0,0,0,0,0,0,0,0,0,0,0,0,0,0,0,0,0,0,0,0,0,0,0,0,0,0,0,0,0,0,0,0,0,0,0,0,0,0,0,0,0,0,0,0,0,0,0,0,0],"sum_hessian":[9.491156E2,2.7345575E2,6.7565985E2,1.848644E2,8.8591354E1,5.728989E2,1.0276091E2,1.6405651E1,1.6845874E2,1.9395803E1,6.919555E1,2.9430515E2,2.7859378E2,2.1870594E1,8.089032E1,6.748579E0,9.657072E0,2.5233875E1,1.4322487E2,1.3898742E1,5.497062E0,2.3647861E1,4.5547688E1,2.8806998E2,6.235167E0,2.2660822E2,5.198558E1,1.2478911E1,9.391682E0,4.728679E0,4.928393E0,1.8749882E1,6.4839945E0,5.797528E1,8.524958E1,7.1737037E0,6.725038E0,1.745819E1,6.1896696E0,3.4217274E1,1.1330415E1,6.675423E1,2.2131577E2,9.374037E1,1.3286783E2,1.1716778E1,4.0268803E1,7.495716E0,4.9831953E0,2.8037601E1,2.9937681E1,1.2713328E1,4.7448635E0,2.5343842E1,8.873432E0,1.0196829E1,5.6557396E1,2.023836E2,1.8932158E1,1.5859385E1,7.788099E1,1.2422714E2,8.640693E0,6.237866E0,5.4789124E0,1.2642637E1,2.7626167E1],"tree_param":{"num_deleted":"0","num_feature":"20","num_nodes":"67","size_leaf_vector":"1"}},{"base_weights":[-2.343315E-3,-1.0752143E0,4.327739E-1,-1.3616687E0,-4.6941432E-1,7.67065E-1,-1.4218211E0,-7.977465E-1,-1.4116069E0,6.323412E-1,-7.829472E-1,1.2779864E0,1.5023465E-1,-6.390965E-1,-1.6233785E-2,-1.6683788E-3,-1.1820042E0,-1.4725055E0,-1.0270138E0,9.8210216E-1,-2.6644159E-3,-5.035631E-2,-1.1542876E0,1.3787888E0,1.1808045E-1,9.665675E-1,-2.622192E-1,-1.3004415E-1,-1.2384888E-2,-6.7052576E-3,-1.4770448E-2,-1.1890649E0,-1.541686E0,-2.1426135E-3,-1.1948851E0,3.4610298E-3,1.244586E-2,-5.1162493E-1,1.1417672E-2,-5.0809295E-3,-1.2281752E0,1.4129056E0,-5.4646395E-3,7.8278774E-1,-6.461491E-1,1.1009618E0,-2.2777062E-2,4.888718E-2,-1.266289E0,3.7612887E-3,-6.5447674E-3,-1.3429519E-2,-6.1299223E-3,-9.193974E-3,-1.5648305E-2,-7.680662E-3,-1.3630846E-2,-1.887765E-3,-1.0171444E-2,-6.73007E-3,-1.3838281E-2,8.214313E-3,1.5266448E-2,2.0809837E-3,1.04259215E-2,-8.170317E-3,-4.0390505E-3,6.016829E-3,1.4241595E-2,6.813978E-3,-6.177965E-3,2.4289456E-3,-7.861435E-3,-9.564939E-3,-1.3697351E-2],"categories":[],"categories_nodes":[],"categories_segments":[],"categories_sizes":[],"default_left":[0,0,0,0,0,0,0,0,0,0,0,0,0,0,0,0,0,0,0,0,0,0,0,0,0,0,0,0,0,0,0,0,0,0,0,0,0,0,0,0,0,0,0,0,0,0,0,0,0,0,0,0,0,0,0,0,0,0,0,0,0,0,0,0,0,0,0,0,0,0,0,0,0,0,0],"id":17,"left_children":[1,3,5,7,9,11,13,15,17,19,21,23,25,27,-1,-1,29,31,33,35,-1,37,39,41,43,45,47,49,-1,-1,-1,51,53,-1,55,-1,-1,57,-1,-1,59,61,-1,63,65,67,69,71,73,-1,-1,-1,-1,-1,-1,-1,-1,-1,-1,-1,-1,-1,-1,-1,-1,-1,-1,-1,-1,-1,-1,-1,-1,-1,-1],"loss_changes":[4.4340503E2,4.692047E1,4.200509E2,4.099243E0,3.1416376E1,1.8045764E2,1.529982E1,4.019738E0,2.449585E0,6.669387E0,1.9020142E1,3.6479187E1,8.807306E1,6.812501E0,0E0,0E0,6.1615276E-1,9.8516846E-1,3.3499165E0,2.0544243E0,0E0,1.4131237E1,1.5958633E0,1.9704468E1,1.3790398E1,1.1694077E1,5.443443E1,3.8234663E0,0E0,0E0,0E0,2.0641174E0,1.7666626E-1,0E0,5.099354E-1,0E0,0E0,2.8197193E0,0E0,0E0,2.6131783E0,1.7818054E1,0E0,1.9388142E0,1.962471E-1,1.1614433E1,5.229237E0,2.1875114E1,1.058197E-2,0E0,0E0,0E0,0E0,0E0,0E0,0E0,0E0,0E0,0E0,0E0,0E0,0E0,0E0,0E0,0E0,0E0,0E0,0E0,0E0,0E0,0E0,0E0,0E0,0E0,0E0],"parents":[2147483647,0,0,1,1,2,2,3,3,4,4,5,5,6,6,7,7,8,8,9,9,10,10,11,11,12,12,13,13,16,16,17,17,18,18,19,19,21,21,22,22,23,23,24,24,25,25,26,26,27,27,31,31,32,32,34,34,37,37,40,40,41,41,43,43,44,44,45,45,46,46,47,47,48,48],"right_children":[2,4,6,8,10,12,14,16,18,20,22,24,26,28,-1,-1,30,32,34,36,-1,38,40,42,44,46,48,50,-1,-1,-1,52,54,-1,56,-1,-1,58,-1,-1,60,62,-1,64,66,68,70,72,74,-1,-1,-1,-1,-1,-1,-1,-1,-1,-1,-1,-1,-1,-1,-1,-1,-1,-1,-1,-1,-1,-1,-1,-1,-1,-1],"split_conditions":[5.7009345E-1,5.29595E-1,4.7368422E-1,1E0,9.137164E-2,1E0,1E0,4.423676E-1,5.140187E-1,4.2105263E-1,1E0,1E0,1E0,5.263158E-1,-1.6233785E-2,-1.6683788E-3,1.4649682E-1,3.894081E-1,8.905008E-2,5.420561E-1,-2.6644159E-3,1.7861076E-1,1.1464968E-1,1E0,1E0,1E0,1E0,1E0,-1.2384888E-2,-6.7052576E-3,-1.4770448E-2,1.7834395E-1,6.482598E-2,-2.1426135E-3,1E0,3.4610298E-3,1.244586E-2,3.6842105E-1,1.1417672E-2,-5.0809295E-3,1E0,1.4649682E-1,-5.4646395E-3,1.6084397E-1,1.6800033E-1,1.5256238E-1,2.0382166E-1,4E0,3.1578946E-1,3.7612887E-3,-6.5447674E-3,-1.3429519E-2,-6.1299223E-3,-9.193974E-3,-1.5648305E-2,-7.680662E-3,-1.3630846E-2,-1.887765E-3,-1.0171444E-2,-6.73007E-3,-1.3838281E-2,8.214313E-3,1.5266448E-2,2.0809837E-3,1.04259215E-2,-8.170317E-3,-4.0390505E-3,6.016829E-3,1.4241595E-2,6.813978E-3,-6.177965E-3,2.4289456E-3,-7.861435E-3,-9.564939E-3,-1.3697351E-2],"split_indices":[1,1,0,3,7,17,17,1,1,0,2,4,2,0,0,0,8,1,7,1,0,7,8,9,2,4,4,2,0,0,0,8,7,0,17,0,0,0,0,0,17,8,0,7,7,7,8,10,0,0,0,0,0,0,0,0,0,0,0,0,0,0,0,0,0,0,0,0,0,0,0,0,0,0,0],"split_type":[0,0,0,0,0,0,0,0,0,0,0,0,0,0,0,0,0,0,0,0,0,0,0,0,0,0,0,0,0,0,0,0,0,0,0,0,0,0,0,0,0,0,0,0,0,0,0,0,0,0,0,0,0,0,0,0,0,0,0,0,0,0,0,0,0,0,0,0,0,0,0,0,0,0,0],"sum_hessian":[9.478354E2,2.730654E2,6.7477E2,1.8455177E2,8.851364E1,5.722146E2,1.025554E2,1.6394365E1,1.6815741E2,1.938342E1,6.9130226E1,3.1238983E2,2.5982477E2,2.1854982E1,8.070042E1,6.7484083E0,9.645957E0,1.4272827E2,2.5429136E1,1.388671E1,5.4967103E0,2.3636019E1,4.5494205E1,2.8723846E2,2.5151356E1,8.6761696E1,1.7306308E2,1.2476171E1,9.378812E0,4.725885E0,4.920072E0,3.1570055E1,1.1115821E2,4.742855E0,2.0686281E1,4.734227E0,9.152482E0,1.7453543E1,6.182474E0,5.47637E0,4.0017838E1,2.8249854E2,4.7399445E0,1.3438558E1,1.1712797E1,7.628604E1,1.0475651E1,1.3285109E2,4.0211987E1,6.492507E0,5.983664E0,2.3864014E1,7.706041E0,5.446328E0,1.0571188E2,7.4210944E0,1.3265186E1,1.1489343E1,5.964201E0,9.928738E0,3.0089098E1,4.6888405E1,2.3561012E2,4.7445517E0,8.694006E0,5.476692E0,6.236105E0,3.1101618E1,4.5184425E1,4.7312694E0,5.744382E0,1.0837974E2,2.4471357E1,1.2631161E1,2.7580826E1],"tree_param":{"num_deleted":"0","num_feature":"20","num_nodes":"75","size_leaf_vector":"1"}},{"base_weights":[-2.4550883E-3,-1.0664366E0,4.2900577E-1,-1.3509214E0,-4.652973E-1,7.6036257E-1,-1.4108341E0,-7.9164135E-1,-1.4004984E0,6.270736E-1,-7.762649E-1,1.3020093E0,1.8653966E-1,-6.33797E-1,-1.6112765E-2,-1.6538867E-3,-1.1734906E0,-1.0165156E0,-1.460692E0,9.7418684E-1,-2.6420238E-3,-4.9904257E-2,-1.1446927E0,1.3555787E0,-1.0120449E-2,4.9233097E-1,-1.131879E0,-1.2896803E-1,-1.2288992E-2,-6.6503678E-3,-1.4672965E-2,-1.3289402E-2,-5.8306905E-4,-1.2537569E0,-1.5853342E-2,1.3317572E-2,4.7021303E-3,-5.0731194E-1,1.1331335E-2,-9.745872E-1,-1.5380494E-2,9.057876E-1,1.4868329E0,1.1162755E0,4.835854E-2,-6.408588E-1,-1.2560102E0,3.0960024E-3,-7.3043895E-3,-1.5184067E-2,-9.651093E-3,-7.3738294E-3,1.2990726E-3,-7.4596535E-3,-1.4865654E-2,2.6682182E-3,1.0144457E-2,1.5698537E-2,5.6793075E-3,1.770004E-3,1.3032208E-2,1.589102E-3,-1.3946521E-2,-4.004896E-3,-8.1049735E-3,-9.484661E-3,-1.35878455E-2],"categories":[],"categories_nodes":[],"categories_segments":[],"categories_sizes":[],"default_left":[0,0,0,0,0,0,0,0,0,0,0,0,0,0,0,0,0,0,0,0,0,0,0,0,0,0,0,0,0,0,0,0,0,0,0,0,0,0,0,0,0,0,0,0,0,0,0,0,0,0,0,0,0,0,0,0,0,0,0,0,0,0,0,0,0,0,0],"id":18,"left_children":[1,3,5,7,9,11,13,15,17,19,21,23,25,27,-1,-1,29,31,33,35,-1,37,39,41,-1,43,45,47,-1,-1,-1,-1,-1,49,-1,-1,-1,51,-1,53,-1,55,57,59,61,63,65,-1,-1,-1,-1,-1,-1,-1,-1,-1,-1,-1,-1,-1,-1,-1,-1,-1,-1,-1,-1],"loss_changes":[4.3542465E2,4.617105E1,4.1248804E2,4.027191E0,3.0865843E1,1.7769675E2,1.5074356E1,3.9626808E0,2.4177246E0,6.559428E0,1.8691975E1,3.785916E1,1.1310458E2,6.703121E0,0E0,0E0,6.128197E-1,7.756935E0,1.7181396E0,2.0541744E0,0E0,1.3899158E1,1.6082802E0,1.56623535E1,0E0,6.2911633E1,2.417015E0,3.780488E0,0E0,0E0,0E0,0E0,0E0,3.0255127E0,0E0,0E0,0E0,2.8003936E0,0E0,3.0051498E0,0E0,4.42556E0,1.6003876E1,1.6354485E1,2.157417E1,1.9360971E-1,1.1978149E-2,0E0,0E0,0E0,0E0,0E0,0E0,0E0,0E0,0E0,0E0,0E0,0E0,0E0,0E0,0E0,0E0,0E0,0E0,0E0,0E0],"parents":[2147483647,0,0,1,1,2,2,3,3,4,4,5,5,6,6,7,7,8,8,9,9,10,10,11,11,12,12,13,13,16,16,17,17,18,18,19,19,21,21,22,22,23,23,25,25,26,26,27,27,33,33,37,37,39,39,41,41,42,42,43,43,44,44,45,45,46,46],"right_children":[2,4,6,8,10,12,14,16,18,20,22,24,26,28,-1,-1,30,32,34,36,-1,38,40,42,-1,44,46,48,-1,-1,-1,-1,-1,50,-1,-1,-1,52,-1,54,-1,56,58,60,62,64,66,-1,-1,-1,-1,-1,-1,-1,-1,-1,-1,-1,-1,-1,-1,-1,-1,-1,-1,-1,-1],"split_conditions":[5.7009345E-1,5.29595E-1,4.7368422E-1,1E0,9.137164E-2,1E0,1E0,4.423676E-1,8.283564E-2,4.2105263E-1,1E0,1E0,1E0,5.263158E-1,-1.6112765E-2,-1.6538867E-3,1.172133E-1,4.9844238E-1,2.631579E-1,1E0,-2.6420238E-3,1.7861076E-1,1E0,1.362577E-1,-1.0120449E-2,1E0,1E0,1E0,-1.2288992E-2,-6.6503678E-3,-1.4672965E-2,-1.3289402E-2,-5.8306905E-4,1.4980602E-1,-1.5853342E-2,1.3317572E-2,4.7021303E-3,5.576324E-1,1.1331335E-2,1E0,-1.5380494E-2,5.8878505E-1,1E0,1E0,1E0,3.6842105E-1,3.1578946E-1,3.0960024E-3,-7.3043895E-3,-1.5184067E-2,-9.651093E-3,-7.3738294E-3,1.2990726E-3,-7.4596535E-3,-1.4865654E-2,2.6682182E-3,1.0144457E-2,1.5698537E-2,5.6793075E-3,1.770004E-3,1.3032208E-2,1.589102E-3,-1.3946521E-2,-4.004896E-3,-8.1049735E-3,-9.484661E-3,-1.35878455E-2],"split_indices":[1,1,0,3,7,2,17,1,7,0,2,9,4,0,0,0,7,1,0,17,0,7,4,7,0,17,17,18,0,0,0,0,0,7,0,0,0,1,0,9,0,1,4,18,9,0,0,0,0,0,0,0,0,0,0,0,0,0,0,0,0,0,0,0,0,0,0],"split_type":[0,0,0,0,0,0,0,0,0,0,0,0,0,0,0,0,0,0,0,0,0,0,0,0,0,0,0,0,0,0,0,0,0,0,0,0,0,0,0,0,0,0,0,0,0,0,0,0,0,0,0,0,0,0,0,0,0,0,0,0,0,0,0,0,0,0,0],"sum_hessian":[9.465038E2,2.7265802E2,6.7384576E2,1.8422678E2,8.843123E1,5.715041E2,1.0234167E2,1.6382555E1,1.6784422E2,1.9370337E1,6.906089E1,2.9334183E2,2.7816226E2,2.1839691E1,8.0501976E1,6.7482314E0,9.634324E0,2.5169863E1,1.4267436E2,1.3873994E1,5.4963427E0,2.3623087E1,4.54378E1,2.871096E2,6.23225E0,2.2630104E2,5.186122E1,1.2474344E1,9.365348E0,4.7234874E0,4.910837E0,1.8689302E1,6.4805603E0,5.7789356E1,8.4885E1,7.1549964E0,6.7189975E0,1.7448145E1,6.1749425E0,3.4148182E1,1.128962E1,6.664092E1,2.2046867E2,9.3452126E1,1.328489E2,1.1708637E1,4.0152584E1,7.4947424E0,4.9796014E0,2.7925303E1,2.9864056E1,1.2704086E1,4.7440586E0,2.5305246E1,8.842935E0,1.0187689E1,5.6453228E1,2.0155058E2,1.8918083E1,1.5835598E1,7.761652E1,1.24221924E2,8.62699E0,6.234916E0,5.4737215E0,1.2619216E1,2.7533367E1],"tree_param":{"num_deleted":"0","num_feature":"20","num_nodes":"67","size_leaf_vector":"1"}},{"base_weights":[-2.5780573E-3,-1.0577724E0,4.2526907E-1,-1.3403088E0,-4.6127573E-1,7.537329E-1,-1.4000889E0,-7.856089E-1,-1.3895322E0,6.219746E-1,-7.697536E-1,1.257715E0,1.4652263E-1,-6.286533E-1,-1.5994381E-2,-1.6395202E-3,-1.1650997E0,-1.4500691E0,-1.007992E0,9.665158E-1,-2.6198255E-3,-4.9216684E-2,-1.1354913E0,1.3571516E0,1.1673292E-1,9.477915E-1,-2.5758162E-1,-1.2801933E-1,-1.2194561E-2,-6.5875053E-3,-1.45847695E-2,-1.1686076E0,-1.5189204E0,-2.094309E-3,-1.1734649E0,3.3695828E-3,1.2272573E-2,-5.027089E-1,1.1246193E-2,-9.6642464E-1,-1.5269186E-2,7.563079E-1,1.4747295E0,7.71232E-1,-6.35622E-1,1.0806698E0,-2.751785E-2,4.7788054E-2,-1.2458943E0,3.7198407E-3,-6.4628366E-3,-1.3212346E-2,-5.9936396E-3,-9.031219E-3,-1.5419143E-2,-7.4995137E-3,-1.34130465E-2,-1.8255668E-3,-1.0050901E-2,-7.392563E-3,-1.4758845E-2,1.1531779E-2,4.8249983E-3,1.5332398E-2,8.222054E-3,2.0101462E-3,1.0297879E-2,-8.05683E-3,-3.9559193E-3,5.8738342E-3,1.4010426E-2,6.7056525E-3,-6.162626E-3,2.399287E-3,-7.791786E-3,-9.405385E-3,-1.3480233E-2],"categories":[],"categories_nodes":[],"categories_segments":[],"categories_sizes":[],"default_left":[0,0,0,0,0,0,0,0,0,0,0,0,0,0,0,0,0,0,0,0,0,0,0,0,0,0,0,0,0,0,0,0,0,0,0,0,0,0,0,0,0,0,0,0,0,0,0,0,0,0,0,0,0,0,0,0,0,0,0,0,0,0,0,0,0,0,0,0,0,0,0,0,0,0,0,0,0],"id":19,"left_children":[1,3,5,7,9,11,13,15,17,19,21,23,25,27,-1,-1,29,31,33,35,-1,37,39,41,43,45,47,49,-1,-1,-1,51,53,-1,55,-1,-1,57,-1,59,-1,61,63,65,67,69,71,73,75,-1,-1,-1,-1,-1,-1,-1,-1,-1,-1,-1,-1,-1,-1,-1,-1,-1,-1,-1,-1,-1,-1,-1,-1,-1,-1,-1,-1],"loss_changes":[4.2758197E2,4.5430176E1,4.0508737E2,3.9565735E0,3.0334656E1,1.7478699E2,1.4852509E1,3.9068403E0,2.4305725E0,6.4530716E0,1.8388298E1,3.5274323E1,8.457791E1,6.5942907E0,0E0,0E0,6.1716557E-1,9.992676E-1,3.2369576E0,2.0259E0,0E0,1.3665941E1,1.5936127E0,1.9172424E1,1.3356867E1,1.1373558E1,5.2549324E1,3.7313015E0,0E0,0E0,0E0,2.0294075E0,1.8893433E-1,0E0,5.3053665E-1,0E0,0E0,2.7828603E0,0E0,2.972786E0,0E0,4.7739162E0,7.8688965E0,1.919775E0,1.9986391E-1,1.135537E1,5.127615E0,2.1451931E1,1.3572693E-2,0E0,0E0,0E0,0E0,0E0,0E0,0E0,0E0,0E0,0E0,0E0,0E0,0E0,0E0,0E0,0E0,0E0,0E0,0E0,0E0,0E0,0E0,0E0,0E0,0E0,0E0,0E0,0E0],"parents":[2147483647,0,0,1,1,2,2,3,3,4,4,5,5,6,6,7,7,8,8,9,9,10,10,11,11,12,12,13,13,16,16,17,17,18,18,19,19,21,21,22,22,23,23,24,24,25,25,26,26,27,27,31,31,32,32,34,34,37,37,39,39,41,41,42,42,43,43,44,44,45,45,46,46,47,47,48,48],"right_children":[2,4,6,8,10,12,14,16,18,20,22,24,26,28,-1,-1,30,32,34,36,-1,38,40,42,44,46,48,50,-1,-1,-1,52,54,-1,56,-1,-1,58,-1,60,-1,62,64,66,68,70,72,74,76,-1,-1,-1,-1,-1,-1,-1,-1,-1,-1,-1,-1,-1,-1,-1,-1,-1,-1,-1,-1,-1,-1,-1,-1,-1,-1,-1,-1],"split_conditions":[5.7009345E-1,5.29595E-1,4.7368422E-1,1E0,9.137164E-2,1E0,1E0,4.423676E-1,5.140187E-1,4.2105263E-1,1E0,1E0,1E0,5.263158E-1,-1.5994381E-2,-1.6395202E-3,1.4649682E-1,3.894081E-1,8.905008E-2,5.420561E-1,-2.6198255E-3,1.7861076E-1,1E0,1.4649682E-1,1E0,1E0,1E0,1E0,-1.2194561E-2,-6.5875053E-3,-1.45847695E-2,1.7834395E-1,6.482598E-2,-2.094309E-3,1E0,3.3695828E-3,1.2272573E-2,3.6842105E-1,1.1246193E-2,1E0,-1.5269186E-2,3.6842105E-1,4.2105263E-1,1.6084397E-1,1.6800033E-1,1.5256238E-1,2.0382166E-1,4E0,3.1578946E-1,3.7198407E-3,-6.4628366E-3,-1.3212346E-2,-5.9936396E-3,-9.031219E-3,-1.5419143E-2,-7.4995137E-3,-1.34130465E-2,-1.8255668E-3,-1.0050901E-2,-7.392563E-3,-1.4758845E-2,1.1531779E-2,4.8249983E-3,1.5332398E-2,8.222054E-3,2.0101462E-3,1.0297879E-2,-8.05683E-3,-3.9559193E-3,5.8738342E-3,1.4010426E-2,6.7056525E-3,-6.162626E-3,2.399287E-3,-7.791786E-3,-9.405385E-3,-1.3480233E-2],"split_indices":[1,1,0,3,7,17,17,1,1,0,2,4,2,0,0,0,8,1,7,1,0,7,4,8,2,4,4,2,0,0,0,8,7,0,17,0,0,0,0,9,0,0,0,7,7,7,8,10,0,0,0,0,0,0,0,0,0,0,0,0,0,0,0,0,0,0,0,0,0,0,0,0,0,0,0,0,0],"split_type":[0,0,0,0,0,0,0,0,0,0,0,0,0,0,0,0,0,0,0,0,0,0,0,0,0,0,0,0,0,0,0,0,0,0,0,0,0,0,0,0,0,0,0,0,0,0,0,0,0,0,0,0,0,0,0,0,0,0,0,0,0,0,0,0,0,0,0,0,0,0,0,0,0,0,0,0,0],"sum_hessian":[9.45109E2,2.722326E2,6.728764E2,1.8388618E2,8.834641E1,5.707584E2,1.0211798E2,1.637022E1,1.6751598E2,1.9356808E1,6.89896E1,3.113051E2,2.5945328E2,2.1822697E1,8.029529E1,6.7480464E0,9.622173E0,1.4215973E2,2.535624E1,1.386085E1,5.4959583E0,2.3610098E1,4.5379505E1,2.8617545E2,2.5129663E1,8.653129E1,1.72922E2,1.2471389E1,9.351308E0,4.720433E0,4.9017406E0,3.1472849E1,1.1068688E2,4.741196E0,2.0615044E1,4.730769E0,9.130081E0,1.7443014E1,6.1670837E0,3.4113895E1,1.126561E1,4.8052284E1,2.3812317E2,1.342538E1,1.1704285E1,7.60606E1,1.047069E1,1.3283131E2,4.0090687E1,6.491177E0,5.9802117E0,2.3776737E1,7.6961117E0,5.4340787E0,1.0525281E2,7.4030457E0,1.3211998E1,1.1486439E1,5.956576E0,2.528871E1,8.825185E0,1.8306452E1,2.9745834E1,2.1728961E2,2.0833563E1,4.742891E0,8.682488E0,5.4712915E0,6.232993E0,3.1063997E1,4.49966E1,4.726928E0,5.7437615E0,1.0836357E2,2.4467745E1,1.2606818E1,2.7483868E1],"tree_param":{"num_deleted":"0","num_feature":"20","num_nodes":"77","size_leaf_vector":"1"}},{"base_weights":[-2.6759899E-3,-1.0493164E0,4.2163938E-1,-1.3299335E0,-4.5740148E-1,7.472462E-1,-1.3895221E0,-7.796467E-1,-1.3788202E0,6.16829E-1,-7.634197E-1,1.2816026E0,1.822106E-1,-6.234801E-1,-1.587854E-2,-1.6252829E-3,-1.1568259E0,-1.438963E0,-1.0000484E0,9.587995E-1,-2.5978207E-3,-4.8777167E-2,-1.1264251E0,1.3348544E0,-1.0096125E-2,4.824094E-1,-1.1135349E0,-1.2696241E-1,-1.2101545E-2,-6.5338295E-3,-1.4490639E-2,-1.1592604E0,-1.5074382E0,-2.0771285E-3,-1.1644729E0,1.31452E-2,4.592887E-3,-4.984851E-1,1.1162219E-2,-9.583686E-1,-1.5160088E-2,8.9033604E-1,1.464898E0,1.09583E0,4.727126E-2,-6.304371E-1,-1.2359365E0,3.0632364E-3,-7.2157374E-3,-1.3109366E-2,-5.9432755E-3,-8.962518E-3,-1.5302839E-2,-7.439123E-3,-1.3313204E-2,-7.267171E-3,1.3250088E-3,-7.326231E-3,-1.4654055E-2,2.5703122E-3,9.982586E-3,1.5470477E-2,5.5899816E-3,1.6390937E-3,1.281857E-2,1.5681334E-3,-1.3845691E-2,-3.9225216E-3,-7.992741E-3,-9.327082E-3,-1.3374454E-2],"categories":[],"categories_nodes":[],"categories_segments":[],"categories_sizes":[],"default_left":[0,0,0,0,0,0,0,0,0,0,0,0,0,0,0,0,0,0,0,0,0,0,0,0,0,0,0,0,0,0,0,0,0,0,0,0,0,0,0,0,0,0,0,0,0,0,0,0,0,0,0,0,0,0,0,0,0,0,0,0,0,0,0,0,0,0,0,0,0,0,0],"id":20,"left_children":[1,3,5,7,9,11,13,15,17,19,21,23,25,27,-1,-1,29,31,33,35,-1,37,39,41,-1,43,45,47,-1,-1,-1,49,51,-1,53,-1,-1,55,-1,57,-1,59,61,63,65,67,69,-1,-1,-1,-1,-1,-1,-1,-1,-1,-1,-1,-1,-1,-1,-1,-1,-1,-1,-1,-1,-1,-1,-1,-1],"loss_changes":[4.1998114E2,4.470282E1,3.9785974E2,3.8892822E0,2.9812887E1,1.7216989E2,1.4641647E1,3.8521624E0,2.3921204E0,6.3472834E0,1.8082321E1,3.713391E1,1.0894646E2,6.489625E0,0E0,0E0,6.1413765E-1,9.885254E-1,3.1874905E0,2.0343714E0,0E0,1.3442537E1,1.5796967E0,1.5290375E1,0E0,6.0532806E1,2.338623E0,3.6912324E0,0E0,0E0,0E0,1.9991989E0,1.8437195E-1,0E0,5.240288E-1,0E0,0E0,2.7514505E0,0E0,2.941513E0,0E0,4.358547E0,1.5548218E1,1.611132E1,2.120762E1,1.9719648E-1,1.5361786E-2,0E0,0E0,0E0,0E0,0E0,0E0,0E0,0E0,0E0,0E0,0E0,0E0,0E0,0E0,0E0,0E0,0E0,0E0,0E0,0E0,0E0,0E0,0E0,0E0],"parents":[2147483647,0,0,1,1,2,2,3,3,4,4,5,5,6,6,7,7,8,8,9,9,10,10,11,11,12,12,13,13,16,16,17,17,18,18,19,19,21,21,22,22,23,23,25,25,26,26,27,27,31,31,32,32,34,34,37,37,39,39,41,41,42,42,43,43,44,44,45,45,46,46],"right_children":[2,4,6,8,10,12,14,16,18,20,22,24,26,28,-1,-1,30,32,34,36,-1,38,40,42,-1,44,46,48,-1,-1,-1,50,52,-1,54,-1,-1,56,-1,58,-1,60,62,64,66,68,70,-1,-1,-1,-1,-1,-1,-1,-1,-1,-1,-1,-1,-1,-1,-1,-1,-1,-1,-1,-1,-1,-1,-1,-1],"split_conditions":[5.7009345E-1,5.29595E-1,4.7368422E-1,1E0,9.137164E-2,1E0,1E0,4.423676E-1,5.140187E-1,4.2105263E-1,1E0,1E0,1E0,5.263158E-1,-1.587854E-2,-1.6252829E-3,1.172133E-1,3.894081E-1,8.905008E-2,1E0,-2.5978207E-3,1.7861076E-1,1E0,1.362577E-1,-1.0096125E-2,1E0,1E0,1E0,-1.2101545E-2,-6.5338295E-3,-1.4490639E-2,1.7834395E-1,6.482598E-2,-2.0771285E-3,1E0,1.31452E-2,4.592887E-3,5.576324E-1,1.1162219E-2,1E0,-1.5160088E-2,5.8878505E-1,1E0,1E0,1E0,3.6842105E-1,3.1578946E-1,3.0632364E-3,-7.2157374E-3,-1.3109366E-2,-5.9432755E-3,-8.962518E-3,-1.5302839E-2,-7.439123E-3,-1.3313204E-2,-7.267171E-3,1.3250088E-3,-7.326231E-3,-1.4654055E-2,2.5703122E-3,9.982586E-3,1.5470477E-2,5.5899816E-3,1.6390937E-3,1.281857E-2,1.5681334E-3,-1.3845691E-2,-3.9225216E-3,-7.992741E-3,-9.327082E-3,-1.3374454E-2],"split_indices":[1,1,0,3,7,2,17,1,1,0,2,9,4,0,0,0,7,1,7,17,0,7,4,7,0,17,17,18,0,0,0,8,7,0,17,0,0,1,0,9,0,1,4,18,9,0,0,0,0,0,0,0,0,0,0,0,0,0,0,0,0,0,0,0,0,0,0,0,0,0,0],"split_type":[0,0,0,0,0,0,0,0,0,0,0,0,0,0,0,0,0,0,0,0,0,0,0,0,0,0,0,0,0,0,0,0,0,0,0,0,0,0,0,0,0,0,0,0,0,0,0,0,0,0,0,0,0,0,0,0,0,0,0,0,0,0,0,0,0,0,0,0,0,0,0],"sum_hessian":[9.4368243E2,2.7179196E2,6.718905E2,1.8353445E2,8.8257515E1,5.700038E2,1.0188668E2,1.635739E1,1.6717706E2,1.93426E1,6.891492E1,2.9230325E2,2.7770053E2,2.1806047E1,8.0080635E1,6.7478538E0,9.609535E0,1.4185391E2,2.5323147E1,1.3847041E1,5.4955587E0,2.3596083E1,4.5318832E1,2.8607187E2,6.2313805E0,2.2597441E2,5.1726135E1,1.2469337E1,9.336711E0,4.717836E0,4.8916993E0,3.142417E1,1.1042975E2,4.7408805E0,2.0582266E1,7.1346045E0,6.712436E0,1.7437176E1,6.158908E0,3.4078297E1,1.1240535E1,6.652411E1,2.1954776E2,9.314633E1,1.3282808E2,1.1699762E1,4.0026375E1,7.493644E0,4.975693E0,2.3731958E1,7.6922116E0,5.4286685E0,1.0500108E2,7.3966618E0,1.3185604E1,1.2693963E1,4.7432117E0,2.5271645E1,8.806655E0,1.0178263E1,5.6345848E1,2.0064493E2,1.890284E1,1.5812614E1,7.733372E1,1.2421552E2,8.612551E0,6.2317085E0,5.4680543E0,1.2593985E1,2.7432388E1],"tree_param":{"num_deleted":"0","num_feature":"20","num_nodes":"71","size_leaf_vector":"1"}},{"base_weights":[-2.8092586E-3,-1.134182E0,3.8335308E-1,-1.3572093E0,-6.125624E-1,6.916413E-1,-1.3796283E0,-1.0306233E0,-1.4429452E0,4.9543664E-1,-9.1914684E-1,1.2520922E0,1.1573729E-1,-6.181184E-1,-1.579996E-2,-1.2385182E-3,-1.1627053E-2,-9.99378E-1,-1.503906E0,-6.3289434E-4,1.1180982E-2,-3.016293E-1,-1.2302526E0,1.3136017E0,-1.119234E-2,4.1854793E-1,-1.1448302E0,-1.5142532E-1,-1.2009912E-2,-1.3307588E-2,-1.1956729E-3,-1.2113432E0,-1.6064515E-2,-8.236145E-3,1.7671408E-2,-5.575127E-3,-1.3187778E0,8.763621E-1,1.4610777E0,1.0121275E0,6.01968E-3,-6.5382814E-1,-1.2717019E0,3.4860426E-3,-6.8330173E-3,-1.4503407E-2,-7.553322E-3,-5.443626E-3,3.916163E-3,-8.105563E-3,-1.4459146E-2,3.226616E-3,1.0196643E-2,1.5438626E-2,5.3695845E-3,-2.1183407E-6,1.22787915E-2,1.3175358E-3,-1.4334871E-2,-9.007737E-3,-4.0300824E-3,-1.5350982E-2,-1.0775634E-2],"categories":[],"categories_nodes":[],"categories_segments":[],"categories_sizes":[],"default_left":[0,0,0,0,0,0,0,0,0,0,0,0,0,0,0,0,0,0,0,0,0,0,0,0,0,0,0,0,0,0,0,0,0,0,0,0,0,0,0,0,0,0,0,0,0,0,0,0,0,0,0,0,0,0,0,0,0,0,0,0,0,0,0],"id":21,"left_children":[1,3,5,7,9,11,13,15,17,19,21,23,25,27,-1,-1,-1,29,31,-1,-1,33,35,37,-1,39,41,43,-1,-1,-1,45,-1,-1,47,-1,49,51,53,55,57,59,61,-1,-1,-1,-1,-1,-1,-1,-1,-1,-1,-1,-1,-1,-1,-1,-1,-1,-1,-1,-1],"loss_changes":[4.125053E2,2.7119507E1,3.835401E2,3.202301E0,2.5519024E1,1.9345523E2,1.5060623E1,4.446007E0,2.016449E0,5.8600497E0,1.0798763E1,4.5794464E1,1.1382179E2,6.2207623E0,0E0,0E0,0E0,5.294964E0,1.427597E0,0E0,0E0,3.4818668E0,1.5479889E0,1.7848999E1,0E0,5.8799282E1,2.7679138E0,4.0188746E0,0E0,0E0,0E0,2.528305E0,0E0,0E0,3.1317484E0,