{"learner":{"attributes":{"best_iteration":"113","best_score":"0.6175924324482266","scikit_learn":"{\"_estimator_type\": \"classifier\"}"},"feature_names":["no_sentence","num_words","character0","character1","character2_3","character4","character5","std_dev","sent_len_diff","count_short_sentences_in_paragraphs","count_long_sentences_in_paragraphs","check_word0","check_word1","check_word2_3","check_word3","check_word4","check_word5","check_num","check_capitals","check_et"],"feature_types":["float","float","float","float","float","float","float","float","float","float","float","float","float","float","float","float","float","float","float","float"],"gradient_booster":{"model":{"gbtree_model_param":{"num_parallel_tree":"1","num_trees":"119"},"iteration_indptr":[0,1,2,3,4,5,6,7,8,9,10,11,12,13,14,15,16,17,18,19,20,21,22,23,24,25,26,27,28,29,30,31,32,33,34,35,36,37,38,39,40,41,42,43,44,45,46,47,48,49,50,51,52,53,54,55,56,57,58,59,60,61,62,63,64,65,66,67,68,69,70,71,72,73,74,75,76,77,78,79,80,81,82,83,84,85,86,87,88,89,90,91,92,93,94,95,96,97,98,99,100,101,102,103,104,105,106,107,108,109,110,111,112,113,114,115,116,117,118,119],"tree_info":[0,0,0,0,0,0,0,0,0,0,0,0,0,0,0,0,0,0,0,0,0,0,0,0,0,0,0,0,0,0,0,0,0,0,0,0,0,0,0,0,0,0,0,0,0,0,0,0,0,0,0,0,0,0,0,0,0,0,0,0,0,0,0,0,0,0,0,0,0,0,0,0,0,0,0,0,0,0,0,0,0,0,0,0,0,0,0,0,0,0,0,0,0,0,0,0,0,0,0,0,0,0,0,0,0,0,0,0,0,0,0,0,0,0,0,0,0,0,0],"trees":[{"base_weights":[-0E0,3.6829546E-1,-1.8793012E0,6.415094E-1,-1.614377E-1,-1.620438E0,-1.9460189E0,1.9804741E-1,8.673155E-1,-3.713799E-1,1.5909091E0,-1.7506493E0,2.6666666E-3,-1.1304347E-2,-1.95352E-2,-4.295612E-1,6.1908454E-1,1.4529915E0,6.412865E-1,-7.7251184E-1,1.7106315E-1,1.6646707E0,1.8181818E-3,-1.8624999E-2,-1.1304348E0,-1.6352202E0,2.6811594E-1,1.318328E0,-3.2786883E-2,1.5848376E0,-8.484849E-1,3.1712472E-1,1.1682485E0,-2.513661E-1,-1.1666666E0,1.1188406E0,-1.89011E-1,6.666667E-3,1.7725753E0,-2.6086955E-3,-1.4400001E-2,-1.7588653E-2,-6E-3,7.304786E-3,-8.930817E-3,1.5460385E-2,6.1635217E-3,-2.147651E-3,1.3417722E-2,1.8070739E-2,1.2897958E-2,-1.8E-2,5.3333333E-3,-4.0469207E-3,4.7459807E-3,1.3565683E-2,8.201439E-3,4.074074E-3,-5.2307695E-3,-1.2685713E-2,-1.1235955E-3,1.2121212E-3,1.33568905E-2,-3.7585734E-3,5.5135135E-3,1.3333334E-2,1.8787878E-2],"categories":[],"categories_nodes":[],"categories_segments":[],"categories_sizes":[],"default_left":[0,0,0,0,0,0,0,0,0,0,0,0,0,0,0,0,0,0,0,0,0,0,0,0,0,0,0,0,0,0,0,0,0,0,0,0,0,0,0,0,0,0,0,0,0,0,0,0,0,0,0,0,0,0,0,0,0,0,0,0,0,0,0,0,0,0,0],"id":0,"left_children":[1,3,5,7,9,11,13,15,17,19,21,23,-1,-1,-1,25,27,29,31,33,35,37,-1,-1,39,41,43,45,47,49,51,53,55,57,59,61,63,-1,65,-1,-1,-1,-1,-1,-1,-1,-1,-1,-1,-1,-1,-1,-1,-1,-1,-1,-1,-1,-1,-1,-1,-1,-1,-1,-1,-1,-1],"loss_changes":[1.9947421E3,3.488679E2,5.0026855E0,1.590451E2,3.0253778E2,2.5714813E1,5.834961E-2,1.423645E2,1.3849713E2,1.5978973E2,8.843765E0,4.571594E0,0E0,0E0,0E0,1.8254971E2,1.4693019E2,9.0101074E1,1.2975235E2,8.6390625E1,1.0694371E2,7.8103333E0,0E0,0E0,4.267826E0,9.120682E0,7.474381E1,2.390335E1,4.2249115E1,1.5831909E1,2.2654549E1,5.3956512E1,1.7881989E1,3.2969353E1,2.5642792E1,1.8496925E1,3.1678215E1,0E0,9.82254E-1,0E0,0E0,0E0,0E0,0E0,0E0,0E0,0E0,0E0,0E0,0E0,0E0,0E0,0E0,0E0,0E0,0E0,0E0,0E0,0E0,0E0,0E0,0E0,0E0,0E0,0E0,0E0,0E0],"parents":[2147483647,0,0,1,1,2,2,3,3,4,4,5,5,6,6,7,7,8,8,9,9,10,10,11,11,15,15,16,16,17,17,18,18,19,19,20,20,21,21,24,24,25,25,26,26,27,27,28,28,29,29,30,30,31,31,32,32,33,33,34,34,35,35,36,36,38,38],"right_children":[2,4,6,8,10,12,14,16,18,20,22,24,-1,-1,-1,26,28,30,32,34,36,38,-1,-1,40,42,44,46,48,50,52,54,56,58,60,62,64,-1,66,-1,-1,-1,-1,-1,-1,-1,-1,-1,-1,-1,-1,-1,-1,-1,-1,-1,-1,-1,-1,-1,-1,-1,-1,-1,-1,-1,-1],"split_conditions":[3E0,2E0,2E0,1E0,2.1242775E-2,1E1,7.545009E-4,9.176301E-3,5.319149E-3,1E0,3.0141843E-2,1E0,2.6666666E-3,-1.1304347E-2,-1.95352E-2,1E0,4.425262E-3,2E0,1E0,1.2644509E-2,1.1560693E-2,2.1531792E-2,1.8181818E-3,-1.8624999E-2,4E0,8.742775E-3,5.319149E-3,1.2411348E-2,2E0,1E0,1.7730496E-3,9.176301E-3,3.8467704E-3,6.2571517E-3,1.4430617E-2,1E0,1.7730497E-2,6.666667E-3,4.6481807E-3,-2.6086955E-3,-1.4400001E-2,-1.7588653E-2,-6E-3,7.304786E-3,-8.930817E-3,1.5460385E-2,6.1635217E-3,-2.147651E-3,1.3417722E-2,1.8070739E-2,1.2897958E-2,-1.8E-2,5.3333333E-3,-4.0469207E-3,4.7459807E-3,1.3565683E-2,8.201439E-3,4.074074E-3,-5.2307695E-3,-1.2685713E-2,-1.1235955E-3,1.2121212E-3,1.33568905E-2,-3.7585734E-3,5.5135135E-3,1.3333334E-2,1.8787878E-2],"split_indices":[18,10,17,2,1,18,7,1,0,4,0,6,0,0,0,18,7,18,4,1,1,1,0,0,18,1,0,0,9,3,0,1,8,7,7,17,0,0,8,0,0,0,0,0,0,0,0,0,0,0,0,0,0,0,0,0,0,0,0,0,0,0,0,0,0,0,0],"split_type":[0,0,0,0,0,0,0,0,0,0,0,0,0,0,0,0,0,0,0,0,0,0,0,0,0,0,0,0,0,0,0,0,0,0,0,0,0,0,0,0,0,0,0,0,0,0,0,0,0,0,0,0,0,0,0,0,0,0,0,0,0,0,0,0,0,0,0],"sum_hessian":[2.88E3,2.40875E3,4.7125E2,1.589E3,8.1975E2,1.0175E2,3.695E2,5.3675E2,1.05225E3,7.3275E2,8.7E1,9.525E1,6.5E0,4.75E0,3.6475E2,2.155E2,3.2125E2,2.915E2,7.6075E2,4.21E2,3.1175E2,8.25E1,4.5E0,7.9E1,1.625E1,7.85E1,1.37E2,1.545E2,1.6675E2,2.76E2,1.55E1,4.72E2,2.8875E2,1.82E2,2.39E2,8.525E1,2.265E2,8.75E0,7.375E1,4.75E0,1.15E1,6.95E1,9E0,9.825E1,3.875E1,1.1575E2,3.875E1,1.48E2,1.875E1,1.545E2,1.215E2,9E0,6.5E0,8.425E1,3.8775E2,1.855E2,1.0325E2,5.3E1,1.29E2,2.1775E2,2.125E1,1.55E1,6.975E1,1.8125E2,4.525E1,1.7E1,5.675E1],"tree_param":{"num_deleted":"0","num_feature":"20","num_nodes":"67","size_leaf_vector":"1"}},{"base_weights":[9.1946395E-6,3.6466023E-1,-1.8608111E0,6.3514376E-1,-1.597761E-1,-1.6046716E0,-1.9268243E0,1.9608709E-1,8.587066E-1,-3.6767134E-1,1.5755668E0,-1.733648E0,2.6435591E-3,-1.121126E-2,-1.934223E-2,-4.2539698E-1,6.130118E-1,1.4386152E0,6.3491386E-1,-7.6484025E-1,1.6940692E-1,1.6480114E0,2.5270944E-3,-1.8442664E-2,-1.1201558E0,-1.6192762E0,2.6542705E-1,1.3053452E0,-3.2391924E-2,1.5692015E0,-8.408073E-1,3.1395665E-1,1.1566823E0,-2.4886024E-1,-1.1551001E0,1.1078613E0,-1.8711407E-1,8.7557685E-1,1.7948521E-2,-2.5871492E-3,-1.4268203E-2,-1.7416593E-2,-5.946047E-3,7.2325706E-3,-8.8439295E-3,1.5308015E-2,6.103495E-3,-2.1263203E-3,1.3290908E-2,1.7892651E-2,1.27705615E-2,-1.7839303E-2,5.287145E-3,-4.006943E-3,4.698669E-3,1.343137E-2,8.120347E-3,4.034104E-3,-5.1788976E-3,-1.2559944E-2,-1.1128624E-3,1.200735E-3,1.3225792E-2,-3.7212078E-3,5.4596094E-3,2.5762396E-3,1.3051817E-2],"categories":[],"categories_nodes":[],"categories_segments":[],"categories_sizes":[],"default_left":[0,0,0,0,0,0,0,0,0,0,0,0,0,0,0,0,0,0,0,0,0,0,0,0,0,0,0,0,0,0,0,0,0,0,0,0,0,0,0,0,0,0,0,0,0,0,0,0,0,0,0,0,0,0,0,0,0,0,0,0,0,0,0,0,0,0,0],"id":1,"left_children":[1,3,5,7,9,11,13,15,17,19,21,23,-1,-1,-1,25,27,29,31,33,35,37,-1,-1,39,41,43,45,47,49,51,53,55,57,59,61,63,65,-1,-1,-1,-1,-1,-1,-1,-1,-1,-1,-1,-1,-1,-1,-1,-1,-1,-1,-1,-1,-1,-1,-1,-1,-1,-1,-1,-1,-1],"loss_changes":[1.955507E3,3.4191833E2,4.892456E0,1.5589624E2,2.966737E2,2.5225464E1,4.0039062E-2,1.3959418E2,1.3577264E2,1.5664337E2,8.016373E0,4.465515E0,0E0,0E0,0E0,1.789842E2,1.4403098E2,8.837982E1,1.2720145E2,8.468709E1,1.0484539E2,7.8704224E0,0E0,0E0,4.1876907E0,8.933228E0,7.3284805E1,2.3430023E1,4.1447163E1,1.55224E1,2.2254047E1,5.2890343E1,1.752829E1,3.2321587E1,2.5134888E1,1.8133812E1,3.1057442E1,3.7121286E0,0E0,0E0,0E0,0E0,0E0,0E0,0E0,0E0,0E0,0E0,0E0,0E0,0E0,0E0,0E0,0E0,0E0,0E0,0E0,0E0,0E0,0E0,0E0,0E0,0E0,0E0,0E0,0E0,0E0],"parents":[2147483647,0,0,1,1,2,2,3,3,4,4,5,5,6,6,7,7,8,8,9,9,10,10,11,11,15,15,16,16,17,17,18,18,19,19,20,20,21,21,24,24,25,25,26,26,27,27,28,28,29,29,30,30,31,31,32,32,33,33,34,34,35,35,36,36,37,37],"right_children":[2,4,6,8,10,12,14,16,18,20,22,24,-1,-1,-1,26,28,30,32,34,36,38,-1,-1,40,42,44,46,48,50,52,54,56,58,60,62,64,66,-1,-1,-1,-1,-1,-1,-1,-1,-1,-1,-1,-1,-1,-1,-1,-1,-1,-1,-1,-1,-1,-1,-1,-1,-1,-1,-1,-1,-1],"split_conditions":[3E0,2E0,2E0,1E0,2.1242775E-2,1E1,7.545009E-4,9.176301E-3,5.319149E-3,1E0,2.6372833E-2,1E0,2.6435591E-3,-1.121126E-2,-1.934223E-2,1E0,4.425262E-3,2E0,1E0,1.2644509E-2,1.1560693E-2,2.1965317E-2,2.5270944E-3,-1.8442664E-2,4E0,8.742775E-3,5.319149E-3,1.2411348E-2,2E0,1E0,1.7730496E-3,9.176301E-3,3.8467704E-3,6.2571517E-3,1.4430617E-2,1E0,1.7730497E-2,1.9503547E-2,1.7948521E-2,-2.5871492E-3,-1.4268203E-2,-1.7416593E-2,-5.946047E-3,7.2325706E-3,-8.8439295E-3,1.5308015E-2,6.103495E-3,-2.1263203E-3,1.3290908E-2,1.7892651E-2,1.27705615E-2,-1.7839303E-2,5.287145E-3,-4.006943E-3,4.698669E-3,1.343137E-2,8.120347E-3,4.034104E-3,-5.1788976E-3,-1.2559944E-2,-1.1128624E-3,1.200735E-3,1.3225792E-2,-3.7212078E-3,5.4596094E-3,2.5762396E-3,1.3051817E-2],"split_indices":[18,10,17,2,1,18,7,1,0,4,1,6,0,0,0,18,7,18,4,1,1,1,0,0,18,1,0,0,9,3,0,1,8,7,7,17,0,0,0,0,0,0,0,0,0,0,0,0,0,0,0,0,0,0,0,0,0,0,0,0,0,0,0,0,0,0,0],"split_type":[0,0,0,0,0,0,0,0,0,0,0,0,0,0,0,0,0,0,0,0,0,0,0,0,0,0,0,0,0,0,0,0,0,0,0,0,0,0,0,0,0,0,0,0,0,0,0,0,0,0,0,0,0,0,0,0,0,0,0,0,0,0,0,0,0,0,0],"sum_hessian":[2.8798906E3,2.408683E3,4.7120758E2,1.5889529E3,8.1973016E2,1.0174253E2,3.6946503E2,5.3673413E2,1.0522188E3,7.32736E2,8.699414E1,9.524254E1,6.4999886E0,4.7498484E0,3.6471518E2,2.1549246E2,3.212417E2,2.9148157E2,7.6073724E2,4.209901E2,3.1174588E2,8.224432E1,4.74981E0,7.899314E1,1.6249395E1,7.8494545E1,1.3699791E2,1.5449272E2,1.6674898E2,2.7598233E2,1.5499226E1,4.719975E2,2.8873972E2,1.819989E2,2.3899123E2,8.524689E1,2.2649901E2,1.42495165E1,6.799481E1,4.749992E0,1.1499404E1,6.949462E1,8.999918E0,9.824869E1,3.8749226E1,1.1574309E2,3.8749634E1,1.4799982E2,1.8749157E1,1.5448738E2,1.2149494E2,8.999271E0,6.4999537E0,8.424966E1,3.8774783E2,1.8549147E2,1.0324827E2,5.299978E1,1.2899913E2,2.1774123E2,2.1249994E1,1.5499994E1,6.974689E1,1.8124936E2,4.5249657E1,6.4997764E0,7.74974E0],"tree_param":{"num_deleted":"0","num_feature":"20","num_nodes":"67","size_leaf_vector":"1"}},{"base_weights":[1.6647764E-5,3.6107895E-1,-1.8428291E0,6.2887794E-1,-1.5814383E-1,-1.1619972E0,-1.8645449E0,1.9415721E-1,8.502331E-1,-3.6401337E-1,1.5605233E0,-1.6518129E-2,1.0485105E-3,-1.6399825E0,-1.9154755E-2,-4.2130244E-1,6.070294E-1,1.424558E0,6.2862545E-1,-7.5727963E-1,1.6777126E-1,1.6322671E0,2.5062475E-3,-1.7339875E0,-8.4461144E-4,-1.6037048E0,2.6277283E-1,1.2926096E0,-3.200213E-2,1.5539148E0,-8.332772E-1,3.1082356E-1,1.1453106E0,-2.7242804E-1,-1.1647671E0,1.097068E0,-1.8523763E-1,8.6790043E-1,1.7775757E-2,-1.851013E-2,-1.1178551E0,-1.724881E-2,-5.8926754E-3,7.161254E-3,-8.758222E-3,1.5158917E-2,6.0441606E-3,-1.7366337E-3,1.6679298E-2,1.7719148E-2,1.2645449E-2,-1.7682591E-2,5.2414183E-3,-3.967392E-3,4.651882E-3,1.3299586E-2,8.04032E-3,4.182993E-3,-5.5224076E-3,-1.2686335E-2,-4.665321E-4,1.1894571E-3,1.3097117E-2,-4.1981707E-3,3.8297477E-3,2.5539468E-3,1.2937482E-2,-3.8815178E-3,-1.4308602E-2],"categories":[],"categories_nodes":[],"categories_segments":[],"categories_sizes":[],"default_left":[0,0,0,0,0,0,0,0,0,0,0,0,0,0,0,0,0,0,0,0,0,0,0,0,0,0,0,0,0,0,0,0,0,0,0,0,0,0,0,0,0,0,0,0,0,0,0,0,0,0,0,0,0,0,0,0,0,0,0,0,0,0,0,0,0,0,0,0,0],"id":2,"left_children":[1,3,5,7,9,11,13,15,17,19,21,-1,-1,23,-1,25,27,29,31,33,35,37,-1,39,-1,41,43,45,47,49,51,53,55,57,59,61,63,65,-1,-1,67,-1,-1,-1,-1,-1,-1,-1,-1,-1,-1,-1,-1,-1,-1,-1,-1,-1,-1,-1,-1,-1,-1,-1,-1,-1,-1,-1,-1],"loss_changes":[1.9173434E3,3.35132E2,4.8132324E0,1.5281891E2,2.9093912E2,1.0874788E1,2.0720215E0,1.3688539E2,1.3314093E2,1.5356677E2,7.8587646E0,0E0,0E0,1.3192917E1,0E0,1.7551376E2,1.4120705E2,8.670288E1,1.2471774E2,8.304993E1,1.0279553E2,7.701233E0,0E0,4.129822E0,0E0,8.753525E0,7.185647E1,2.2973694E1,4.0685318E1,1.5228821E1,2.1864096E1,5.1845802E1,1.7187103E1,3.7725094E1,2.6531708E1,1.778093E1,3.0483948E1,3.6469316E0,0E0,0E0,3.1555977E0,0E0,0E0,0E0,0E0,0E0,0E0,0E0,0E0,0E0,0E0,0E0,0E0,0E0,0E0,0E0,0E0,0E0,0E0,0E0,0E0,0E0,0E0,0E0,0E0,0E0,0E0,0E0,0E0],"parents":[2147483647,0,0,1,1,2,2,3,3,4,4,5,5,6,6,7,7,8,8,9,9,10,10,13,13,15,15,16,16,17,17,18,18,19,19,20,20,21,21,23,23,25,25,26,26,27,27,28,28,29,29,30,30,31,31,32,32,33,33,34,34,35,35,36,36,37,37,40,40],"right_children":[2,4,6,8,10,12,14,16,18,20,22,-1,-1,24,-1,26,28,30,32,34,36,38,-1,40,-1,42,44,46,48,50,52,54,56,58,60,62,64,66,-1,-1,68,-1,-1,-1,-1,-1,-1,-1,-1,-1,-1,-1,-1,-1,-1,-1,-1,-1,-1,-1,-1,-1,-1,-1,-1,-1,-1,-1,-1],"split_conditions":[3E0,2E0,3.205642E-4,1E0,2.1242775E-2,4E0,2E0,9.176301E-3,5.319149E-3,1E0,2.6372833E-2,-1.6518129E-2,1.0485105E-3,1E1,-1.9154755E-2,1E0,4.425262E-3,2E0,1E0,1.2861271E-2,1.1560693E-2,2.1965317E-2,2.5062475E-3,1E0,-8.4461144E-4,8.742775E-3,5.319149E-3,1.2411348E-2,3E0,1E0,1.7730496E-3,9.176301E-3,3.8467704E-3,6.2571517E-3,1.4430617E-2,1E0,1.5957447E-2,1.9503547E-2,1.7775757E-2,-1.851013E-2,3E0,-1.724881E-2,-5.8926754E-3,7.161254E-3,-8.758222E-3,1.5158917E-2,6.0441606E-3,-1.7366337E-3,1.6679298E-2,1.7719148E-2,1.2645449E-2,-1.7682591E-2,5.2414183E-3,-3.967392E-3,4.651882E-3,1.3299586E-2,8.04032E-3,4.182993E-3,-5.5224076E-3,-1.2686335E-2,-4.665321E-4,1.1894571E-3,1.3097117E-2,-4.1981707E-3,3.8297477E-3,2.5539468E-3,1.2937482E-2,-3.8815178E-3,-1.4308602E-2],"split_indices":[18,10,8,2,1,9,17,1,0,4,1,0,0,18,0,18,7,18,4,1,1,1,0,6,0,1,0,0,9,3,0,1,8,7,7,17,0,0,0,0,9,0,0,0,0,0,0,0,0,0,0,0,0,0,0,0,0,0,0,0,0,0,0,0,0,0,0,0,0],"split_type":[0,0,0,0,0,0,0,0,0,0,0,0,0,0,0,0,0,0,0,0,0,0,0,0,0,0,0,0,0,0,0,0,0,0,0,0,0,0,0,0,0,0,0,0,0,0,0,0,0,0,0,0,0,0,0,0,0,0,0,0,0,0,0,0,0,0,0,0,0],"sum_hessian":[2.8795674E3,2.4084854E3,4.7108203E2,1.5888136E3,8.196719E2,1.6246107E1,4.5483594E2,5.3668726E2,1.0521263E3,7.3269464E2,8.6977196E1,1.1497012E1,4.7490945E0,9.022372E1,3.646122E2,2.1547014E2,3.2121713E2,2.9142697E2,7.6069934E2,4.209609E2,3.1173376E2,8.2227455E1,4.7497435E0,8.4973755E1,5.2499633E0,7.847839E1,1.3699174E2,1.5447115E2,1.6674599E2,2.7593005E2,1.5496927E1,4.7199E2,2.8870932E2,1.9299416E2,2.2796674E2,8.5237656E1,2.264961E2,1.4248566E1,6.797889E1,6.972604E1,1.5247712E1,6.9478714E1,8.999679E0,9.824481E1,3.8746937E1,1.1572261E2,3.8748543E1,1.5474812E2,1.199786E1,1.5445006E2,1.2147999E2,8.99711E0,6.499817E0,8.424864E1,3.8774136E2,1.854662E2,1.03243126E2,5.549873E1,1.3749544E2,2.0846677E2,1.9499975E1,1.5499978E1,6.973768E1,1.6049776E2,6.5998344E1,6.499678E0,7.7488875E0,5.2495675E0,9.998145E0],"tree_param":{"num_deleted":"0","num_feature":"20","num_nodes":"69","size_leaf_vector":"1"}},{"base_weights":[2.1226118E-5,3.5755253E-1,-1.825351E0,6.2271136E-1,-1.565377E-1,-1.1515216E0,-1.8468444E0,1.9226423E-1,8.4189093E-1,-3.6040735E-1,1.5458237E0,-1.6371077E-2,1.0398399E-3,-1.6245747E0,-1.897255E-2,-4.172753E-1,6.0114574E-1,1.4108083E0,6.2241936E-1,-7.498272E-1,1.6614862E-1,1.6168942E0,2.4855798E-3,-1.7177258E0,-8.375144E-4,-1.5884918E0,2.601527E-1,1.280113E0,-3.1593576E-2,1.5389649E0,-8.258894E-1,3.0772474E-1,1.1341277E0,-2.4370885E-1,-1.1327194E0,1.086455E0,-1.8339017E-1,8.603289E-1,1.7607389E-2,-1.8335428E-2,-1.1079717E0,-1.7085133E-2,-5.839876E-3,7.0908205E-3,-8.673665E-3,1.5012973E-2,5.9855096E-3,-2.0879677E-3,1.3073229E-2,1.755005E-2,1.252255E-2,-1.752971E-2,5.19615E-3,-3.9282604E-3,4.605609E-3,1.3170249E-2,7.9613365E-3,3.9535873E-3,-5.072998E-3,-1.2316638E-2,-1.0938088E-3,1.1782853E-3,1.2970785E-2,-3.6516867E-3,5.3689745E-3,2.5318526E-3,1.2825097E-2,-3.8490163E-3,-1.4181628E-2],"categories":[],"categories_nodes":[],"categories_segments":[],"categories_sizes":[],"default_left":[0,0,0,0,0,0,0,0,0,0,0,0,0,0,0,0,0,0,0,0,0,0,0,0,0,0,0,0,0,0,0,0,0,0,0,0,0,0,0,0,0,0,0,0,0,0,0,0,0,0,0,0,0,0,0,0,0,0,0,0,0,0,0,0,0,0,0,0,0],"id":3,"left_children":[1,3,5,7,9,11,13,15,17,19,21,-1,-1,23,-1,25,27,29,31,33,35,37,-1,39,-1,41,43,45,47,49,51,53,55,57,59,61,63,65,-1,-1,67,-1,-1,-1,-1,-1,-1,-1,-1,-1,-1,-1,-1,-1,-1,-1,-1,-1,-1,-1,-1,-1,-1,-1,-1,-1,-1,-1,-1],"loss_changes":[1.8802458E3,3.2850375E2,4.7073975E0,1.4980798E2,2.8534622E2,1.0682184E1,2.0229492E0,1.3423938E2,1.3059753E2,1.5055588E2,7.7067566E0,0E0,0E0,1.2944748E1,0E0,1.721348E2,1.38451E2,8.5068726E1,1.2229883E2,8.148593E1,1.007941E2,7.5395966E0,0E0,4.037689E0,0E0,8.581131E0,7.0458084E1,2.2533447E1,4.0071476E1,1.4950256E1,2.1484297E1,5.0822395E1,1.6857697E1,3.1025639E1,2.4158356E1,1.7437904E1,2.9982225E1,3.5834522E0,0E0,0E0,3.0977707E0,0E0,0E0,0E0,0E0,0E0,0E0,0E0,0E0,0E0,0E0,0E0,0E0,0E0,0E0,0E0,0E0,0E0,0E0,0E0,0E0,0E0,0E0,0E0,0E0,0E0,0E0,0E0,0E0],"parents":[2147483647,0,0,1,1,2,2,3,3,4,4,5,5,6,6,7,7,8,8,9,9,10,10,13,13,15,15,16,16,17,17,18,18,19,19,20,20,21,21,23,23,25,25,26,26,27,27,28,28,29,29,30,30,31,31,32,32,33,33,34,34,35,35,36,36,37,37,40,40],"right_children":[2,4,6,8,10,12,14,16,18,20,22,-1,-1,24,-1,26,28,30,32,34,36,38,-1,40,-1,42,44,46,48,50,52,54,56,58,60,62,64,66,-1,-1,68,-1,-1,-1,-1,-1,-1,-1,-1,-1,-1,-1,-1,-1,-1,-1,-1,-1,-1,-1,-1,-1,-1,-1,-1,-1,-1,-1,-1],"split_conditions":[3E0,2E0,3.205642E-4,1E0,2.1242775E-2,4E0,2E0,9.176301E-3,5.319149E-3,1E0,2.6372833E-2,-1.6371077E-2,1.0398399E-3,1E1,-1.897255E-2,1E0,4.425262E-3,2E0,1E0,1.2644509E-2,1.1560693E-2,2.1965317E-2,2.4855798E-3,1E0,-8.375144E-4,8.742775E-3,5.319149E-3,1.2411348E-2,2E0,1E0,1.7730496E-3,9.176301E-3,3.8467704E-3,6.2571517E-3,1.4430617E-2,1E0,1.7730497E-2,1.9503547E-2,1.7607389E-2,-1.8335428E-2,3E0,-1.7085133E-2,-5.839876E-3,7.0908205E-3,-8.673665E-3,1.5012973E-2,5.9855096E-3,-2.0879677E-3,1.3073229E-2,1.755005E-2,1.252255E-2,-1.752971E-2,5.19615E-3,-3.9282604E-3,4.605609E-3,1.3170249E-2,7.9613365E-3,3.9535873E-3,-5.072998E-3,-1.2316638E-2,-1.0938088E-3,1.1782853E-3,1.2970785E-2,-3.6516867E-3,5.3689745E-3,2.5318526E-3,1.2825097E-2,-3.8490163E-3,-1.4181628E-2],"split_indices":[18,10,8,2,1,9,17,1,0,4,1,0,0,18,0,18,7,18,4,1,1,1,0,6,0,1,0,0,9,3,0,1,8,7,7,17,0,0,0,0,9,0,0,0,0,0,0,0,0,0,0,0,0,0,0,0,0,0,0,0,0,0,0,0,0,0,0,0,0],"split_type":[0,0,0,0,0,0,0,0,0,0,0,0,0,0,0,0,0,0,0,0,0,0,0,0,0,0,0,0,0,0,0,0,0,0,0,0,0,0,0,0,0,0,0,0,0,0,0,0,0,0,0,0,0,0,0,0,0,0,0,0,0,0,0,0,0,0,0,0,0],"sum_hessian":[2.8790386E3,2.4081619E3,4.7087677E2,1.5885856E3,8.195763E2,1.6242426E1,4.5463434E2,5.366112E2,1.0519744E3,7.326274E2,8.6948944E1,1.1493279E1,4.749147E0,9.0191284E1,3.6444305E2,2.1543349E2,3.211777E2,2.913373E2,7.606371E2,4.2091287E2,3.1171448E2,8.219929E1,4.749662E0,8.4941315E1,5.249974E0,7.8451866E1,1.3698161E2,1.5443573E2,1.6674196E2,2.7584418E2,1.549315E1,4.719777E2,2.886594E2,1.819898E2,2.3892308E2,8.52225E1,2.2649197E2,1.4246951E1,6.795233E1,6.969616E1,1.5245152E1,6.945258E1,8.999283E0,9.8238434E1,3.8743183E1,1.1568898E2,3.8746754E1,1.4799866E2,1.8743303E1,1.5438875E2,1.2145542E2,8.993559E0,6.4995914E0,8.4246956E1,3.8773074E2,1.8542471E2,1.0323468E2,5.2997997E1,1.289918E2,2.1767316E2,2.1249937E1,1.549995E1,6.972255E1,1.8124445E2,4.524752E1,6.4995594E0,7.747392E0,5.2494035E0,9.995749E0],"tree_param":{"num_deleted":"0","num_feature":"20","num_nodes":"69","size_leaf_vector":"1"}},{"base_weights":[2.492328E-5,3.5407823E-1,-1.8083403E0,6.1663705E-1,-1.5495238E-1,-1.1412416E0,-1.8296217E0,1.903932E-1,8.336767E-1,-3.568471E-1,1.5314552E0,-1.6227312E-2,1.031242E-3,-1.6095338E0,-1.8795397E-2,-4.133136E-1,5.953368E-1,1.3973551E0,6.162938E-1,-7.4248046E-1,1.6455252E-1,1.6018786E0,2.4650889E-3,-1.7018657E0,-8.304796E-4,-1.5736238E0,2.5756592E-1,1.2678477E0,-3.121302E-2,1.5243393E0,-8.1863993E-1,3.0465996E-1,1.1231277E0,-2.6684242E-1,-1.1423655E0,1.0760168E0,-1.8155375E-1,8.528601E-1,1.7443238E-2,-1.816534E-2,-1.0982455E0,-1.6925408E-2,-5.7876334E-3,7.0212525E-3,-8.590238E-3,1.4870069E-2,5.927531E-3,-1.7052335E-3,1.6414104E-2,1.7385185E-2,1.2401796E-2,-1.738053E-2,5.1513305E-3,-3.8895437E-3,4.559844E-3,1.3043276E-2,7.88337E-3,4.1104797E-3,-5.4146987E-3,-1.2443392E-2,-4.5169206E-4,1.1672195E-3,1.2846719E-2,-4.1203424E-3,3.7672545E-3,2.5099562E-3,1.2714606E-2,-3.8168083E-3,-1.4057053E-2],"categories":[],"categories_nodes":[],"categories_segments":[],"categories_sizes":[],"default_left":[0,0,0,0,0,0,0,0,0,0,0,0,0,0,0,0,0,0,0,0,0,0,0,0,0,0,0,0,0,0,0,0,0,0,0,0,0,0,0,0,0,0,0,0,0,0,0,0,0,0,0,0,0,0,0,0,0,0,0,0,0,0,0,0,0,0,0,0,0],"id":4,"left_children":[1,3,5,7,9,11,13,15,17,19,21,-1,-1,23,-1,25,27,29,31,33,35,37,-1,39,-1,41,43,45,47,49,51,53,55,57,59,61,63,65,-1,-1,67,-1,-1,-1,-1,-1,-1,-1,-1,-1,-1,-1,-1,-1,-1,-1,-1,-1,-1,-1,-1,-1,-1,-1,-1,-1,-1,-1,-1],"loss_changes":[1.8441392E3,3.2202136E2,4.6070557E0,1.468675E2,2.798886E2,1.0495022E1,1.9775391E0,1.316485E2,1.281383E2,1.4761322E2,7.560089E0,0E0,0E0,1.2705139E1,0E0,1.688439E2,1.3576959E2,8.347583E1,1.1994229E2,7.993068E1,9.883679E1,7.385025E0,0E0,3.9503937E0,0E0,8.41568E0,6.908896E1,2.2108582E1,3.936459E1,1.4685669E1,2.1114286E1,4.98197E1,1.6539429E1,3.6335007E1,2.555075E1,1.7104301E1,2.9426373E1,3.5216274E0,0E0,0E0,3.041727E0,0E0,0E0,0E0,0E0,0E0,0E0,0E0,0E0,0E0,0E0,0E0,0E0,0E0,0E0,0E0,0E0,0E0,0E0,0E0,0E0,0E0,0E0,0E0,0E0,0E0,0E0,0E0,0E0],"parents":[2147483647,0,0,1,1,2,2,3,3,4,4,5,5,6,6,7,7,8,8,9,9,10,10,13,13,15,15,16,16,17,17,18,18,19,19,20,20,21,21,23,23,25,25,26,26,27,27,28,28,29,29,30,30,31,31,32,32,33,33,34,34,35,35,36,36,37,37,40,40],"right_children":[2,4,6,8,10,12,14,16,18,20,22,-1,-1,24,-1,26,28,30,32,34,36,38,-1,40,-1,42,44,46,48,50,52,54,56,58,60,62,64,66,-1,-1,68,-1,-1,-1,-1,-1,-1,-1,-1,-1,-1,-1,-1,-1,-1,-1,-1,-1,-1,-1,-1,-1,-1,-1,-1,-1,-1,-1,-1],"split_conditions":[3E0,2E0,3.205642E-4,1E0,2.1242775E-2,4E0,2E0,9.176301E-3,5.319149E-3,1E0,2.6372833E-2,-1.6227312E-2,1.031242E-3,1E1,-1.8795397E-2,1E0,4.425262E-3,2E0,1E0,1.2861271E-2,1.1560693E-2,2.1965317E-2,2.4650889E-3,1E0,-8.304796E-4,8.742775E-3,5.319149E-3,1.2411348E-2,3E0,1E0,1.7730496E-3,9.176301E-3,3.8467704E-3,6.2571517E-3,1.4430617E-2,1E0,1.5957447E-2,1.9503547E-2,1.7443238E-2,-1.816534E-2,3E0,-1.6925408E-2,-5.7876334E-3,7.0212525E-3,-8.590238E-3,1.4870069E-2,5.927531E-3,-1.7052335E-3,1.6414104E-2,1.7385185E-2,1.2401796E-2,-1.738053E-2,5.1513305E-3,-3.8895437E-3,4.559844E-3,1.3043276E-2,7.88337E-3,4.1104797E-3,-5.4146987E-3,-1.2443392E-2,-4.5169206E-4,1.1672195E-3,1.2846719E-2,-4.1203424E-3,3.7672545E-3,2.5099562E-3,1.2714606E-2,-3.8168083E-3,-1.4057053E-2],"split_indices":[18,10,8,2,1,9,17,1,0,4,1,0,0,18,0,18,7,18,4,1,1,1,0,6,0,1,0,0,9,3,0,1,8,7,7,17,0,0,0,0,9,0,0,0,0,0,0,0,0,0,0,0,0,0,0,0,0,0,0,0,0,0,0,0,0,0,0,0,0],"split_type":[0,0,0,0,0,0,0,0,0,0,0,0,0,0,0,0,0,0,0,0,0,0,0,0,0,0,0,0,0,0,0,0,0,0,0,0,0,0,0,0,0,0,0,0,0,0,0,0,0,0,0,0,0,0,0,0,0,0,0,0,0,0,0,0,0,0,0,0,0],"sum_hessian":[2.8783076E3,2.407714E3,4.7059344E2,1.5882703E3,8.1944385E2,1.6237232E1,4.543562E2,5.365054E2,1.0517649E3,7.325341E2,8.690973E1,1.1488035E1,4.7491965E0,9.014638E1,3.6420984E2,2.153829E2,3.2112247E2,2.9121365E2,7.605513E2,4.208468E2,3.116873E2,8.2160164E1,4.7495666E0,8.48964E1,5.249983E0,7.841527E1,1.3696764E2,1.5438689E2,1.6673558E2,2.757257E2,1.548793E1,4.7196072E2,2.885905E2,1.9297841E2,2.2786838E2,8.520159E1,2.264857E2,1.4244691E1,6.7915474E1,6.965483E1,1.524157E1,6.9416534E1,8.998739E0,9.8229645E1,3.873799E1,1.156426E2,3.874428E1,1.5474513E2,1.1990441E1,1.5430418E2,1.2142153E2,8.98865E0,6.4992795E0,8.4244644E1,3.877161E2,1.853675E2,1.0322304E2,5.5495808E1,1.374826E2,2.0836845E2,1.949993E1,1.5499911E1,6.970168E1,1.6049057E2,6.599512E1,6.4994206E0,7.7452703E0,5.249202E0,9.992369E0],"tree_param":{"num_deleted":"0","num_feature":"20","num_nodes":"69","size_leaf_vector":"1"}},{"base_weights":[2.9122615E-5,3.5065594E-1,-1.7917784E0,6.1065656E-1,-1.533919E-1,-1.1311513E0,-1.8128579E0,1.8855698E-1,8.2558674E-1,-3.533366E-1,1.5174054E0,-1.6086726E-2,1.0227145E-3,-1.5948464E0,-1.8623095E-2,-4.094157E-1,5.8962166E-1,1.3841875E0,6.1024696E-1,-7.352371E-1,1.6296898E-1,1.5872071E0,2.4447716E-3,-1.6863923E0,-8.235012E-4,-1.5590886E0,2.5501162E-1,1.2558059E0,-3.0814333E-2,1.5100266E0,-8.1152403E-1,3.0162838E-1,1.1123055E0,-2.3867494E-1,-1.1110723E0,1.0657487E0,-1.7974555E-1,8.454916E-1,1.7283145E-2,-1.799969E-2,-1.0886723E0,-1.6769487E-2,-5.7359445E-3,6.9525307E-3,-8.507911E-3,1.4730097E-2,5.8702123E-3,-2.0503206E-3,1.28627615E-2,1.722439E-2,1.228312E-2,-1.7234916E-2,5.106958E-3,-3.8512384E-3,4.5145773E-3,1.29185915E-2,7.8064045E-3,3.8746921E-3,-4.969479E-3,-1.2081612E-2,-1.0751478E-3,1.1562572E-3,1.2724851E-2,-3.5835656E-3,5.28005E-3,2.4882562E-3,1.2605957E-2,-3.7848928E-3,-1.39347995E-2],"categories":[],"categories_nodes":[],"categories_segments":[],"categories_sizes":[],"default_left":[0,0,0,0,0,0,0,0,0,0,0,0,0,0,0,0,0,0,0,0,0,0,0,0,0,0,0,0,0,0,0,0,0,0,0,0,0,0,0,0,0,0,0,0,0,0,0,0,0,0,0,0,0,0,0,0,0,0,0,0,0,0,0,0,0,0,0,0,0],"id":5,"left_children":[1,3,5,7,9,11,13,15,17,19,21,-1,-1,23,-1,25,27,29,31,33,35,37,-1,39,-1,41,43,45,47,49,51,53,55,57,59,61,63,65,-1,-1,67,-1,-1,-1,-1,-1,-1,-1,-1,-1,-1,-1,-1,-1,-1,-1,-1,-1,-1,-1,-1,-1,-1,-1,-1,-1,-1,-1,-1],"loss_changes":[1.8089883E3,3.1568808E2,4.5117188E0,1.4398987E2,2.7456332E2,1.0313076E1,1.9353027E0,1.2911707E2,1.2575928E2,1.4473286E2,7.418518E0,0E0,0E0,1.2473618E1,0E0,1.6563792E2,1.3315125E2,8.192267E1,1.17645935E2,7.844647E1,9.6925186E1,7.237198E0,0E0,3.8677979E0,0E0,8.256851E0,6.774833E1,2.1698212E1,3.8750755E1,1.4434509E1,2.0753696E1,4.883725E1,1.6231903E1,2.9782074E1,2.3233978E1,1.6779816E1,2.8945204E1,3.4613962E0,0E0,0E0,2.9873924E0,0E0,0E0,0E0,0E0,0E0,0E0,0E0,0E0,0E0,0E0,0E0,0E0,0E0,0E0,0E0,0E0,0E0,0E0,0E0,0E0,0E0,0E0,0E0,0E0,0E0,0E0,0E0,0E0],"parents":[2147483647,0,0,1,1,2,2,3,3,4,4,5,5,6,6,7,7,8,8,9,9,10,10,13,13,15,15,16,16,17,17,18,18,19,19,20,20,21,21,23,23,25,25,26,26,27,27,28,28,29,29,30,30,31,31,32,32,33,33,34,34,35,35,36,36,37,37,40,40],"right_children":[2,4,6,8,10,12,14,16,18,20,22,-1,-1,24,-1,26,28,30,32,34,36,38,-1,40,-1,42,44,46,48,50,52,54,56,58,60,62,64,66,-1,-1,68,-1,-1,-1,-1,-1,-1,-1,-1,-1,-1,-1,-1,-1,-1,-1,-1,-1,-1,-1,-1,-1,-1,-1,-1,-1,-1,-1,-1],"split_conditions":[3E0,2E0,3.205642E-4,1E0,2.1242775E-2,4E0,2E0,9.176301E-3,5.319149E-3,1E0,2.6372833E-2,-1.6086726E-2,1.0227145E-3,1E1,-1.8623095E-2,1E0,4.425262E-3,2E0,1E0,1.2644509E-2,1.1560693E-2,2.1965317E-2,2.4447716E-3,1E0,-8.235012E-4,8.742775E-3,5.319149E-3,1.2411348E-2,2E0,1E0,1.7730496E-3,9.176301E-3,3.8467704E-3,6.2571517E-3,1.4430617E-2,1E0,1.7730497E-2,1.9503547E-2,1.7283145E-2,-1.799969E-2,3E0,-1.6769487E-2,-5.7359445E-3,6.9525307E-3,-8.507911E-3,1.4730097E-2,5.8702123E-3,-2.0503206E-3,1.28627615E-2,1.722439E-2,1.228312E-2,-1.7234916E-2,5.106958E-3,-3.8512384E-3,4.5145773E-3,1.29185915E-2,7.8064045E-3,3.8746921E-3,-4.969479E-3,-1.2081612E-2,-1.0751478E-3,1.1562572E-3,1.2724851E-2,-3.5835656E-3,5.28005E-3,2.4882562E-3,1.2605957E-2,-3.7848928E-3,-1.39347995E-2],"split_indices":[18,10,8,2,1,9,17,1,0,4,1,0,0,18,0,18,7,18,4,1,1,1,0,6,0,1,0,0,9,3,0,1,8,7,7,17,0,0,0,0,9,0,0,0,0,0,0,0,0,0,0,0,0,0,0,0,0,0,0,0,0,0,0,0,0,0,0,0,0],"split_type":[0,0,0,0,0,0,0,0,0,0,0,0,0,0,0,0,0,0,0,0,0,0,0,0,0,0,0,0,0,0,0,0,0,0,0,0,0,0,0,0,0,0,0,0,0,0,0,0,0,0,0,0,0,0,0,0,0,0,0,0,0,0,0,0,0,0,0,0,0],"sum_hessian":[2.8773818E3,2.4071475E3,4.7023428E2,1.5878717E3,8.192759E2,1.6230564E1,4.5400372E2,5.3637213E2,1.0514995E3,7.3241595E2,8.685987E1,1.1481321E1,4.7492433E0,9.008934E1,3.6391437E2,2.1531883E2,3.210533E2,2.91057E2,7.6044257E2,4.207626E2,3.1165338E2,8.211041E1,4.7494574E0,8.4839355E1,5.2499895E0,7.836891E1,1.3694992E2,1.54325E2,1.667283E2,2.7557568E2,1.5481311E1,4.7193927E2,2.885033E2,1.81972E2,2.387906E2,8.517511E1,2.2647827E2,1.4241802E1,6.7868614E1,6.960236E1,1.5236993E1,6.9370865E1,8.998047E0,9.8218506E1,3.8731422E1,1.1558385E2,3.874115E1,1.4799646E2,1.8731853E1,1.5419707E2,1.2137861E2,8.982428E0,6.4988837E0,8.424171E1,3.8769757E2,1.8529501E2,1.0320828E2,5.299451E1,1.289775E2,2.1754077E2,2.1249823E1,1.5499864E1,6.967525E1,1.8123476E2,4.524352E1,6.499263E0,7.742539E0,5.248964E0,9.988029E0],"tree_param":{"num_deleted":"0","num_feature":"20","num_nodes":"69","size_leaf_vector":"1"}},{"base_weights":[3.2467553E-5,3.4728304E-1,-1.7756478E0,6.0476345E-1,-1.5185125E-1,-1.1212445E0,-1.7965348E0,1.8674143E-1,8.176179E-1,-3.4986982E-1,1.5036632E0,-1.5949199E-2,1.0142595E-3,-1.5804988E0,-1.8455451E-2,-4.0557945E-1,5.8397734E-1,1.3712953E0,6.0427743E-1,-7.28094E-1,1.6141102E-1,1.572867E0,2.424628E-3,-1.6712904E0,-8.165831E-4,-1.5448735E0,2.524893E-1,1.2439805E0,-3.044306E-2,1.4960152E0,-8.04538E-1,2.9862997E-1,1.101656E0,-2.6138398E-1,-1.120697E0,1.0556451E0,-1.7794807E-1,8.3822083E-1,1.7126955E-2,-1.7838296E-2,-1.0792478E0,-1.6617224E-2,-5.684798E-3,6.884641E-3,-8.42666E-3,1.4592959E-2,5.813541E-3,-1.6744267E-3,1.6159512E-2,1.7067509E-2,1.2166455E-2,-1.7092742E-2,5.0630216E-3,-3.813338E-3,4.469807E-3,1.27961235E-2,7.7304146E-3,4.039437E-3,-5.309436E-3,-1.2208709E-2,-4.3716995E-4,1.1454009E-3,1.2605106E-2,-4.0440788E-3,3.7058669E-3,2.4667499E-3,1.2499091E-2,-3.7532654E-3,-1.3814796E-2],"categories":[],"categories_nodes":[],"categories_segments":[],"categories_sizes":[],"default_left":[0,0,0,0,0,0,0,0,0,0,0,0,0,0,0,0,0,0,0,0,0,0,0,0,0,0,0,0,0,0,0,0,0,0,0,0,0,0,0,0,0,0,0,0,0,0,0,0,0,0,0,0,0,0,0,0,0,0,0,0,0,0,0,0,0,0,0,0,0],"id":6,"left_children":[1,3,5,7,9,11,13,15,17,19,21,-1,-1,23,-1,25,27,29,31,33,35,37,-1,39,-1,41,43,45,47,49,51,53,55,57,59,61,63,65,-1,-1,67,-1,-1,-1,-1,-1,-1,-1,-1,-1,-1,-1,-1,-1,-1,-1,-1,-1,-1,-1,-1,-1,-1,-1,-1,-1,-1,-1,-1],"loss_changes":[1.7747561E3,3.094926E2,4.4208984E0,1.411789E2,2.6936472E2,1.0136143E1,1.8962402E0,1.266378E2,1.2345679E2,1.4191711E2,7.2817993E0,0E0,0E0,1.2249771E1,0E0,1.6251376E2,1.3060263E2,8.0407776E1,1.154075E2,7.69689E1,9.505511E1,7.095688E0,0E0,3.7895355E0,0E0,8.104218E0,6.643555E1,2.1301773E1,3.8100437E1,1.4195801E1,2.0402197E1,4.7874695E1,1.593454E1,3.4999084E1,2.462091E1,1.6464043E1,2.840629E1,3.4027004E0,0E0,0E0,2.9346905E0,0E0,0E0,0E0,0E0,0E0,0E0,0E0,0E0,0E0,0E0,0E0,0E0,0E0,0E0,0E0,0E0,0E0,0E0,0E0,0E0,0E0,0E0,0E0,0E0,0E0,0E0,0E0,0E0],"parents":[2147483647,0,0,1,1,2,2,3,3,4,4,5,5,6,6,7,7,8,8,9,9,10,10,13,13,15,15,16,16,17,17,18,18,19,19,20,20,21,21,23,23,25,25,26,26,27,27,28,28,29,29,30,30,31,31,32,32,33,33,34,34,35,35,36,36,37,37,40,40],"right_children":[2,4,6,8,10,12,14,16,18,20,22,-1,-1,24,-1,26,28,30,32,34,36,38,-1,40,-1,42,44,46,48,50,52,54,56,58,60,62,64,66,-1,-1,68,-1,-1,-1,-1,-1,-1,-1,-1,-1,-1,-1,-1,-1,-1,-1,-1,-1,-1,-1,-1,-1,-1,-1,-1,-1,-1,-1,-1],"split_conditions":[3E0,2E0,3.205642E-4,1E0,2.1242775E-2,4E0,2E0,9.176301E-3,5.319149E-3,1E0,2.6372833E-2,-1.5949199E-2,1.0142595E-3,1E1,-1.8455451E-2,1E0,4.425262E-3,2E0,1E0,1.2861271E-2,1.1560693E-2,2.1965317E-2,2.424628E-3,1E0,-8.165831E-4,8.742775E-3,5.319149E-3,1.2411348E-2,3E0,1E0,1.7730496E-3,9.176301E-3,3.8467704E-3,6.2571517E-3,1.4430617E-2,1E0,1.5957447E-2,1.9503547E-2,1.7126955E-2,-1.7838296E-2,3E0,-1.6617224E-2,-5.684798E-3,6.884641E-3,-8.42666E-3,1.4592959E-2,5.813541E-3,-1.6744267E-3,1.6159512E-2,1.7067509E-2,1.2166455E-2,-1.7092742E-2,5.0630216E-3,-3.813338E-3,4.469807E-3,1.27961235E-2,7.7304146E-3,4.039437E-3,-5.309436E-3,-1.2208709E-2,-4.3716995E-4,1.1454009E-3,1.2605106E-2,-4.0440788E-3,3.7058669E-3,2.4667499E-3,1.2499091E-2,-3.7532654E-3,-1.3814796E-2],"split_indices":[18,10,8,2,1,9,17,1,0,4,1,0,0,18,0,18,7,18,4,1,1,1,0,6,0,1,0,0,9,3,0,1,8,7,7,17,0,0,0,0,9,0,0,0,0,0,0,0,0,0,0,0,0,0,0,0,0,0,0,0,0,0,0,0,0,0,0,0,0],"split_type":[0,0,0,0,0,0,0,0,0,0,0,0,0,0,0,0,0,0,0,0,0,0,0,0,0,0,0,0,0,0,0,0,0,0,0,0,0,0,0,0,0,0,0,0,0,0,0,0,0,0,0,0,0,0,0,0,0,0,0,0,0,0,0,0,0,0,0,0,0],"sum_hessian":[2.876266E3,2.4064644E3,4.6980176E2,1.5873909E3,8.190735E2,1.622247E1,4.5357928E2,5.362109E2,1.05118E3,7.322738E2,8.67997E1,1.1473182E1,4.749287E0,9.002057E1,3.6355872E2,2.1524168E2,3.209692E2,2.9086838E2,7.6031165E2,4.2066177E2,3.1161203E2,8.205036E1,4.7493353E0,8.477058E1,5.249995E0,7.831309E1,1.369286E2,1.5425049E2,1.667187E2,2.7539505E2,1.5473331E1,4.719134E2,2.8839825E2,1.929531E2,2.277087E2,8.514322E1,2.2646881E2,1.4238301E1,6.7812065E1,6.953913E1,1.5231445E1,6.931587E1,8.997212E0,9.820509E1,3.8723507E1,1.1551311E2,3.873738E1,1.5474072E2,1.1977974E1,1.5406812E2,1.2132693E2,8.974924E0,6.4984064E0,8.423818E1,3.876752E2,1.8520773E2,1.0319052E2,5.5491154E1,1.3746193E2,2.0820883E2,1.949986E1,1.54998045E1,6.964341E1,1.6047873E2,6.599008E1,6.499086E0,7.739215E0,5.24869E0,9.982756E0],"tree_param":{"num_deleted":"0","num_feature":"20","num_nodes":"69","size_leaf_vector":"1"}},{"base_weights":[3.6304948E-5,3.4395954E-1,-1.7599318E0,1.0771614E0,1.714449E-1,-1.1115158E0,-1.7806355E0,-3.958849E-1,1.2253053E0,4.1498072E-2,1.0706542E0,-1.581463E-2,1.0058725E-3,-1.566479E0,-1.8292284E-2,-1.3663814E0,6.4949214E-1,1.3384514E0,-8.197362E-1,3.5079628E-1,-4.4049567E-1,8.1297547E-1,1.6026855E0,-1.6565466E0,-8.097234E-4,-7.983078E-3,-1.6245157E-2,1.1149194E0,1.1460384E-1,-4.9805507E-1,1.3959485E0,-1.741872E-2,1.2999958E-1,-4.700167E-1,5.863649E-1,-7.430004E-1,9.199345E-3,1.0822022E0,3.5890393E-2,1.6726242E-2,5.169251E-3,-1.7681E-2,-1.069968E0,6.753313E-3,1.4171332E-2,-1.6732168E-3,4.006362E-3,-1.0158019E-2,7.286016E-4,1.6901083E-2,1.0540869E-2,7.4936026E-3,-3.7917541E-3,-1.5477477E-2,4.3297047E-3,1.1177993E-2,2.6192826E-3,-3.2973113E-3,-1.0681514E-2,8.2886005E-3,-2.3839704E-3,8.311561E-3,1.6666332E-2,-5.832107E-3,4.3393937E-3,-3.7219243E-3,-1.369697E-2],"categories":[],"categories_nodes":[],"categories_segments":[],"categories_sizes":[],"default_left":[0,0,0,0,0,0,0,0,0,0,0,0,0,0,0,0,0,0,0,0,0,0,0,0,0,0,0,0,0,0,0,0,0,0,0,0,0,0,0,0,0,0,0,0,0,0,0,0,0,0,0,0,0,0,0,0,0,0,0,0,0,0,0,0,0,0,0],"id":7,"left_children":[1,3,5,7,9,11,13,15,17,19,21,-1,-1,23,-1,25,27,29,31,33,35,37,39,41,-1,-1,-1,43,45,47,49,-1,51,53,55,57,59,61,63,-1,-1,-1,65,-1,-1,-1,-1,-1,-1,-1,-1,-1,-1,-1,-1,-1,-1,-1,-1,-1,-1,-1,-1,-1,-1,-1,-1],"loss_changes":[1.7414109E3,3.0423022E2,4.3343506E0,1.00478455E2,2.2774792E2,9.964012E0,1.8601074E0,4.413455E1,9.749097E1,2.5423788E2,3.24368E1,0E0,0E0,1.2033356E1,0E0,1.9919128E0,5.1499643E0,4.2418396E1,1.9896969E1,2.0111853E2,9.0692184E1,3.507399E1,5.1552277E0,3.715332E0,0E0,0E0,0E0,5.337267E-1,9.523351E-1,3.8374994E0,3.677362E1,0E0,4.066977E0,2.2662567E2,1.3893866E2,5.3203217E1,5.4806263E1,1.6898026E1,1.1150233E1,0E0,0E0,0E0,2.8835526E0,0E0,0E0,0E0,0E0,0E0,0E0,0E0,0E0,0E0,0E0,0E0,0E0,0E0,0E0,0E0,0E0,0E0,0E0,0E0,0E0,0E0,0E0,0E0,0E0],"parents":[2147483647,0,0,1,1,2,2,3,3,4,4,5,5,6,6,7,7,8,8,9,9,10,10,13,13,15,15,16,16,17,17,18,18,19,19,20,20,21,21,22,22,23,23,27,27,28,28,29,29,30,30,32,32,33,33,34,34,35,35,36,36,37,37,38,38,42,42],"right_children":[2,4,6,8,10,12,14,16,18,20,22,-1,-1,24,-1,26,28,30,32,34,36,38,40,42,-1,-1,-1,44,46,48,50,-1,52,54,56,58,60,62,64,-1,-1,-1,66,-1,-1,-1,-1,-1,-1,-1,-1,-1,-1,-1,-1,-1,-1,-1,-1,-1,-1,-1,-1,-1,-1,-1,-1],"split_conditions":[3E0,5.319149E-3,3.205642E-4,1E0,1.9503547E-2,4E0,2E0,1E0,2E0,2E0,2.1242775E-2,-1.581463E-2,1.0058725E-3,1E1,-1.8292284E-2,3.5460992E-3,3.5460992E-3,1.6618497E-3,1.7730496E-3,9.176301E-3,1E0,4.4878987E-3,3.1914894E-2,1E0,-8.097234E-4,-7.983078E-3,-1.6245157E-2,3.9739884E-3,5.9971097E-3,1E0,1E0,-1.741872E-2,3.7995696E-3,1E0,4.5270054E-3,1.2861271E-2,1.1560693E-2,3E0,1E0,1.6726242E-2,5.169251E-3,-1.7681E-2,3E0,6.753313E-3,1.4171332E-2,-1.6732168E-3,4.006362E-3,-1.0158019E-2,7.286016E-4,1.6901083E-2,1.0540869E-2,7.4936026E-3,-3.7917541E-3,-1.5477477E-2,4.3297047E-3,1.1177993E-2,2.6192826E-3,-3.2973113E-3,-1.0681514E-2,8.2886005E-3,-2.3839704E-3,8.311561E-3,1.6666332E-2,-5.832107E-3,4.3393937E-3,-3.7219243E-3,-1.369697E-2],"split_indices":[18,0,8,18,0,9,17,2,18,10,1,0,0,18,0,0,0,1,0,1,4,8,0,6,0,0,0,1,1,4,3,0,7,17,7,1,1,9,4,0,0,0,9,0,0,0,0,0,0,0,0,0,0,0,0,0,0,0,0,0,0,0,0,0,0,0,0],"split_type":[0,0,0,0,0,0,0,0,0,0,0,0,0,0,0,0,0,0,0,0,0,0,0,0,0,0,0,0,0,0,0,0,0,0,0,0,0,0,0,0,0,0,0,0,0,0,0,0,0,0,0,0,0,0,0,0,0,0,0,0,0,0,0,0,0,0,0],"sum_hessian":[2.8749673E3,2.4056694E3,4.6929803E2,4.5721652E2,1.9484528E3,1.6212984E1,4.5308505E2,4.162751E1,4.15589E2,1.7033446E3,2.4510815E2,1.1463656E1,4.749328E0,8.994041E1,3.6314462E2,2.1427654E1,2.0199858E1,3.9412857E2,2.146044E1,1.0377114E3,6.656333E2,1.6683368E2,7.8274475E1,8.469041E1,5.249998E0,7.9733624E0,1.3454291E1,1.0221411E1,9.978447E0,1.1732141E1,3.8239642E2,1.0465253E1,1.0995186E1,2.3118332E2,8.065281E2,3.9755222E2,2.6808105E2,1.2361406E2,4.321962E1,7.3029785E1,5.2446876E0,6.946545E1,1.5224957E1,5.4820514E0,4.7393594E0,5.234313E0,4.744134E0,5.7439046E0,5.988236E0,2.0341829E2,1.7897813E2,4.748001E0,6.247185E0,1.0506836E2,1.2611496E2,3.0480515E2,5.0172293E2,1.7594234E2,2.216099E2,6.1648354E1,2.0643271E2,8.816457E1,3.5449486E1,1.6731419E1,2.6488201E1,5.248381E0,9.976576E0],"tree_param":{"num_deleted":"0","num_feature":"20","num_nodes":"67","size_leaf_vector":"1"}},{"base_weights":[2.6124622E-5,3.4064132E-1,-1.7446142E0,1.0670751E0,1.6978909E-1,-1.1019592E0,-1.7651433E0,-3.9214942E-1,1.2138478E0,4.1087676E-2,1.0606076E0,-1.5682917E-2,9.975573E-4,-1.5527747E0,-1.8133413E-2,-1.3548074E0,6.44246E-1,1.3259828E0,-8.1251657E-1,3.4735867E-1,-4.3618372E-1,8.0517817E-1,1.5883398E0,-1.6421474E0,-8.02922E-4,-7.915204E-3,-1.6108695E-2,1.1061283E0,1.1367004E-1,-4.9375814E-1,1.3830012E0,-1.7274426E-2,1.2901215E-1,-4.6547574E-1,5.8062506E-1,-7.3579E-1,9.130282E-3,1.0718988E0,3.55003E-2,1.657677E-2,5.126443E-3,-1.7527645E-2,-1.0608288E0,6.698437E-3,1.4061266E-2,-1.6590493E-3,3.9735623E-3,-1.00690555E-2,7.2237744E-4,1.6748307E-2,1.0440256E-2,7.4327276E-3,-3.7588354E-3,-1.5332171E-2,4.286729E-3,1.1071119E-2,2.5932586E-3,-3.2646444E-3,-1.0579609E-2,8.209666E-3,-2.3602848E-3,8.230824E-3,1.6513884E-2,-5.7772724E-3,4.297964E-3,-3.6908656E-3,-1.3581257E-2],"categories":[],"categories_nodes":[],"categories_segments":[],"categories_sizes":[],"default_left":[0,0,0,0,0,0,0,0,0,0,0,0,0,0,0,0,0,0,0,0,0,0,0,0,0,0,0,0,0,0,0,0,0,0,0,0,0,0,0,0,0,0,0,0,0,0,0,0,0,0,0,0,0,0,0,0,0,0,0,0,0,0,0,0,0,0,0],"id":8,"left_children":[1,3,5,7,9,11,13,15,17,19,21,-1,-1,23,-1,25,27,29,31,33,35,37,39,41,-1,-1,-1,43,45,47,49,-1,51,53,55,57,59,61,63,-1,-1,-1,65,-1,-1,-1,-1,-1,-1,-1,-1,-1,-1,-1,-1,-1,-1,-1,-1,-1,-1,-1,-1,-1,-1,-1,-1],"loss_changes":[1.7088707E3,2.9842755E2,4.252075E0,9.8552246E1,2.2341068E2,9.796511E0,1.826416E0,4.338053E1,9.567645E1,2.4923567E2,3.1881287E1,0E0,0E0,1.1823914E1,0E0,1.9574547E0,5.068369E0,4.1654114E1,1.9562279E1,1.9717892E2,8.893182E1,3.4408173E1,5.0577545E0,3.6449585E0,0E0,0E0,0E0,5.261717E-1,9.366438E-1,3.771072E0,3.6152527E1,0E0,3.9994357E0,2.2227505E2,1.3628937E2,5.2199738E1,5.3744015E1,1.6603134E1,1.0939571E1,0E0,0E0,0E0,2.8339214E0,0E0,0E0,0E0,0E0,0E0,0E0,0E0,0E0,0E0,0E0,0E0,0E0,0E0,0E0,0E0,0E0,0E0,0E0,0E0,0E0,0E0,0E0,0E0,0E0],"parents":[2147483647,0,0,1,1,2,2,3,3,4,4,5,5,6,6,7,7,8,8,9,9,10,10,13,13,15,15,16,16,17,17,18,18,19,19,20,20,21,21,22,22,23,23,27,27,28,28,29,29,30,30,32,32,33,33,34,34,35,35,36,36,37,37,38,38,42,42],"right_children":[2,4,6,8,10,12,14,16,18,20,22,-1,-1,24,-1,26,28,30,32,34,36,38,40,42,-1,-1,-1,44,46,48,50,-1,52,54,56,58,60,62,64,-1,-1,-1,66,-1,-1,-1,-1,-1,-1,-1,-1,-1,-1,-1,-1,-1,-1,-1,-1,-1,-1,-1,-1,-1,-1,-1,-1],"split_conditions":[3E0,5.319149E-3,3.205642E-4,1E0,1.9503547E-2,4E0,2E0,1E0,2E0,2E0,2.1242775E-2,-1.5682917E-2,9.975573E-4,1E1,-1.8133413E-2,3.5460992E-3,3.5460992E-3,1.6618497E-3,1.7730496E-3,9.176301E-3,1E0,4.4878987E-3,3.1914894E-2,1E0,-8.02922E-4,-7.915204E-3,-1.6108695E-2,3.9739884E-3,5.9971097E-3,1E0,1E0,-1.7274426E-2,3.7995696E-3,1E0,4.5270054E-3,1.2861271E-2,1.1560693E-2,3E0,1E0,1.657677E-2,5.126443E-3,-1.7527645E-2,3E0,6.698437E-3,1.4061266E-2,-1.6590493E-3,3.9735623E-3,-1.00690555E-2,7.2237744E-4,1.6748307E-2,1.0440256E-2,7.4327276E-3,-3.7588354E-3,-1.5332171E-2,4.286729E-3,1.1071119E-2,2.5932586E-3,-3.2646444E-3,-1.0579609E-2,8.209666E-3,-2.3602848E-3,8.230824E-3,1.6513884E-2,-5.7772724E-3,4.297964E-3,-3.6908656E-3,-1.3581257E-2],"split_indices":[18,0,8,18,0,9,17,2,18,10,1,0,0,18,0,0,0,1,0,1,4,8,0,6,0,0,0,1,1,4,3,0,7,17,7,1,1,9,4,0,0,0,9,0,0,0,0,0,0,0,0,0,0,0,0,0,0,0,0,0,0,0,0,0,0,0,0],"split_type":[0,0,0,0,0,0,0,0,0,0,0,0,0,0,0,0,0,0,0,0,0,0,0,0,0,0,0,0,0,0,0,0,0,0,0,0,0,0,0,0,0,0,0,0,0,0,0,0,0,0,0,0,0,0,0,0,0,0,0,0,0,0,0,0,0,0,0],"sum_hessian":[2.8736714E3,2.404946E3,4.6872537E2,4.5692697E2,1.9480192E3,1.6202152E1,4.5252322E2,4.160594E1,4.15321E2,1.7030205E3,2.4499857E2,1.1452786E1,4.749366E0,8.9849205E1,3.62674E2,2.1411032E1,2.0194908E1,3.9387064E2,2.1450388E1,1.0375098E3,6.6551074E2,1.6679385E2,7.8204704E1,8.4599205E1,5.2499995E0,7.9699106E0,1.3441121E1,1.0216429E1,9.97848E0,1.1733591E1,3.8213705E2,1.0455543E1,1.0994845E1,2.3112875E2,8.063811E2,3.9745297E2,2.6805777E2,1.2357729E2,4.3216568E1,7.2960754E1,5.243951E0,6.938165E1,1.5217554E1,5.479895E0,4.736534E0,5.234762E0,4.743718E0,5.7455344E0,5.9880567E0,2.0323116E2,1.789059E2,4.747213E0,6.2476325E0,1.0501322E2,1.26115524E2,3.0468036E2,5.017007E2,1.7593584E2,2.2151714E2,6.1628387E1,2.0642937E2,8.814899E1,3.5428307E1,1.6730816E1,2.6485752E1,5.2480383E0,9.969516E0],"tree_param":{"num_deleted":"0","num_feature":"20","num_nodes":"67","size_leaf_vector":"1"}},{"base_weights":[1.5964235E-5,3.3736986E-1,-1.7296802E0,1.0571767E0,1.681548E-1,-1.4918004E0,-1.791065E-2,3.053899E-1,1.3395844E0,4.0682353E-2,1.0507302E0,-1.61388E0,2.6490875E-3,-1.3434435E0,6.545852E-1,1.4480867E0,-7.9906136E-1,3.4396517E-1,-4.3192366E-1,7.974938E-1,1.5743122E0,-1.7170928E-2,-1.0432153E0,-7.848104E-3,-1.5975202E-2,-1.1976595E-2,8.5697263E-1,1.6653799E0,1.1974453E0,-1.6678495E-2,4.192869E-3,-4.6100473E-1,5.749548E-1,-7.2867244E-1,9.061849E-3,1.0617577E0,3.5114724E-2,1.6430743E-2,5.084044E-3,-2.1505773E-3,-1.3412864E-2,1.3246332E-2,2.5193768E-3,6.7462986E-3,1.727233E-2,1.4135217E-2,8.977977E-3,-1.5189931E-2,4.244219E-3,1.0965897E-2,2.5674987E-3,-3.2323194E-3,-1.0479224E-2,8.13173E-3,-2.33684E-3,8.151132E-3,1.636493E-2,-5.723042E-3,4.2569633E-3],"categories":[],"categories_nodes":[],"categories_segments":[],"categories_sizes":[],"default_left":[0,0,0,0,0,0,0,0,0,0,0,0,0,0,0,0,0,0,0,0,0,0,0,0,0,0,0,0,0,0,0,0,0,0,0,0,0,0,0,0,0,0,0,0,0,0,0,0,0,0,0,0,0,0,0,0,0,0,0],"id":9,"left_children":[1,3,5,7,9,11,-1,13,15,17,19,21,-1,23,25,27,29,31,33,35,37,-1,39,-1,-1,-1,41,43,45,-1,-1,47,49,51,53,55,57,-1,-1,-1,-1,-1,-1,-1,-1,-1,-1,-1,-1,-1,-1,-1,-1,-1,-1,-1,-1,-1,-1],"loss_changes":[1.6771553E3,2.927709E2,4.1777344E0,9.674356E1,2.1917383E2,2.2345901E1,0E0,7.3570564E1,7.827734E1,2.443383E2,3.1344635E1,3.8456573E0,0E0,1.9245529E0,4.0334934E1,1.5251648E1,1.8367098E1,1.9332187E2,8.720949E1,3.3758377E1,4.964096E0,0E0,3.958912E0,0E0,0E0,0E0,2.657856E1,9.071838E0,8.481964E0,0E0,0E0,2.1803294E2,1.3370554E2,5.122136E1,5.2703636E1,1.6319305E1,1.0733019E1,0E0,0E0,0E0,0E0,0E0,0E0,0E0,0E0,0E0,0E0,0E0,0E0,0E0,0E0,0E0,0E0,0E0,0E0,0E0,0E0,0E0,0E0],"parents":[2147483647,0,0,1,1,2,2,3,3,4,4,5,5,7,7,8,8,9,9,10,10,11,11,13,13,14,14,15,15,16,16,17,17,18,18,19,19,20,20,22,22,26,26,27,27,28,28,31,31,32,32,33,33,34,34,35,35,36,36],"right_children":[2,4,6,8,10,12,-1,14,16,18,20,22,-1,24,26,28,30,32,34,36,38,-1,40,-1,-1,-1,42,44,46,-1,-1,48,50,52,54,56,58,-1,-1,-1,-1,-1,-1,-1,-1,-1,-1,-1,-1,-1,-1,-1,-1,-1,-1,-1,-1,-1,-1],"split_conditions":[3E0,5.319149E-3,2E0,1E0,1.9503547E-2,1E1,-1.791065E-2,1E0,2E0,2E0,2.1242775E-2,1E0,2.6490875E-3,3.5460992E-3,1.6618497E-3,1E0,1.7730496E-3,9.176301E-3,1E0,4.4878987E-3,3.1914894E-2,-1.7170928E-2,4E0,-7.848104E-3,-1.5975202E-2,-1.1976595E-2,1E0,1E0,3.5460992E-3,-1.6678495E-2,4.192869E-3,1E0,4.5270054E-3,1.2861271E-2,1.1560693E-2,3E0,1E0,1.6430743E-2,5.084044E-3,-2.1505773E-3,-1.3412864E-2,1.3246332E-2,2.5193768E-3,6.7462986E-3,1.727233E-2,1.4135217E-2,8.977977E-3,-1.5189931E-2,4.244219E-3,1.0965897E-2,2.5674987E-3,-3.2323194E-3,-1.0479224E-2,8.13173E-3,-2.33684E-3,8.151132E-3,1.636493E-2,-5.723042E-3,4.2569633E-3],"split_indices":[18,0,17,2,0,18,0,18,18,10,1,6,0,0,1,3,0,1,4,8,0,0,18,0,0,0,3,18,0,0,0,17,7,1,1,9,4,0,0,0,0,0,0,0,0,0,0,0,0,0,0,0,0,0,0,0,0,0,0],"split_type":[0,0,0,0,0,0,0,0,0,0,0,0,0,0,0,0,0,0,0,0,0,0,0,0,0,0,0,0,0,0,0,0,0,0,0,0,0,0,0,0,0,0,0,0,0,0,0,0,0,0,0,0,0,0,0,0,0,0,0],"sum_hessian":[2.8722048E3,2.404119E3,4.6808597E2,4.565974E2,1.9475214E3,1.0120333E2,3.6688263E2,1.2525147E2,3.3134595E2,1.7026498E3,2.4487161E2,9.470338E1,6.4999514E0,2.1392572E1,1.038589E2,3.1565436E2,1.5691562E1,1.0372764E3,6.653734E2,1.6674608E2,7.812554E1,7.8497116E1,1.6206259E1,7.966239E0,1.3426333E1,9.74601E0,9.411289E1,1.660517E2,1.4960266E2,8.944449E0,6.7471123E0,2.3106122E2,8.0621515E2,3.9734137E2,2.68032E2,1.2353306E2,4.321302E1,7.2882385E1,5.2431517E0,4.7448163E0,1.1461442E1,5.241188E1,4.1701008E1,1.0457227E1,1.5559448E2,8.4762764E1,6.4839905E1,1.0494629E2,1.2611494E2,3.0453815E2,5.0167703E2,1.7592847E2,2.2141289E2,6.1606533E1,2.0642549E2,8.813056E1,3.5402496E1,1.6729939E1,2.6483082E1],"tree_param":{"num_deleted":"0","num_feature":"20","num_nodes":"59","size_leaf_vector":"1"}},{"base_weights":[1.6784234E-5,3.3414996E-1,-1.7150677E0,1.0475041E0,1.6654165E-1,-1.0791649E0,-1.7354261E0,-3.863924E-1,1.1917759E0,4.0282104E-2,1.0410172E0,-1.54189095E-2,1.0882152E-3,-1.5265718E0,-1.7828492E-2,-1.3322837E0,6.309567E-1,1.3020941E0,-8.007778E-1,3.4061497E-1,-4.277144E-1,7.8991956E-1,1.5605907E0,-1.6144425E0,-8.184298E-4,-7.7817645E-3,-1.5844578E-2,1.0893916E0,1.05425775E-1,7.3372644E-1,1.487843E0,-1.7014591E-2,1.24515615E-1,-4.56602E-1,5.6935304E-1,-7.216455E-1,8.994029E-3,1.0517743E0,3.4733623E-2,1.6288024E0,5.0420454E-3,-1.7233908E-2,-1.0427763E0,6.5723066E-3,1.3875052E-2,-1.7084358E-3,3.8696008E-3,1.236727E-2,1.1293218E-3,1.7124154E-2,1.2278173E-2,7.3568183E-3,-3.7722623E-3,-1.5050654E-2,4.2021675E-3,1.0862283E-2,2.542001E-3,-3.2003287E-3,-1.0380311E-2,8.054774E-3,-2.313634E-3,8.072462E-3,1.6219342E-2,-5.6694066E-3,4.2163874E-3,1.4222828E-2,1.798253E-2,-3.6065497E-3,-1.3365858E-2],"categories":[],"categories_nodes":[],"categories_segments":[],"categories_sizes":[],"default_left":[0,0,0,0,0,0,0,0,0,0,0,0,0,0,0,0,0,0,0,0,0,0,0,0,0,0,0,0,0,0,0,0,0,0,0,0,0,0,0,0,0,0,0,0,0,0,0,0,0,0,0,0,0,0,0,0,0,0,0,0,0,0,0,0,0,0,0,0,0],"id":10,"left_children":[1,3,5,7,9,11,13,15,17,19,21,-1,-1,23,-1,25,27,29,31,33,35,37,39,41,-1,-1,-1,43,45,47,49,-1,51,53,55,57,59,61,63,65,-1,-1,67,-1,-1,-1,-1,-1,-1,-1,-1,-1,-1,-1,-1,-1,-1,-1,-1,-1,-1,-1,-1,-1,-1,-1,-1,-1,-1],"loss_changes":[1.6461714E3,2.8727936E2,4.190918E0,9.50462E1,2.1503421E2,9.608793E0,1.7573242E0,4.1789482E1,9.241266E1,2.3954326E2,3.0825806E1,0E0,0E0,1.1374115E1,0E0,1.8931313E0,4.988044E0,4.052997E1,1.8901096E1,1.8954549E2,8.5524155E1,3.3124115E1,4.8740234E0,3.5209503E0,0E0,0E0,0E0,5.317116E-1,9.19765E-1,3.0799072E1,1.5191772E1,0E0,3.9552653E0,2.1389557E2,1.31185E2,5.026712E1,5.168466E1,1.6045929E1,1.0530492E1,2.482605E-2,0E0,0E0,2.7647018E0,0E0,0E0,0E0,0E0,0E0,0E0,0E0,0E0,0E0,0E0,0E0,0E0,0E0,0E0,0E0,0E0,0E0,0E0,0E0,0E0,0E0,0E0,0E0,0E0,0E0,0E0],"parents":[2147483647,0,0,1,1,2,2,3,3,4,4,5,5,6,6,7,7,8,8,9,9,10,10,13,13,15,15,16,16,17,17,18,18,19,19,20,20,21,21,22,22,23,23,27,27,28,28,29,29,30,30,32,32,33,33,34,34,35,35,36,36,37,37,38,38,39,39,42,42],"right_children":[2,4,6,8,10,12,14,16,18,20,22,-1,-1,24,-1,26,28,30,32,34,36,38,40,42,-1,-1,-1,44,46,48,50,-1,52,54,56,58,60,62,64,66,-1,-1,68,-1,-1,-1,-1,-1,-1,-1,-1,-1,-1,-1,-1,-1,-1,-1,-1,-1,-1,-1,-1,-1,-1,-1,-1,-1,-1],"split_conditions":[3E0,5.319149E-3,3.205642E-4,1E0,1.9503547E-2,4E0,2E0,1E0,2E0,2E0,2.1242775E-2,-1.54189095E-2,1.0882152E-3,1E1,-1.7828492E-2,3.5460992E-3,3.5460992E-3,1E0,1.7730496E-3,9.176301E-3,1E0,4.4878987E-3,3.1914894E-2,1E0,-8.184298E-4,-7.7817645E-3,-1.5844578E-2,1E0,5.9971097E-3,1E0,1E0,-1.7014591E-2,3.7995696E-3,1E0,4.5270054E-3,1.2861271E-2,1.1560693E-2,3E0,1E0,5.449591E-3,5.0420454E-3,-1.7233908E-2,3E0,6.5723066E-3,1.3875052E-2,-1.7084358E-3,3.8696008E-3,1.236727E-2,1.1293218E-3,1.7124154E-2,1.2278173E-2,7.3568183E-3,-3.7722623E-3,-1.5050654E-2,4.2021675E-3,1.0862283E-2,2.542001E-3,-3.2003287E-3,-1.0380311E-2,8.054774E-3,-2.313634E-3,8.072462E-3,1.6219342E-2,-5.6694066E-3,4.2163874E-3,1.4222828E-2,1.798253E-2,-3.6065497E-3,-1.3365858E-2],"split_indices":[18,0,8,18,0,9,17,2,18,10,1,0,0,18,0,0,0,2,0,1,4,8,0,6,0,0,0,4,1,3,3,0,7,17,7,1,1,9,4,8,0,0,9,0,0,0,0,0,0,0,0,0,0,0,0,0,0,0,0,0,0,0,0,0,0,0,0,0,0],"split_type":[0,0,0,0,0,0,0,0,0,0,0,0,0,0,0,0,0,0,0,0,0,0,0,0,0,0,0,0,0,0,0,0,0,0,0,0,0,0,0,0,0,0,0,0,0,0,0,0,0,0,0,0,0,0,0,0,0,0,0,0,0,0,0,0,0,0,0,0,0],"sum_hessian":[2.870566E3,2.4031824E3,4.673834E2,4.5622086E2,1.9469615E3,1.6174442E1,4.5120895E2,4.155305E1,4.1466782E2,1.7022338E3,2.4472783E2,1.1426043E1,4.748399E0,8.9636444E1,3.615725E2,2.1372332E1,2.018072E1,3.9324237E2,2.1425442E1,1.0370121E3,6.652217E2,1.6669057E2,7.803727E1,8.438645E1,5.249994E0,7.962355E0,1.3409976E1,1.0205367E1,9.975353E0,9.80801E1,2.9516226E2,1.0432048E1,1.0993395E1,2.3098114E2,8.060309E2,3.9721774E2,2.6800394E2,1.23481575E2,4.320899E1,7.2794975E1,5.242291E0,6.918622E1,1.5200231E1,5.4742484E0,4.7311187E0,5.233194E0,4.742159E0,5.3632236E1,4.4447865E1,1.5538113E2,1.3978113E2,4.74604E0,6.247355E0,1.0486792E2,1.2611321E2,3.04379E2,5.0165192E2,1.7592023E2,2.2129753E2,6.1582855E1,2.0642108E2,8.810938E1,3.5372196E1,1.6728796E1,2.6480194E1,3.7042522E1,3.5752457E1,5.24672E0,9.953511E0],"tree_param":{"num_deleted":"0","num_feature":"20","num_nodes":"69","size_leaf_vector":"1"}},{"base_weights":[2.1156518E-5,3.309865E-1,-1.7008575E0,1.0380319E0,1.649573E-1,-1.0701298E0,-1.7210639E0,2.9915452E-1,1.3159207E0,3.9886832E-2,1.0315255E0,-1.5295389E-2,1.0792142E-3,-1.5137436E0,-1.7681552E-2,-1.3213212E0,6.419177E-1,1.4225297E0,-7.84648E-1,3.3730727E-1,-4.235551E-1,7.8245276E-1,1.5473543E0,-1.6010009E0,-8.1155397E-4,-7.7161663E-3,-1.5716724E-2,-1.1899089E-2,8.422881E-1,1.6370714E0,1.1754361E0,-1.6419064E-2,4.143138E-3,-4.522654E-1,5.638185E-1,-7.1470743E-1,8.92681E-3,1.0419444E0,3.4357022E-2,1.6150522E0,5.0004423E-3,-1.7091485E-2,-1.0340348E0,1.3017103E-2,2.4849542E-3,6.6371486E-3,1.6979529E-2,1.3896353E-2,8.786864E-3,-1.4914233E-2,4.16057E-3,1.0760232E-2,2.5167651E-3,-2.9395495E-3,-1.0110639E-2,7.978775E-3,-2.290664E-3,7.994794E-3,1.6077003E-2,-5.6163566E-3,4.1762306E-3,1.409922E-2,1.7834704E-2,-3.5765239E-3,-1.3255933E-2],"categories":[],"categories_nodes":[],"categories_segments":[],"categories_sizes":[],"default_left":[0,0,0,0,0,0,0,0,0,0,0,0,0,0,0,0,0,0,0,0,0,0,0,0,0,0,0,0,0,0,0,0,0,0,0,0,0,0,0,0,0,0,0,0,0,0,0,0,0,0,0,0,0,0,0,0,0,0,0,0,0,0,0,0,0],"id":11,"left_children":[1,3,5,7,9,11,13,15,17,19,21,-1,-1,23,-1,25,27,29,31,33,35,37,39,41,-1,-1,-1,-1,43,45,47,-1,-1,49,51,53,55,57,59,61,-1,-1,63,-1,-1,-1,-1,-1,-1,-1,-1,-1,-1,-1,-1,-1,-1,-1,-1,-1,-1,-1,-1,-1,-1],"loss_changes":[1.616047E3,2.8193515E2,4.11792E0,9.340097E1,2.110159E2,9.452051E0,1.730957E0,7.091299E1,7.538928E1,2.348483E2,3.03396E1,0E0,0E0,1.1184662E1,0E0,1.8631096E0,3.9465736E1,1.4827515E1,1.7808184E1,1.8584778E2,8.387492E1,3.2504845E1,4.7893524E0,3.460785E0,0E0,0E0,0E0,0E0,2.5605194E1,8.745483E0,8.339279E0,0E0,0E0,2.0985942E2,1.287255E2,4.9340775E1,5.0686565E1,1.5782532E1,1.0331909E1,3.1600952E-2,0E0,0E0,2.7187042E0,0E0,0E0,0E0,0E0,0E0,0E0,0E0,0E0,0E0,0E0,0E0,0E0,0E0,0E0,0E0,0E0,0E0,0E0,0E0,0E0,0E0,0E0],"parents":[2147483647,0,0,1,1,2,2,3,3,4,4,5,5,6,6,7,7,8,8,9,9,10,10,13,13,15,15,16,16,17,17,18,18,19,19,20,20,21,21,22,22,23,23,28,28,29,29,30,30,33,33,34,34,35,35,36,36,37,37,38,38,39,39,42,42],"right_children":[2,4,6,8,10,12,14,16,18,20,22,-1,-1,24,-1,26,28,30,32,34,36,38,40,42,-1,-1,-1,-1,44,46,48,-1,-1,50,52,54,56,58,60,62,-1,-1,64,-1,-1,-1,-1,-1,-1,-1,-1,-1,-1,-1,-1,-1,-1,-1,-1,-1,-1,-1,-1,-1,-1],"split_conditions":[3E0,5.319149E-3,3.205642E-4,1E0,1.9503547E-2,4E0,2E0,1E0,2E0,2E0,2.1242775E-2,-1.5295389E-2,1.0792142E-3,1E1,-1.7681552E-2,3.5460992E-3,1.6618497E-3,1E0,1.7730496E-3,9.176301E-3,1E0,4.4878987E-3,3.1914894E-2,1E0,-8.1155397E-4,-7.7161663E-3,-1.5716724E-2,-1.1899089E-2,1E0,1E0,3.5460992E-3,-1.6419064E-2,4.143138E-3,1E0,4.5270054E-3,1.2644509E-2,1.1560693E-2,3E0,1E0,5.449591E-3,5.0004423E-3,-1.7091485E-2,3E0,1.3017103E-2,2.4849542E-3,6.6371486E-3,1.6979529E-2,1.3896353E-2,8.786864E-3,-1.4914233E-2,4.16057E-3,1.0760232E-2,2.5167651E-3,-2.9395495E-3,-1.0110639E-2,7.978775E-3,-2.290664E-3,7.994794E-3,1.6077003E-2,-5.6163566E-3,4.1762306E-3,1.409922E-2,1.7834704E-2,-3.5765239E-3,-1.3255933E-2],"split_indices":[18,0,8,2,0,9,17,18,18,10,1,0,0,18,0,0,1,3,0,1,4,8,0,6,0,0,0,0,3,18,0,0,0,17,7,1,1,9,4,8,0,0,9,0,0,0,0,0,0,0,0,0,0,0,0,0,0,0,0,0,0,0,0,0,0],"split_type":[0,0,0,0,0,0,0,0,0,0,0,0,0,0,0,0,0,0,0,0,0,0,0,0,0,0,0,0,0,0,0,0,0,0,0,0,0,0,0,0,0,0,0,0,0,0,0,0,0,0,0,0,0,0,0,0,0,0,0,0,0,0,0,0,0],"sum_hessian":[2.868768E3,2.4021511E3,4.6661697E2,4.5580893E2,1.9463423E3,1.6159746E1,4.5045724E2,1.2514302E2,3.306659E2,1.7017739E3,2.4456839E2,1.1411282E1,4.748466E0,8.9514305E1,3.6094293E2,2.1350363E1,1.03792656E2,3.150016E2,1.5664314E1,1.0367178E3,6.6505615E2,1.6662758E2,7.794081E1,8.426431E1,5.2499976E0,7.9582667E0,1.33920965E1,9.746808E0,9.404585E1,1.6559583E2,1.4940576E2,8.91829E0,6.746024E0,2.3088885E2,8.058289E2,3.9708255E2,2.6797357E2,1.2342308E2,4.3204494E1,7.269944E1,5.2413707E0,6.907402E1,1.5190288E1,5.235001E1,4.169584E1,1.0448588E1,1.5514723E2,8.463317E1,6.477258E1,1.0477846E2,1.2611039E2,3.0420346E2,5.0162543E2,1.6492375E2,2.3215881E2,6.155741E1,2.0641617E2,8.808554E1,3.533754E1,1.6727394E1,2.64771E1,3.7002567E1,3.5696873E1,5.246258E0,9.94403E0],"tree_param":{"num_deleted":"0","num_feature":"20","num_nodes":"65","size_leaf_vector":"1"}},{"base_weights":[2.0576654E-5,3.2786077E-1,-1.6869904E0,1.028704E0,1.6339315E-1,-1.0612465E0,-1.707052E0,2.961572E-1,1.3043927E0,3.9496627E-2,1.022187E0,-1.517436E-2,1.0702872E-3,-1.5011889E0,-1.7538304E-2,-1.3105505E0,6.3578135E-1,1.4101173E0,-7.7825344E-1,3.3404103E-1,-4.19444E-1,7.750906E-1,1.5343981E0,-1.5878571E0,-8.0473843E-4,-7.6513E-3,-1.5591552E-2,-1.1789663E-2,8.3439875E-1,1.6233746E0,1.1647115E0,-1.6295427E-2,4.107391E-3,-4.4799337E-1,5.583498E-1,-7.078546E-1,8.860166E-3,1.0322635E0,3.398464E-2,1.6016045E0,4.9592317E-3,-1.6952453E-2,-1.0254197E0,1.2898665E-2,2.460898E-3,6.579312E-3,1.6838325E-2,1.3771962E-2,8.704689E-3,-1.4780571E-2,4.119417E-3,1.06597E-2,2.4917866E-3,-3.135199E-3,-1.0188371E-2,7.90371E-3,-2.2679267E-3,7.918104E-3,1.5937792E-2,-5.563883E-3,4.1364864E-3,1.3977916E-2,1.7690616E-2,-3.5467644E-3,-1.314788E-2],"categories":[],"categories_nodes":[],"categories_segments":[],"categories_sizes":[],"default_left":[0,0,0,0,0,0,0,0,0,0,0,0,0,0,0,0,0,0,0,0,0,0,0,0,0,0,0,0,0,0,0,0,0,0,0,0,0,0,0,0,0,0,0,0,0,0,0,0,0,0,0,0,0,0,0,0,0,0,0,0,0,0,0,0,0],"id":12,"left_children":[1,3,5,7,9,11,13,15,17,19,21,-1,-1,23,-1,25,27,29,31,33,35,37,39,41,-1,-1,-1,-1,43,45,47,-1,-1,49,51,53,55,57,59,61,-1,-1,63,-1,-1,-1,-1,-1,-1,-1,-1,-1,-1,-1,-1,-1,-1,-1,-1,-1,-1,-1,-1,-1,-1],"loss_changes":[1.5866548E3,2.7670352E2,4.048218E0,9.1777466E1,2.0708788E2,9.299311E0,1.7067871E0,6.9631516E1,7.404089E1,2.3025049E2,2.9869019E1,0E0,0E0,1.1001099E1,0E0,1.8344154E0,3.874065E1,1.46276245E1,1.7521198E1,1.822269E2,8.226044E1,3.1900078E1,4.707855E0,3.4035797E0,0E0,0E0,0E0,0E0,2.5139442E1,8.601044E0,8.19783E0,0E0,0E0,2.0592104E2,1.2632498E2,4.848001E1,4.970884E1,1.552858E1,1.0137184E1,3.9031982E-2,0E0,0E0,2.6739922E0,0E0,0E0,0E0,0E0,0E0,0E0,0E0,0E0,0E0,0E0,0E0,0E0,0E0,0E0,0E0,0E0,0E0,0E0,0E0,0E0,0E0,0E0],"parents":[2147483647,0,0,1,1,2,2,3,3,4,4,5,5,6,6,7,7,8,8,9,9,10,10,13,13,15,15,16,16,17,17,18,18,19,19,20,20,21,21,22,22,23,23,28,28,29,29,30,30,33,33,34,34,35,35,36,36,37,37,38,38,39,39,42,42],"right_children":[2,4,6,8,10,12,14,16,18,20,22,-1,-1,24,-1,26,28,30,32,34,36,38,40,42,-1,-1,-1,-1,44,46,48,-1,-1,50,52,54,56,58,60,62,-1,-1,64,-1,-1,-1,-1,-1,-1,-1,-1,-1,-1,-1,-1,-1,-1,-1,-1,-1,-1,-1,-1,-1,-1],"split_conditions":[3E0,5.319149E-3,3.205642E-4,1E0,1.9503547E-2,4E0,2E0,1E0,2E0,2E0,2.1242775E-2,-1.517436E-2,1.0702872E-3,1E1,-1.7538304E-2,3.5460992E-3,1.6618497E-3,1E0,1.7730496E-3,9.176301E-3,1E0,4.4878987E-3,3.1914894E-2,1E0,-8.0473843E-4,-7.6513E-3,-1.5591552E-2,-1.1789663E-2,1E0,1E0,3.5460992E-3,-1.6295427E-2,4.107391E-3,1E0,4.5270054E-3,1.2861271E-2,1.1560693E-2,3E0,1E0,5.449591E-3,4.9592317E-3,-1.6952453E-2,3E0,1.2898665E-2,2.460898E-3,6.579312E-3,1.6838325E-2,1.3771962E-2,8.704689E-3,-1.4780571E-2,4.119417E-3,1.06597E-2,2.4917866E-3,-3.135199E-3,-1.0188371E-2,7.90371E-3,-2.2679267E-3,7.918104E-3,1.5937792E-2,-5.563883E-3,4.1364864E-3,1.3977916E-2,1.7690616E-2,-3.5467644E-3,-1.314788E-2],"split_indices":[18,0,8,2,0,9,17,18,18,10,1,0,0,18,0,0,1,3,0,1,4,8,0,6,0,0,0,0,3,18,0,0,0,17,7,1,1,9,4,8,0,0,9,0,0,0,0,0,0,0,0,0,0,0,0,0,0,0,0,0,0,0,0,0,0],"split_type":[0,0,0,0,0,0,0,0,0,0,0,0,0,0,0,0,0,0,0,0,0,0,0,0,0,0,0,0,0,0,0,0,0,0,0,0,0,0,0,0,0,0,0,0,0,0,0,0,0,0,0,0,0,0,0,0,0,0,0,0,0,0,0,0,0],"sum_hessian":[2.8668132E3,2.4010232E3,4.6578998E2,4.5535815E2,1.9456652E3,1.6143858E1,4.4964612E2,1.2507886E2,3.302793E2,1.7012719E3,2.4439323E2,1.13953285E1,4.7485294E0,8.938244E1,3.6026367E2,2.1326717E1,1.0375214E2,3.1463016E2,1.5649148E1,1.0363944E3,6.6487744E2,1.6655733E2,7.783592E1,8.413244E1,5.2499995E0,7.953978E0,1.337274E1,9.748174E0,9.400396E1,1.653373E2,1.4929286E2,8.903754E0,6.7453933E0,2.3078477E2,8.056097E2,3.9693643E2,2.67941E2,1.2335778E2,4.3199543E1,7.259553E1,5.2403927E0,6.895291E1,1.5179529E1,5.2311775E1,4.169219E1,1.044385E1,1.5489345E2,8.455305E1,6.473981E1,1.0467827E2,1.261065E2,3.0401205E2,5.0159763E2,1.7589925E2,2.2103719E2,6.153026E1,2.0641075E2,8.805911E1,3.5298668E1,1.672574E1,2.6473804E1,3.695934E1,3.563619E1,5.245765E0,9.9337635E0],"tree_param":{"num_deleted":"0","num_feature":"20","num_nodes":"65","size_leaf_vector":"1"}},{"base_weights":[1.9777704E-5,3.2477713E-1,-1.6734536E0,1.0195423E0,1.6184838E-1,-1.0525109E0,-1.6933774E0,-3.7884706E-1,1.1603414E0,3.9110865E-2,1.0129969E0,-1.5055741E-2,1.0614342E-3,-1.4888984E0,-1.7398609E-2,-1.2999653E0,6.1015487E-1,1.2681497E0,-7.850329E-1,3.3081532E-1,-4.1538182E-1,7.678303E-1,1.5217122E0,-1.5750012E0,-7.979772E-4,-7.587149E-3,-1.5468969E-2,1.065367E0,9.028759E-2,-4.9388534E-1,1.3235947E0,-1.6655227E-2,1.1670187E-1,-4.4378412E-1,5.529456E-1,-7.010885E-1,8.794051E-3,1.0227275E0,3.361663E-2,1.5884486E0,4.918405E-3,-1.6816694E-2,-1.0169277E0,6.3605434E-3,1.364189E-2,-1.8181033E-3,3.6991476E-3,-9.882753E-3,5.491531E-4,1.6049502E-2,9.979815E-3,7.267267E-3,-3.8299125E-3,-1.4649572E-2,4.0787053E-3,1.0560647E-2,2.4670616E-3,-3.1042115E-3,-1.00936415E-2,7.829562E-3,-2.245421E-3,7.842372E-3,1.58016E-2,-5.5119754E-3,4.0971497E-3,1.3858844E-2,1.7550131E-2,-3.5172706E-3,-1.3041647E-2],"categories":[],"categories_nodes":[],"categories_segments":[],"categories_sizes":[],"default_left":[0,0,0,0,0,0,0,0,0,0,0,0,0,0,0,0,0,0,0,0,0,0,0,0,0,0,0,0,0,0,0,0,0,0,0,0,0,0,0,0,0,0,0,0,0,0,0,0,0,0,0,0,0,0,0,0,0,0,0,0,0,0,0,0,0,0,0,0,0],"id":13,"left_children":[1,3,5,7,9,11,13,15,17,19,21,-1,-1,23,-1,25,27,29,31,33,35,37,39,41,-1,-1,-1,43,45,47,49,-1,51,53,55,57,59,61,63,65,-1,-1,67,-1,-1,-1,-1,-1,-1,-1,-1,-1,-1,-1,-1,-1,-1,-1,-1,-1,-1,-1,-1,-1,-1,-1,-1,-1,-1],"loss_changes":[1.557977E3,2.7159918E2,3.9818115E0,9.019693E1,2.032477E2,9.150419E0,1.6845703E0,3.9469357E1,8.790997E1,2.257484E2,2.9413269E1,0E0,0E0,1.0823059E1,0E0,1.8069763E0,4.9098473E0,3.9052063E1,1.79616E1,1.786811E2,8.0680504E1,3.1309341E1,4.6293488E0,3.3492584E0,0E0,0E0,0E0,5.6728363E-1,9.017768E-1,3.5050712E0,3.333203E1,0E0,3.933191E0,2.0207721E2,1.2398146E2,4.75925E1,4.8751045E1,1.528363E1,9.946235E0,4.7088623E-2,0E0,0E0,2.6305103E0,0E0,0E0,0E0,0E0,0E0,0E0,0E0,0E0,0E0,0E0,0E0,0E0,0E0,0E0,0E0,0E0,0E0,0E0,0E0,0E0,0E0,0E0,0E0,0E0,0E0,0E0],"parents":[2147483647,0,0,1,1,2,2,3,3,4,4,5,5,6,6,7,7,8,8,9,9,10,10,13,13,15,15,16,16,17,17,18,18,19,19,20,20,21,21,22,22,23,23,27,27,28,28,29,29,30,30,32,32,33,33,34,34,35,35,36,36,37,37,38,38,39,39,42,42],"right_children":[2,4,6,8,10,12,14,16,18,20,22,-1,-1,24,-1,26,28,30,32,34,36,38,40,42,-1,-1,-1,44,46,48,50,-1,52,54,56,58,60,62,64,66,-1,-1,68,-1,-1,-1,-1,-1,-1,-1,-1,-1,-1,-1,-1,-1,-1,-1,-1,-1,-1,-1,-1,-1,-1,-1,-1,-1,-1],"split_conditions":[3E0,5.319149E-3,3.205642E-4,1E0,1.9503547E-2,4E0,2E0,1E0,2E0,2E0,2.1242775E-2,-1.5055741E-2,1.0614342E-3,1E1,-1.7398609E-2,3.5460992E-3,3.5460992E-3,1.6618497E-3,1.7730496E-3,9.176301E-3,1E0,4.4878987E-3,3.1914894E-2,1E0,-7.979772E-4,-7.587149E-3,-1.5468969E-2,3.9739884E-3,5.9971097E-3,1E0,1E0,-1.6655227E-2,3.7995696E-3,1E0,4.5270054E-3,1.2861271E-2,1.1560693E-2,3E0,1E0,5.449591E-3,4.918405E-3,-1.6816694E-2,3E0,6.3605434E-3,1.364189E-2,-1.8181033E-3,3.6991476E-3,-9.882753E-3,5.491531E-4,1.6049502E-2,9.979815E-3,7.267267E-3,-3.8299125E-3,-1.4649572E-2,4.0787053E-3,1.0560647E-2,2.4670616E-3,-3.1042115E-3,-1.00936415E-2,7.829562E-3,-2.245421E-3,7.842372E-3,1.58016E-2,-5.5119754E-3,4.0971497E-3,1.3858844E-2,1.7550131E-2,-3.5172706E-3,-1.3041647E-2],"split_indices":[18,0,8,18,0,9,17,2,18,10,1,0,0,18,0,0,0,1,0,1,4,8,0,6,0,0,0,1,1,4,3,0,7,17,7,1,1,9,4,8,0,0,9,0,0,0,0,0,0,0,0,0,0,0,0,0,0,0,0,0,0,0,0,0,0,0,0,0,0],"split_type":[0,0,0,0,0,0,0,0,0,0,0,0,0,0,0,0,0,0,0,0,0,0,0,0,0,0,0,0,0,0,0,0,0,0,0,0,0,0,0,0,0,0,0,0,0,0,0,0,0,0,0,0,0,0,0,0,0,0,0,0,0,0,0,0,0,0,0,0,0],"sum_hessian":[2.864707E3,2.3998027E3,4.6490427E2,4.5487115E2,1.9449315E3,1.6126812E1,4.4877747E2,4.1455215E1,4.1341592E2,1.7007286E3,2.4420291E2,1.13782215E1,4.7485895E0,8.924116E1,3.595363E2,2.1301449E1,2.0153769E1,3.9203818E2,2.1377756E1,1.0360431E3,6.6468555E2,1.6648004E2,7.772286E1,8.399116E1,5.25E0,7.949495E0,1.33519535E1,1.01856165E1,9.968151E0,1.171849E1,3.8031967E2,1.0387736E1,1.0990021E1,2.3066925E2,8.0537384E2,3.9677924E2,2.679063E2,1.2328589E2,4.3194157E1,7.2483505E1,5.2393584E0,6.882318E1,1.5167979E1,5.4640484E0,4.721568E0,5.229385E0,4.7387667E0,5.7435718E0,5.974918E0,2.019178E2,1.7840189E2,4.744092E0,6.2459283E0,1.0456767E2,1.2610158E2,3.038053E2,5.015685E2,1.7588857E2,2.2089067E2,6.1501446E1,2.0640486E2,8.803018E1,3.5255707E1,1.6723846E1,2.6470312E1,3.691294E1,3.5570564E1,5.2452445E0,9.922735E0],"tree_param":{"num_deleted":"0","num_feature":"20","num_nodes":"69","size_leaf_vector":"1"}},{"base_weights":[1.477104E-5,3.2172766E-1,-1.6602352E0,1.0104797E0,1.6032286E-1,-1.0439183E0,-1.6800281E0,2.8651443E-1,1.2832602E0,3.8729828E-2,1.0039512E0,-1.4939454E-2,1.0526569E-3,-1.4768629E0,-1.7262343E-2,-1.2895602E0,6.1929536E-1,1.3872505E0,-7.6450145E-1,3.276295E-1,-4.1136676E-1,7.606696E-1,1.5092876E0,-1.562423E0,-7.912759E-4,-7.5237015E-3,-1.5348892E-2,-1.1630697E-2,8.146672E-1,1.597705E0,1.1455103E0,-1.6052673E-2,4.0591825E-3,-4.3963578E-1,5.476049E-1,-6.9440544E-1,8.72845E-3,1.0133326E0,3.3252858E-2,1.5755746E0,4.8779594E-3,-1.6684093E-2,-1.0085557E0,1.2646818E-2,2.3440232E-3,6.476912E-3,1.657347E-2,1.3564123E-2,8.537794E-3,-1.4521144E-2,4.038429E-3,1.0463033E-2,2.4425886E-3,-2.6021933E-3,-9.668052E-3,7.756311E-3,-2.2231436E-3,7.767578E-3,1.566832E-2,-5.460626E-3,4.058216E-3,1.3741928E-2,1.7413119E-2,-3.4880375E-3,-1.2937176E-2],"categories":[],"categories_nodes":[],"categories_segments":[],"categories_sizes":[],"default_left":[0,0,0,0,0,0,0,0,0,0,0,0,0,0,0,0,0,0,0,0,0,0,0,0,0,0,0,0,0,0,0,0,0,0,0,0,0,0,0,0,0,0,0,0,0,0,0,0,0,0,0,0,0,0,0,0,0,0,0,0,0,0,0,0,0],"id":14,"left_children":[1,3,5,7,9,11,13,15,17,19,21,-1,-1,23,-1,25,27,29,31,33,35,37,39,41,-1,-1,-1,-1,43,45,47,-1,-1,49,51,53,55,57,59,61,-1,-1,63,-1,-1,-1,-1,-1,-1,-1,-1,-1,-1,-1,-1,-1,-1,-1,-1,-1,-1,-1,-1,-1,-1],"loss_changes":[1.5299819E3,2.665863E2,3.9179688E0,8.955951E1,1.9949263E2,9.005238E0,1.6643066E0,6.683567E1,7.14306E1,2.2133945E2,2.8971725E1,0E0,0E0,1.0650375E1,0E0,1.7807236E0,3.7383297E1,1.4187561E1,1.7001703E1,1.752085E2,7.9133865E1,3.0732216E1,4.553711E0,3.2976532E0,0E0,0E0,0E0,0E0,2.4480656E1,8.319733E0,8.074799E0,0E0,0E0,1.9832484E2,1.2169307E2,4.6774826E1,4.7812714E1,1.5047195E1,9.758988E0,5.5725098E-2,0E0,0E0,2.588211E0,0E0,0E0,0E0,0E0,0E0,0E0,0E0,0E0,0E0,0E0,0E0,0E0,0E0,0E0,0E0,0E0,0E0,0E0,0E0,0E0,0E0,0E0],"parents":[2147483647,0,0,1,1,2,2,3,3,4,4,5,5,6,6,7,7,8,8,9,9,10,10,13,13,15,15,16,16,17,17,18,18,19,19,20,20,21,21,22,22,23,23,28,28,29,29,30,30,33,33,34,34,35,35,36,36,37,37,38,38,39,39,42,42],"right_children":[2,4,6,8,10,12,14,16,18,20,22,-1,-1,24,-1,26,28,30,32,34,36,38,40,42,-1,-1,-1,-1,44,46,48,-1,-1,50,52,54,56,58,60,62,-1,-1,64,-1,-1,-1,-1,-1,-1,-1,-1,-1,-1,-1,-1,-1,-1,-1,-1,-1,-1,-1,-1,-1,-1],"split_conditions":[3E0,5.319149E-3,3.205642E-4,1E0,1.9503547E-2,4E0,2E0,1E0,2E0,2E0,2.1242775E-2,-1.4939454E-2,1.0526569E-3,1E1,-1.7262343E-2,3.5460992E-3,1.6618497E-3,1E0,1.7730496E-3,9.176301E-3,1E0,4.4878987E-3,3.1914894E-2,1E0,-7.912759E-4,-7.5237015E-3,-1.5348892E-2,-1.1630697E-2,1E0,1E0,3.5460992E-3,-1.6052673E-2,4.0591825E-3,1E0,4.5270054E-3,1.23554915E-2,1.1560693E-2,3E0,1E0,5.449591E-3,4.8779594E-3,-1.6684093E-2,3E0,1.2646818E-2,2.3440232E-3,6.476912E-3,1.657347E-2,1.3564123E-2,8.537794E-3,-1.4521144E-2,4.038429E-3,1.0463033E-2,2.4425886E-3,-2.6021933E-3,-9.668052E-3,7.756311E-3,-2.2231436E-3,7.767578E-3,1.566832E-2,-5.460626E-3,4.058216E-3,1.3741928E-2,1.7413119E-2,-3.4880375E-3,-1.2937176E-2],"split_indices":[18,0,8,2,0,9,17,18,18,10,1,0,0,18,0,0,1,3,0,1,4,8,0,6,0,0,0,0,3,18,0,0,0,17,7,1,1,9,4,8,0,0,9,0,0,0,0,0,0,0,0,0,0,0,0,0,0,0,0,0,0,0,0,0,0],"split_type":[0,0,0,0,0,0,0,0,0,0,0,0,0,0,0,0,0,0,0,0,0,0,0,0,0,0,0,0,0,0,0,0,0,0,0,0,0,0,0,0,0,0,0,0,0,0,0,0,0,0,0,0,0,0,0,0,0,0,0,0,0,0,0,0,0],"sum_hessian":[2.8624707E3,2.3985088E3,4.6396188E2,4.5436526E2,1.9441436E3,1.610864E1,4.4785324E2,1.2490777E2,3.294575E2,1.7001456E3,2.4399785E2,1.1359994E1,4.7486467E0,8.9090775E1,3.5876245E2,2.1274601E1,1.0363317E2,3.1384238E2,1.5615125E1,1.0356646E3,6.644811E2,1.6639595E2,7.7601906E1,8.3840775E1,5.249998E0,7.9448247E0,1.3329777E1,9.748166E0,9.3885E1,1.6477939E2,1.4906297E2,8.871087E0,6.744038E0,2.3054266E2,8.051219E2,3.9661157E2,2.6786954E2,1.232076E2,4.3188343E1,7.236363E1,5.2382693E0,6.868511E1,1.5155664E1,5.221278E1,4.1672222E1,1.0434368E1,1.5434503E2,8.4398766E1,6.466421E1,1.04447E2,1.2609566E2,3.035837E2,5.0153818E2,1.536537E2,2.4295786E2,6.147104E1,2.0639851E2,8.7998825E1,3.520878E1,1.6721712E1,2.646663E1,3.6863476E1,3.550016E1,5.244695E0,9.910969E0],"tree_param":{"num_deleted":"0","num_feature":"20","num_nodes":"65","size_leaf_vector":"1"}},{"base_weights":[1.4099641E-5,3.1872532E-1,-1.6473241E0,1.0016305E0,1.5881634E-1,-1.0354648E0,-1.6669925E0,2.836831E-1,1.2723495E0,3.8353745E-2,9.9504566E-1,-1.4825427E-2,1.0439511E-3,-1.465074E0,-1.712938E-2,-1.2793298E0,6.134598E-1,1.3755078E0,-7.5842375E-1,3.244826E-1,-4.073955E-1,7.536059E-1,1.4971157E0,-1.550113E0,-7.846297E-4,-7.4609434E-3,-1.523124E-2,-1.1525559E-2,8.071467E-1,1.5848837E0,1.135254E0,-1.5936948E-2,4.024224E-3,-4.3554696E-1,5.4232645E-1,-6.877981E-1,8.66346E-3,1.0040749E0,3.289337E-2,1.5629729E0,4.837889E-3,-1.6554538E-2,-1.0003004E0,1.2534679E-2,2.321358E-3,6.4207623E-3,1.644164E-2,1.3445761E-2,8.458778E-3,-1.4395203E-2,3.998581E-3,1.0366818E-2,2.4183642E-3,-3.039062E-3,-9.911181E-3,7.68394E-3,-2.2010915E-3,7.6937024E-3,1.5537858E-2,-5.409826E-3,4.019682E-3,1.3627105E-2,1.7279457E-2,-3.4590634E-3,-1.2834418E-2],"categories":[],"categories_nodes":[],"categories_segments":[],"categories_sizes":[],"default_left":[0,0,0,0,0,0,0,0,0,0,0,0,0,0,0,0,0,0,0,0,0,0,0,0,0,0,0,0,0,0,0,0,0,0,0,0,0,0,0,0,0,0,0,0,0,0,0,0,0,0,0,0,0,0,0,0,0,0,0,0,0,0,0,0,0],"id":15,"left_children":[1,3,5,7,9,11,13,15,17,19,21,-1,-1,23,-1,25,27,29,31,33,35,37,39,41,-1,-1,-1,-1,43,45,47,-1,-1,49,51,53,55,57,59,61,-1,-1,63,-1,-1,-1,-1,-1,-1,-1,-1,-1,-1,-1,-1,-1,-1,-1,-1,-1,-1,-1,-1,-1,-1],"loss_changes":[1.5026647E3,2.617217E2,3.8572998E0,8.803714E1,1.9582014E2,8.8636265E0,1.6453857E0,6.5640434E1,7.0172485E1,2.1702025E2,2.8543701E1,0E0,0E0,1.0482773E1,0E0,1.7556114E0,3.6701687E1,1.4015686E1,1.6733932E1,1.7180743E2,7.761864E1,3.0168274E1,4.4807587E0,3.248581E0,0E0,0E0,0E0,0E0,2.404625E1,8.192139E0,7.944031E0,0E0,0E0,1.9466092E2,1.1945802E2,4.597708E1,4.6893417E1,1.4818909E1,9.57537E0,6.486511E-2,0E0,0E0,2.5470486E0,0E0,0E0,0E0,0E0,0E0,0E0,0E0,0E0,0E0,0E0,0E0,0E0,0E0,0E0,0E0,0E0,0E0,0E0,0E0,0E0,0E0,0E0],"parents":[2147483647,0,0,1,1,2,2,3,3,4,4,5,5,6,6,7,7,8,8,9,9,10,10,13,13,15,15,16,16,17,17,18,18,19,19,20,20,21,21,22,22,23,23,28,28,29,29,30,30,33,33,34,34,35,35,36,36,37,37,38,38,39,39,42,42],"right_children":[2,4,6,8,10,12,14,16,18,20,22,-1,-1,24,-1,26,28,30,32,34,36,38,40,42,-1,-1,-1,-1,44,46,48,-1,-1,50,52,54,56,58,60,62,-1,-1,64,-1,-1,-1,-1,-1,-1,-1,-1,-1,-1,-1,-1,-1,-1,-1,-1,-1,-1,-1,-1,-1,-1],"split_conditions":[3E0,5.319149E-3,3.205642E-4,1E0,1.9503547E-2,4E0,2E0,1E0,2E0,2E0,2.1242775E-2,-1.4825427E-2,1.0439511E-3,1E1,-1.712938E-2,3.5460992E-3,1.6618497E-3,1E0,1.7730496E-3,9.176301E-3,1E0,4.4878987E-3,3.1914894E-2,1E0,-7.846297E-4,-7.4609434E-3,-1.523124E-2,-1.1525559E-2,1E0,1E0,3.5460992E-3,-1.5936948E-2,4.024224E-3,1E0,4.5270054E-3,1.2861271E-2,1.1560693E-2,3E0,1E0,5.449591E-3,4.837889E-3,-1.6554538E-2,3E0,1.2534679E-2,2.321358E-3,6.4207623E-3,1.644164E-2,1.3445761E-2,8.458778E-3,-1.4395203E-2,3.998581E-3,1.0366818E-2,2.4183642E-3,-3.039062E-3,-9.911181E-3,7.68394E-3,-2.2010915E-3,7.6937024E-3,1.5537858E-2,-5.409826E-3,4.019682E-3,1.3627105E-2,1.7279457E-2,-3.4590634E-3,-1.2834418E-2],"split_indices":[18,0,8,2,0,9,17,18,18,10,1,0,0,18,0,0,1,3,0,1,4,8,0,6,0,0,0,0,3,18,0,0,0,17,7,1,1,9,4,8,0,0,9,0,0,0,0,0,0,0,0,0,0,0,0,0,0,0,0,0,0,0,0,0,0],"split_type":[0,0,0,0,0,0,0,0,0,0,0,0,0,0,0,0,0,0,0,0,0,0,0,0,0,0,0,0,0,0,0,0,0,0,0,0,0,0,0,0,0,0,0,0,0,0,0,0,0,0,0,0,0,0,0,0,0,0,0,0,0,0,0,0,0],"sum_hessian":[2.860081E3,2.3971165E3,4.629646E2,4.5381143E2,1.9433049E3,1.6089382E1,4.468752E2,1.2482444E2,3.2898697E2,1.6995265E3,2.4377855E2,1.1340682E1,4.7487006E0,8.893157E1,3.5794366E2,2.124623E1,1.0357822E2,3.133902E2,1.5596786E1,1.0352598E3,6.642667E2,1.6630527E2,7.74733E1,8.368157E1,5.2499957E0,7.9399724E0,1.3306256E1,9.747842E0,9.3830376E1,1.6446547E2,1.4892473E2,8.853498E0,6.7432876E0,2.3040535E2,8.048544E2,3.9643594E2,2.6783078E2,1.23123146E2,4.3182117E1,7.223617E1,5.237127E0,6.853897E1,1.5142606E1,5.2162296E1,4.1668076E1,1.0429134E1,1.5403633E2,8.429961E1,6.462512E1,1.0431659E2,1.2608876E2,3.0334772E2,5.0150665E2,1.7586159E2,2.2057434E2,6.143908E1,2.0639171E2,8.7965126E1,3.5158016E1,1.671935E1,2.6462767E1,3.681104E1,3.542513E1,5.244119E0,9.898487E0],"tree_param":{"num_deleted":"0","num_feature":"20","num_nodes":"65","size_leaf_vector":"1"}},{"base_weights":[1.30599965E-5,3.157622E-1,-1.6347096E0,9.929327E-1,1.5732794E-1,-1.0271462E0,-1.6542596E0,2.808923E-1,1.2616385E0,3.7981678E-2,9.8627627E-1,-1.4713587E-2,1.0353174E-3,-1.4535229E0,-1.6999604E-2,-1.2692691E0,6.077046E-1,1.3639815E0,-7.524425E-1,3.2137385E-1,-4.0347233E-1,7.46637E-1,1.4851878E0,-1.5380619E0,-7.7803887E-4,-7.398864E-3,-1.5115932E-2,-1.1422064E-2,7.99727E-1,1.5723397E0,1.1251549E0,-1.5823664E-2,3.989592E-3,-4.315161E-1,5.37109E-1,-6.812764E-1,8.599052E-3,9.949509E-1,3.2537885E-2,1.5506341E0,4.798191E-3,-1.6427921E-2,-9.9215883E-1,1.2424389E-2,2.298918E-3,6.365194E-3,1.631277E-2,1.3329487E-2,8.380743E-3,-1.4271664E-2,3.9591542E-3,1.0271965E-2,2.3943854E-3,-2.7883109E-3,-9.656187E-3,7.6124314E-3,-2.1792622E-3,7.6207276E-3,1.541011E-2,-5.359565E-3,3.9815377E-3,1.3514305E-2,1.714903E-2,-3.4303463E-3,-1.2733321E-2],"categories":[],"categories_nodes":[],"categories_segments":[],"categories_sizes":[],"default_left":[0,0,0,0,0,0,0,0,0,0,0,0,0,0,0,0,0,0,0,0,0,0,0,0,0,0,0,0,0,0,0,0,0,0,0,0,0,0,0,0,0,0,0,0,0,0,0,0,0,0,0,0,0,0,0,0,0,0,0,0,0,0,0,0,0],"id":16,"left_children":[1,3,5,7,9,11,13,15,17,19,21,-1,-1,23,-1,25,27,29,31,33,35,37,39,41,-1,-1,-1,-1,43,45,47,-1,-1,49,51,53,55,57,59,61,-1,-1,63,-1,-1,-1,-1,-1,-1,-1,-1,-1,-1,-1,-1,-1,-1,-1,-1,-1,-1,-1,-1,-1,-1],"loss_changes":[1.475993E3,2.5697192E2,3.7993164E0,8.6552155E1,1.9222809E2,8.725468E0,1.628418E0,6.4470345E1,6.8943054E1,2.1279097E2,2.8128662E1,0E0,0E0,1.0320023E1,0E0,1.7315559E0,3.6034134E1,1.38515625E1,1.6472313E1,1.6847621E2,7.6136215E1,2.9617111E1,4.410385E0,3.20195E0,0E0,0E0,0E0,0E0,2.3622795E1,8.069611E0,7.817688E0,0E0,0E0,1.9108261E2,1.1727457E2,4.518878E1,4.59927E1,1.4598312E1,9.395294E0,7.450867E-2,0E0,0E0,2.506978E0,0E0,0E0,0E0,0E0,0E0,0E0,0E0,0E0,0E0,0E0,0E0,0E0,0E0,0E0,0E0,0E0,0E0,0E0,0E0,0E0,0E0,0E0],"parents":[2147483647,0,0,1,1,2,2,3,3,4,4,5,5,6,6,7,7,8,8,9,9,10,10,13,13,15,15,16,16,17,17,18,18,19,19,20,20,21,21,22,22,23,23,28,28,29,29,30,30,33,33,34,34,35,35,36,36,37,37,38,38,39,39,42,42],"right_children":[2,4,6,8,10,12,14,16,18,20,22,-1,-1,24,-1,26,28,30,32,34,36,38,40,42,-1,-1,-1,-1,44,46,48,-1,-1,50,52,54,56,58,60,62,-1,-1,64,-1,-1,-1,-1,-1,-1,-1,-1,-1,-1,-1,-1,-1,-1,-1,-1,-1,-1,-1,-1,-1,-1],"split_conditions":[3E0,5.319149E-3,3.205642E-4,1E0,1.9503547E-2,4E0,2E0,1E0,2E0,2E0,2.1242775E-2,-1.4713587E-2,1.0353174E-3,1E1,-1.6999604E-2,3.5460992E-3,1.6618497E-3,1E0,1.7730496E-3,9.176301E-3,1E0,4.4878987E-3,3.1914894E-2,1E0,-7.7803887E-4,-7.398864E-3,-1.5115932E-2,-1.1422064E-2,1E0,1E0,3.5460992E-3,-1.5823664E-2,3.989592E-3,1E0,4.5270054E-3,1.2644509E-2,1.1560693E-2,3E0,1E0,5.449591E-3,4.798191E-3,-1.6427921E-2,3E0,1.2424389E-2,2.298918E-3,6.365194E-3,1.631277E-2,1.3329487E-2,8.380743E-3,-1.4271664E-2,3.9591542E-3,1.0271965E-2,2.3943854E-3,-2.7883109E-3,-9.656187E-3,7.6124314E-3,-2.1792622E-3,7.6207276E-3,1.541011E-2,-5.359565E-3,3.9815377E-3,1.3514305E-2,1.714903E-2,-3.4303463E-3,-1.2733321E-2],"split_indices":[18,0,8,2,0,9,17,18,18,10,1,0,0,18,0,0,1,3,0,1,4,8,0,6,0,0,0,0,3,18,0,0,0,17,7,1,1,9,4,8,0,0,9,0,0,0,0,0,0,0,0,0,0,0,0,0,0,0,0,0,0,0,0,0,0],"split_type":[0,0,0,0,0,0,0,0,0,0,0,0,0,0,0,0,0,0,0,0,0,0,0,0,0,0,0,0,0,0,0,0,0,0,0,0,0,0,0,0,0,0,0,0,0,0,0,0,0,0,0,0,0,0,0,0,0,0,0,0,0,0,0,0,0],"sum_hessian":[2.8575522E3,2.3956382E3,4.6191428E2,4.5322464E2,1.9424135E3,1.6069069E1,4.458452E2,1.2473532E2,3.2848932E2,1.6988679E3,2.4354547E2,1.1320318E1,4.7487516E0,8.876384E1,3.5708136E2,2.1216377E1,1.0351894E2,3.1291187E2,1.5577453E1,1.0348295E3,6.640385E2,1.6620819E2,7.733728E1,8.351385E1,5.2499905E0,7.934943E0,1.3281434E1,9.746871E0,9.377208E1,1.6413391E2,1.4877795E2,8.834964E0,6.742489E0,2.3025766E2,8.045718E2,3.9624844E2,2.677901E2,1.2303269E2,4.317549E1,7.210135E1,5.235933E0,6.8385025E1,1.5128826E1,5.2108223E1,4.1663857E1,1.0423735E1,1.5371017E2,8.419385E1,6.458411E1,1.04176735E2,1.26080925E2,3.0309784E2,5.0147394E2,1.6487393E2,2.313745E2,6.1405624E1,2.0638448E2,8.792916E1,3.510354E1,1.6716768E1,2.6458725E1,3.6755733E1,3.5345615E1,5.243516E0,9.88531E0],"tree_param":{"num_deleted":"0","num_feature":"20","num_nodes":"65","size_leaf_vector":"1"}},{"base_weights":[1.2040919E-5,3.1283757E-1,-1.6223813E0,9.843815E-1,1.5585768E-1,-1.0189588E0,-1.6418189E0,2.7814117E-1,1.251121E0,3.7614193E-2,9.776391E-1,-1.4603866E-2,1.0267567E-3,-1.4422022E0,-1.6872905E-2,-1.2593728E0,6.020279E-1,1.352665E0,-7.465552E-1,3.1830248E-1,-3.9959309E-1,7.397604E-1,1.4734956E0,-1.5262612E0,-7.715032E-4,-7.337446E-3,-1.5002894E-2,-1.1320165E-2,7.924059E-1,1.5600637E0,1.1152085E0,-1.5712751E-2,3.9552827E-3,-4.2754164E-1,5.319516E-1,-6.748313E-1,8.534973E-3,9.859568E-1,3.2186367E-2,1.5385494E0,4.758858E-3,-1.6304143E-2,-9.841284E-1,1.2315896E-2,2.2766972E-3,6.3102017E-3,1.6186768E-2,1.321524E-2,8.303667E-3,-1.4150449E-2,3.920145E-3,1.017844E-2,2.3706497E-3,-2.5189254E-3,-9.407092E-3,7.5417655E-3,-2.1576562E-3,7.5486326E-3,1.5284986E-2,-5.3098397E-3,3.9437795E-3,1.3403465E-2,1.7021718E-2,-3.401881E-3,-1.26338415E-2],"categories":[],"categories_nodes":[],"categories_segments":[],"categories_sizes":[],"default_left":[0,0,0,0,0,0,0,0,0,0,0,0,0,0,0,0,0,0,0,0,0,0,0,0,0,0,0,0,0,0,0,0,0,0,0,0,0,0,0,0,0,0,0,0,0,0,0,0,0,0,0,0,0,0,0,0,0,0,0,0,0,0,0,0,0],"id":17,"left_children":[1,3,5,7,9,11,13,15,17,19,21,-1,-1,23,-1,25,27,29,31,33,35,37,39,41,-1,-1,-1,-1,43,45,47,-1,-1,49,51,53,55,57,59,61,-1,-1,63,-1,-1,-1,-1,-1,-1,-1,-1,-1,-1,-1,-1,-1,-1,-1,-1,-1,-1,-1,-1,-1,-1],"loss_changes":[1.4499469E3,2.523332E2,3.7438965E0,8.510327E1,1.8871391E2,8.590635E0,1.612793E0,6.332473E1,6.774109E1,2.0864806E2,2.7725937E1,0E0,0E0,1.0162003E1,0E0,1.7085266E0,3.5380283E1,1.3695007E1,1.6216648E1,1.6521329E2,7.4684296E1,2.9078308E1,4.3424835E0,3.1575775E0,0E0,0E0,0E0,0E0,2.3209927E1,7.9518433E0,7.6956024E0,0E0,0E0,1.8758722E2,1.1514104E2,4.441153E1,4.511017E1,1.4385078E1,9.2186985E0,8.459473E-2,0E0,0E0,2.4679594E0,0E0,0E0,0E0,0E0,0E0,0E0,0E0,0E0,0E0,0E0,0E0,0E0,0E0,0E0,0E0,0E0,0E0,0E0,0E0,0E0,0E0,0E0],"parents":[2147483647,0,0,1,1,2,2,3,3,4,4,5,5,6,6,7,7,8,8,9,9,10,10,13,13,15,15,16,16,17,17,18,18,19,19,20,20,21,21,22,22,23,23,28,28,29,29,30,30,33,33,34,34,35,35,36,36,37,37,38,38,39,39,42,42],"right_children":[2,4,6,8,10,12,14,16,18,20,22,-1,-1,24,-1,26,28,30,32,34,36,38,40,42,-1,-1,-1,-1,44,46,48,-1,-1,50,52,54,56,58,60,62,-1,-1,64,-1,-1,-1,-1,-1,-1,-1,-1,-1,-1,-1,-1,-1,-1,-1,-1,-1,-1,-1,-1,-1,-1],"split_conditions":[3E0,5.319149E-3,3.205642E-4,1E0,1.9503547E-2,4E0,2E0,1E0,2E0,2E0,2.1242775E-2,-1.4603866E-2,1.0267567E-3,1E1,-1.6872905E-2,3.5460992E-3,1.6618497E-3,1E0,1.7730496E-3,9.176301E-3,1E0,4.4878987E-3,3.1914894E-2,1E0,-7.715032E-4,-7.337446E-3,-1.5002894E-2,-1.1320165E-2,1E0,1E0,3.5460992E-3,-1.5712751E-2,3.9552827E-3,1E0,4.5270054E-3,1.23554915E-2,1.1560693E-2,3E0,1E0,5.449591E-3,4.758858E-3,-1.6304143E-2,3E0,1.2315896E-2,2.2766972E-3,6.3102017E-3,1.6186768E-2,1.321524E-2,8.303667E-3,-1.4150449E-2,3.920145E-3,1.017844E-2,2.3706497E-3,-2.5189254E-3,-9.407092E-3,7.5417655E-3,-2.1576562E-3,7.5486326E-3,1.5284986E-2,-5.3098397E-3,3.9437795E-3,1.3403465E-2,1.7021718E-2,-3.401881E-3,-1.26338415E-2],"split_indices":[18,0,8,2,0,9,17,18,18,10,1,0,0,18,0,0,1,3,0,1,4,8,0,6,0,0,0,0,3,18,0,0,0,17,7,1,1,9,4,8,0,0,9,0,0,0,0,0,0,0,0,0,0,0,0,0,0,0,0,0,0,0,0,0,0],"split_type":[0,0,0,0,0,0,0,0,0,0,0,0,0,0,0,0,0,0,0,0,0,0,0,0,0,0,0,0,0,0,0,0,0,0,0,0,0,0,0,0,0,0,0,0,0,0,0,0,0,0,0,0,0,0,0,0,0,0,0,0,0,0,0,0,0],"sum_hessian":[2.8548918E3,2.394079E3,4.6081274E2,4.5260602E2,1.941473E3,1.6047735E1,4.4476498E2,1.246406E2,3.2796542E2,1.698174E3,2.4329904E2,1.1298935E1,4.7488E0,8.858787E1,3.5617712E2,2.1185093E1,1.03455505E2,3.1240826E2,1.5557155E1,1.0343746E3,6.637994E2,1.6610493E2,7.719411E1,8.333788E1,5.2499847E0,7.9297433E0,1.325535E1,9.74527E0,9.3710236E1,1.6378532E2,1.4862296E2,8.815512E0,6.7416434E0,2.3009993E2,8.0427466E2,3.9605182E2,2.6774753E2,1.22936455E2,4.316848E1,7.195942E1,5.2346888E0,6.822354E1,1.51143465E1,5.205067E1,4.1659565E1,1.0418174E1,1.5336714E2,8.408171E1,6.454124E1,1.0402775E2,1.2607218E2,3.028345E2,5.0144016E2,1.5362463E2,2.424272E2,6.1370724E1,2.0637682E2,8.789099E1,3.5045464E1,1.6713966E1,2.6454512E1,3.6697647E1,3.5261772E1,5.2428865E0,9.871459E0],"tree_param":{"num_deleted":"0","num_feature":"20","num_nodes":"65","size_leaf_vector":"1"}},{"base_weights":[1.1135997E-5,3.0995047E-1,-1.6103296E0,9.7597253E-1,1.544052E-1,-1.3860707E0,-1.6684659E-2,2.7542874E-1,1.2407908E0,3.7251282E-2,9.691306E-1,-1.5028056E0,2.6565918E-3,-1.2496363E0,5.964278E-1,1.3415513E0,-7.407591E-1,3.1526777E-1,-3.9575595E-1,7.3297405E-1,1.4620318E0,-1.6007414E-2,-9.6690303E-1,-7.2766817E-3,-1.4892057E-2,-1.1219821E-2,7.8518105E-1,1.5480467E0,1.1054106E0,-1.560413E-2,3.921293E-3,-4.2362207E-1,5.26853E-1,-6.684585E-1,8.471546E-3,9.7708935E-1,3.183889E-2,1.5452042E0,6.4647486E-3,-1.6956549E-3,-1.2582823E-2,1.2209147E-2,2.2546963E-3,6.2557724E-3,1.6063528E-2,1.31029505E-2,8.227531E-3,-1.403148E-2,3.8815485E-3,1.008621E-2,2.3471536E-3,-2.9439714E-3,-9.646601E-3,7.4719274E-3,-2.136267E-3,7.4774013E-3,1.5162401E-2,-5.2606356E-3,3.906403E-3,1.2709962E-2,1.6788112E-2],"categories":[],"categories_nodes":[],"categories_segments":[],"categories_sizes":[],"default_left":[0,0,0,0,0,0,0,0,0,0,0,0,0,0,0,0,0,0,0,0,0,0,0,0,0,0,0,0,0,0,0,0,0,0,0,0,0,0,0,0,0,0,0,0,0,0,0,0,0,0,0,0,0,0,0,0,0,0,0,0,0],"id":18,"left_children":[1,3,5,7,9,11,-1,13,15,17,19,21,-1,23,25,27,29,31,33,35,37,-1,39,-1,-1,-1,41,43,45,-1,-1,47,49,51,53,55,57,59,-1,-1,-1,-1,-1,-1,-1,-1,-1,-1,-1,-1,-1,-1,-1,-1,-1,-1,-1,-1,-1,-1,-1],"loss_changes":[1.4245065E3,2.4780182E2,3.6933594E0,8.368933E1,1.8527547E2,1.9824127E1,0E0,6.2202953E1,6.656598E1,2.0458916E2,2.7335022E1,3.3985443E0,0E0,1.6864586E0,3.4739788E1,1.3545349E1,1.5966752E1,1.6201697E2,7.32617E1,2.8551521E1,4.294922E0,0E0,3.756504E0,0E0,0E0,0E0,2.280722E1,7.838562E0,7.5774994E0,0E0,0E0,1.8417213E2,1.1305589E2,4.368579E1,4.424539E1,1.4178848E1,9.045502E0,4.3450928E-1,0E0,0E0,0E0,0E0,0E0,0E0,0E0,0E0,0E0,0E0,0E0,0E0,0E0,0E0,0E0,0E0,0E0,0E0,0E0,0E0,0E0,0E0,0E0],"parents":[2147483647,0,0,1,1,2,2,3,3,4,4,5,5,7,7,8,8,9,9,10,10,11,11,13,13,14,14,15,15,16,16,17,17,18,18,19,19,20,20,22,22,26,26,27,27,28,28,31,31,32,32,33,33,34,34,35,35,36,36,37,37],"right_children":[2,4,6,8,10,12,-1,14,16,18,20,22,-1,24,26,28,30,32,34,36,38,-1,40,-1,-1,-1,42,44,46,-1,-1,48,50,52,54,56,58,60,-1,-1,-1,-1,-1,-1,-1,-1,-1,-1,-1,-1,-1,-1,-1,-1,-1,-1,-1,-1,-1,-1,-1],"split_conditions":[3E0,5.319149E-3,2E0,1E0,1.9503547E-2,1E1,-1.6684659E-2,1E0,2E0,2E0,2.1242775E-2,1E0,2.6565918E-3,3.5460992E-3,1.6618497E-3,1E0,1.7730496E-3,9.176301E-3,1E0,4.4878987E-3,3.0141843E-2,-1.6007414E-2,4E0,-7.2766817E-3,-1.4892057E-2,-1.1219821E-2,1E0,1E0,3.5460992E-3,-1.560413E-2,3.921293E-3,1E0,4.5270054E-3,1.2861271E-2,1.1560693E-2,3E0,1E0,4.6481807E-3,6.4647486E-3,-1.6956549E-3,-1.2582823E-2,1.2209147E-2,2.2546963E-3,6.2557724E-3,1.6063528E-2,1.31029505E-2,8.227531E-3,-1.403148E-2,3.8815485E-3,1.008621E-2,2.3471536E-3,-2.9439714E-3,-9.646601E-3,7.4719274E-3,-2.136267E-3,7.4774013E-3,1.5162401E-2,-5.2606356E-3,3.906403E-3,1.2709962E-2,1.6788112E-2],"split_indices":[18,0,17,2,0,18,0,18,18,10,1,6,0,0,1,3,0,1,4,8,0,0,18,0,0,0,3,18,0,0,0,17,7,1,1,9,4,8,0,0,0,0,0,0,0,0,0,0,0,0,0,0,0,0,0,0,0,0,0,0,0],"split_type":[0,0,0,0,0,0,0,0,0,0,0,0,0,0,0,0,0,0,0,0,0,0,0,0,0,0,0,0,0,0,0,0,0,0,0,0,0,0,0,0,0,0,0,0,0,0,0,0,0,0,0,0,0,0,0,0,0,0,0,0,0],"sum_hessian":[2.852105E3,2.3924434E3,4.5966165E2,4.519566E2,1.9404867E3,9.9743996E1,3.5991763E2,1.2454045E2,3.2741617E2,1.697447E3,2.430397E2,9.3244194E1,6.499804E0,2.1152424E1,1.0338803E2,3.1188025E2,1.5535922E1,1.033896E3,6.63551E2,1.659957E2,7.704401E1,7.715684E1,1.6087355E1,7.9243784E0,1.3228046E1,9.743057E0,9.364497E1,1.6342027E2,1.4845998E2,8.79517E0,6.740752E0,2.2993248E2,8.0396344E2,3.9584787E2,2.6770316E2,1.228346E2,4.316109E1,6.910216E1,7.9418464E0,4.728931E0,1.1358423E1,5.198976E1,4.165521E1,1.0412457E1,1.5300781E2,8.3963394E1,6.4496574E1,1.03869934E2,1.26062546E2,3.025582E2,5.0140527E2,1.7581363E2,2.2003424E2,6.1334423E1,2.0636874E2,8.78507E1,3.4983906E1,1.6710957E1,2.6450132E1,2.6083244E1,4.3018913E1],"tree_param":{"num_deleted":"0","num_feature":"20","num_nodes":"61","size_leaf_vector":"1"}},{"base_weights":[1.6816148E-5,3.0710027E-1,-1.5984932E0,9.677014E-1,1.5297021E-1,-9.9908763E-1,-1.6178652E0,2.727538E-1,1.2306421E0,3.6892075E-2,9.6075E-1,-1.4383342E-2,1.1101179E-3,-1.4204912E0,-1.6628776E-2,-1.2400551E0,5.909022E-1,1.3306342E0,-7.350518E-1,3.1226897E-1,-3.919645E-1,7.3892176E-1,1.479833E0,-1.5034486E0,-7.873372E-4,-7.21656E-3,-1.478335E-2,-1.1120987E-2,7.780499E-1,8.976522E-1,1.4395063E0,-1.5497731E-2,3.8876182E-3,-4.1975617E-1,5.2181226E-1,-6.6216654E-1,8.408506E-3,9.591709E-1,1.2202374E-1,1.5737826E-2,6.410199E-3,-1.6066005E-2,-9.682074E-1,1.21040875E-2,2.2329094E-3,1.3856049E-2,4.9144183E-3,1.6548108E-2,1.2003634E-2,-1.3914686E-2,3.8433569E-3,9.995238E-3,2.323896E-3,-2.4649978E-3,-9.238671E-3,-1.0505444E-2,1.6086438E-3,7.3656887E-3,1.5042267E-2,-4.601237E-3,4.781224E-3,-3.3254179E-3,-1.2447783E-2],"categories":[],"categories_nodes":[],"categories_segments":[],"categories_sizes":[],"default_left":[0,0,0,0,0,0,0,0,0,0,0,0,0,0,0,0,0,0,0,0,0,0,0,0,0,0,0,0,0,0,0,0,0,0,0,0,0,0,0,0,0,0,0,0,0,0,0,0,0,0,0,0,0,0,0,0,0,0,0,0,0,0,0],"id":19,"left_children":[1,3,5,7,9,11,13,15,17,19,21,-1,-1,23,-1,25,27,29,31,33,35,37,39,41,-1,-1,-1,-1,43,45,47,-1,-1,49,51,53,55,57,59,-1,-1,-1,61,-1,-1,-1,-1,-1,-1,-1,-1,-1,-1,-1,-1,-1,-1,-1,-1,-1,-1,-1,-1],"loss_changes":[1.3995837E3,2.4337434E2,3.718628E0,8.230893E1,1.819122E2,8.448542E0,1.5777588E0,6.1104362E1,6.541684E1,2.0061415E2,2.6975784E1,0E0,0E0,9.811996E0,0E0,1.6653061E0,3.4112305E1,1.3430847E1,1.5722431E1,1.588858E2,7.186953E1,2.3359001E1,4.664154E0,3.0802765E0,0E0,0E0,0E0,0E0,2.2414337E1,1.2284328E1,1.0778503E1,0E0,0E0,1.8083481E2,1.1101752E2,4.291809E1,4.3541965E1,1.4322601E1,9.881032E0,0E0,0E0,0E0,2.4136772E0,0E0,0E0,0E0,0E0,0E0,0E0,0E0,0E0,0E0,0E0,0E0,0E0,0E0,0E0,0E0,0E0,0E0,0E0,0E0,0E0],"parents":[2147483647,0,0,1,1,2,2,3,3,4,4,5,5,6,6,7,7,8,8,9,9,10,10,13,13,15,15,16,16,17,17,18,18,19,19,20,20,21,21,22,22,23,23,28,28,29,29,30,30,33,33,34,34,35,35,36,36,37,37,38,38,42,42],"right_children":[2,4,6,8,10,12,14,16,18,20,22,-1,-1,24,-1,26,28,30,32,34,36,38,40,42,-1,-1,-1,-1,44,46,48,-1,-1,50,52,54,56,58,60,-1,-1,-1,62,-1,-1,-1,-1,-1,-1,-1,-1,-1,-1,-1,-1,-1,-1,-1,-1,-1,-1,-1,-1],"split_conditions":[3E0,5.319149E-3,3.205642E-4,1E0,1.9503547E-2,4E0,2E0,1E0,2E0,2E0,2.1531792E-2,-1.4383342E-2,1.1101179E-3,1E1,-1.6628776E-2,3.5460992E-3,1.6618497E-3,1E0,1.7730496E-3,9.176301E-3,1E0,4.4878987E-3,3.0141843E-2,1E0,-7.873372E-4,-7.21656E-3,-1.478335E-2,-1.1120987E-2,1E0,3.1069363E-3,1E0,-1.5497731E-2,3.8876182E-3,1E0,4.5270054E-3,1.23554915E-2,1E0,3E0,1E0,1.5737826E-2,6.410199E-3,-1.6066005E-2,3E0,1.21040875E-2,2.2329094E-3,1.3856049E-2,4.9144183E-3,1.6548108E-2,1.2003634E-2,-1.3914686E-2,3.8433569E-3,9.995238E-3,2.323896E-3,-2.4649978E-3,-9.238671E-3,-1.0505444E-2,1.6086438E-3,7.3656887E-3,1.5042267E-2,-4.601237E-3,4.781224E-3,-3.3254179E-3,-1.2447783E-2],"split_indices":[18,0,8,2,0,9,17,18,18,10,1,0,0,18,0,0,1,17,0,1,4,8,0,6,0,0,0,0,3,1,3,0,0,17,7,1,2,9,4,0,0,0,9,0,0,0,0,0,0,0,0,0,0,0,0,0,0,0,0,0,0,0,0],"split_type":[0,0,0,0,0,0,0,0,0,0,0,0,0,0,0,0,0,0,0,0,0,0,0,0,0,0,0,0,0,0,0,0,0,0,0,0,0,0,0,0,0,0,0,0,0,0,0,0,0,0,0,0,0,0,0,0,0,0,0,0,0,0,0],"sum_hessian":[2.849196E3,2.3907302E3,4.5846585E2,4.5127744E2,1.9394528E3,1.5999065E1,4.424668E2,1.2443506E2,3.268424E2,1.6966844E3,2.4276828E2,1.1251405E1,4.7476606E0,8.821459E1,3.542522E2,2.111841E1,1.0331664E2,3.113286E2,1.5513785E1,1.0333943E3,6.632901E2,1.7178159E2,7.0986694E1,8.296459E1,5.2499967E0,7.9188523E0,1.3199558E1,9.74025E0,9.357639E1,6.441133E1,2.4691728E2,8.773968E0,6.739817E0,2.2975563E2,8.036387E2,3.9563306E2,2.6765707E2,1.2617788E2,4.5603703E1,6.3048832E1,7.9378657E0,6.78809E1,1.5083693E1,5.1925606E1,4.165079E1,2.8166182E1,3.6245148E1,1.2681964E2,1.2009764E2,1.03703575E2,1.2605206E2,3.0226935E2,5.0136935E2,1.5360289E2,2.4203018E2,3.29433E1,2.3471378E2,9.1258896E1,3.491898E1,1.7197397E1,2.8406303E1,5.24077E0,9.842923E0],"tree_param":{"num_deleted":"0","num_feature":"20","num_nodes":"63","size_leaf_vector":"1"}},{"base_weights":[8.237679E-6,3.042698E-1,-1.5869662E0,9.595569E-1,1.5153523E-1,-9.913011E-1,-1.6062412E0,2.701156E-1,1.2206532E0,3.652811E-2,9.5242953E-1,-1.4279725E-2,1.1009338E-3,-1.4098134E0,-1.6510677E-2,-1.2306246E0,5.854496E-1,1.3198884E0,-7.29431E-1,3.0930543E-1,-3.8820952E-1,7.194819E-1,1.4399465E0,-1.492348E0,-7.8072475E-4,-7.1570673E-3,-1.4676705E-2,-1.1023625E-2,7.7101046E-1,1.5249903E0,1.0859295E0,-1.5393487E-2,3.8542557E-3,-4.1594252E-1,5.168285E-1,-6.5594286E-1,8.291516E-3,9.5974886E-1,3.0379094E-2,1.5041631E0,4.614637E-3,-1.595016E-2,-9.604925E-1,1.200067E-2,2.2113377E-3,6.121543E-3,1.5829248E-2,1.289595E-2,8.054212E-3,-1.3799996E-2,3.8055656E-3,9.905497E-3,2.300873E-3,-2.882272E-3,-9.475942E-3,7.399952E-3,-2.1156566E-3,7.33785E-3,1.4924503E-2,-5.169415E-3,3.8241541E-3,1.3073615E-2,1.66739E-2,-3.2978742E-3,-1.2352754E-2],"categories":[],"categories_nodes":[],"categories_segments":[],"categories_sizes":[],"default_left":[0,0,0,0,0,0,0,0,0,0,0,0,0,0,0,0,0,0,0,0,0,0,0,0,0,0,0,0,0,0,0,0,0,0,0,0,0,0,0,0,0,0,0,0,0,0,0,0,0,0,0,0,0,0,0,0,0,0,0,0,0,0,0,0,0],"id":20,"left_children":[1,3,5,7,9,11,13,15,17,19,21,-1,-1,23,-1,25,27,29,31,33,35,37,39,41,-1,-1,-1,-1,43,45,47,-1,-1,49,51,53,55,57,59,61,-1,-1,63,-1,-1,-1,-1,-1,-1,-1,-1,-1,-1,-1,-1,-1,-1,-1,-1,-1,-1,-1,-1,-1,-1],"loss_changes":[1.3752783E3,2.3905765E2,3.6687012E0,8.095889E1,1.7860257E2,8.321215E0,1.5665283E0,6.0028366E1,6.429166E1,1.9672488E2,2.661589E1,0E0,0E0,9.667603E0,0E0,1.6450272E0,3.3497513E1,1.3304016E1,1.5483514E1,1.558183E2,7.0500175E1,2.7581009E1,4.1899414E0,3.041977E0,0E0,0E0,0E0,0E0,2.2030926E1,7.68573E0,7.479904E0,0E0,0E0,1.7757288E2,1.090246E2,4.223996E1,4.3374718E1,1.3784576E1,8.703306E0,1.4900208E-1,0E0,0E0,2.3771954E0,0E0,0E0,0E0,0E0,0E0,0E0,0E0,0E0,0E0,0E0,0E0,0E0,0E0,0E0,0E0,0E0,0E0,0E0,0E0,0E0,0E0,0E0],"parents":[2147483647,0,0,1,1,2,2,3,3,4,4,5,5,6,6,7,7,8,8,9,9,10,10,13,13,15,15,16,16,17,17,18,18,19,19,20,20,21,21,22,22,23,23,28,28,29,29,30,30,33,33,34,34,35,35,36,36,37,37,38,38,39,39,42,42],"right_children":[2,4,6,8,10,12,14,16,18,20,22,-1,-1,24,-1,26,28,30,32,34,36,38,40,42,-1,-1,-1,-1,44,46,48,-1,-1,50,52,54,56,58,60,62,-1,-1,64,-1,-1,-1,-1,-1,-1,-1,-1,-1,-1,-1,-1,-1,-1,-1,-1,-1,-1,-1,-1,-1,-1],"split_conditions":[3E0,5.319149E-3,3.205642E-4,1E0,1.9503547E-2,4E0,2E0,1E0,2E0,2E0,2.1242775E-2,-1.4279725E-2,1.1009338E-3,1E1,-1.6510677E-2,3.5460992E-3,1.6618497E-3,1E0,1.7730496E-3,9.176301E-3,1E0,4.4878987E-3,3.1914894E-2,1E0,-7.8072475E-4,-7.1570673E-3,-1.4676705E-2,-1.1023625E-2,1E0,1E0,3.5460992E-3,-1.5393487E-2,3.8542557E-3,1E0,4.5270054E-3,1.2861271E-2,1.1560693E-2,3E0,1E0,5.449591E-3,4.614637E-3,-1.595016E-2,3E0,1.200067E-2,2.2113377E-3,6.121543E-3,1.5829248E-2,1.289595E-2,8.054212E-3,-1.3799996E-2,3.8055656E-3,9.905497E-3,2.300873E-3,-2.882272E-3,-9.475942E-3,7.399952E-3,-2.1156566E-3,7.33785E-3,1.4924503E-2,-5.169415E-3,3.8241541E-3,1.3073615E-2,1.66739E-2,-3.2978742E-3,-1.2352754E-2],"split_indices":[18,0,8,2,0,9,17,18,18,10,1,0,0,18,0,0,1,3,0,1,4,8,0,6,0,0,0,0,3,18,0,0,0,17,7,1,1,9,4,8,0,0,9,0,0,0,0,0,0,0,0,0,0,0,0,0,0,0,0,0,0,0,0,0,0],"split_type":[0,0,0,0,0,0,0,0,0,0,0,0,0,0,0,0,0,0,0,0,0,0,0,0,0,0,0,0,0,0,0,0,0,0,0,0,0,0,0,0,0,0,0,0,0,0,0,0,0,0,0,0,0,0,0,0,0,0,0,0,0,0,0,0,0],"sum_hessian":[2.8462202E3,2.3889993E3,4.5722098E2,4.50577E2,1.9384222E3,1.597483E1,4.4124615E2,1.2432458E2,3.262524E2,1.6959344E3,2.4248782E2,1.1227094E1,4.7477355E0,8.801563E1,3.532305E2,2.1083101E1,1.0324148E2,3.1076166E2,1.5490773E1,1.0328705E3,6.6306396E2,1.657596E2,7.6728226E1,8.276564E1,5.2499933E0,7.913172E0,1.3169929E1,9.736863E0,9.3504616E1,1.6265263E2,1.4810901E2,8.751934E0,6.738839E0,2.2956973E2,8.033008E2,3.954118E2,2.6765216E2,1.2261508E2,4.3144512E1,7.149862E1,5.2296033E0,6.7698364E1,1.5067279E1,5.1858303E1,4.1646313E1,1.0397218E1,1.5225542E2,8.37235E1,6.438551E1,1.0352898E2,1.2604075E2,3.0196838E2,5.013324E2,1.7577805E2,2.1963374E2,6.1294147E1,2.0635803E2,8.776428E1,3.4850796E1,1.6704748E1,2.6439766E1,3.650013E1,3.499849E1,5.240051E0,9.827229E0],"tree_param":{"num_deleted":"0","num_feature":"20","num_nodes":"65","size_leaf_vector":"1"}},{"base_weights":[6.859559E-6,3.014899E-1,-1.5756886E0,9.51548E-1,1.501333E-1,-9.836313E-1,-1.5948719E0,2.6751328E-1,1.2108481E0,-7.3804066E-2,5.54508E-1,-1.4177979E-2,1.0918268E-3,-1.3993375E0,-1.6395254E-2,-1.2213404E0,5.8006823E-1,1.3093435E0,-7.238943E-1,5.0405186E-1,-3.5788953E-1,-3.2635286E-1,7.0196366E-1,-1.4814664E0,-7.741665E-4,-7.0981937E-3,-1.4572061E-2,-1.0927694E-2,7.640606E-1,8.7919885E-1,1.4176506E0,-1.5291331E-2,3.8212E-3,-7.575159E-1,8.8523746E-1,-4.5026973E-1,8.603911E-1,-5.699966E-1,7.844745E-1,1.0312331E0,3.8927743E-1,-1.583679E-2,-9.5287776E-1,1.1898847E-2,2.189977E-3,1.3639563E-2,4.767588E-3,1.6315194E-2,1.1807786E-2,-1.021467E-2,-3.4112416E-4,1.1990896E-2,1.9081169E-3,-5.1924977E-3,5.4223635E-3,3.0949085E-3,1.3724626E-2,-2.5076624E-3,-1.04177985E-2,1.1688335E-3,1.0773085E-2,1.199673E-2,7.2159856E-3,1.422682E-3,1.4457445E-2,-3.2705711E-3,-1.22591695E-2],"categories":[],"categories_nodes":[],"categories_segments":[],"categories_sizes":[],"default_left":[0,0,0,0,0,0,0,0,0,0,0,0,0,0,0,0,0,0,0,0,0,0,0,0,0,0,0,0,0,0,0,0,0,0,0,0,0,0,0,0,0,0,0,0,0,0,0,0,0,0,0,0,0,0,0,0,0,0,0,0,0,0,0,0,0,0,0],"id":21,"left_children":[1,3,5,7,9,11,13,15,17,19,21,-1,-1,23,-1,25,27,29,31,33,35,37,39,41,-1,-1,-1,-1,43,45,47,-1,-1,49,51,53,55,57,59,61,63,-1,65,-1,-1,-1,-1,-1,-1,-1,-1,-1,-1,-1,-1,-1,-1,-1,-1,-1,-1,-1,-1,-1,-1,-1,-1],"loss_changes":[1.3515403E3,2.3482805E2,3.6208496E0,7.9642E1,1.7556311E2,8.196812E0,1.5561523E0,5.897438E1,6.3191986E1,2.0511055E2,8.997516E1,0E0,0E0,9.527161E0,0E0,1.6255684E0,3.2895107E1,1.3250122E1,1.5249838E1,1.9872919E2,9.4643326E1,2.7447231E1,6.056909E1,3.0055542E0,0E0,0E0,0E0,0E0,2.1656643E1,1.2073685E1,1.0583557E1,0E0,0E0,1.8316029E1,6.8806046E1,5.362271E1,1.6324463E1,1.21481495E1,3.4645224E0,1.4146484E1,7.947742E1,0E0,2.3416195E0,0E0,0E0,0E0,0E0,0E0,0E0,0E0,0E0,0E0,0E0,0E0,0E0,0E0,0E0,0E0,0E0,0E0,0E0,0E0,0E0,0E0,0E0,0E0,0E0],"parents":[2147483647,0,0,1,1,2,2,3,3,4,4,5,5,6,6,7,7,8,8,9,9,10,10,13,13,15,15,16,16,17,17,18,18,19,19,20,20,21,21,22,22,23,23,28,28,29,29,30,30,33,33,34,34,35,35,36,36,37,37,38,38,39,39,40,40,42,42],"right_children":[2,4,6,8,10,12,14,16,18,20,22,-1,-1,24,-1,26,28,30,32,34,36,38,40,42,-1,-1,-1,-1,44,46,48,-1,-1,50,52,54,56,58,60,62,64,-1,66,-1,-1,-1,-1,-1,-1,-1,-1,-1,-1,-1,-1,-1,-1,-1,-1,-1,-1,-1,-1,-1,-1,-1,-1],"split_conditions":[3E0,5.319149E-3,3.205642E-4,1E0,1E0,4E0,2E0,1E0,2E0,4.8065516E-3,1E0,-1.4177979E-2,1.0918268E-3,1E1,-1.6395254E-2,3.5460992E-3,1.6618497E-3,1E0,1.7730496E-3,9.609827E-3,2.1276595E-2,1.7730497E-2,2E0,1E0,-7.741665E-4,-7.0981937E-3,-1.4572061E-2,-1.0927694E-2,1E0,3.1069363E-3,1E0,-1.5291331E-2,3.8212E-3,8.742775E-3,1.2411348E-2,1.4712768E-2,2.4822695E-2,2E0,1E0,3.8467704E-3,2.1242775E-2,-1.583679E-2,3E0,1.1898847E-2,2.189977E-3,1.3639563E-2,4.767588E-3,1.6315194E-2,1.1807786E-2,-1.021467E-2,-3.4112416E-4,1.1990896E-2,1.9081169E-3,-5.1924977E-3,5.4223635E-3,3.0949085E-3,1.3724626E-2,-2.5076624E-3,-1.04177985E-2,1.1688335E-3,1.0773085E-2,1.199673E-2,7.2159856E-3,1.422682E-3,1.4457445E-2,-3.2705711E-3,-1.22591695E-2],"split_indices":[18,0,8,2,4,9,17,18,18,7,2,0,0,18,0,0,1,17,0,1,0,0,10,6,0,0,0,0,3,1,3,0,0,1,0,7,0,10,9,8,1,0,9,0,0,0,0,0,0,0,0,0,0,0,0,0,0,0,0,0,0,0,0,0,0,0,0],"split_type":[0,0,0,0,0,0,0,0,0,0,0,0,0,0,0,0,0,0,0,0,0,0,0,0,0,0,0,0,0,0,0,0,0,0,0,0,0,0,0,0,0,0,0,0,0,0,0,0,0,0,0,0,0,0,0,0,0,0,0,0,0,0,0,0,0,0,0],"sum_hessian":[2.843076E3,2.3871443E3,4.5593158E2,4.4984186E2,1.9373025E3,1.59496975E1,4.3998187E2,1.2420919E2,3.2563266E2,1.2473525E3,6.899499E2,1.120189E1,4.747807E0,8.7809494E1,3.521724E2,2.1046535E1,1.0316265E2,3.1016574E2,1.5466912E1,4.1085715E2,8.3649536E2,9.876158E1,5.911883E2,8.255951E1,5.2499876E0,7.9073405E0,1.31391945E1,9.732915E0,9.342973E1,6.42224E1,2.4594334E2,8.729094E0,6.737819E0,9.510649E1,3.1575064E2,7.781221E2,5.8373295E1,8.139553E1,1.7366047E1,2.8683896E2,3.0434937E2,6.7509254E1,1.5050249E1,5.1787964E1,4.1641773E1,2.8048038E1,3.6174362E1,1.2615329E2,1.1979006E2,6.937964E1,2.572685E1,2.1696472E2,9.878594E1,7.2800214E2,5.011998E1,2.8893398E1,2.9479897E1,4.9460083E1,3.193545E1,5.721515E0,1.1644531E1,1.8391531E2,1.02923645E2,2.4759468E2,5.675467E1,5.2393093E0,9.81094E0],"tree_param":{"num_deleted":"0","num_feature":"20","num_nodes":"67","size_leaf_vector":"1"}},{"base_weights":[8.9841515E-6,2.987075E-1,-1.5646524E0,9.43659E-1,1.4872622E-1,-9.7607505E-1,-1.5837489E0,2.6494583E-1,1.2011942E0,3.5552338E-2,9.379188E-1,-1.4078043E-2,1.0827942E-3,-1.3890569E0,-1.6282426E-2,-1.2121986E0,5.747563E-1,1.2989604E0,-7.1843946E-1,3.0434477E-1,-3.8282913E-1,7.203715E-1,1.4490662E0,-1.470797E0,-7.676645E-4,-7.039929E-3,-1.4469356E-2,-1.0833157E-2,7.571983E-1,1.5028567E0,1.0670035E0,-1.51912E-2,3.788447E-3,-4.0963396E-1,5.0854665E-1,-6.4661235E-1,7.56529E-3,9.36355E-1,1.1663601E-1,1.5426488E-2,6.189606E-3,-1.5725818E-2,-9.453612E-1,1.1798574E-2,2.168825E-3,5.990614E-3,1.5604719E-2,1.269548E-2,7.885303E-3,-1.3645722E-2,3.7755885E-3,8.088728E-3,6.985534E-4,-2.3818037E-3,-9.042601E-3,7.330316E-3,-2.1029057E-3,5.813652E-3,1.2685529E-2,-4.526801E-3,4.651434E-3,-3.243506E-3,-1.216699E-2],"categories":[],"categories_nodes":[],"categories_segments":[],"categories_sizes":[],"default_left":[0,0,0,0,0,0,0,0,0,0,0,0,0,0,0,0,0,0,0,0,0,0,0,0,0,0,0,0,0,0,0,0,0,0,0,0,0,0,0,0,0,0,0,0,0,0,0,0,0,0,0,0,0,0,0,0,0,0,0,0,0,0,0],"id":22,"left_children":[1,3,5,7,9,11,13,15,17,19,21,-1,-1,23,-1,25,27,29,31,33,35,37,39,41,-1,-1,-1,-1,43,45,47,-1,-1,49,51,53,55,57,59,-1,-1,-1,61,-1,-1,-1,-1,-1,-1,-1,-1,-1,-1,-1,-1,-1,-1,-1,-1,-1,-1,-1,-1],"loss_changes":[1.328312E3,2.3071207E2,3.5749512E0,7.835358E1,1.7301297E2,8.075222E0,1.5469971E0,5.7941822E1,6.211505E1,1.907894E2,2.5972427E1,0E0,0E0,9.390549E0,0E0,1.6068916E0,3.230477E1,1.30841675E1,1.502123E1,1.5079434E2,6.834733E1,2.2372643E1,4.6029663E0,2.97081E0,0E0,0E0,0E0,0E0,2.1291187E1,7.5439453E0,7.387726E0,0E0,0E0,1.7360583E2,1.0581769E2,4.1462585E1,4.2604267E1,1.4220474E1,9.450546E0,0E0,0E0,0E0,2.3069172E0,0E0,0E0,0E0,0E0,0E0,0E0,0E0,0E0,0E0,0E0,0E0,0E0,0E0,0E0,0E0,0E0,0E0,0E0,0E0,0E0],"parents":[2147483647,0,0,1,1,2,2,3,3,4,4,5,5,6,6,7,7,8,8,9,9,10,10,13,13,15,15,16,16,17,17,18,18,19,19,20,20,21,21,22,22,23,23,28,28,29,29,30,30,33,33,34,34,35,35,36,36,37,37,38,38,42,42],"right_children":[2,4,6,8,10,12,14,16,18,20,22,-1,-1,24,-1,26,28,30,32,34,36,38,40,42,-1,-1,-1,-1,44,46,48,-1,-1,50,52,54,56,58,60,-1,-1,-1,62,-1,-1,-1,-1,-1,-1,-1,-1,-1,-1,-1,-1,-1,-1,-1,-1,-1,-1,-1,-1],"split_conditions":[3E0,5.319149E-3,3.205642E-4,1E0,1.9503547E-2,4E0,2E0,1E0,2E0,2E0,2.1531792E-2,-1.4078043E-2,1.0827942E-3,1E1,-1.6282426E-2,3.5460992E-3,1.6618497E-3,1E0,1.7730496E-3,9.176301E-3,1E0,4.4878987E-3,3.0141843E-2,1E0,-7.676645E-4,-7.039929E-3,-1.4469356E-2,-1.0833157E-2,1E0,1E0,3.5460992E-3,-1.51912E-2,3.788447E-3,1E0,1.2411348E-2,1.23554915E-2,1.1560693E-2,1E0,1E0,1.5426488E-2,6.189606E-3,-1.5725818E-2,3E0,1.1798574E-2,2.168825E-3,5.990614E-3,1.5604719E-2,1.269548E-2,7.885303E-3,-1.3645722E-2,3.7755885E-3,8.088728E-3,6.985534E-4,-2.3818037E-3,-9.042601E-3,7.330316E-3,-2.1029057E-3,5.813652E-3,1.2685529E-2,-4.526801E-3,4.651434E-3,-3.243506E-3,-1.216699E-2],"split_indices":[18,0,8,2,0,9,17,18,18,10,1,0,0,18,0,0,1,3,0,1,4,8,0,6,0,0,0,0,3,18,0,0,0,17,0,1,1,4,4,0,0,0,9,0,0,0,0,0,0,0,0,0,0,0,0,0,0,0,0,0,0,0,0],"split_type":[0,0,0,0,0,0,0,0,0,0,0,0,0,0,0,0,0,0,0,0,0,0,0,0,0,0,0,0,0,0,0,0,0,0,0,0,0,0,0,0,0,0,0,0,0,0,0,0,0,0,0,0,0,0,0,0,0,0,0,0,0,0,0],"sum_hessian":[2.8401477E3,2.3855486E3,4.545992E2,4.490869E2,1.9364617E3,1.5923698E1,4.386755E2,1.2408904E2,3.2499786E2,1.6945066E3,2.4195511E2,1.1175824E1,4.747875E0,8.759643E1,3.5107907E2,2.1008755E1,1.03080284E2,3.0955563E2,1.5442232E1,1.0318556E3,6.6265106E2,1.7141095E2,7.054417E1,8.234644E1,5.2499804E0,7.901365E0,1.310739E1,9.72842E0,9.335187E1,1.618267E2,1.4772894E2,8.705473E0,6.736759E0,2.292593E2,8.0259625E2,3.9505945E2,2.6759158E2,1.2584099E2,4.5569958E1,6.2625637E1,7.918525E0,6.731383E1,1.5032622E1,5.1714687E1,4.163718E1,1.0380942E1,1.5144576E2,8.34636E1,6.426534E1,1.0326083E2,1.2599847E2,4.759317E2,3.2666455E2,1.5355821E2,2.4150124E2,6.1252903E1,2.0633868E2,6.2163044E1,6.367794E1,1.7189901E1,2.8380058E1,5.238546E0,9.794077E0],"tree_param":{"num_deleted":"0","num_feature":"20","num_nodes":"63","size_leaf_vector":"1"}},{"base_weights":[1.3393557E-6,2.95974E-1,-1.5538499E0,9.358971E-1,1.4733902E-1,-9.686292E-1,-1.5728643E0,2.6241252E-1,1.1917121E0,-7.333521E-2,5.4585624E-1,-1.3979863E-2,1.0738383E-3,-1.378966E0,-1.6172102E-2,-1.2031951E0,5.6951237E-1,1.2887652E0,-7.1306443E-1,5.2009505E-1,-3.4277624E-1,-3.2573584E-1,6.918442E-1,-1.460333E0,-7.612168E-4,-6.9822595E-3,-1.4368529E-2,-1.0739978E-2,7.504214E-1,8.612328E-1,1.3965758E0,-1.5093035E-2,3.7559953E-3,-9.845219E-1,8.313091E-1,-4.339307E-1,8.667098E-1,-5.6573486E-1,7.698159E-1,1.0171591E0,3.8304254E-1,-1.5617168E-2,-9.379404E-1,1.1699802E-2,2.1478808E-3,1.3430546E-2,4.6241703E-3,1.6092319E-2,1.161769E-2,-1.4953384E-2,-2.0268017E-3,1.1094023E-2,1.4557575E-3,-4.997595E-3,5.3894646E-3,3.2560346E-3,1.3663472E-2,-2.5027143E-3,-1.0318E-2,1.1041843E-3,1.0598107E-2,1.1844901E-2,7.0990515E-3,1.3987764E-3,1.4267854E-2,-3.2166766E-3,-1.2076179E-2],"categories":[],"categories_nodes":[],"categories_segments":[],"categories_sizes":[],"default_left":[0,0,0,0,0,0,0,0,0,0,0,0,0,0,0,0,0,0,0,0,0,0,0,0,0,0,0,0,0,0,0,0,0,0,0,0,0,0,0,0,0,0,0,0,0,0,0,0,0,0,0,0,0,0,0,0,0,0,0,0,0,0,0,0,0,0,0],"id":23,"left_children":[1,3,5,7,9,11,13,15,17,19,21,-1,-1,23,-1,25,27,29,31,33,35,37,39,41,-1,-1,-1,-1,43,45,47,-1,-1,49,51,53,55,57,59,61,63,-1,65,-1,-1,-1,-1,-1,-1,-1,-1,-1,-1,-1,-1,-1,-1,-1,-1,-1,-1,-1,-1,-1,-1,-1,-1],"loss_changes":[1.3056033E3,2.2668037E2,3.5310059E0,7.709598E1,1.7032971E2,7.9563723E0,1.5390625E0,5.6930157E1,6.106192E1,1.9959071E2,8.8050964E1,0E0,0E0,9.257523E0,0E0,1.5889702E0,3.1726208E1,1.3082092E1,1.47975445E1,1.8336118E2,9.500554E1,2.6650717E1,5.9033386E1,2.9377747E0,0E0,0E0,0E0,0E0,2.0934223E1,1.1873463E1,1.0408844E1,0E0,0E0,2.6563507E1,6.154117E1,5.1429016E1,1.5908501E1,1.1851347E1,3.3900585E0,1.3938049E1,7.72269E1,0E0,2.2730656E0,0E0,0E0,0E0,0E0,0E0,0E0,0E0,0E0,0E0,0E0,0E0,0E0,0E0,0E0,0E0,0E0,0E0,0E0,0E0,0E0,0E0,0E0,0E0,0E0],"parents":[2147483647,0,0,1,1,2,2,3,3,4,4,5,5,6,6,7,7,8,8,9,9,10,10,13,13,15,15,16,16,17,17,18,18,19,19,20,20,21,21,22,22,23,23,28,28,29,29,30,30,33,33,34,34,35,35,36,36,37,37,38,38,39,39,40,40,42,42],"right_children":[2,4,6,8,10,12,14,16,18,20,22,-1,-1,24,-1,26,28,30,32,34,36,38,40,42,-1,-1,-1,-1,44,46,48,-1,-1,50,52,54,56,58,60,62,64,-1,66,-1,-1,-1,-1,-1,-1,-1,-1,-1,-1,-1,-1,-1,-1,-1,-1,-1,-1,-1,-1,-1,-1,-1,-1],"split_conditions":[3E0,5.319149E-3,3.205642E-4,1E0,1E0,4E0,2E0,1E0,2E0,4.70514E-3,1E0,-1.3979863E-2,1.0738383E-3,1E1,-1.6172102E-2,3.5460992E-3,1.6618497E-3,1E0,1.7730496E-3,8.742775E-3,2.1276595E-2,1.7730497E-2,2E0,1E0,-7.612168E-4,-6.9822595E-3,-1.4368529E-2,-1.0739978E-2,1E0,3.1069363E-3,1E0,-1.5093035E-2,3.7559953E-3,1E0,1.2411348E-2,1.4712768E-2,2.4822695E-2,2E0,1E0,3.8467704E-3,2.1242775E-2,-1.5617168E-2,3E0,1.1699802E-2,