{"learner":{"attributes":{"best_iteration":"5","best_score":"0.6914650036298159","scikit_learn":"{\"_estimator_type\": \"classifier\"}"},"feature_names":["no_sentence","num_words","character0","character1","character2_3","character4","character5","std_dev","sent_len_diff","count_short_sentences_in_paragraphs","count_long_sentences_in_paragraphs","check_word0","check_word1","check_word2_3","check_word3","check_word4","check_word5","check_num","check_capitals","check_et"],"feature_types":["float","float","float","float","float","float","float","float","float","float","float","float","float","float","float","float","float","float","float","float"],"gradient_booster":{"model":{"gbtree_model_param":{"num_parallel_tree":"1","num_trees":"11"},"iteration_indptr":[0,1,2,3,4,5,6,7,8,9,10,11],"tree_info":[0,0,0,0,0,0,0,0,0,0,0],"trees":[{"base_weights":[-0E0,1.7042958E0,-1.8543478E0,-1.2E0,1.8936735E0,-8.684211E-1,-1.9385342E-2,-1.6216215E-3,-1.5652174E0,-8.8E-3,1.9268817E0,2.105263E-3,-1.1864407E0,-6.0869562E-3,-1.780822E-2,1.9456817E0,8.6956524E-4,-5.0980395E-1,-1.6056338E-2,1.9773241E-2,1.1604939E0,-1.3103448E-2,4.6153846E-3,1.627907E-2,5.7142857E-3],"categories":[],"categories_nodes":[],"categories_segments":[],"categories_sizes":[],"default_left":[0,0,0,0,0,0,0,0,0,0,0,0,0,0,0,0,0,0,0,0,0,0,0,0,0],"id":0,"left_children":[1,3,5,7,9,11,-1,-1,13,-1,15,-1,17,-1,-1,19,-1,21,-1,-1,23,-1,-1,-1,-1],"loss_changes":[3.035523E3,2.77552E2,3.6497314E1,1.1591072E1,4.5009644E1,1.3288582E1,0E0,0E0,3.6593208E0,0E0,1.5915405E1,0E0,7.5488625E0,0E0,0E0,9.140503E0,0E0,1.0519166E1,0E0,0E0,4.64534E0,0E0,0E0,0E0,0E0],"parents":[2147483647,0,0,1,1,2,2,3,3,4,4,5,5,8,8,10,10,12,12,15,15,17,17,20,20],"right_children":[2,4,6,8,10,12,-1,-1,14,-1,16,-1,18,-1,-1,20,-1,22,-1,-1,24,-1,-1,-1,-1],"split_conditions":[3.7951972E-3,1.8735362E-2,4.6817935E-3,1E0,1.4268903E-2,1E0,-1.9385342E-2,-1.6216215E-3,1E0,-8.8E-3,2.9493969E-2,2.105263E-3,3E0,-6.0869562E-3,-1.780822E-2,3.3627213E-3,8.6956524E-4,1.7137393E-2,-1.6056338E-2,1.9773241E-2,1E0,-1.3103448E-2,4.6153846E-3,1.627907E-2,5.7142857E-3],"split_indices":[7,0,7,10,1,2,0,0,2,0,1,0,10,0,0,7,0,1,0,0,9,0,0,0,0],"split_type":[0,0,0,0,0,0,0,0,0,0,0,0,0,0,0,0,0,0,0,0,0,0,0,0,0],"sum_hessian":[9.585E2,4.995E2,4.59E2,3.025E1,4.6925E2,3.7E1,4.22E2,8.25E0,2.2E1,5.25E0,4.64E2,8.5E0,2.85E1,4.75E0,1.725E1,4.5925E2,4.75E0,1.175E1,1.675E1,4.4E2,1.925E1,6.25E0,5.5E0,9.75E0,9.5E0],"tree_param":{"num_deleted":"0","num_feature":"20","num_nodes":"25","size_leaf_vector":"1"}},{"base_weights":[-3.4928045E-5,1.6874225E0,-1.8360597E0,-1.1888707E0,1.8749843E0,-8.6035895E-1,-1.9193752E-2,-1.607159E-3,-1.5506997E0,-8.7262215E-3,1.9078847E0,2.086429E-3,-1.1754634E0,-6.0367202E-3,-1.764122E-2,1.9264994E0,8.623804E-4,-5.053835E-1,-1.5905792E-2,1.9577874E-2,1.1500163E0,-1.2990968E-2,4.5763506E-3,1.6132394E-2,5.6626275E-3],"categories":[],"categories_nodes":[],"categories_segments":[],"categories_sizes":[],"default_left":[0,0,0,0,0,0,0,0,0,0,0,0,0,0,0,0,0,0,0,0,0,0,0,0,0],"id":1,"left_children":[1,3,5,7,9,11,-1,-1,13,-1,15,-1,17,-1,-1,19,-1,21,-1,-1,23,-1,-1,-1,-1],"loss_changes":[2.975567E3,2.7221558E2,3.5739136E1,1.1375755E1,4.4170532E1,1.3044979E1,0E0,0E0,3.5834541E0,0E0,1.560022E1,0E0,7.4015083E0,0E0,0E0,8.928955E0,0E0,1.0339884E1,0E0,0E0,4.562052E0,0E0,0E0,0E0,0E0],"parents":[2147483647,0,0,1,1,2,2,3,3,4,4,5,5,8,8,10,10,12,12,15,15,17,17,20,20],"right_children":[2,4,6,8,10,12,-1,-1,14,-1,16,-1,18,-1,-1,20,-1,22,-1,-1,24,-1,-1,-1,-1],"split_conditions":[3.7951972E-3,1.8735362E-2,4.6817935E-3,1E0,1.4268903E-2,1E0,-1.9193752E-2,-1.607159E-3,1E0,-8.7262215E-3,2.9493969E-2,2.086429E-3,3E0,-6.0367202E-3,-1.764122E-2,3.3627213E-3,8.623804E-4,1.7137393E-2,-1.5905792E-2,1.9577874E-2,1E0,-1.2990968E-2,4.5763506E-3,1.6132394E-2,5.6626275E-3],"split_indices":[7,0,7,10,1,2,0,0,2,0,1,0,10,0,0,7,0,1,0,0,9,0,0,0,0],"split_type":[0,0,0,0,0,0,0,0,0,0,0,0,0,0,0,0,0,0,0,0,0,0,0,0,0],"sum_hessian":[9.584137E2,4.9945474E2,4.5895898E2,3.0248583E1,4.6920618E2,3.6998615E1,4.2196036E2,8.249995E0,2.1998589E1,5.2498984E0,4.6395627E2,8.49999E0,2.8498623E1,4.749956E0,1.7248632E1,4.5920627E2,4.749999E0,1.1749703E1,1.674892E1,4.39957E2,1.9249277E1,6.249732E0,5.499971E0,9.749354E0,9.499923E0],"tree_param":{"num_deleted":"0","num_feature":"20","num_nodes":"25","size_leaf_vector":"1"}},{"base_weights":[-6.9140006E-5,1.6710141E0,-1.8182715E0,-1.1779505E0,1.8568203E0,-8.524333E-1,-1.9007565E-2,-1.592829E-3,-1.536503E0,-8.653342E-3,1.889425E0,2.067767E-3,-1.1646953E0,-5.9869867E-3,-1.7478375E-2,1.9078633E0,8.5525896E-4,-5.010246E-1,-1.5758548E-2,1.9388162E-2,1.1397138E0,-1.2880399E-2,4.537691E-3,1.5988937E-2,5.6115165E-3],"categories":[],"categories_nodes":[],"categories_segments":[],"categories_sizes":[],"default_left":[0,0,0,0,0,0,0,0,0,0,0,0,0,0,0,0,0,0,0,0,0,0,0,0,0],"id":2,"left_children":[1,3,5,7,9,11,-1,-1,13,-1,15,-1,17,-1,-1,19,-1,21,-1,-1,23,-1,-1,-1,-1],"loss_changes":[2.917314E3,2.670348E2,3.5013794E1,1.1167145E1,4.335669E1,1.2807552E1,0E0,0E0,3.5108337E0,0E0,1.5297241E1,0E0,7.2587624E0,0E0,0E0,8.72937E0,0E0,1.0164411E1,0E0,0E0,4.481716E0,0E0,0E0,0E0,0E0],"parents":[2147483647,0,0,1,1,2,2,3,3,4,4,5,5,8,8,10,10,12,12,15,15,17,17,20,20],"right_children":[2,4,6,8,10,12,-1,-1,14,-1,16,-1,18,-1,-1,20,-1,22,-1,-1,24,-1,-1,-1,-1],"split_conditions":[3.7951972E-3,1.8735362E-2,4.6817935E-3,1E0,1.4268903E-2,1E0,-1.9007565E-2,-1.592829E-3,1E0,-8.653342E-3,2.9493969E-2,2.067767E-3,3E0,-5.9869867E-3,-1.7478375E-2,3.3627213E-3,8.5525896E-4,1.7137393E-2,-1.5758548E-2,1.9388162E-2,1E0,-1.2880399E-2,4.537691E-3,1.5988937E-2,5.6115165E-3],"split_indices":[7,0,7,10,1,2,0,0,2,0,1,0,10,0,0,7,0,1,0,0,9,0,0,0,0],"split_type":[0,0,0,0,0,0,0,0,0,0,0,0,0,0,0,0,0,0,0,0,0,0,0,0,0],"sum_hessian":[9.581583E2,4.9932083E2,4.5883752E2,3.0244387E1,4.6907645E2,3.6994507E1,4.2184302E2,8.249978E0,2.1994408E1,5.249597E0,4.6382684E2,8.499963E0,2.8494543E1,4.7498255E0,1.7244583E1,4.5907684E2,4.749996E0,1.174882E1,1.6745724E1,4.398297E2,1.9247133E1,6.2489367E0,5.499884E0,9.74744E0,9.499693E0],"tree_param":{"num_deleted":"0","num_feature":"20","num_nodes":"25","size_leaf_vector":"1"}},{"base_weights":[-1.02635844E-4,1.6550516E0,-1.8009629E0,-1.1672324E0,1.8391604E0,-8.891073E-1,-1.8869154E-2,-1.5786269E-3,-1.5226157E0,-8.581338E-3,1.8714808E0,1.4129452E-1,-1.2100856E0,-5.937752E-3,-1.7319517E-2,1.889751E0,8.4819284E-4,-3.3325579E-3,6.1192075E-3,-7.4591814E-4,-1.4071305E0,1.9203868E-2,1.1295815E0,-8.3986664E-1,-1.7172221E-2,1.584859E-2,5.560947E-3,-1.0997986E-2,-4.9397694E-3],"categories":[],"categories_nodes":[],"categories_segments":[],"categories_sizes":[],"default_left":[0,0,0,0,0,0,0,0,0,0,0,0,0,0,0,0,0,0,0,0,0,0,0,0,0,0,0,0,0],"id":3,"left_children":[1,3,5,7,9,11,-1,-1,13,-1,15,17,19,-1,-1,21,-1,-1,-1,-1,23,-1,25,27,-1,-1,-1,-1,-1],"loss_changes":[2.8606956E3,2.620027E2,3.4347046E1,1.09649315E1,4.2567627E1,1.3891541E1,0E0,0E0,3.4413033E0,0E0,1.50061035E1,2.6045365E0,6.9957504E0,0E0,0E0,8.540283E0,0E0,0E0,0E0,0E0,3.3048973E0,0E0,4.4041843E0,4.902668E-1,0E0,0E0,0E0,0E0,0E0],"parents":[2147483647,0,0,1,1,2,2,3,3,4,4,5,5,8,8,10,10,11,11,12,12,15,15,20,20,22,22,23,23],"right_children":[2,4,6,8,10,12,-1,-1,14,-1,16,18,20,-1,-1,22,-1,-1,-1,-1,24,-1,26,28,-1,-1,-1,-1,-1],"split_conditions":[3.7951972E-3,1.8735362E-2,4.7366926E-3,1E0,1.4268903E-2,1E0,-1.8869154E-2,-1.5786269E-3,1E0,-8.581338E-3,2.9493969E-2,5.6196842E-3,2E0,-5.937752E-3,-1.7319517E-2,3.3627213E-3,8.4819284E-4,-3.3325579E-3,6.1192075E-3,-7.4591814E-4,4.184232E-3,1.9203868E-2,1E0,1.9564578E-2,-1.7172221E-2,1.584859E-2,5.560947E-3,-1.0997986E-2,-4.9397694E-3],"split_indices":[7,0,7,10,1,2,0,0,2,0,1,8,10,0,0,7,0,0,0,0,7,0,9,1,0,0,0,0,0],"split_type":[0,0,0,0,0,0,0,0,0,0,0,0,0,0,0,0,0,0,0,0,0,0,0,0,0,0,0,0,0],"sum_hessian":[9.5773895E2,4.991009E2,4.5863806E2,3.0237488E1,4.688634E2,4.048485E1,4.1815323E2,8.249951E0,2.1987537E1,5.2491007E0,4.636143E2,9.748881E0,3.0735971E1,4.7496104E0,1.7237926E1,4.588643E2,4.749992E0,4.9995418E0,4.7493396E0,4.7488327E0,2.5987139E1,4.396207E2,1.9243607E1,1.0495578E1,1.5491561E1,9.744292E0,9.499315E0,4.7479367E0,5.747641E0],"tree_param":{"num_deleted":"0","num_feature":"20","num_nodes":"29","size_leaf_vector":"1"}},{"base_weights":[-1.4532369E-4,1.6395167E0,-1.7841263E0,-1.1567101E0,1.8219837E0,-8.367469E-1,-1.8650893E-2,-1.5645538E-3,-1.5090274E0,-8.510196E-3,1.8540306E0,2.0393142E-3,-1.1437144E0,-5.889008E-3,-1.7164508E-2,1.8721409E0,8.411881E-4,-4.896353E-1,-1.5493297E-2,1.902477E-2,1.1196142E0,-1.2694015E-2,4.5500663E-3,1.5711242E-2,5.51091E-3],"categories":[],"categories_nodes":[],"categories_segments":[],"categories_sizes":[],"default_left":[0,0,0,0,0,0,0,0,0,0,0,0,0,0,0,0,0,0,0,0,0,0,0,0,0],"id":4,"left_children":[1,3,5,7,9,11,-1,-1,13,-1,15,-1,17,-1,-1,19,-1,21,-1,-1,23,-1,-1,-1,-1],"loss_changes":[2.8056719E3,2.5711377E2,3.3674072E1,1.0768856E1,4.180188E1,1.23661995E1,0E0,0E0,3.3746758E0,0E0,1.4725464E1,0E0,7.0626755E0,0E0,0E0,8.36145E0,0E0,9.966405E0,0E0,0E0,4.3293285E0,0E0,0E0,0E0,0E0],"parents":[2147483647,0,0,1,1,2,2,3,3,4,4,5,5,8,8,10,10,12,12,15,15,17,17,20,20],"right_children":[2,4,6,8,10,12,-1,-1,14,-1,16,-1,18,-1,-1,20,-1,22,-1,-1,24,-1,-1,-1,-1],"split_conditions":[3.7951972E-3,1.8735362E-2,4.6817935E-3,1E0,1.4268903E-2,1E0,-1.8650893E-2,-1.5645538E-3,1E0,-8.510196E-3,2.9493969E-2,2.0393142E-3,3E0,-5.889008E-3,-1.7164508E-2,3.3627213E-3,8.411881E-4,1.7137393E-2,-1.5493297E-2,1.902477E-2,1E0,-1.2694015E-2,4.5500663E-3,1.5711242E-2,5.51091E-3],"split_indices":[7,0,7,10,1,2,0,0,2,0,1,0,10,0,0,7,0,1,0,0,9,0,0,0,0],"split_type":[0,0,0,0,0,0,0,0,0,0,0,0,0,0,0,0,0,0,0,0,0,0,0,0,0],"sum_hessian":[9.571628E2,4.9879752E2,4.5836526E2,3.0227966E1,4.6856955E2,3.6980236E1,4.21385E2,8.249915E0,2.197805E1,5.2484145E0,4.6332114E2,8.499837E0,2.84804E1,4.749314E0,1.7228737E1,4.5857117E2,4.7499857E0,1.1746157E1,1.6734243E1,4.3933243E2,1.9238737E1,6.2462893E0,5.4998674E0,9.739945E0,9.498793E0],"tree_param":{"num_deleted":"0","num_feature":"20","num_nodes":"25","size_leaf_vector":"1"}},{"base_weights":[-1.7735496E-4,1.624393E0,-1.7677172E0,-1.1463777E0,1.8052714E0,-8.7272745E-1,-1.8521525E-2,-1.5506074E-3,-1.4957274E0,-8.439897E-3,1.8370552E0,1.4070573E-1,-1.1886624E0,-5.840747E-3,-1.7013203E-2,1.8550131E0,8.342407E-4,-3.3047574E-3,6.0792747E-3,-6.999182E-4,-1.3830276E0,1.8850662E-2,1.1098074E0,-8.235077E-1,-1.6892835E-2,1.5576793E-2,5.4613953E-3,-1.081204E-2,-4.8194206E-3],"categories":[],"categories_nodes":[],"categories_segments":[],"categories_sizes":[],"default_left":[0,0,0,0,0,0,0,0,0,0,0,0,0,0,0,0,0,0,0,0,0,0,0,0,0,0,0,0,0],"id":5,"left_children":[1,3,5,7,9,11,-1,-1,13,-1,15,17,19,-1,-1,21,-1,-1,-1,-1,23,-1,25,27,-1,-1,-1,-1,-1],"loss_changes":[2.7521274E3,2.5236157E2,3.3071167E1,1.057864E1,4.1058716E1,1.3442677E1,0E0,0E0,3.31081E0,0E0,1.4455811E1,2.5670488E0,6.798897E0,0E0,0E0,8.192017E0,0E0,0E0,0E0,0E0,3.229744E0,0E0,4.257019E0,4.9029398E-1,0E0,0E0,0E0,0E0,0E0],"parents":[2147483647,0,0,1,1,2,2,3,3,4,4,5,5,8,8,10,10,11,11,12,12,15,15,20,20,22,22,23,23],"right_children":[2,4,6,8,10,12,-1,-1,14,-1,16,18,20,-1,-1,22,-1,-1,-1,-1,24,-1,26,28,-1,-1,-1,-1,-1],"split_conditions":[3.7951972E-3,1.8735362E-2,4.7366926E-3,1E0,1.4268903E-2,1E0,-1.8521525E-2,-1.5506074E-3,1E0,-8.439897E-3,2.9493969E-2,5.6196842E-3,2E0,-5.840747E-3,-1.7013203E-2,3.3627213E-3,8.342407E-4,-3.3047574E-3,6.0792747E-3,-6.999182E-4,4.184232E-3,1.8850662E-2,1E0,1.9564578E-2,-1.6892835E-2,1.5576793E-2,5.4613953E-3,-1.081204E-2,-4.8194206E-3],"split_indices":[7,0,7,10,1,2,0,0,2,0,1,8,10,0,0,7,0,0,0,0,7,0,9,1,0,0,0,0,0],"split_type":[0,0,0,0,0,0,0,0,0,0,0,0,0,0,0,0,0,0,0,0,0,0,0,0,0,0,0,0,0],"sum_hessian":[9.5643085E2,4.984133E2,4.5801755E2,3.0215895E1,4.6819742E2,4.0462513E1,4.1755502E2,8.249868E0,2.1966026E1,5.2475433E0,4.6294986E2,9.748053E0,3.071446E1,4.7489357E0,1.721709E1,4.581999E2,4.749978E0,4.9991817E0,4.748871E0,4.7479124E0,2.5966547E1,4.3896732E2,1.9232563E1,1.0490217E1,1.5476331E1,9.734432E0,9.49813E0,4.744936E0,5.7452807E0],"tree_param":{"num_deleted":"0","num_feature":"20","num_nodes":"29","size_leaf_vector":"1"}},{"base_weights":[-2.18533E-4,1.6096637E0,-1.7517439E0,-1.1362288E0,1.7890046E0,-8.650166E-1,-1.8354509E-2,-1.5367866E-3,-1.4827056E0,-8.370421E-3,1.8205352E0,1.3955806E-1,-1.1783206E0,-5.792959E-3,-1.6865464E-2,1.8383483E0,8.273485E-4,-3.2772422E-3,6.0291183E-3,-6.941409E-4,-1.3710815E0,1.868134E-2,1.1001565E0,-8.167995E-1,-1.6745329E-2,1.5445145E-2,5.412398E-3,-1.0725921E-2,-4.778822E-3],"categories":[],"categories_nodes":[],"categories_segments":[],"categories_sizes":[],"default_left":[0,0,0,0,0,0,0,0,0,0,0,0,0,0,0,0,0,0,0,0,0,0,0,0,0,0,0,0,0],"id":6,"left_children":[1,3,5,7,9,11,-1,-1,13,-1,15,17,19,-1,-1,21,-1,-1,-1,-1,23,-1,25,27,-1,-1,-1,-1,-1],"loss_changes":[2.7000562E3,2.4774146E2,3.245215E1,1.0394043E1,4.0336792E1,1.321003E1,0E0,0E0,3.2495499E0,0E0,1.4195801E1,2.524703E0,6.6810684E0,0E0,0E0,8.031738E0,0E0,0E0,0E0,0E0,3.165722E0,0E0,4.1871376E0,4.8334217E-1,0E0,0E0,0E0,0E0,0E0],"parents":[2147483647,0,0,1,1,2,2,3,3,4,4,5,5,8,8,10,10,11,11,12,12,15,15,20,20,22,22,23,23],"right_children":[2,4,6,8,10,12,-1,-1,14,-1,16,18,20,-1,-1,22,-1,-1,-1,-1,24,-1,26,28,-1,-1,-1,-1,-1],"split_conditions":[3.7951972E-3,1.8735362E-2,4.7366926E-3,1E0,1.4268903E-2,1E0,-1.8354509E-2,-1.5367866E-3,1E0,-8.370421E-3,2.9493969E-2,5.6196842E-3,2E0,-5.792959E-3,-1.6865464E-2,3.3627213E-3,8.273485E-4,-3.2772422E-3,6.0291183E-3,-6.941409E-4,4.184232E-3,1.868134E-2,1E0,1.9564578E-2,-1.6745329E-2,1.5445145E-2,5.412398E-3,-1.0725921E-2,-4.778822E-3],"split_indices":[7,0,7,10,1,2,0,0,2,0,1,8,10,0,0,7,0,0,0,0,7,0,9,1,0,0,0,0,0],"split_type":[0,0,0,0,0,0,0,0,0,0,0,0,0,0,0,0,0,0,0,0,0,0,0,0,0,0,0,0,0],"sum_hessian":[9.555519E2,4.9795068E2,4.576012E2,3.0201351E1,4.6774933E2,4.0449112E1,4.1715207E2,8.249813E0,2.1951538E1,5.246492E0,4.6250284E2,9.747951E0,3.0701159E1,4.7484803E0,1.7203058E1,4.5775287E2,4.749969E0,4.9991393E0,4.7488117E0,4.7478776E0,2.5953281E1,4.3852774E2,1.9225117E1,1.0487888E1,1.5465394E1,9.727786E0,9.497332E0,4.74324E0,5.744648E0],"tree_param":{"num_deleted":"0","num_feature":"20","num_nodes":"29","size_leaf_vector":"1"}},{"base_weights":[-2.590764E-4,1.5953137E0,-1.7361789E0,-1.1262578E0,1.7731658E0,-8.140015E-1,-1.815135E-2,-1.5230895E-3,-1.4699526E0,-8.301756E-3,1.804453E0,2.0013817E-3,-1.1135409E0,-5.745642E-3,-1.6721163E-2,1.822128E0,8.2051574E-4,-4.717015E-1,-1.5124701E-2,1.8516613E-2,1.0906572E0,-1.2439751E-2,4.610768E-3,1.5316206E-2,5.363907E-3],"categories":[],"categories_nodes":[],"categories_segments":[],"categories_sizes":[],"default_left":[0,0,0,0,0,0,0,0,0,0,0,0,0,0,0,0,0,0,0,0,0,0,0,0,0],"id":7,"left_children":[1,3,5,7,9,11,-1,-1,13,-1,15,-1,17,-1,-1,19,-1,21,-1,-1,23,-1,-1,-1,-1],"loss_changes":[2.6493784E3,2.4324695E2,3.1878662E1,1.0214813E1,3.9635742E1,1.1749048E1,0E0,0E0,3.1907845E0,0E0,1.39453125E1,0E0,6.825634E0,0E0,0E0,7.8795166E0,0E0,9.750342E0,0E0,0E0,4.1195774E0,0E0,0E0,0E0,0E0],"parents":[2147483647,0,0,1,1,2,2,3,3,4,4,5,5,8,8,10,10,12,12,15,15,17,17,20,20],"right_children":[2,4,6,8,10,12,-1,-1,14,-1,16,-1,18,-1,-1,20,-1,22,-1,-1,24,-1,-1,-1,-1],"split_conditions":[3.7951972E-3,1.8735362E-2,4.6817935E-3,1E0,1.4268903E-2,1E0,-1.815135E-2,-1.5230895E-3,1E0,-8.301756E-3,2.9493969E-2,2.0013817E-3,3E0,-5.745642E-3,-1.6721163E-2,3.3627213E-3,8.2051574E-4,1.7137393E-2,-1.5124701E-2,1.8516613E-2,1E0,-1.2439751E-2,4.610768E-3,1.5316206E-2,5.363907E-3],"split_indices":[7,0,7,10,1,2,0,0,2,0,1,0,10,0,0,7,0,1,0,0,9,0,0,0,0],"split_type":[0,0,0,0,0,0,0,0,0,0,0,0,0,0,0,0,0,0,0,0,0,0,0,0,0],"sum_hessian":[9.545281E2,4.974121E2,4.5711597E2,3.0184408E1,4.6722772E2,3.6943195E1,4.201728E2,8.249747E0,2.1934662E1,5.245265E0,4.6198245E2,8.499293E0,2.8443903E1,4.7479486E0,1.7186712E1,4.5723248E2,4.749958E0,1.1739146E1,1.6704756E1,4.3801605E2,1.921644E1,6.239589E0,5.4995575E0,9.720038E0,9.496401E0],"tree_param":{"num_deleted":"0","num_feature":"20","num_nodes":"25","size_leaf_vector":"1"}},{"base_weights":[-2.8914583E-4,1.5813289E0,-1.7209909E0,-1.1164595E0,1.7577392E0,-8.493817E-1,-1.8033935E-2,-1.5095175E-3,-1.4574596E0,-8.233884E-3,1.7887919E0,1.389593E-1,-1.1579841E0,-5.6987857E-3,-1.6580181E-2,1.8063357E0,8.1374025E-4,-3.2501193E-3,5.989788E-3,-6.500555E-4,-1.3482988E0,1.8356308E-2,1.0813053E0,-8.0107826E-1,-1.6484179E-2,1.5189886E-2,5.315918E-3,-1.0547887E-2,-4.6628257E-3],"categories":[],"categories_nodes":[],"categories_segments":[],"categories_sizes":[],"default_left":[0,0,0,0,0,0,0,0,0,0,0,0,0,0,0,0,0,0,0,0,0,0,0,0,0,0,0,0,0],"id":8,"left_children":[1,3,5,7,9,11,-1,-1,13,-1,15,17,19,-1,-1,21,-1,-1,-1,-1,23,-1,25,27,-1,-1,-1,-1,-1],"loss_changes":[2.600013E3,2.3887439E2,3.1331665E1,1.0040741E1,3.8954224E1,1.27918415E1,0E0,0E0,3.1343613E0,0E0,1.3703735E1,2.4884152E0,6.499096E0,0E0,0E0,7.7354736E0,0E0,0E0,0E0,0E0,3.1004066E0,0E0,4.054226E0,4.8327732E-1,0E0,0E0,0E0,0E0,0E0],"parents":[2147483647,0,0,1,1,2,2,3,3,4,4,5,5,8,8,10,10,11,11,12,12,15,15,20,20,22,22,23,23],"right_children":[2,4,6,8,10,12,-1,-1,14,-1,16,18,20,-1,-1,22,-1,-1,-1,-1,24,-1,26,28,-1,-1,-1,-1,-1],"split_conditions":[3.7951972E-3,1.8735362E-2,4.7366926E-3,1E0,1.4268903E-2,1E0,-1.8033935E-2,-1.5095175E-3,1E0,-8.233884E-3,2.9493969E-2,5.6196842E-3,2E0,-5.6987857E-3,-1.6580181E-2,3.3627213E-3,8.1374025E-4,-3.2501193E-3,5.989788E-3,-6.500555E-4,4.184232E-3,1.8356308E-2,1E0,1.9564578E-2,-1.6484179E-2,1.5189886E-2,5.315918E-3,-1.0547887E-2,-4.6628257E-3],"split_indices":[7,0,7,10,1,2,0,0,2,0,1,8,10,0,0,7,0,0,0,0,7,0,9,1,0,0,0,0,0],"split_type":[0,0,0,0,0,0,0,0,0,0,0,0,0,0,0,0,0,0,0,0,0,0,0,0,0,0,0,0,0],"sum_hessian":[9.533628E2,4.968E2,4.565628E2,3.0165136E1,4.6663483E2,4.041228E1,4.161505E2,8.249674E0,2.1915462E1,5.2438674E0,4.6139096E2,9.746742E0,3.066554E1,4.747342E0,1.716812E1,4.5664102E2,4.7499456E0,4.9986424E0,4.7481E0,4.7467093E0,2.591883E1,4.3743445E2,1.9206562E1,1.0479781E1,1.543905E1,9.711222E0,9.495341E0,4.738425E0,5.741356E0],"tree_param":{"num_deleted":"0","num_feature":"20","num_nodes":"29","size_leaf_vector":"1"}},{"base_weights":[-3.2836862E-4,1.5676947E0,-1.7061933E0,-1.1068285E0,1.7427082E0,-7.9946655E-1,-1.7839622E-2,-1.4960686E-3,-1.4452174E0,-8.166789E-3,1.7735351E0,1.9737587E-3,-1.0942507E0,-5.652382E-3,-1.6442398E-2,1.7909541E0,8.0702006E-4,-4.6103862E-1,-1.4884427E-2,1.8200248E-2,1.0720966E0,-1.2267041E-2,4.6202643E-3,1.50661E-2,5.2684224E-3],"categories":[],"categories_nodes":[],"categories_segments":[],"categories_sizes":[],"default_left":[0,0,0,0,0,0,0,0,0,0,0,0,0,0,0,0,0,0,0,0,0,0,0,0,0],"id":9,"left_children":[1,3,5,7,9,11,-1,-1,13,-1,15,-1,17,-1,-1,19,-1,21,-1,-1,23,-1,-1,-1,-1],"loss_changes":[2.551963E3,2.3461816E2,3.079541E1,9.871605E0,3.8291748E1,1.1355345E1,0E0,0E0,3.0801697E0,0E0,1.3470703E1,0E0,6.654503E0,0E0,0E0,7.598633E0,0E0,9.565484E0,0E0,0E0,3.990984E0,0E0,0E0,0E0,0E0],"parents":[2147483647,0,0,1,1,2,2,3,3,4,4,5,5,8,8,10,10,12,12,15,15,17,17,20,20],"right_children":[2,4,6,8,10,12,-1,-1,14,-1,16,-1,18,-1,-1,20,-1,22,-1,-1,24,-1,-1,-1,-1],"split_conditions":[3.7951972E-3,1.8735362E-2,4.6817935E-3,1E0,1.4268903E-2,1E0,-1.7839622E-2,-1.4960686E-3,1E0,-8.166789E-3,2.9493969E-2,1.9737587E-3,3E0,-5.652382E-3,-1.6442398E-2,3.3627213E-3,8.0702006E-4,1.7137393E-2,-1.4884427E-2,1.8200248E-2,1E0,-1.2267041E-2,4.6202643E-3,1.50661E-2,5.2684224E-3],"split_indices":[7,0,7,10,1,2,0,0,2,0,1,0,10,0,0,7,0,1,0,0,9,0,0,0,0],"split_type":[0,0,0,0,0,0,0,0,0,0,0,0,0,0,0,0,0,0,0,0,0,0,0,0,0],"sum_hessian":[9.5206354E2,4.9611655E2,4.5594696E2,3.01436E1,4.6597293E2,3.6907917E1,4.1903906E2,8.249591E0,2.189401E1,5.242303E0,4.6073065E2,8.498799E0,2.8409117E1,4.746664E0,1.7147346E1,4.559807E2,4.749932E0,1.1732366E1,1.667675E1,4.367852E2,1.9195522E1,6.233142E0,5.499223E0,9.701366E0,9.494156E0],"tree_param":{"num_deleted":"0","num_feature":"20","num_nodes":"25","size_leaf_vector":"1"}},{"base_weights":[-3.5764056E-4,1.5422127E0,-1.7051284E0,-1.0843846E0,1.717303E0,-9.0987223E-1,-1.7729692E-2,-1.4827413E-3,-1.405087E0,-8.55845E-3,1.7496134E0,1.5245865E-3,-1.2368617E0,-1.6772335E-2,-7.7257063E-3,1.7950745E0,8.3902234E-1,-6.651379E-1,-1.5380758E-2,1.8074358E-2,5.939422E-3,1.5495418E-2,1.2133752E-1,-1.3311034E-2,2.5877121E-3,9.189119E-3,-4.4937516E-3],"categories":[],"categories_nodes":[],"categories_segments":[],"categories_sizes":[],"default_left":[0,0,0,0,0,0,0,0,0,0,0,0,0,0,0,0,0,0,0,0,0,0,0,0,0,0,0],"id":10,"left_children":[1,3,5,7,9,11,-1,-1,13,-1,15,-1,17,-1,-1,19,21,23,-1,-1,-1,-1,25,-1,-1,-1,-1],"loss_changes":[2.505162E3,2.3185742E2,2.2800903E1,9.358528E0,4.0509644E1,1.3257811E1,0E0,0E0,2.7696533E0,0E0,1.7691406E1,0E0,3.9500923E0,0E0,0E0,5.4715576E0,1.2014212E1,7.5596986E0,0E0,0E0,0E0,0E0,6.325603E0,0E0,0E0,0E0,0E0],"parents":[2147483647,0,0,1,1,2,2,3,3,4,4,5,5,8,8,10,10,12,12,15,15,16,16,17,17,22,22],"right_children":[2,4,6,8,10,12,-1,-1,14,-1,16,-1,18,-1,-1,20,22,24,-1,-1,-1,-1,26,-1,-1,-1,-1],"split_conditions":[3.8872666E-3,1.8735362E-2,4.7366926E-3,1E0,1.4268903E-2,1E0,-1.7729692E-2,-1.4827413E-3,1.1709602E-2,-8.55845E-3,3.3627213E-3,1.5245865E-3,3E0,-1.6772335E-2,-7.7257063E-3,5.386417E-2,1E0,1.7137393E-2,-1.5380758E-2,1.8074358E-2,5.939422E-3,1.5495418E-2,2E0,-1.3311034E-2,2.5877121E-3,9.189119E-3,-4.4937516E-3],"split_indices":[7,0,7,10,1,2,0,0,0,0,7,0,10,0,0,0,9,1,0,0,0,0,10,0,0,0,0],"split_type":[0,0,0,0,0,0,0,0,0,0,0,0,0,0,0,0,0,0,0,0,0,0,0,0,0,0,0],"sum_hessian":[9.506313E2,4.991071E2,4.5152417E2,3.0866936E1,4.6824014E2,3.66233E1,4.1490088E2,8.249499E0,2.2617437E1,5.4905767E0,4.6274957E2,8.745257E0,2.7878044E1,1.4658698E1,7.9587393E0,4.398203E2,2.2929272E1,1.072655E1,1.7151493E1,4.3484045E2,4.979857E0,1.0939705E1,1.1989567E1,5.9773035E0,4.749247E0,4.7463717E0,7.2431955E0],"tree_param":{"num_deleted":"0","num_feature":"20","num_nodes":"27","size_leaf_vector":"1"}}]},"name":"gbtree"},"learner_model_param":{"base_score":"5E-1","boost_from_average":"1","num_class":"0","num_feature":"20","num_target":"1"},"objective":{"name":"binary:logistic","reg_loss_param":{"scale_pos_weight":"1"}}},"version":[2,1,1]}